{"actor_logstd": [-0.0027161187026649714, 0.0012514714617282152, 0.0039050038903951645], "shared.0.weight": [[0.027861053124070168, -0.04483749717473984, -0.04931860789656639, 0.12127989530563354, -0.015489188954234123, -0.0878014788031578, -0.04433291405439377, -0.03202284872531891, -0.144557923078537, -0.10174980014562607, -0.020578674972057343, 0.12549041211605072, 0.19584351778030396, 0.16817781329154968, -0.12318585067987442, -0.0002431946195429191, -0.06410962343215942, -0.10356764495372772, 0.019902540370821953, -0.02779158391058445, 0.036924801766872406, 0.08432970941066742, -0.05034291371703148, -0.1151980310678482, 0.108132004737854, 0.0853414237499237, -0.06216888129711151, -0.1063927710056305, 0.06438606977462769, -0.0512857660651207, -0.06535737961530685, -0.02514178864657879, 0.005159473046660423, 0.03207749128341675, 0.15837527811527252, 0.1794593185186386, 0.09282205253839493, 0.02347753942012787, -0.11753923445940018, -0.015235655941069126], [0.019234968349337578, -0.02286822535097599, -0.057306159287691116, 0.028312359005212784, 0.13116011023521423, -0.05630138888955116, 0.042179737240076065, 0.10312046855688095, -0.03376863896846771, 0.02616286091506481, 0.03214442729949951, -0.12674301862716675, 0.14147430658340454, -0.03494594991207123, -0.1325373351573944, 0.022864902392029762, 0.10315673053264618, 0.12646271288394928, 0.08101759105920792, -0.07771427184343338, -0.11531645059585571, -0.0655665472149849, 0.01582302711904049, -0.05601368099451065, 0.16726836562156677, 0.04369513317942619, 0.08852480351924896, -0.08245480060577393, 0.2190489023923874, 0.07262443751096725, 0.02044391818344593, 0.19022752344608307, 0.06413506716489792, -0.05517859011888504, 0.056089647114276886, 0.1669466346502304, 0.025500716641545296, -0.06267666071653366, 0.04732132703065872, -0.18164828419685364], [-0.011003988794982433, -0.09425456076860428, -0.001124404021538794, -0.1989220380783081, -0.021173417568206787, 0.04468970373272896, 0.027895169332623482, 0.0733499526977539, 0.004367297515273094, -0.08008785545825958, -0.022210178896784782, 0.05639079958200455, 0.09344501048326492, -0.18157991766929626, -0.11525489389896393, -0.01514261495321989, 0.15340271592140198, 0.05676225200295448, -0.07264146953821182, -0.10408242046833038, -0.12213446199893951, 0.02259570173919201, 0.014780867844820023, 0.21320831775665283, -0.06511841714382172, -0.027244465425610542, 0.0769769623875618, 0.01993577554821968, 1.037752917909529e-05, -0.1856055110692978, 0.11638353765010834, -0.07444039732217789, 0.1341375708580017, 0.14271697402000427, 0.15372920036315918, -0.10032468289136887, -0.0506180003285408, 0.012584060430526733, -0.1489769071340561, 0.003825671970844269], [0.06670939177274704, -0.006796977948397398, -0.11097494512796402, 0.12526749074459076, 0.1462235152721405, 0.22594505548477173, 0.05785522982478142, 0.10638082772493362, 0.05838046967983246, 0.017492778599262238, -0.07194343954324722, -0.05208630487322807, 0.13921689987182617, -0.1393386870622635, 0.029067551717162132, 0.06476256996393204, 0.006305340677499771, 0.053453270345926285, -0.05613712593913078, 0.05311782658100128, -0.05542542412877083, 0.08241207897663116, 0.165176123380661, -0.10097616910934448, 0.024641266092658043, -0.027382127940654755, -0.029299942776560783, 0.18135154247283936, -0.26736679673194885, -0.0019183491822332144, -0.11413279175758362, -0.00531262019649148, 0.15608304738998413, 0.09698532521724701, -0.05538429319858551, 0.05374592915177345, 0.015175667591392994, -0.11066094040870667, -0.015487084165215492, 0.0428394079208374], [0.015470822341740131, 0.09525683522224426, -0.11136069893836975, -0.02736019715666771, 0.07762179523706436, -0.1377052515745163, -0.1030409187078476, -0.0912468209862709, -0.058668192476034164, 0.015476137399673462, 0.01215878501534462, 0.04769382253289223, 0.16214799880981445, -0.08198728412389755, 0.0745551735162735, 0.15721964836120605, 0.10423378646373749, -0.04327130317687988, -0.07692175358533859, -0.017395436763763428, 0.031077507883310318, 0.24650757014751434, 0.01291387714445591, 0.032903824001550674, 0.15683670341968536, -0.008804410696029663, 0.05227731168270111, -0.07560878247022629, 0.08105442672967911, 0.060780901461839676, 0.14802035689353943, 0.0828079804778099, 0.06245497614145279, -0.022591473534703255, -0.05922912433743477, -0.12890802323818207, 0.07362499088048935, -0.05340532958507538, 0.10953225940465927, 0.012850435450673103], [0.1471417397260666, 0.04012240841984749, 0.09444034844636917, -0.045722778886556625, -0.06693672388792038, -0.09911929070949554, -0.006110925693064928, -0.006660612300038338, -0.15552330017089844, -0.022064248099923134, -0.19685722887516022, 0.13292592763900757, -0.14396832883358002, -0.009758757427334785, 0.0515257753431797, -0.11714668571949005, -0.00382718606851995, 0.0799800381064415, -0.13709047436714172, -0.058398324996232986, -0.156195729970932, -0.13812069594860077, -0.00036389194428920746, -0.15249091386795044, -0.004351763520389795, 0.09433289617300034, 0.12570707499980927, 0.06517874449491501, -0.13711506128311157, 0.0013082822551950812, -0.17802274227142334, 0.12268976122140884, 0.02751615084707737, 0.030769219622015953, -0.11331967264413834, 0.0018329992890357971, -0.013550620526075363, 0.002943701110780239, -0.05952053144574165, -0.016657691448926926], [0.009633181616663933, -0.027716120705008507, -0.0519971065223217, -0.0687149167060852, 0.046779852360486984, -0.01806379109621048, 0.031923819333314896, 0.05792323499917984, -0.06540754437446594, -0.009780452586710453, 0.031255193054676056, 0.0451427660882473, 0.10667280852794647, 0.08332411199808121, -0.09010697156190872, -0.07799520343542099, -0.07833535969257355, 0.061895906925201416, -0.09823200851678848, -0.052342817187309265, -0.1379844695329666, -0.056136418133974075, -0.024762218818068504, 0.2880992889404297, -0.014836655929684639, 0.015412735752761364, 0.03130583092570305, -0.1178022027015686, -0.0521109439432621, 0.12735022604465485, 0.016005026176571846, 0.09087993204593658, 0.05408019572496414, -0.015429339371621609, -0.07826977968215942, -0.06681688874959946, -0.015861714258790016, 0.24642229080200195, -0.042715076357126236, 0.12228033691644669], [-0.01964663341641426, 0.0640612244606018, 0.04209841787815094, -0.050799302756786346, 0.0475722961127758, 0.04313889890909195, -0.060514409095048904, 0.002368615008890629, 0.10663583129644394, -0.12766195833683014, 0.012386491522192955, 0.048485320061445236, -0.014445798471570015, 0.09096308797597885, -0.0697396993637085, -0.22532996535301208, -0.04626411199569702, -0.09600763022899628, -0.16072013974189758, -0.07720541954040527, 0.1367979347705841, -0.09306183457374573, 0.22233210504055023, 0.04185900464653969, 0.04000430926680565, 0.2221873253583908, -0.10245104134082794, -0.031482402235269547, 0.10066094994544983, 0.11116272956132889, 0.09535544365644455, 0.10476453602313995, 0.10120417177677155, 0.06069742888212204, -0.0036511130165308714, 0.008806943893432617, -0.09361687302589417, -0.040299464017152786, 0.007860214449465275, 0.058143872767686844], [-0.0899186059832573, 0.10205377638339996, -0.033163368701934814, 0.05466054379940033, -0.04863918572664261, 0.15935572981834412, -0.08235263079404831, -0.03916589543223381, -0.007219316437840462, -0.01085253618657589, -0.025070102885365486, -0.07824688404798508, 0.07357347011566162, 0.08918499201536179, -0.09654729813337326, 0.03226255252957344, 0.03300158679485321, -0.08739785850048065, 0.0008692573173902929, -0.1020643338561058, 0.05837026610970497, 0.06708238273859024, 0.009249464608728886, -0.10890122503042221, -0.034563012421131134, -0.006882385350763798, -0.04259185492992401, -0.017353806644678116, 0.08482525497674942, 0.02257513999938965, 0.053143344819545746, -0.04615382105112076, 0.08114823698997498, -0.021592438220977783, 0.13883180916309357, 0.022827783599495888, 0.056141577661037445, 0.01990545354783535, 0.03903365507721901, 0.007101309951394796], [-0.10040316730737686, 0.10004305094480515, -0.011894580908119678, 0.16388952732086182, -0.13361714780330658, -0.02126718871295452, 0.062433209270238876, -0.11301468312740326, 0.012565379962325096, -0.12781377136707306, 0.007681856397539377, 0.0480269193649292, -0.029805919155478477, -0.12091998755931854, -0.11291473358869553, -0.12904596328735352, 0.10173910111188889, 0.07161636650562286, -0.019105566665530205, 0.026348968967795372, 0.05861273035407066, -0.0586855486035347, 0.01929793879389763, -0.09747208654880524, 0.137542724609375, 0.1622992753982544, 0.00013863283675163984, -0.13256675004959106, -0.06734438985586166, 0.22843484580516815, 0.16094952821731567, -0.02986496314406395, 0.010569438338279724, 0.06358014047145844, 0.1587321013212204, -0.03527171537280083, -0.22765466570854187, 0.1154235303401947, -0.008722752332687378, -0.16968686878681183], [0.0006483412580564618, 0.08975692093372345, 0.10011908411979675, 0.07237890362739563, 0.08055061101913452, -0.14088883996009827, -0.1282169371843338, -0.15218138694763184, 0.03747811168432236, 0.10907825827598572, 0.04179302603006363, 0.01009899191558361, -0.12452764064073563, -0.1137203648686409, 4.80761518701911e-05, 0.14966590702533722, -0.008878126740455627, 0.030123595148324966, 0.027680546045303345, -0.09556996822357178, -0.10573329031467438, -0.0794920027256012, 0.10272568464279175, 0.024118702858686447, 0.09717538207769394, -0.03854406252503395, 0.009572437964379787, -0.13982273638248444, 0.04570027068257332, -0.025107482448220253, 0.1328195035457611, -0.09705094248056412, 0.07417982071638107, -0.1047491729259491, 0.11538449674844742, -0.13317161798477173, 0.1592446118593216, -0.07595432549715042, -0.08915259689092636, -0.0683593824505806], [0.051719605922698975, -0.13782937824726105, 0.005753048229962587, -0.09606929868459702, -0.0032221609726548195, -0.12192214280366898, 0.15390071272850037, 0.09086709469556808, -0.1494949907064438, -0.08006227761507034, -0.0354648157954216, 0.12368473410606384, 0.08318619430065155, -0.04142071679234505, 0.03916642442345619, 0.12286116927862167, 0.01369016058743, -0.052766136825084686, 0.18604882061481476, -0.11685353517532349, 0.0665493756532669, -0.06498304009437561, 0.06831121444702148, 0.0322701595723629, -0.025611015036702156, -0.06655436754226685, -0.1227673813700676, 0.07849397510290146, -0.05008261278271675, 0.06045418977737427, 0.0009951521642506123, 0.03993019461631775, 0.008407733403146267, -0.00042829298763535917, 0.049225810915231705, 0.10818926990032196, 0.0026086587458848953, -0.14034156501293182, 0.012207034975290298, 0.11003536731004715], [-0.10963181406259537, -0.1272045224905014, 0.00289947260171175, 0.019113551825284958, 0.010848830454051495, -0.09854858368635178, -0.06381028145551682, -0.10573754459619522, 0.04249581694602966, 0.15911000967025757, -0.08793092519044876, -0.05405007302761078, 0.06620064377784729, -0.16964633762836456, 0.23086895048618317, -0.04387340694665909, -0.03491101786494255, 0.0716066062450409, -0.11998912692070007, 0.06585314869880676, -0.12461645901203156, 0.11096785962581635, 0.172976553440094, 0.06185212358832359, -0.0354829765856266, 0.10489103198051453, 0.11301320791244507, 0.04710493981838226, 0.0013479351764544845, -0.10596238076686859, 0.07357501238584518, -0.05402161180973053, -0.061484891921281815, 0.18439753353595734, 0.023552080616354942, 0.01334464643150568, -0.02908867411315441, 0.10714453458786011, 0.0700126364827156, 0.1254061460494995], [-0.00039455771911889315, 0.14174579083919525, -0.041431915014982224, -0.1381249725818634, -0.15163664519786835, -0.03325926139950752, 0.029042353853583336, -0.059228505939245224, 0.009240521118044853, -0.1163945272564888, -0.02763790637254715, 0.15233661234378815, -0.022462360560894012, 0.07192864269018173, -0.030434435233473778, -0.06920330226421356, 0.04570334032177925, -0.03815014287829399, 0.1365686058998108, 0.12493649870157242, -0.07762260735034943, 0.10323388874530792, 0.055098168551921844, -0.008118560537695885, 0.001113723497837782, -0.0423920638859272, 0.03194228187203407, -0.17336584627628326, -0.06504376977682114, 0.04783886298537254, 0.06956358253955841, -0.005256973206996918, 0.06036417931318283, 0.09342708438634872, -0.06996005028486252, 0.010825831443071365, 0.031207922846078873, -0.08220310509204865, 0.15792207419872284, -0.06050818786025047], [-0.0011522496351972222, 0.16296590864658356, -0.044589437544345856, 0.002900795079767704, 0.11191008239984512, 0.07136382162570953, 0.029038187116384506, 0.0034137177281081676, -0.10366298258304596, 0.0014715815195813775, -0.16291631758213043, 0.06782586127519608, 0.033324141055345535, -0.028698738664388657, -0.18070372939109802, 0.014051665551960468, 0.1712116301059723, -0.019940560683608055, 0.10664493590593338, 0.05887991562485695, 0.07204891741275787, -0.0043512680567801, 0.06194141134619713, 0.038661375641822815, 0.009491628035902977, -0.12628203630447388, -0.03270513564348221, 0.04916452616453171, -0.03437676653265953, 0.042673882097005844, 0.07811396569013596, 0.07939687371253967, -0.14862185716629028, -0.01908803917467594, -0.04535932093858719, -0.14662542939186096, -0.055651403963565826, 0.1629715859889984, 0.03985026478767395, 0.16524498164653778], [0.015188833698630333, 0.09790225327014923, 0.05315140634775162, 0.04816768318414688, 0.030919786542654037, 0.0725712850689888, -0.01782905124127865, -0.010795856826007366, 0.030109016224741936, 0.07780176401138306, -0.12960782647132874, 0.043805498629808426, 0.19854749739170074, 0.027404632419347763, 0.2861737310886383, 0.0663776695728302, 0.004019928630441427, 0.009518341161310673, 0.06256314367055893, -0.09193100780248642, 0.07466346770524979, -0.10690521448850632, 0.2538083493709564, 0.05666801333427429, -0.005785391200333834, -0.061533305794000626, -0.05255303531885147, 0.02317122556269169, 0.11100643873214722, 0.07046929001808167, 0.08477897197008133, -0.039835475385189056, -0.07002993673086166, -0.06531991809606552, 0.10402806848287582, 0.19106712937355042, 0.04494331404566765, -0.1077413558959961, 0.0372784398496151, -0.008417322300374508], [-0.04181599244475365, 0.08750136941671371, 0.018320845440030098, 0.03951261565089226, -0.12557806074619293, -0.03141218051314354, 0.09411703795194626, -0.22532732784748077, 0.020023688673973083, 0.08584650605916977, -0.1369970440864563, 0.08281098306179047, -0.009909684769809246, 0.04817337915301323, -0.13948912918567657, 0.15041476488113403, -0.10266082733869553, -0.016025137156248093, -0.025019675493240356, 0.0031504901126027107, -0.14373981952667236, -0.017259899526834488, -0.12157496064901352, 0.03593499958515167, 0.09977486729621887, -0.1033238098025322, -0.03850521147251129, -0.18912529945373535, -0.12161671370267868, 0.02917405776679516, -0.22598141431808472, 0.09637729078531265, -0.029699208214879036, -0.00038643943844363093, 0.003402994479984045, 0.0436527244746685, -0.0993395522236824, 0.026683161035180092, -0.018540779128670692, -0.0067709656432271], [0.027464229613542557, -0.07437007874250412, 0.05307703837752342, 0.0767764076590538, -0.017813632264733315, 0.14972472190856934, -0.04319234564900398, 0.16795893013477325, -0.006203366909176111, -0.23953406512737274, 0.04586543142795563, -0.14165455102920532, 0.012236651964485645, 0.15566080808639526, 0.008397331461310387, 0.004055531695485115, -0.10521446168422699, -0.013626660220324993, -0.07963304966688156, 0.0011243853950873017, 0.1064407080411911, -0.00819351151585579, -0.04390213266015053, -0.0754067674279213, -0.04040829464793205, -0.03794911503791809, -0.03768056258559227, -0.07461635023355484, 0.12620443105697632, -0.06318271160125732, -0.09635620564222336, -0.149835005402565, 0.04582257568836212, 0.03320726007223129, 0.1875201314687729, 0.0533788688480854, 0.08155413717031479, 0.08846020698547363, 0.11554082483053207, 0.1389908343553543], [-0.16859601438045502, 0.1693544238805771, -0.1620292067527771, 0.024202045053243637, -0.13834437727928162, 0.057334426790475845, 0.07905970513820648, 0.05815534666180611, -0.031686700880527496, -0.08635301887989044, 0.042302440851926804, 0.18232330679893494, 0.01445253286510706, -0.18079279363155365, -0.008122656494379044, 0.009286342188715935, 0.042334966361522675, -0.04703794792294502, -0.01583978533744812, 0.06938658654689789, 0.20026226341724396, -0.011830691248178482, 0.0066850208677351475, -0.08297804743051529, 0.05167249217629433, 0.0039044483564794064, 0.027894822880625725, 0.07718375325202942, -0.07818499207496643, -0.11807553470134735, -0.03927364572882652, 0.11591585725545883, 0.053123731166124344, -0.17033758759498596, -0.08014470338821411, -0.09840740263462067, 0.027753805741667747, 0.06625375151634216, -0.015865137800574303, 0.029137544333934784], [-0.027382463216781616, 0.046662937849760056, -0.004169675521552563, -0.04159243032336235, 0.09198243916034698, 0.13782574236392975, -0.17170648276805878, 0.028429562225937843, 0.03188818693161011, 0.0750318095088005, -0.17052751779556274, -0.08335773646831512, 0.07068994641304016, 0.04903356730937958, -0.15694911777973175, -0.009544643573462963, 0.03932137414813042, -0.06898362934589386, 0.18587826192378998, 0.037560660392045975, -0.07966770231723785, 0.1338585913181305, -0.09952486306428909, 0.08710525184869766, 0.05937711149454117, 0.012602542527019978, 0.15993386507034302, -0.03538619354367256, -0.1128602921962738, -0.0034871683456003666, 0.1566551923751831, -0.02362770028412342, 0.022147560492157936, 0.04971081763505936, -0.025925911962985992, -0.019371602684259415, -0.05835889279842377, -0.03393065929412842, -0.053094007074832916, 0.03732755780220032], [0.1596054583787918, 0.03681730106472969, -0.004945314023643732, 0.1875741183757782, -0.10704159736633301, 0.016087690368294716, -0.07816047966480255, -0.01095110084861517, 0.019873788580298424, 0.05591501295566559, 0.07046009600162506, -0.08840815722942352, 0.040807418525218964, 0.0034626673441380262, -0.12988974153995514, 0.14863178133964539, 0.07759550213813782, -0.06250324100255966, 0.06803902983665466, -0.03297961875796318, 0.05951999872922897, -0.0018942940514534712, -0.018739383667707443, -0.0010265576420351863, 0.03872750326991081, -0.12728385627269745, -0.07499223202466965, -0.03914006054401398, 0.13053643703460693, -0.11858445405960083, 0.09195712208747864, 0.12336807698011398, -0.0335301049053669, 0.16546811163425446, 0.03717656061053276, 0.006616883911192417, 0.08879660069942474, 0.1972447782754898, -0.0323091559112072, 0.07031111419200897], [-0.09453412145376205, 0.014553345739841461, 0.1594752073287964, -0.09681633114814758, 0.031620778143405914, 0.20138897001743317, -0.012624413706362247, -0.05537721887230873, -0.03407201170921326, 0.010249471291899681, -0.09730427712202072, -0.0457119345664978, -0.004166269674897194, 0.0416545644402504, 0.10867991298437119, -0.22304241359233856, -0.036295242607593536, -0.035285964608192444, -0.04904652759432793, -0.003822077764198184, 0.07916366308927536, 0.028190841898322105, -0.10350802540779114, -0.01702640764415264, 0.15416531264781952, 0.039752792567014694, -0.0623183511197567, -0.12391883134841919, 0.0979083925485611, -0.14037677645683289, -0.08538239449262619, 0.07026056200265884, 0.007533987518399954, -0.12458549439907074, 0.09314748644828796, 0.00956822745501995, -0.024242296814918518, -0.12651591002941132, 0.138014018535614, 0.10945327579975128], [0.09555980563163757, 0.18121157586574554, 0.007077380549162626, 0.008703597821295261, 0.09603602439165115, -0.11245648562908173, 0.13756947219371796, -0.0847168117761612, 0.03351438790559769, 0.015206967480480671, -0.035579800605773926, 0.10398570448160172, 0.026319148018956184, 0.08447100222110748, -0.05833273380994797, -0.07986713945865631, -0.015741413459181786, 0.10674978047609329, 0.23141011595726013, -0.010065813548862934, -0.05030830204486847, 0.016523290425539017, -0.05506003648042679, 0.001244006329216063, 0.04940289258956909, -0.10548834502696991, -0.016086459159851074, 0.17261812090873718, 0.0680001750588417, 0.01697509177029133, 0.04259113967418671, 0.06096740812063217, 0.0006472860113717616, -0.026924733072519302, -0.08014857023954391, -0.10792606323957443, -0.01759091578423977, 0.18596483767032623, 0.06099115312099457, -0.03748249262571335], [0.020345307886600494, -0.03556795418262482, 0.014157768338918686, 0.1356106847524643, 0.030488308519124985, 0.007449793629348278, -0.03235622122883797, 0.027090832591056824, 0.054576095193624496, -0.03520606830716133, 0.14735914766788483, -0.12847478687763214, 0.03876558691263199, -0.18735907971858978, -0.18730776011943817, -0.2720722258090973, 0.034104689955711365, 0.10620346665382385, -0.038956042379140854, 0.02914956584572792, -0.080509252846241, 0.041333407163619995, -0.09271983057260513, -0.17318786680698395, -0.08916148543357849, -0.14224722981452942, 0.061149317771196365, 0.028322981670498848, -0.11061468720436096, -0.04563092812895775, 0.04085464030504227, -0.06040027737617493, 0.11491521447896957, 0.08029196411371231, 0.10732144862413406, 0.25377270579338074, 0.04232128709554672, 0.008286564610898495, 0.10250110924243927, 0.06611458212137222], [0.014552229084074497, 0.009513484314084053, 0.06836710125207901, -0.03443104773759842, 0.01841697469353676, -0.046169742941856384, 0.02506362460553646, -0.25420325994491577, -0.04195794090628624, -0.06622829288244247, -0.08647657185792923, 0.002327601658180356, 0.06456445157527924, -0.08226171880960464, -0.19282791018486023, 0.16709482669830322, 0.07537274807691574, -0.03854925557971001, -0.014908007346093655, 0.037738122045993805, -0.07272898405790329, 0.1640404462814331, -0.18788807094097137, 0.027926720678806305, 0.04061761125922203, 0.09089232236146927, 0.032491717487573624, 0.03191973641514778, 0.05317620933055878, 0.2069104015827179, -0.003390600671991706, 0.14454379677772522, 0.06393880397081375, 0.14408430457115173, -0.04071199893951416, -0.059278786182403564, -0.05055924877524376, -0.0035533595364540815, -0.017836254090070724, 0.050096284598112106], [0.23072579503059387, -0.0033743393141776323, -0.12277248501777649, -0.06962665170431137, 0.015375138260424137, 0.10859759896993637, 0.09051817655563354, 0.021143490448594093, 0.027782147750258446, -0.017359953373670578, 0.0821736603975296, -0.06205480918288231, 0.06554589420557022, -0.11215348541736603, 0.03367691859602928, 0.010249056853353977, -0.2178972363471985, 0.09255625307559967, -0.10920373350381851, 0.037041231989860535, -0.19578438997268677, 0.0704648345708847, 0.008137838914990425, 0.00915814284235239, -0.06412330269813538, -0.09236851334571838, -0.05026691034436226, -0.06487137079238892, -0.013498017564415932, -0.04306233674287796, -0.004552478436380625, -0.033923327922821045, -0.010294994339346886, 0.005920905154198408, 0.10493926703929901, 0.014820272102952003, -0.05072939395904541, 0.01859351433813572, 0.050675854086875916, -0.1306229531764984], [0.025848155841231346, -0.014039726927876472, -0.11079052835702896, -0.13481688499450684, -0.129155233502388, -0.011199213564395905, -0.07822754234075546, -0.13149242103099823, 0.20812992751598358, -0.14718250930309296, -0.13924378156661987, -0.01793162152171135, 0.08593090623617172, 0.0719703808426857, 0.0009634601301513612, -0.11720554530620575, -0.053379762917757034, -0.0015486259944736958, -0.014071857556700706, 0.07613956183195114, -0.005129691679030657, -0.007196556311100721, -0.026308458298444748, 0.0828486904501915, 0.12391946464776993, -0.16822408139705658, 0.10862691700458527, -0.15329648554325104, 0.08431932330131531, 0.11590148508548737, 0.12777188420295715, -0.032229114323854446, -0.019401932135224342, 0.0018357086228206754, 0.024199772626161575, 0.0354507714509964, 0.09816017001867294, -0.11176186054944992, -0.046571843326091766, 0.04101287201046944], [-0.09707365930080414, 0.029868315905332565, -0.029120801016688347, 0.07727348804473877, -0.0862150564789772, -0.05902380496263504, -0.11413170397281647, 0.11134300380945206, -0.06726713478565216, 0.12914013862609863, -0.20835714042186737, 0.10640191286802292, -0.06178755685687065, 0.043952710926532745, -0.08392196148633957, -0.0038648962508887053, -0.08334805816411972, 0.09393992274999619, 0.0336231030523777, 0.200309619307518, 0.0814468264579773, 0.034943725913763046, 0.06451364606618881, 0.10624179244041443, -0.03293101117014885, -0.10345575958490372, -0.04169940575957298, 0.042021580040454865, 0.07862570136785507, 0.1017535999417305, -0.0492141991853714, 0.016840675845742226, 0.14520177245140076, 0.20105765759944916, -0.03394721448421478, 0.1652825027704239, -0.004964748863130808, 0.056309204548597336, -0.049277715384960175, 0.01066287886351347], [0.03587021678686142, -0.009282587096095085, 0.05475589260458946, 0.09732656925916672, -0.050355203449726105, 0.01638508215546608, -0.03380148485302925, 0.009292895905673504, -0.026842933148145676, -0.10074113309383392, -0.0029867154080420732, -0.05546903237700462, 0.14765794575214386, 0.0484292171895504, -0.022696619853377342, 0.03770533576607704, -0.12300300598144531, 0.05572407692670822, 0.15539902448654175, -0.1366882473230362, -0.002179194940254092, 0.09935390949249268, -0.035893019288778305, -0.07926565408706665, -0.03320414945483208, 0.015123909339308739, 0.0379737988114357, 0.04724431037902832, -0.02603183127939701, -0.06842214614152908, -0.06506982445716858, -0.02985953539609909, 0.043690335005521774, -0.03293187543749809, -0.024511007592082024, -0.054265692830085754, -0.004534963984042406, 0.10807869583368301, -0.09064231812953949, -0.07794550061225891], [0.14260436594486237, -0.05924560874700546, -0.03086118772625923, 0.07988288253545761, -0.0693480595946312, -0.02160264179110527, -0.13312649726867676, -0.15039889514446259, -0.0665101706981659, 0.028766965493559837, -0.08921517431735992, -0.0350063256919384, 0.08722288906574249, 0.03362414985895157, 0.06704994291067123, 0.05051610991358757, -0.02568562515079975, -0.047760993242263794, 0.0631675198674202, 0.03021957352757454, 0.05781209468841553, -0.09956541657447815, -0.18200117349624634, 0.13346605002880096, -0.10035434365272522, 0.1349336802959442, 0.018851226195693016, 0.0684221088886261, -0.028649870306253433, 0.04951760545372963, -0.03413373604416847, 0.04471145197749138, 0.06122363731265068, -0.10070310533046722, 0.12800021469593048, 0.011917558498680592, 0.05072447285056114, 0.058671534061431885, 0.1521081030368805, 0.04509880766272545], [-0.014776923693716526, 0.08481208980083466, -0.07371946424245834, 0.11510854959487915, 0.061488375067710876, -0.00975854229182005, 0.0016255694208666682, 0.009621693752706051, -0.0037326361052691936, -0.01869591698050499, -0.034221552312374115, 0.03266650065779686, 0.045879609882831573, -0.03341264650225639, -0.0964898094534874, 0.05507722496986389, 0.03516339510679245, 0.0352553054690361, 0.017730873078107834, -0.10781236737966537, -0.11439565569162369, -0.10757236927747726, -0.05373213067650795, 0.08285962045192719, 0.017738239839673042, 0.21941928565502167, -0.06496349722146988, 0.05497073382139206, -0.012951815500855446, -0.02510693483054638, 0.06701129674911499, 0.044679272919893265, 0.011107205413281918, -0.014599667862057686, -0.0026275175623595715, -0.03631730377674103, 0.1107647642493248, 0.015190176665782928, -0.08246035128831863, 0.1531621664762497], [-0.03405408188700676, 0.043251462280750275, 0.10473240166902542, -0.017718736082315445, 0.040401868522167206, -0.012392490170896053, 0.04973946139216423, 0.05873057246208191, 0.06831355392932892, -0.09287118166685104, -0.27847740054130554, 0.05634693428874016, 0.09789333492517471, -0.06779341399669647, -0.05315651744604111, -0.1837819367647171, -0.02210845984518528, 0.12411019206047058, 0.05585988238453865, -0.1296221911907196, 0.11038242280483246, -0.029316112399101257, 0.087739959359169, -0.1345861554145813, 0.10039173811674118, 0.2643132209777832, 0.1513572633266449, -0.0737069845199585, 0.02966739796102047, 0.1025964692234993, 0.0523420013487339, -0.1762910932302475, 0.13762317597866058, -0.1586754471063614, -0.03076433204114437, -0.028374191373586655, 0.13418978452682495, 0.039748143404722214, 0.11069153249263763, -0.05661815032362938], [0.15613031387329102, 0.029515007510781288, 0.03630951792001724, 0.09723709523677826, -0.060173820704221725, -0.17837902903556824, 0.11196524649858475, 0.0097412820905447, 0.11567115038633347, 0.11470171809196472, -0.028067734092473984, -0.0043501039035618305, -0.13534289598464966, 0.012154831551015377, -0.023397106677293777, 0.08871044963598251, -0.03892134130001068, 0.08834834396839142, -0.003928566817194223, -0.01131447497755289, 0.09467412531375885, 0.035390838980674744, 0.03181694075465202, -0.20503798127174377, -0.06533731520175934, -0.09885911643505096, -0.03803649917244911, -0.070743627846241, 0.02162163518369198, 0.08016285300254822, 0.07623640447854996, -0.10220563411712646, -0.06714244931936264, -0.0830906555056572, 0.018833400681614876, -0.06649817526340485, 0.06502414494752884, -0.18494011461734772, -0.19353550672531128, 0.1787714958190918], [0.0941053181886673, 0.025218253955245018, 0.05915210396051407, -0.04532717168331146, 0.1789899617433548, 0.09102287143468857, 0.017667407169938087, -0.14503243565559387, -0.041889045387506485, 0.0016013240674510598, -0.07842221856117249, 0.06907603144645691, -0.04813447594642639, 0.05585349351167679, 0.06582178920507431, -0.032738249748945236, -0.06345859169960022, -0.08317514508962631, 0.009019341319799423, 0.004679663106799126, 0.1292034536600113, -0.02663390524685383, 0.03099927492439747, -0.06672940403223038, -0.1347053200006485, 0.06852761656045914, -0.06800004094839096, 0.01193296816200018, 0.03389611095190048, -0.06372123956680298, -0.013647647574543953, 0.08155608922243118, 0.07741912454366684, -0.1205388680100441, -0.02810847759246826, -0.1490757167339325, 0.11340777575969696, 0.1231415718793869, -0.2667901813983917, -0.047600261867046356], [0.13320569694042206, -0.03774142265319824, -0.15168195962905884, 0.05715291574597359, -0.010568837635219097, 0.0786537453532219, -0.017653917893767357, -0.05960751324892044, -0.056566547602415085, -0.10466638207435608, 0.13308492302894592, -0.0788702517747879, -0.05551173910498619, 0.0904679000377655, 0.012543641962110996, 0.11522294580936432, -0.14982447028160095, 0.09316840767860413, -0.02995702251791954, -0.045139968395233154, -0.13554348051548004, 0.10757236927747726, 0.1168174147605896, 0.026634197682142258, -0.16528582572937012, -0.014133820310235023, 0.18125447630882263, -0.06932136416435242, -0.061088789254426956, 0.06806892156600952, 0.012714219279587269, 0.10734572261571884, -0.008047446608543396, 0.006381543818861246, -0.09021686762571335, 0.19223284721374512, -0.10168353468179703, -0.04241156578063965, -0.07146096974611282, 0.06843258440494537], [0.18385468423366547, 0.020449930801987648, -0.027250800281763077, -0.05946056544780731, 0.06327691674232483, 0.006119607016444206, 0.05082113668322563, 0.07470488548278809, -0.05177011713385582, 0.059858277440071106, -0.038882672786712646, 0.05427844077348709, 0.027609797194600105, -0.05842104181647301, 0.040700752288103104, -0.156762033700943, 0.17311352491378784, -0.062455419450998306, 0.06963427364826202, 0.10290714353322983, -0.005687174387276173, -0.023624520748853683, 0.005973088089376688, 0.056252993643283844, -0.004629008937627077, 0.014250649139285088, 0.03270656615495682, -0.1728438287973404, 0.04165015369653702, -0.04270651564002037, 0.0430462546646595, 0.012810183688998222, -0.04508471488952637, -0.11820647120475769, 0.03925285115838051, 0.090934157371521, -0.09905293583869934, 0.17036937177181244, -0.006208048667758703, -0.0021907109767198563], [0.024541305378079414, 0.03138674050569534, 0.012415878474712372, 0.08235207200050354, -0.12504343688488007, 0.14822961390018463, -0.011647266335785389, 0.01153901033103466, -0.14357303082942963, -0.15742714703083038, -0.037317030131816864, -0.03693743422627449, -0.07755854725837708, -0.1556299775838852, -0.041594672948122025, -0.013801871798932552, -0.15606991946697235, 0.12532873451709747, 0.041554853320121765, -0.16038820147514343, -0.012239797972142696, -0.12680527567863464, 0.007460049819201231, 0.11368093639612198, 0.0802232027053833, -0.07838130742311478, -0.06676892191171646, 0.07434707880020142, 0.018827704712748528, 0.052654556930065155, 0.0009111975668929517, 0.052164770662784576, 0.035604868084192276, -0.15802234411239624, -0.09656412154436111, 0.09470754861831665, 0.0029388333205133677, -0.167672261595726, -0.07716723531484604, -0.04184750095009804], [-0.0928664430975914, 0.015128773637115955, -0.13669951260089874, -0.04852081090211868, 0.03759147971868515, -0.19217869639396667, -0.00756274675950408, 0.060448698699474335, -0.05859152227640152, -0.18548928201198578, -0.01992623507976532, -0.010058771818876266, 0.14948610961437225, -0.01902000792324543, -0.151063933968544, 0.019633552059531212, 0.09876864403486252, -0.15433357656002045, -0.034364450722932816, -0.12350951135158539, 0.060023337602615356, 0.01787068322300911, -0.020949386060237885, 0.06099194660782814, 0.00831279531121254, -0.016341181471943855, -0.03677542135119438, 0.05574047937989235, -0.058991432189941406, -0.04675872623920441, -0.1676507145166397, -0.04389646276831627, -0.09783914685249329, -0.0418640598654747, -0.02837570756673813, -0.024431658908724785, 0.03436217084527016, -0.0698760375380516, -0.044871002435684204, -0.04343407601118088], [0.027684073895215988, -0.065975122153759, 0.14415644109249115, 0.07353705167770386, -0.10064653307199478, 0.0930967703461647, -0.029333511367440224, -0.08287119120359421, -0.11437738686800003, -0.025662772357463837, -0.08093781769275665, 0.016662830486893654, 0.1252513825893402, 0.08794643729925156, 0.03165711462497711, 0.055987417697906494, -0.1375054121017456, 0.10475160926580429, 0.012257668189704418, 0.1171940341591835, 0.10439629852771759, -0.07984823733568192, -0.009139440953731537, -0.05370361730456352, 0.06803703308105469, 0.023476727306842804, 0.015721214935183525, 0.02312358282506466, -0.02390502206981182, -0.06346312910318375, -0.042544566094875336, 0.03534851595759392, -0.1692858636379242, 0.014448142610490322, -0.11265578120946884, 0.03167051449418068, 0.03828715905547142, 0.1050417348742485, 0.09954503178596497, 0.09155335277318954], [-0.031197907403111458, 0.09922771900892258, 0.08164191246032715, -0.12445565313100815, -0.0341796837747097, 0.015330386348068714, -0.06537269055843353, 7.585891580674797e-05, 0.2157793641090393, 0.1260409653186798, -0.007182369939982891, 0.09699102491140366, 0.01329916063696146, -0.019864020869135857, 0.04390996694564819, -0.0640539601445198, -0.06435301899909973, -0.004365001805126667, -0.07148270308971405, -0.0038006973918527365, -0.03266066685318947, -0.06198159232735634, -0.007479426916688681, 0.027478571981191635, -0.08252458274364471, -0.1509895622730255, -0.11699467897415161, -0.1574225276708603, -0.08545050770044327, 0.014287550002336502, 0.0767250582575798, -0.15579351782798767, 0.05265530198812485, -0.05376168712973595, -0.2037331461906433, 0.18947459757328033, -0.16565994918346405, 0.02685311622917652, 0.073971226811409, -0.037312231957912445], [0.01744907908141613, -0.021201491355895996, -0.05154972895979881, 0.0655359998345375, -0.2344510555267334, -0.06639052927494049, -0.025385970249772072, 0.02274828776717186, -0.0024946972262114286, -0.11328668147325516, 0.053347378969192505, -0.12537118792533875, -0.03843744844198227, 0.08755096793174744, -0.008652214892208576, 0.07360188663005829, 0.015932507812976837, 0.012031921185553074, 0.0692100077867508, 0.09020422399044037, -0.12465972453355789, 0.11802291125059128, 0.00011111752974102274, 0.06725519895553589, -0.02148144133388996, -0.10605746507644653, -0.02419375441968441, 0.024563586339354515, 0.02834237739443779, -0.12917128205299377, 0.00112939125392586, -0.06436675041913986, -0.038878392428159714, -0.08775612711906433, 0.014789431355893612, 0.01370704360306263, 0.02426118031144142, -0.08820656687021255, 0.0004081995866727084, 0.016862133517861366], [0.0036003829445689917, 0.06376427412033081, 0.12082276493310928, -0.01311232428997755, 0.0767364576458931, -0.07265926897525787, -0.15853257477283478, 0.12780870497226715, -0.014396842569112778, -0.24306239187717438, -0.08622585237026215, 0.058552373200654984, -0.025134917348623276, 0.09681491553783417, 0.0442771352827549, 0.0827087014913559, -0.1465967893600464, 0.1369224637746811, 0.04260111600160599, -0.022974316030740738, 0.0078018056228756905, -0.10065029561519623, 0.0491502583026886, -0.03853031247854233, -0.18233904242515564, 0.10387744009494781, -0.11242108792066574, 0.0694928839802742, -0.041449666023254395, -0.05159599706530571, -0.00865682028234005, 0.10443312674760818, 0.057269904762506485, -0.05206458643078804, -0.05041572079062462, 0.06377606838941574, -0.060941845178604126, -0.022623363882303238, 0.037125810980796814, 0.03591975197196007], [0.05835806578397751, 0.14462584257125854, 0.050453174859285355, -0.1021491140127182, -0.12482900172472, 0.026411857455968857, 0.03527313843369484, 0.04086797311902046, -0.24252329766750336, -0.00014894834021106362, 0.04304691404104233, -0.010982902720570564, 0.015306531451642513, -0.05404343083500862, 0.0002059504622593522, -0.041301827877759933, 0.024996258318424225, -0.02342619188129902, 0.025555292144417763, 0.040560103952884674, 0.055580854415893555, 0.0716196820139885, 0.11940601468086243, -0.035609565675258636, 0.014289685525000095, -0.15527135133743286, -0.012808777391910553, 0.026070760563015938, -0.23194558918476105, -0.058284349739551544, 0.13755261898040771, -0.0249981340020895, 0.1353667676448822, 0.05685456097126007, 0.171885684132576, -0.08171406388282776, -0.08538395166397095, 0.0827561616897583, 0.2289028763771057, 0.05935099720954895], [0.11207295209169388, -0.0757005363702774, 0.11422161757946014, 0.11316212266683578, -0.047925978899002075, 0.016856122761964798, 0.042889323085546494, 0.14186066389083862, -0.09704861044883728, -0.24040986597537994, 0.1077483743429184, -0.053406279534101486, 0.015640096738934517, 0.11518590897321701, -0.05094403401017189, 0.11706703901290894, -0.0619438961148262, -0.22621099650859833, 0.029632367193698883, -0.016554294154047966, 0.03988180309534073, -0.17673583328723907, -0.0005682079936377704, 0.05420919135212898, 0.030158458277583122, 0.11365405470132828, 0.0963018387556076, 0.051517535001039505, -0.07989351451396942, -0.0861218050122261, 0.08664281666278839, -0.1399303525686264, -0.021713465452194214, 0.0007730390643700957, -0.010071611031889915, -0.012322473339736462, -0.18171027302742004, -0.05344492942094803, 0.016056926921010017, 0.07077179104089737], [-0.07964280247688293, 0.05271828919649124, -0.1068703830242157, 0.12681156396865845, -0.05990532040596008, 0.11183017492294312, 0.003186664078384638, 0.16517914831638336, 0.022873951122164726, -0.025812970474362373, 0.07553180307149887, -0.15762270987033844, -0.02773437649011612, -0.08541769534349442, 0.0239858441054821, 0.09617086499929428, 0.05114326253533363, -0.23188714683055878, 0.11420831829309464, -0.07571763545274734, -0.04268768057227135, -0.10097727179527283, -0.1089286208152771, -0.14791926741600037, 0.04968089237809181, 0.021990951150655746, -0.11380024254322052, 0.016142437234520912, -0.024479199200868607, -0.012332539074122906, -0.06224801763892174, 0.02243243344128132, -0.09597762674093246, -0.11359456181526184, -0.12208396196365356, -0.05401581525802612, -0.10415846109390259, 0.06633592396974564, 0.12582255899906158, -0.04598647728562355], [-0.05264890938997269, -0.007353675551712513, 0.01287921890616417, -0.0451902337372303, -0.0317685604095459, -0.027555599808692932, 0.07018797844648361, 0.020067574456334114, -0.1352936178445816, 0.15570282936096191, 0.05745984613895416, 0.05012310668826103, 0.021639088168740273, -0.16039949655532837, -0.08375335484743118, 0.057573333382606506, -0.04632241278886795, -0.11669232696294785, 0.02775641903281212, 0.004384578671306372, 0.026212649419903755, 0.0008668658556416631, 0.09948157519102097, -0.05015118792653084, 0.08637627959251404, 0.03080431930720806, -0.08046472817659378, 0.06593241542577744, 0.08777452260255814, -0.12855686247348785, -0.023514114320278168, 0.015348557382822037, -0.04993439093232155, 0.021863402798771858, -0.032823774963617325, -0.022788647562265396, -0.007512663956731558, 0.0631614699959755, -0.03368102014064789, -0.1288031041622162], [0.08165111392736435, -0.06749962270259857, 0.08786436915397644, 0.012904447503387928, 0.10609091073274612, 0.014646684750914574, -0.011089528910815716, 0.08655700087547302, -0.1583460569381714, -0.11683188378810883, -0.15886656939983368, 0.027345530688762665, -0.18498075008392334, -0.06897544115781784, -0.10117834806442261, -0.13764025270938873, 0.1378161460161209, 0.025420643389225006, -0.14809304475784302, -0.1063912883400917, 0.08664043247699738, 0.006663162261247635, -0.006269332952797413, -0.008881264366209507, 0.19676806032657623, -0.056502312421798706, -0.0839703232049942, 0.011169573292136192, -0.19353517889976501, -0.17169390618801117, -0.11186101287603378, 0.06296589225530624, -0.07091594487428665, 0.17320501804351807, 0.14753375947475433, -0.09710166603326797, 0.05613508075475693, 0.059196021407842636, 0.025268562138080597, -0.04683860018849373], [0.09715999662876129, 0.08476059138774872, 0.12171953916549683, -0.0062522427178919315, -0.08640475571155548, 0.0007141853566281497, -0.14571818709373474, -0.06387961655855179, -0.04573917016386986, -0.07605141401290894, 0.013092953711748123, 0.0314759761095047, 0.024357309564948082, 0.07582051306962967, 0.005137319676578045, -0.12257283926010132, -0.13169145584106445, -0.11116904765367508, 0.0583764910697937, 0.1370505690574646, 0.060888390988111496, 0.07797923684120178, -0.04526233300566673, -0.04868919774889946, 0.16571380198001862, 0.011099645867943764, -0.14599700272083282, 0.10423624515533447, 0.05029679462313652, -0.05691812187433243, -0.06168065965175629, 0.06400986015796661, 0.16978752613067627, -0.09767713397741318, 0.0670873150229454, -0.17669807374477386, -0.048794958740472794, 0.020416179671883583, -0.03015688806772232, -0.050398167222738266], [-0.02267889864742756, 0.06478286534547806, -0.01913096196949482, -0.1073957085609436, 0.12483053654432297, 0.07062630355358124, 0.0358150452375412, 0.05853378027677536, -0.14777307212352753, -0.0039652674458920956, 0.020268084481358528, 0.04051632434129715, 0.09701184928417206, -0.09795359522104263, 0.16151955723762512, -0.04180017486214638, -0.04536845535039902, 0.007777642924338579, 0.08257651329040527, 0.11996954679489136, -0.13702574372291565, 0.07244942337274551, -0.031344953924417496, -0.11139944940805435, 0.046890489757061005, -0.0006802764837630093, 0.12826204299926758, -0.08405751734972, 0.177072674036026, -0.082334965467453, -0.004252748563885689, -0.0027118914294987917, -0.01883053034543991, -0.03109051287174225, 0.041675932705402374, 0.005600940901786089, -0.055117417126894, -0.04359891638159752, 0.09460493922233582, 0.028574055060744286], [0.02693210355937481, 0.17531678080558777, -0.07742126286029816, -0.04380166903138161, -0.034834668040275574, 0.042890485376119614, -0.0827813595533371, 0.015957344323396683, -0.09482827037572861, -0.01961371675133705, -0.062407322227954865, 0.12540701031684875, -0.025709908455610275, -0.08237812668085098, -0.002790022175759077, 0.10068727284669876, -0.114083431661129, -0.08906577527523041, 0.033081479370594025, 0.005135688930749893, 0.08213797211647034, 0.11004243791103363, -0.0805802047252655, 0.01360150147229433, -0.04533248394727707, -0.051225125789642334, -0.044384267181158066, 0.0256771482527256, -0.02844933047890663, 0.0440344512462616, -0.004561249166727066, -0.06687147170305252, -0.014095199294388294, -0.017318975180387497, 0.10119958966970444, -0.0042976513504981995, -0.012624964118003845, 0.009106358513236046, -0.08094776421785355, -0.04667123034596443], [0.009992416016757488, 0.004535999149084091, -0.21188420057296753, -0.1258348524570465, 0.04498937726020813, -0.05553709343075752, -0.0067660994827747345, 0.007448773365467787, -0.014685164205729961, -0.07397031784057617, -0.12417569011449814, -0.016818497329950333, 0.019655173644423485, -0.21026886999607086, -0.09341453015804291, 0.018562888726592064, -0.04836946353316307, 0.10623609274625778, 0.055292800068855286, 0.08821941912174225, -0.005440130829811096, -0.08708654344081879, -0.08600463718175888, -0.06581917405128479, 0.00754573056474328, -0.011690935119986534, -0.07638216018676758, 0.026800010353326797, 0.041721977293491364, -0.004243858158588409, 0.04541289061307907, 0.038760844618082047, -0.07765917479991913, 0.05804963409900665, -0.03936636820435524, -0.0461590476334095, 0.14874035120010376, -0.11486247926950455, 0.06913077086210251, 0.24837836623191833], [0.0028160628862679005, -0.11085785925388336, -0.07729334384202957, -0.028625063598155975, -0.04012678936123848, -0.039787910878658295, -0.01105440128594637, 0.16279326379299164, 0.028319410979747772, 0.13006022572517395, 0.0472077801823616, 0.024516252800822258, -0.004338235594332218, -0.027029795572161674, -0.09185429662466049, 0.05516864359378815, -0.10100840777158737, 0.05016442388296127, 0.08943215757608414, -0.1502050906419754, 0.08335378766059875, 0.13577616214752197, -0.0056160385720431805, 0.09605610370635986, 0.04155935347080231, 0.08188624680042267, -0.10668684542179108, -0.061615992337465286, 0.028704453259706497, -0.022528354078531265, -0.04740837961435318, -0.04519623517990112, -0.11284063756465912, 0.013668064959347248, 0.08048490434885025, -0.04564521461725235, -0.010540219955146313, 0.08265317976474762, -0.0621255561709404, 0.025815922766923904], [-0.040959954261779785, 0.10562057048082352, -0.04194138944149017, 0.02951425313949585, 0.19305753707885742, 0.00828662607818842, 0.08736187219619751, 0.07534720003604889, 0.05854970961809158, -0.023760443553328514, -0.04141535982489586, 0.12884850800037384, -0.11830150336027145, 0.11841629445552826, 0.0903836190700531, -0.11269606649875641, -0.06793051958084106, 0.11852474510669708, 0.11773917824029922, -0.06417203694581985, 0.005433287005871534, 0.13201521337032318, -0.18923211097717285, -0.10479333996772766, -0.009190025739371777, -0.03554748743772507, -0.12271343171596527, 0.07184148579835892, -0.1109577864408493, 0.09104666113853455, -0.04415681213140488, 0.14121463894844055, 0.030434446409344673, 0.0907837375998497, 0.06202178820967674, 0.011163461022078991, 0.058497995138168335, 0.06716791540384293, -0.013807889074087143, 0.0423697829246521], [-0.09539972990751266, 0.0693141371011734, 0.15219612419605255, 0.12282964587211609, 0.04627519100904465, 0.017830563709139824, 0.058143533766269684, 0.1262834072113037, -0.018664879724383354, 0.11295167356729507, 0.1494828760623932, -0.016301516443490982, 0.09310157597064972, 0.020788542926311493, 0.1922333836555481, 0.09473775327205658, -0.12799347937107086, 0.08441878855228424, -0.04456575587391853, 0.017695309594273567, 0.1448466032743454, 0.03761511296033859, -0.03025618940591812, 0.1484791338443756, -0.00973700825124979, 0.05819762125611305, -0.10817104578018188, -0.035775162279605865, 0.05008946731686592, -0.061168916523456573, -0.004236619453877211, 0.035497356206178665, 0.028011079877614975, 0.1350458860397339, 0.024597980082035065, -0.055807605385780334, 0.039510328322649, -0.03067414090037346, 0.03929567709565163, -0.05484868586063385], [-0.007766361813992262, -0.14523188769817352, 0.11568797379732132, -0.02153250202536583, -0.03249463811516762, -0.09725538641214371, 0.06472668796777725, -0.15090982615947723, 0.043325163424015045, -0.1811646819114685, 0.004677958786487579, 0.037132665514945984, 0.04352060332894325, 0.037737634032964706, -0.0010324306786060333, 0.008009755983948708, 0.08982647955417633, -0.006814984604716301, 0.15890292823314667, 0.03927210345864296, -0.12292374670505524, -0.045460011810064316, 0.1978532075881958, -0.022363727912306786, -0.04260667413473129, 0.00674437964335084, 0.06926319003105164, 0.06353092938661575, 0.04566856846213341, -0.18071798980236053, -0.04438586160540581, -0.02344866655766964, -0.12491468340158463, 0.008094258606433868, 0.09757165610790253, -0.07393825054168701, -0.07038842141628265, -0.08128514885902405, -0.050210434943437576, 0.0398513600230217], [-0.01891815848648548, -0.08423322439193726, -0.0438162200152874, -0.17453882098197937, 0.007953528314828873, -0.08295922726392746, -0.01719805598258972, -0.11514968425035477, -0.06601185351610184, -0.03069007769227028, 0.03272675350308418, -0.02368631586432457, 0.13240118324756622, -0.05902622640132904, -0.12391169369220734, -0.010526927188038826, -0.2171977013349533, 0.1338636726140976, 0.12761712074279785, 0.024701274931430817, -0.05162849649786949, 0.026296522468328476, -0.01395292580127716, -0.06752000004053116, 0.04862818494439125, -0.00667597958818078, 0.09692857414484024, 0.04780610650777817, -0.0842583104968071, -0.03081333078444004, -0.09259679168462753, -0.05018094182014465, 0.08273235708475113, -0.11998112499713898, 0.05521399900317192, -0.055358950048685074, -0.052914224565029144, -0.06543218344449997, -0.1642477661371231, -0.02947128377854824], [-0.10032152384519577, -0.07504051923751831, -0.02975786291062832, -0.03412415832281113, 0.01583147794008255, 0.013679898343980312, 0.06331247091293335, 0.08308245241641998, 0.04322025179862976, -0.0007656458183191717, -0.05314121022820473, 0.011524438858032227, 0.05700192600488663, 0.029319800436496735, 0.0738237276673317, 0.1456405371427536, 0.053732626140117645, -0.0011715517612174153, 0.0250612273812294, 0.003008319530636072, -0.0018813902279362082, 0.03015773929655552, -0.07077521830797195, -0.15582434833049774, -0.01898251660168171, -0.026131559163331985, 0.11067359894514084, -0.08058088272809982, 0.10481814295053482, 0.017324142158031464, 0.1622856706380844, 0.10567263513803482, 0.18779154121875763, -0.012396146543323994, 0.03719165176153183, -0.005835243035107851, -0.09665565937757492, 0.14383330941200256, -0.022364644333720207, -0.022883489727973938], [-0.022389007732272148, 0.04717612266540527, 0.05310933291912079, 0.022719183936715126, -0.06177093833684921, 0.11115072667598724, 0.06623378396034241, -0.034643590450286865, -0.016664041206240654, -0.03780137747526169, 0.0707969069480896, 0.06799966841936111, 0.004514097236096859, 0.05484660342335701, 0.1497262418270111, 0.044439706951379776, -0.052659180015325546, 0.11233162879943848, 0.1692672073841095, 0.12427394092082977, 0.03338790684938431, -0.09337168186903, -0.07872243225574493, 0.07895512133836746, 0.015349128283560276, 0.14647898077964783, -0.06891968846321106, -0.010269366204738617, -0.06931129842996597, -0.025021705776453018, -0.08938601613044739, 0.08006110042333603, 0.07333216816186905, 0.1203792467713356, -0.12586316466331482, 0.03263808414340019, 0.032705653458833694, -0.08564291894435883, -0.1591988503932953, -0.09736909717321396], [-0.012541184201836586, -0.05144485458731651, -0.08229027688503265, 0.08943334221839905, 0.056723691523075104, 0.004392382688820362, 0.06365937739610672, 0.010773105546832085, 0.11223707348108292, 0.03512074798345566, 0.01293072197586298, -0.06472282856702805, -0.04346931353211403, 0.10889416188001633, 0.036473385989665985, 0.028014076873660088, -0.0636603981256485, -0.09646002948284149, -0.076204314827919, 0.0893731564283371, 0.0904865711927414, 0.023891493678092957, -0.025187265127897263, 0.10546199232339859, 0.05459658429026604, 0.04844134300947189, 0.1121523305773735, -0.006271229591220617, -0.10398464649915695, 0.06987059116363525, -0.11835777014493942, -0.09319213032722473, -0.1142941415309906, 0.16281089186668396, -0.020449407398700714, -0.2159234583377838, -0.11933460086584091, -0.04037882387638092, -0.04640138894319534, 0.022159254178404808], [0.07183565199375153, -0.05227425694465637, 0.007402363233268261, 0.07548170536756516, 0.028951523825526237, 0.008043237030506134, 0.10077765583992004, -0.06380832940340042, 0.15911288559436798, 0.03483857586979866, 0.06170282140374184, -0.03859817609190941, -0.0281622763723135, 0.020435841754078865, 0.14412879943847656, 0.00913725234568119, -0.19158323109149933, 0.036355383694171906, 0.13873957097530365, -0.021722976118326187, -0.06809661537408829, -0.12152695655822754, -0.03118540160357952, -0.05441790074110031, -0.038740117102861404, -0.11817318946123123, -0.05553014203906059, -0.025169281288981438, 0.01299577672034502, 0.026436273008584976, -0.13558387756347656, -0.1610892415046692, 0.11981996148824692, 0.08606667816638947, -0.04819884151220322, -0.12224660813808441, -0.028144873678684235, -0.03661833330988884, -0.17384189367294312, 0.07008948177099228], [0.002051111776381731, -0.07086866348981857, 0.04895997792482376, 0.11737676709890366, -0.13990579545497894, 0.05786333978176117, -0.08398247510194778, 0.054139457643032074, -0.022529415786266327, -0.025866560637950897, 0.05045167729258537, 0.10666780173778534, 0.0047682709991931915, 0.07604549080133438, 0.026694338768720627, -0.052445188164711, -0.0112282270565629, 0.062479168176651, -0.03170139342546463, -0.015826528891921043, 0.1584804505109787, 0.14139804244041443, -0.07827766239643097, 0.06758379191160202, 0.2269112765789032, -0.10374224185943604, 0.04096965119242668, -0.15273799002170563, -0.010840258561074734, -0.04772620648145676, -0.12492656707763672, 0.025796115398406982, 0.1256883293390274, -0.0323590524494648, 0.036331016570329666, 0.08715958893299103, 0.007850917056202888, -0.023958206176757812, 0.03228683024644852, 0.00740672554820776], [-0.03759460151195526, 0.15243345499038696, -0.033145397901535034, 0.024256138131022453, -0.08519567549228668, 0.052136316895484924, -0.03409919887781143, 0.03258581832051277, -0.05849989131093025, -0.09517131000757217, -0.09711265563964844, 0.14323489367961884, -0.003523360239341855, 0.025438545271754265, 0.04460793361067772, 0.013585356064140797, -0.008624876849353313, -0.05781276896595955, -0.08818712085485458, -0.10881712287664413, -0.11792565882205963, 0.010921938344836235, -0.11085748672485352, -0.06502100825309753, -0.13737522065639496, 0.0572914220392704, 0.10217801481485367, 0.10942959040403366, 0.0296341460198164, -0.2613929510116577, 0.17773953080177307, -0.04274160414934158, 0.05551104247570038, 0.04497620835900307, 0.0415370874106884, 0.07950510829687119, 0.09219640493392944, 0.17585070431232452, 0.04296331852674484, -0.043074678629636765], [-0.10567470639944077, 0.09520092606544495, -0.03433159366250038, -0.090428426861763, 0.016926782205700874, -0.1906747967004776, -0.07147444039583206, 0.01943003386259079, -0.10310682654380798, -0.0879049003124237, -0.1380143165588379, -0.027324793860316277, -0.06054450571537018, -0.13934044539928436, -0.015378054231405258, 0.04986190050840378, -0.09961851686239243, -0.14847759902477264, -0.07016422599554062, -0.0010000590700656176, -0.08844298869371414, 0.022682812064886093, 0.1525154560804367, 0.1288578063249588, 0.08036042749881744, 0.018309563398361206, -0.1486668884754181, -0.06611066311597824, 0.10928703099489212, -0.018208282068371773, -0.041586220264434814, -0.11963807046413422, -0.0013497606851160526, -0.04801582917571068, -0.041605401784181595, -0.09289692342281342, -0.05842546746134758, -0.13322697579860687, -0.09850721061229706, 0.061502840369939804], [0.0487065352499485, 0.02809946984052658, 0.05704734846949577, -0.17501117289066315, 0.07107573002576828, -0.06471460312604904, -0.06100514903664589, -0.04149530455470085, -0.0057095629163086414, -0.23090818524360657, 0.03904224559664726, -0.1128242239356041, 0.09988320618867874, 0.1220884621143341, 0.021693304181098938, -0.06131291389465332, -0.048907868564128876, 0.03822958096861839, 0.03430498018860817, 0.049583800137043, -0.0293413233011961, -0.06804069876670837, -0.11063503473997116, 0.05014524608850479, 0.007369026076048613, 0.013215933926403522, 0.07661447674036026, 0.03633005544543266, -0.10271117091178894, 0.025345230475068092, 0.16812673211097717, 0.03441202640533447, -0.08648047596216202, 0.010677637532353401, -0.004190168343484402, -0.010903223417699337, -0.023972658440470695, -0.027482090517878532, 0.07997072488069534, -0.12485435605049133], [0.00606961827725172, -0.1240764707326889, 0.09844537824392319, 0.023559115827083588, -0.017686577513813972, -0.034022215753793716, -0.044774770736694336, -0.02335323579609394, 0.09922392666339874, 0.13462446630001068, 0.019998017698526382, 0.01872875541448593, -0.1702996790409088, -0.11502646654844284, 0.027743102982640266, -0.05713921785354614, 0.1537402868270874, -0.09156771749258041, 0.1644631028175354, -0.16931374371051788, -0.035804685205221176, -0.11458571255207062, -0.10239466279745102, -0.13353553414344788, 0.0741375982761383, 0.10482030361890793, -0.07489485293626785, 0.059775009751319885, -0.05139473080635071, 0.07126010954380035, 0.06472346931695938, 0.0041980077512562275, 0.041085679084062576, 0.00423244945704937, 0.028271811082959175, 0.1272764354944229, -0.013552027754485607, 0.08468444645404816, -0.06735432893037796, 0.09514053165912628], [-0.07158099859952927, -0.005735912825912237, 0.10151804238557816, 0.025587866082787514, -0.073513463139534, 0.10966822504997253, 0.038473740220069885, 0.18901658058166504, -0.006601631175726652, 0.11468616127967834, -0.017529983073472977, 0.10018312931060791, 0.010064667090773582, 0.1138555258512497, -0.002270697383210063, -0.12623414397239685, 0.01053636334836483, 0.14902929961681366, 0.08163003623485565, -0.04602690786123276, 0.09774144738912582, 0.1110437735915184, 0.027810052037239075, 0.11720119416713715, 0.08550596237182617, 0.03238150104880333, -0.04549034684896469, 0.0966588631272316, 0.033623676747083664, 0.07342634350061417, -0.05983106419444084, -0.21774493157863617, -0.04006776958703995, -0.09149148315191269, -0.07642126083374023, 0.07037317007780075, 0.10856112092733383, -0.02010819874703884, -0.05211131274700165, 0.027545921504497528], [0.03659747168421745, -0.07564163953065872, -0.09507273137569427, -0.029269348829984665, -0.06134979799389839, -0.004685019142925739, 0.0446789413690567, 0.02508651092648506, 0.028067024424672127, -0.11555155366659164, 0.09130250662565231, -0.003653810592368245, 0.006060116458684206, -0.0014988844050094485, -0.048109378665685654, 0.12338472157716751, 0.0153119508177042, 0.01906752586364746, 0.029965367168188095, 0.06177176535129547, -0.03919866681098938, 0.055987995117902756, 0.10687452554702759, 0.10630586743354797, -0.03137974441051483, 0.09307313710451126, -0.011546283960342407, -0.01284436509013176, 0.017373330891132355, -0.04192941263318062, -0.026483681052923203, 0.008478045463562012, -0.08040246367454529, -0.1360887885093689, -0.09558864682912827, -0.11757782846689224, 0.13752087950706482, -0.2310163378715515, 0.010352805256843567, 0.06387404352426529], [0.07736682146787643, -0.04320232942700386, -0.024682093411684036, 0.020439499989151955, -0.08927678316831589, 0.13212896883487701, -0.07046904414892197, -0.049788396805524826, 0.07133091986179352, 0.05807547643780708, -0.029396237805485725, 0.022659847512841225, -0.025285592302680016, 0.03060920163989067, -0.0017706620274111629, -0.06442651897668839, 0.14850112795829773, -0.07449351251125336, 0.1167738288640976, -0.018906310200691223, -0.02308337576687336, 0.05231162905693054, 0.17994864284992218, -0.03334968537092209, -0.08042962849140167, 0.142364040017128, 0.024029769003391266, 0.0066482555121183395, 0.1301291286945343, -0.06267154216766357, -0.03296855837106705, 0.027260994538664818, 0.009547206573188305, -0.0180100966244936, 0.019136644899845123, -0.02537880465388298, 0.13245649635791779, -0.01417971309274435, 0.21171361207962036, 0.11814647912979126], [-0.13433675467967987, 0.016959035769104958, 0.019830379635095596, 0.09864675998687744, 0.15114253759384155, 0.0317983403801918, 0.030490301549434662, -0.08010156452655792, -0.03164838254451752, -0.1277473419904709, -0.030207393690943718, -0.0775742456316948, -0.26661089062690735, -0.09821274131536484, -0.05273061990737915, -0.034249287098646164, 0.1274360716342926, 0.012221485376358032, 0.01678738184273243, -0.02589881606400013, 0.04904589802026749, 0.06539561599493027, -0.0020770335104316473, 0.14059089124202728, -0.04965011030435562, 0.0026101358234882355, -0.024625791236758232, 0.04887585714459419, 0.25118792057037354, 0.03143379092216492, -0.019132301211357117, 0.06292299181222916, -0.02720000594854355, 0.04008069261908531, 0.0232929028570652, -0.028471337631344795, -0.022773144766688347, 0.07582290470600128, 0.02060874179005623, 0.02544284611940384], [-0.06448125839233398, -0.029348857700824738, 0.07551875710487366, 0.07906093448400497, -0.09840571135282516, 0.08270982652902603, -0.24597179889678955, 0.036352504044771194, -0.10389060527086258, -0.038376741111278534, 0.06681577116250992, 0.18129968643188477, -0.13219483196735382, -0.15055236220359802, 0.04791891947388649, 0.017205623909831047, -0.12051093578338623, 0.03891584277153015, 0.041901279240846634, -0.08582968264818192, -0.034547656774520874, -0.019330468028783798, -0.07051996141672134, 0.1138189509510994, -0.024640994146466255, 0.03426990658044815, -0.034392260015010834, 0.07297344505786896, 0.05828244239091873, 0.06390845030546188, -0.01649515889585018, 0.005852663889527321, 0.009128320030868053, -0.19384877383708954, 0.0648135170340538, -0.08832565695047379, -0.00837648008018732, 0.023158838972449303, 0.06667593866586685, 0.011442801915109158], [-0.16280055046081543, 0.03739147633314133, 0.07724514603614807, -0.0983848050236702, 0.08636733144521713, -0.026422545313835144, 0.02000351995229721, -0.025916915386915207, 0.031763672828674316, -0.013081669807434082, 0.0882711336016655, 0.09228155761957169, 0.15492276847362518, 0.002438901225104928, -0.04953198507428169, -0.0024615416768938303, 0.15651236474514008, 0.03104628622531891, -0.06425940245389938, -0.04687622934579849, -0.12740090489387512, 0.007691508624702692, 0.010208540596067905, -0.054280608892440796, 0.08428683131933212, 0.010485658422112465, -0.11086715757846832, 0.03721930831670761, -0.11628833413124084, -0.007935364730656147, -0.021129263564944267, -0.12630195915699005, -0.021056050434708595, 0.0034624096006155014, -0.08327018469572067, 0.047627225518226624, -0.18561051785945892, 0.019667629152536392, -0.06598369032144547, 0.020187165588140488], [-0.04419955238699913, -0.004876269027590752, -0.07102672755718231, -0.08958536386489868, 0.09918238967657089, -0.046211566776037216, 0.040619418025016785, 0.078683041036129, -0.016932226717472076, -0.10245264321565628, 0.06714623421430588, -0.0536087341606617, 0.0041038040071725845, 0.007585750427097082, 0.03070909157395363, -0.026643196120858192, -0.010810461826622486, -0.031437672674655914, 0.091721311211586, 0.07755272090435028, 0.00303286942653358, -0.07095133513212204, -0.061261266469955444, -0.017789553850889206, -0.0035299169830977917, -0.07965514063835144, 0.008694585412740707, -0.0369422510266304, 0.0926615297794342, 0.12858352065086365, 0.02470451220870018, -0.16638140380382538, -0.09652528166770935, 0.07010367512702942, 0.14566385746002197, 0.00795014388859272, 0.09547462314367294, 0.06358534842729568, 0.008728557266294956, -0.06146661192178726], [0.03293042257428169, 0.07294556498527527, -0.14077433943748474, -0.02894367277622223, 0.0383332185447216, 0.25233837962150574, 0.028674384579062462, -0.0175411906093359, 0.273453027009964, -0.09976720809936523, -0.0005749913398176432, -0.13116852939128876, -0.07203688472509384, -0.047811344265937805, -0.0043106116354465485, -0.03942982107400894, -0.019237184897065163, 0.048116158694028854, 0.07201597839593887, -0.011870939284563065, 0.05887220427393913, 0.1737688034772873, -0.06653205305337906, 0.0572066493332386, -0.07870247960090637, -0.040122225880622864, 0.08482115715742111, 0.22403761744499207, -0.017050016671419144, -0.06018907204270363, -0.00698789581656456, 0.05099848285317421, 0.08970862627029419, -0.06032472103834152, 0.062077123671770096, 0.005803993903100491, 0.08869105577468872, -0.027652066200971603, -0.07172803580760956, 0.14364734292030334], [-0.13226059079170227, -0.18482738733291626, 0.005753653589636087, 0.19146136939525604, 0.11658482998609543, 0.0146791972219944, 0.04387930408120155, 0.03720252960920334, 0.0724342092871666, -0.10619883239269257, -0.05427110940217972, -0.15319941937923431, -0.07439226657152176, -0.006654647644609213, 0.004803108051419258, -0.07707080990076065, 0.01723572239279747, -0.020742977038025856, 0.01411113515496254, -0.06451058387756348, -0.036074794828891754, -0.05254336819052696, 0.03425942733883858, -0.20168636739253998, 0.009832016192376614, -0.09624720364809036, 0.06632902473211288, 0.09434312582015991, -0.09547676146030426, 0.1021205484867096, -0.0017853508470579982, 0.024787718430161476, 0.0670144185423851, -0.04302191361784935, 0.04632686823606491, 0.07675174623727798, 0.0005614458350464702, 0.03513167053461075, -0.1406124234199524, -0.07826695591211319], [0.11477980017662048, -0.07950925081968307, -0.026360008865594864, 0.12942171096801758, 0.022645961493253708, 0.16530537605285645, -0.08509886264801025, -0.029179977253079414, -0.16697783768177032, -0.02731367200613022, -0.035503506660461426, 0.07947010546922684, -0.04163611680269241, 0.08856659382581711, 0.1522899866104126, -0.09100762009620667, 0.05216589570045471, 0.01426028273999691, 0.06431502848863602, 0.07600826025009155, -0.028336407616734505, 0.01482934970408678, -0.0981643944978714, -0.027425438165664673, -0.1682492196559906, 0.1118013858795166, -0.07572832703590393, -0.017450224608182907, -0.06576133519411087, 0.009929162450134754, 0.27792397141456604, -0.08021877706050873, 0.006855785381048918, 0.027326662093400955, 0.017818916589021683, -0.035213254392147064, -0.05712951719760895, -0.05209159106016159, 0.061068929731845856, 0.09456630051136017], [0.16111765801906586, 0.024369241669774055, 0.19433589279651642, -0.01154013630002737, -0.01714196614921093, 0.06986161321401596, 0.03575437515974045, -0.09893640130758286, -0.07265639305114746, -0.08503133803606033, -0.021954402327537537, -0.013864593580365181, -0.12541563808918, -0.05350981652736664, -0.0612972117960453, -0.06503622978925705, -0.0014945737784728408, -0.05380452796816826, 0.013212863355875015, -0.02406441792845726, -0.04267276078462601, -0.1232815757393837, -0.06417303532361984, 0.036379922181367874, 0.10931225121021271, -0.11626062542200089, 0.033342715352773666, 0.1230391263961792, 0.16322441399097443, 0.06579027324914932, 0.04375169798731804, -0.047891177237033844, -0.2122771441936493, 0.017957421019673347, -0.11152411997318268, 0.06358388066291809, -0.09715581685304642, 0.03716345876455307, -0.11229827255010605, 0.07930006831884384], [-0.08421213179826736, 0.03574312850832939, 0.17788644134998322, -0.05601998418569565, 0.021229049190878868, -0.10296272486448288, -0.23482634127140045, 0.1478842943906784, 0.05465725436806679, 0.08548203855752945, -0.06767529994249344, -0.04716869443655014, -0.05859978869557381, -0.08916440606117249, -0.1220412626862526, -0.01247483491897583, -0.003701993264257908, -0.15370546281337738, 0.12119832634925842, 0.10772594064474106, -0.12224149703979492, -0.03535053879022598, 0.014137709513306618, 0.025889363139867783, 0.1565827876329422, 0.029763247817754745, -0.022295547649264336, 0.003545482410117984, -0.11199475079774857, -0.012949121184647083, -0.04684339091181755, 0.02236999198794365, 0.039754342287778854, 0.08060012757778168, 0.03676066920161247, -0.0033960428554564714, 0.1241803839802742, 0.08572572469711304, 0.026881275698542595, -0.1356513351202011], [0.019517207518219948, 0.03146956488490105, -0.06785270571708679, 0.02656070701777935, 0.020482419058680534, -0.02752131223678589, -0.08614081144332886, 0.13395310938358307, 0.1295103281736374, 0.04646731913089752, 0.13217081129550934, 0.209041565656662, 0.03817180544137955, -0.029720932245254517, -0.029885003343224525, -0.03801696002483368, 0.05017584562301636, -0.17461925745010376, 0.045470595359802246, 0.05922722816467285, -0.026584086939692497, 0.09849343448877335, -0.08619479089975357, 0.07936553657054901, -0.012625707313418388, -0.08898323774337769, 0.09630170464515686, -0.023265881463885307, -0.029748283326625824, 0.02212763950228691, 0.06394607573747635, -0.04517100378870964, 0.0519365593791008, 0.09652248024940491, -0.2396271824836731, -0.060530129820108414, -0.11036095023155212, -0.007649010978639126, -0.030868668109178543, -0.020795898512005806], [-0.1859678030014038, 0.020926766097545624, 0.058215685188770294, 0.006145336665213108, 0.01575968787074089, 0.02250910922884941, 0.00047909465502016246, 0.09378187358379364, 0.15198326110839844, 0.015701981261372566, 0.012526333332061768, 0.036746833473443985, -0.19649523496627808, -0.11118746548891068, -0.04794696345925331, -0.027522610500454903, -0.09887047111988068, -0.08356848359107971, 0.0638856366276741, -0.025994669646024704, -0.0011712029809132218, 0.012662388384342194, 0.14550670981407166, -0.06425275653600693, 0.059587009251117706, -0.038062356412410736, -0.04454880207777023, 0.005732706282287836, 0.01900268904864788, 0.11880400776863098, 0.07488176226615906, 0.14209888875484467, -0.09921824932098389, -0.10560651123523712, 0.1079239770770073, 0.001150278840214014, -0.02993074618279934, 0.10635843873023987, 0.03301910310983658, 0.0061422353610396385], [-0.1579056680202484, 0.03123331256210804, -0.12918603420257568, 0.07213206589221954, 0.035637229681015015, 0.0838819295167923, 0.00494270958006382, -0.17865027487277985, -0.07294591516256332, -0.021670622751116753, 0.011702469550073147, -0.33676981925964355, 0.06561680138111115, -0.17617358267307281, -0.0006620510248467326, 0.009486133232712746, 0.018479812890291214, 0.004396941512823105, 0.04624449461698532, -0.002524335402995348, -0.16463854908943176, 0.003587455488741398, -0.13978073000907898, -0.07918406277894974, -0.0016679407563060522, 0.029880454763770103, -0.19516320526599884, 0.03853456676006317, 0.20398525893688202, 0.028402799740433693, 0.012876251712441444, -0.005735981743782759, 0.0397970974445343, 0.002621666993945837, -0.029578499495983124, 0.04237249866127968, 0.0064091612584888935, 0.07500467449426651, -0.021455714479088783, 0.01470146607607603], [0.052547112107276917, -0.09509634226560593, -0.021839549764990807, 0.09127088636159897, 0.13309518992900848, 0.08834954351186752, -0.05487658455967903, 0.046500906348228455, -0.14345480501651764, 0.10622052848339081, -0.17395362257957458, -0.0650908425450325, -0.028593875467777252, 0.05203850567340851, 0.07167600840330124, 0.053967323154211044, 0.060521285980939865, 0.0645642802119255, 0.08176952600479126, 0.00681645330041647, 0.002660553902387619, -0.015378346666693687, 0.14097090065479279, 0.04811679199337959, 0.008178619667887688, -0.2093031406402588, -0.017862282693386078, -0.05262045934796333, 0.004607727751135826, -0.023845404386520386, -0.016832834109663963, -0.11820520460605621, -0.10092821717262268, -0.07861128449440002, -0.10311786830425262, 0.025395246222615242, -0.12719124555587769, -0.10231797397136688, -0.06380724161863327, -0.00032795584411360323], [-0.030016908422112465, -0.22126315534114838, 0.06052640452980995, -0.022002775222063065, -0.18384648859500885, -0.07404983043670654, 0.12302722781896591, 0.014453425072133541, -0.06897541135549545, 0.07955781370401382, -0.07490067929029465, -0.07743262499570847, -0.04552929848432541, -0.1386677473783493, 0.029564712196588516, -0.056887298822402954, -0.10037060081958771, 0.076898954808712, 0.08003368973731995, 0.20227833092212677, 0.008131506852805614, 0.10161876678466797, 0.03762303292751312, 0.03163893148303032, 0.05118463933467865, 0.003415471874177456, -0.21404902637004852, -0.0824798122048378, -0.14124824106693268, -0.06185638904571533, -0.015447709709405899, 0.05445394292473793, -0.054698117077350616, -0.1355734020471573, 0.040600188076496124, 0.03730688989162445, -0.11991971731185913, 0.14052660763263702, -0.009335021488368511, 0.11670368909835815], [-0.0719481110572815, 0.01640823297202587, 0.010397401638329029, -0.014858648180961609, 0.013278982602059841, -0.05410334840416908, 0.10490651428699493, -0.036917828023433685, -0.04249078407883644, -0.007308753672987223, 0.1876906305551529, -0.007379012182354927, 0.12338803708553314, 0.04295993223786354, -0.125714972615242, 0.007427980192005634, -0.04841560870409012, 0.03969038650393486, 0.01713090017437935, 0.11217007040977478, -0.010006601922214031, -0.10108567774295807, 0.021990159526467323, -0.013156641274690628, 0.19753216207027435, -0.010803762823343277, -0.0482853464782238, 0.15289117395877838, -0.1766766756772995, 0.17564377188682556, 0.05578882247209549, 0.024856146425008774, -0.08080267906188965, 0.03349696099758148, 0.033962033689022064, -0.12237931787967682, 0.15178081393241882, -0.022165829315781593, -0.0017268334049731493, -0.07816356420516968], [-0.035805173218250275, 0.020247969776391983, 0.05437994748353958, 0.10448653995990753, 0.15732689201831818, -0.11327655613422394, 0.019155187532305717, -0.007882011123001575, 0.018566709011793137, -0.030494730919599533, -0.02595655992627144, -0.0637606754899025, 0.040016237646341324, -0.1565575897693634, -0.048248041421175, 0.023665256798267365, -0.047172240912914276, 0.014608312398195267, 0.10072515159845352, 0.18835915625095367, 0.10438765585422516, -0.1051475778222084, 0.08704838901758194, 0.0008494782960042357, -0.04494854807853699, 0.02808012068271637, -0.019273076206445694, -0.11389140039682388, -0.055707626044750214, 0.017711320891976357, 0.14141197502613068, -0.11201032996177673, -0.06310143321752548, -0.0617300383746624, 0.1255442053079605, 0.05175985395908356, 0.03660006448626518, 0.10011943429708481, -0.11052802950143814, 0.0748719722032547], [-0.020727161318063736, -0.05508457124233246, -0.11044344305992126, -0.04802693426609039, -0.018237421289086342, -0.0792960450053215, -0.043389856815338135, 0.12277862429618835, -0.03796084225177765, 0.019670728594064713, 0.034103721380233765, -0.013331512920558453, -0.021313104778528214, 0.0258465725928545, -0.014108831062912941, -0.08225993067026138, 0.07788857817649841, 0.04156540334224701, 0.07679653912782669, 0.0646153911948204, -0.08442223072052002, 0.12719222903251648, 0.13368919491767883, -0.046296995133161545, 0.04652918130159378, -0.012424271553754807, 0.14410755038261414, -0.035834211856126785, 0.05477012321352959, -0.024518579244613647, 0.0852518230676651, 0.04245304688811302, -0.05328887328505516, 0.08255109190940857, -0.03458636254072189, 0.04076803848147392, 0.06626854836940765, 0.023321274667978287, 0.1723187118768692, -0.06872253119945526], [0.018657362088561058, 0.19440226256847382, -0.015434307977557182, -0.005873403046280146, -0.2818891704082489, -0.0789346769452095, 0.015153296291828156, -0.16974206268787384, -0.0791638121008873, 0.13883045315742493, 0.025780199095606804, 0.15002532303333282, 0.05599776282906532, 0.014542633667588234, -0.07448498159646988, 0.02893308736383915, -0.0265338271856308, -0.11846151202917099, -0.0985521525144577, 0.05623706430196762, -0.0368625745177269, 0.003767087822780013, 0.010410061106085777, -0.047720666974782944, -0.0038285301998257637, -0.03929375484585762, -0.0412200503051281, 0.10719037055969238, 0.11025910079479218, -0.033439572900533676, -0.07095175236463547, -0.07951005548238754, 0.08964750170707703, 0.06328386068344116, 0.10709407925605774, 0.006332397926598787, -0.033259857445955276, -0.06589000672101974, -0.13276304304599762, 0.12706869840621948], [0.04810808226466179, -0.06135539710521698, 0.02625122107565403, -0.07118865847587585, -0.05887346342206001, -0.10276653617620468, -0.011156946420669556, 0.03326641768217087, 0.04827893525362015, 0.019575923681259155, 0.10110089927911758, 0.09397880733013153, 0.05316997319459915, -0.08272699266672134, 0.0825653150677681, -0.10535819828510284, -0.01831207424402237, -0.014543084427714348, 0.23278118669986725, -0.02856881357729435, -0.022184796631336212, -0.0763201043009758, -0.0253954716026783, 0.07083635032176971, 0.07603218406438828, 0.03137849643826485, 0.1665492057800293, -0.06507477909326553, -0.03546406328678131, -0.038577601313591, -0.1051797866821289, -0.06768061220645905, 0.12331795692443848, -0.007662620861083269, 0.050187692046165466, 0.07877238839864731, -0.03590443357825279, 0.14510227739810944, 0.06152745708823204, 0.014845852740108967], [-0.1459370106458664, -0.02780899964272976, -0.0456371009349823, 0.012262033298611641, 0.07314074039459229, -0.11545320600271225, 0.07041043788194656, 0.1472650021314621, -0.004818691872060299, -0.17167216539382935, -0.001729109906591475, 0.10891785472631454, 0.037752266973257065, -0.08285599201917648, 0.17932529747486115, -0.018617788329720497, -0.13154101371765137, -0.05501638725399971, -0.15745028853416443, 0.011237435042858124, -0.17133696377277374, 0.015047036111354828, -0.035430509597063065, 0.12408949434757233, -0.1148863434791565, -0.0536758229136467, -0.015397774986922741, 0.013604304753243923, 0.12147834151983261, 0.07557737827301025, -0.09478548914194107, 0.012509787455201149, 0.16873027384281158, 0.015548077411949635, 0.14827652275562286, 0.08483269810676575, -0.06486694514751434, 0.0688374862074852, 0.004295940976589918, 0.13315171003341675], [0.04295288026332855, 0.03450070321559906, -0.10984545201063156, 0.09249307960271835, 0.053227901458740234, -0.05525356903672218, 0.08927750587463379, -0.11375708132982254, 0.08881039917469025, 0.11896093934774399, 0.007469283416867256, 0.00361388036981225, -0.0034781962167471647, -0.1524602174758911, 0.11231321096420288, 0.039392728358507156, -0.028477126732468605, 0.02946820668876171, -0.00031413696706295013, 0.08545034378767014, 0.028492802754044533, 0.07090835273265839, 0.0393855981528759, 0.188450887799263, -0.02402235008776188, 0.13804501295089722, 0.08046699315309525, 0.05168173089623451, -0.07297251373529434, 0.03221030533313751, -0.05012694373726845, -0.08212287724018097, -0.24369505047798157, 0.04173828288912773, -0.05522339046001434, 0.2230169177055359, -0.23676691949367523, -0.12639036774635315, 0.05876799300312996, -0.06751280277967453], [0.009645916521549225, 0.14452283084392548, 0.048478864133358, -0.014895935542881489, 0.09209233522415161, -0.0004556281492114067, -0.05684966221451759, -0.10037364810705185, 0.007378339301794767, 0.1318574696779251, 0.19957506656646729, -0.14480462670326233, -0.02241627871990204, 0.09333581477403641, -0.1083236038684845, 0.12613387405872345, 0.08432029187679291, -0.020767590031027794, -0.025704974308609962, -0.04577032849192619, -0.002275916514918208, -0.028866823762655258, 0.04989566653966904, 0.04286631941795349, 0.04182921350002289, 0.08131387829780579, 0.014179288409650326, -0.046991679817438126, -0.11166636645793915, -0.1352793127298355, 0.1603507399559021, 0.08606331795454025, 0.12084483355283737, 0.005315748974680901, -0.04812457785010338, 0.010129106231033802, 0.04737236723303795, -0.15517856180667877, 0.0201563723385334, 0.08504805713891983], [0.02039933018386364, 0.01420874148607254, 0.09157012403011322, -0.14674386382102966, 0.017033621668815613, 0.037030283361673355, 0.0362836979329586, -0.08415795117616653, -0.08942657709121704, -0.01662462018430233, -0.0414348766207695, 0.07285473495721817, -0.007714410778135061, -0.0876237079501152, 0.05297774076461792, 0.014556256122887135, -0.08244039118289948, 0.12711627781391144, -0.10501104593276978, 0.08231555670499802, -0.024562250822782516, -0.08972801268100739, 0.020199084654450417, -0.10833500325679779, -0.062090735882520676, 0.010783957317471504, 0.026939798146486282, -0.021693576127290726, 0.09169628471136093, -0.06565296649932861, -0.06535125523805618, 0.06545251607894897, 0.05587128922343254, 0.035493649542331696, -0.01903967186808586, 0.10024026036262512, 0.016939200460910797, -0.01732126995921135, -0.009676134213805199, -0.1144774779677391], [-0.06912090629339218, -0.034294117242097855, 0.12211332470178604, 0.0395812913775444, 0.0695110484957695, 0.12951882183551788, -0.04087331146001816, -0.12550655007362366, 0.08230701088905334, 0.05054715275764465, 0.1260981261730194, -0.002951572183519602, 0.1448025405406952, -0.00878356397151947, -0.04382537677884102, 0.05473823845386505, -0.21586786210536957, -0.12026511132717133, -0.10928065329790115, -0.008445249870419502, 0.04163815826177597, -0.01340028177946806, 0.05153004080057144, -0.038879767060279846, 0.07825694233179092, -0.014436636120080948, -0.008621989749372005, 0.02431604452431202, 0.03462662547826767, -0.10259288549423218, 0.17247514426708221, 0.06984215974807739, -0.13258829712867737, -0.0006249863654375076, 0.08271628618240356, -0.06936109066009521, -0.02243640087544918, 0.013977456837892532, 0.05818203091621399, -0.05434870347380638], [0.08362695574760437, -0.17560015618801117, 0.07926362752914429, 0.00906843226402998, 0.08310657739639282, 0.1125180795788765, -0.07631048560142517, -0.11813990771770477, 0.03167654946446419, 0.08873649686574936, 0.006817863322794437, 0.11905748397111893, -0.01907986029982567, 0.031368281692266464, 0.09944689273834229, -0.009807772934436798, 0.09608162194490433, -0.0828811451792717, -0.016233272850513458, -0.08138779550790787, 0.10475064814090729, -0.07631156593561172, -0.007769397459924221, -0.0008464693673886359, -0.2520790100097656, 0.17838208377361298, -0.2128453552722931, -0.024722058326005936, -0.08892673999071121, 0.011939235031604767, -0.04010718688368797, -0.07211918383836746, -0.056883979588747025, 0.0849258229136467, 0.06327684223651886, -0.05837484449148178, 0.006296391133219004, -0.02203306369483471, 0.06291811168193817, -0.07729978114366531], [-0.007530183531343937, 0.04423430934548378, 0.09495032578706741, 0.013494706712663174, -0.09189187735319138, 0.046075496822595596, 0.13055439293384552, 0.07801861315965652, 0.15536686778068542, -0.08374323695898056, -0.12244141846895218, -0.06423823535442352, -0.08085808902978897, 0.00013413725537247956, -0.07060179859399796, 0.04232095927000046, -0.09089948236942291, 0.0336618572473526, 0.0852939710021019, 0.15783482789993286, 0.18569660186767578, 0.025513209402561188, 0.0756552591919899, -0.09968224912881851, -0.06749308854341507, 0.006309441290795803, -0.008550196886062622, 0.048934321850538254, -0.07304833829402924, -0.12216226756572723, 0.059978730976581573, 0.05717071518301964, -0.12475432455539703, -0.07044464349746704, 0.13689224421977997, -0.10963787883520126, 0.0021614674478769302, 0.02691824920475483, 0.018696729093790054, 0.05626397207379341], [-0.02477267198264599, -0.119352787733078, 0.04565209522843361, 0.0050904396921396255, -0.004390568006783724, -0.05888918787240982, -0.058035656809806824, -0.08257582783699036, 0.03691864386200905, 0.052633147686719894, -0.0312969870865345, 0.15233182907104492, -0.0007282154401764274, -0.10784029215574265, -0.1462690383195877, 0.0568990632891655, -0.13448503613471985, 0.2001446634531021, 0.1404280811548233, 0.011478306725621223, -0.02388797514140606, -0.06082320585846901, 0.05979813262820244, -0.018026182428002357, -0.08474971354007721, -0.02604139968752861, -0.0985131487250328, -0.10002627968788147, 0.03330955654382706, 0.010065644979476929, -0.015643320977687836, -0.025989912450313568, 0.02669738046824932, -0.026699714362621307, -0.04842066019773483, 0.03057771362364292, -0.13493312895298004, -0.050841525197029114, 0.0037529575638473034, -0.14302293956279755], [0.1519392430782318, 0.03272322937846184, 0.03622610494494438, 0.08344735950231552, -0.04678776487708092, -0.188124418258667, -0.09840274602174759, 0.05541887879371643, -0.16332052648067474, 0.10893182456493378, 0.03722948953509331, -0.01611323282122612, -0.05161631107330322, 0.04030682146549225, 0.025508223101496696, -0.020199554041028023, -0.032640427350997925, 0.11902908235788345, -0.07920857518911362, -0.028943294659256935, -0.02851252630352974, 0.09895089268684387, -0.09870164841413498, -0.03312375023961067, -0.056845635175704956, 0.015140102244913578, 0.0760272741317749, -0.1407444030046463, 0.04240080341696739, 0.013633999042212963, 0.05706511437892914, -0.2580265998840332, -0.04301372542977333, -0.22509010136127472, -0.11629222333431244, 0.011495274491608143, 0.041445016860961914, 0.09085356444120407, 0.026086868718266487, -0.13989529013633728], [-0.040976569056510925, -0.023311618715524673, -0.007145189214497805, -0.03059520572423935, -0.06219134479761124, -0.05623545125126839, 0.0939163789153099, 0.013422953896224499, -0.04460247978568077, 0.004856880754232407, 0.02325812168419361, 0.02745111659169197, -0.02547406405210495, -0.0017563648289069533, 0.010223600082099438, 0.03661594167351723, -0.020921815186738968, -0.039960943162441254, -0.09126207232475281, -0.03279037028551102, 0.005867823958396912, -0.001048099948093295, 0.038715340197086334, -0.10768889635801315, 0.03606827184557915, 0.10915809869766235, -0.10387929528951645, 0.13617154955863953, -0.055937401950359344, -0.022281760349869728, 0.06661199033260345, -0.06435845792293549, 0.022259971126914024, -0.09281150996685028, -0.14160297811031342, -0.08358998596668243, 0.116432324051857, 0.10642936080694199, -0.08468317985534668, -0.021887293085455894], [0.00010290119098499417, -0.0780792087316513, 0.14974398910999298, 0.12341347336769104, 0.1601795107126236, 0.008707734756171703, 0.03626765310764313, 0.03246234357357025, 0.08443069458007812, 0.028670592233538628, -0.08316512405872345, 0.0346413180232048, 0.2008076012134552, 0.07730168104171753, -0.11541801691055298, 0.1376776248216629, 0.06898333877325058, 0.08262187242507935, -0.11265327781438828, 0.037193186581134796, 0.01910214126110077, 0.03312794491648674, 0.00745638832449913, -0.1455344259738922, 0.05322502925992012, 0.044385477900505066, -0.10036638379096985, -0.11712876707315445, 0.13740938901901245, 0.0029699988663196564, -0.13424764573574066, -0.054327160120010376, 0.031139621511101723, 0.0917341336607933, -0.043258242309093475, 0.03524383157491684, -0.045014917850494385, 0.018215544521808624, 0.06803742051124573, 0.067782923579216], [0.10832751542329788, 0.10660368949174881, 0.05183073878288269, -0.05054853484034538, -0.04546712711453438, 0.011562835425138474, -0.08544062077999115, -0.10646342486143112, -0.07904721796512604, -0.05689168721437454, 0.00918461661785841, -0.10610757768154144, 0.11848268657922745, -0.1563245803117752, -0.037192560732364655, 0.0420597642660141, 0.08940063416957855, 0.12922050058841705, -0.2828241288661957, 0.04723144695162773, 0.1134248599410057, -0.07847035676240921, -0.002722847741097212, -0.12919111549854279, -0.11156588047742844, 0.08262577652931213, 0.062399499118328094, -0.060422834008932114, -0.07809771597385406, -0.11472601443529129, 0.008070067502558231, -0.08699074387550354, 0.07861600071191788, -0.08915504068136215, -0.007155939470976591, -0.01661638915538788, -0.00552785862237215, -0.06983555108308792, 0.1375686675310135, -0.004477390553802252], [0.10720807313919067, 0.12516610324382782, 0.0034561827778816223, -0.030200500041246414, 0.030189836397767067, -0.09679179638624191, 0.12400385737419128, 0.12854307889938354, 0.044903144240379333, -0.03391813114285469, -0.002382494742050767, -0.00821068324148655, 0.03321360796689987, -0.05418844893574715, 0.08399782329797745, -0.060348544269800186, -0.03170602768659592, 0.02802838757634163, -0.08616215735673904, 0.0008008822915144265, -0.01631251536309719, -0.07136298716068268, -0.03532387316226959, 0.013846047222614288, 0.0699833557009697, -0.10867545753717422, -0.1005217507481575, -0.09281633794307709, 0.030512679368257523, -0.03897538036108017, -0.056301798671483994, 0.11485415697097778, -0.025627754628658295, -0.06291601061820984, -0.002914460375905037, 0.14005330204963684, -0.027298707515001297, 0.07475954294204712, -0.12320393323898315, 0.019053375348448753], [-0.07107529044151306, -0.06882499903440475, -0.02309674210846424, 0.005306357517838478, 0.05206548050045967, -0.035237185657024384, -0.14274539053440094, -0.05241088569164276, -0.11635253578424454, 0.06549425423145294, 0.016791468486189842, -0.05374598875641823, -0.08853066712617874, 0.1990470439195633, -0.027558501809835434, -0.03892384469509125, 0.08441969007253647, 0.08339807391166687, -0.06283488124608994, -0.06490923464298248, -0.016462920233607292, -0.1705837994813919, 0.04826268181204796, -0.024786876514554024, 0.08629127591848373, 0.02736368216574192, 0.11297346651554108, 0.024669058620929718, 0.05855252966284752, 0.008230702951550484, 0.01845342479646206, 0.041971974074840546, 0.20730826258659363, -0.05236481502652168, -0.08171427994966507, -0.025108827278017998, -0.0339115746319294, -0.013850710354745388, -0.0017893873155117035, 0.12279818952083588], [0.05373910069465637, -0.12457899749279022, -0.041057050228118896, -0.01644241251051426, 0.13038483262062073, -0.045880142599344254, 0.142038494348526, -0.11672927439212799, -0.1571708768606186, -0.2133137285709381, 0.06516730785369873, -0.07080034166574478, -0.10139687359333038, -0.04095849394798279, 0.256797194480896, -0.021734867244958878, 0.08192946761846542, 0.14359353482723236, 0.06286238133907318, -0.014231997542083263, -0.020009107887744904, -0.014236790128052235, 0.058431368321180344, 0.15921205282211304, 0.08330392092466354, -0.017175139859318733, -0.15308737754821777, -0.011864332482218742, -0.03816584125161171, 0.02598891593515873, -0.029867172241210938, 0.005377883091568947, 0.07650656253099442, 0.19796517491340637, 0.08205460757017136, 0.02122775837779045, -0.10989127308130264, -0.05862170457839966, 0.1074243038892746, -0.09362887591123581], [-0.07781873643398285, -0.07139334082603455, 0.040141697973012924, 0.007445015944540501, -0.08923837542533875, 0.03407037630677223, -0.009378895163536072, -0.06227267161011696, -0.06546708196401596, -0.07279941439628601, -0.12733986973762512, 0.01115663442760706, -0.1885017305612564, 0.003218132071197033, -0.1136384978890419, -0.06328673660755157, 0.09602206945419312, 0.0813080370426178, 0.0805971771478653, -0.08001571148633957, -0.008774708025157452, 0.06799712777137756, -0.1449240893125534, 0.08022687584161758, -0.011476370505988598, -0.05037163570523262, 0.015523643232882023, 0.08055432885885239, 0.03086475282907486, -0.04054171219468117, 0.07413865625858307, 0.005381024908274412, -0.1954241394996643, 0.0634109228849411, 0.11381757259368896, 0.0778551772236824, 0.02511238120496273, -0.07520095258951187, -0.08616022020578384, -0.0877191573381424], [0.07520517706871033, 0.07157278060913086, 0.01734493486583233, -0.01699141040444374, 0.07582604140043259, 0.061771996319293976, -0.20029781758785248, -0.005314972251653671, 0.000442005752120167, -0.04035920277237892, -0.0523420087993145, 0.031600095331668854, -0.0948072150349617, -0.15608960390090942, -0.02807789109647274, -0.16698665916919708, -0.01123044453561306, 0.004608497954905033, 0.0790502279996872, 0.07573961466550827, -0.023542875424027443, -0.03526574373245239, 0.03880000859498978, 0.08640113472938538, 0.15410856902599335, 0.06870770454406738, 0.035271577537059784, -0.0024999903980642557, -0.05849387124180794, 0.07295646518468857, -0.11187875270843506, -0.07628928869962692, -0.00658574840053916, 0.016433456912636757, -0.0708279013633728, -0.12154493480920792, 0.22693990170955658, -0.08550780266523361, 0.09619901329278946, 0.0461483895778656], [0.02083771489560604, -0.134987935423851, -0.034119948744773865, 0.23583385348320007, 0.1453215479850769, -0.08495309948921204, -0.030372358858585358, -0.015365073457360268, -0.09779736399650574, 0.004460190422832966, 0.03179967403411865, 0.006928603630512953, 0.01334939431399107, -0.09376540035009384, -0.015611420385539532, -0.10598926246166229, -0.10174090415239334, -0.09480047225952148, -0.10345973819494247, -0.11376844346523285, -0.014385986141860485, 0.03568607196211815, 0.033673230558633804, 0.010521897114813328, -0.04511970281600952, 0.0632299855351448, 0.06565883755683899, -0.1597035974264145, -0.10675965994596481, -0.055103693157434464, 0.08991037309169769, -0.07533241808414459, 0.006499720737338066, 0.17010869085788727, -0.0013959016650915146, -0.15519016981124878, 0.01507458183914423, 0.013309660367667675, 0.039225708693265915, 0.12457815557718277], [-0.04387454688549042, 0.033352602273225784, -0.11091117560863495, -0.016353560611605644, 0.04799450561404228, 0.1468624472618103, -0.04619395360350609, 0.0498407706618309, -0.04897947236895561, -0.11485466361045837, -0.009688167832791805, 0.051949162036180496, -0.1925794929265976, 0.0491378977894783, 0.06437017023563385, -0.1291118711233139, -0.09472767263650894, -0.10535281896591187, 0.11519549787044525, 0.04641663283109665, -0.09880205243825912, 0.05906577780842781, 0.07832426577806473, 0.017563752830028534, -0.05990561097860336, -0.021281028166413307, 0.056439053267240524, -0.027470696717500687, 0.047699641436338425, 0.041376423090696335, 0.15164782106876373, 0.028229819610714912, -0.03504180535674095, 0.02407613955438137, -0.07836389541625977, -0.00048241898184642196, -0.02228081040084362, 0.1187073364853859, -0.04279069975018501, 0.0537550188601017], [0.2048719972372055, 0.07891129702329636, 0.02826051600277424, -0.17638501524925232, 0.21522611379623413, 0.025222206488251686, -0.041779711842536926, -0.006718531250953674, 0.003270113840699196, 0.03651447221636772, -0.014227122999727726, -0.017670895904302597, -0.009119123220443726, 0.06569430232048035, -0.04136417806148529, 0.05755220726132393, -0.0675811916589737, -0.0123261334374547, 0.013590304180979729, 0.0472053661942482, -0.0004490483261179179, -0.004787581507116556, 0.14905306696891785, 0.07688521593809128, -0.06997378915548325, 0.1970457285642624, 0.02908572368323803, 0.16810739040374756, -0.047177162021398544, 0.1978745460510254, -0.045871302485466, -0.10841330140829086, 0.11973446607589722, 0.04916338250041008, -0.001338386326096952, 0.08954296261072159, 0.06355740875005722, 0.11269405484199524, 0.005382099654525518, 0.10119330137968063], [-0.05647624284029007, 0.10841608047485352, -0.13441221415996552, -0.20253244042396545, 0.23088420927524567, 0.16259685158729553, -0.08291543275117874, -0.0627242922782898, -0.042290303856134415, 0.03865421563386917, 0.02514220029115677, -0.0819864422082901, -0.12187255918979645, -0.005348056089133024, 0.06681998074054718, -0.01288757286965847, 0.04631201922893524, 0.17929668724536896, 0.00963122770190239, 0.05676315724849701, 0.03349845111370087, 0.060237739235162735, 0.031737081706523895, -0.02672760747373104, -0.03759840130805969, 0.00948946550488472, -0.016917936503887177, -0.19827891886234283, -0.10206440091133118, -0.11381922662258148, -0.1243845745921135, 0.032806675881147385, -0.10555069893598557, -0.07212254405021667, 0.12012295424938202, 0.021296292543411255, -0.1082284152507782, 0.1389152854681015, -0.07456786185503006, 0.008497519418597221], [-0.05075952038168907, 0.057602379471063614, -0.21982181072235107, -0.04448704048991203, -0.014528402127325535, 0.006694375071674585, -0.0698166936635971, -0.11490053683519363, -0.1364096850156784, 0.03847187012434006, -0.07715067267417908, 0.03760485351085663, -0.008564487099647522, 0.033592719584703445, -0.050892915576696396, -0.07290849834680557, -0.027515318244695663, -0.11229270696640015, -0.10312152653932571, -0.14344322681427002, 0.09065348654985428, -0.14289157092571259, 0.08707912266254425, 0.0031297195237129927, -0.05118953809142113, -0.0063386885449290276, 0.058055050671100616, 0.01109024602919817, -0.09429263323545456, -0.19082219898700714, -0.04295862466096878, -0.023796871304512024, 0.01925811730325222, -0.07178380340337753, -0.0586010180413723, 0.02462022937834263, 0.043500933796167374, 0.10236913710832596, 0.07444479316473007, -0.039258744567632675], [0.015171648934483528, -0.12106334418058395, 0.21082159876823425, 0.15349014103412628, 0.006575843319296837, 0.08530448377132416, -0.15247786045074463, 0.01278641913086176, -0.05049660801887512, 0.10226316004991531, -0.025780929252505302, 0.07602034509181976, -0.01418465655297041, -0.10631158947944641, -0.014394938945770264, 0.031962040811777115, -0.0044565992429852486, -0.008926419541239738, -0.018474344164133072, 0.05281390994787216, -0.1418866515159607, 0.1730199158191681, 0.03703440725803375, -0.006290636956691742, -0.07265669107437134, 0.0394025556743145, 0.12075256556272507, 0.05248521268367767, -0.06475071609020233, 0.051158566027879715, -0.12076375633478165, -0.002650708658620715, 0.0573141910135746, -0.04715093597769737, -0.06807296723127365, -0.01368110254406929, -0.06566527485847473, -0.026834452524781227, 0.05916863679885864, 0.02730037271976471], [-0.11087707430124283, -0.09543580561876297, 0.022580811753869057, -0.09593130648136139, -0.11690923571586609, 0.10882242769002914, -0.26381516456604004, 0.017075462266802788, -0.13238027691841125, -0.13848358392715454, -0.20796890556812286, -0.05685500055551529, 0.13695307075977325, 0.00726039195433259, 0.11498679965734482, 0.0967026874423027, 0.030054042115807533, 0.08225298672914505, -0.07892750203609467, 0.052597012370824814, 0.0538916140794754, 0.023513328284025192, 0.08655673265457153, 0.08433728665113449, 0.11106714606285095, -0.08384481072425842, -0.010721058584749699, -0.018969383090734482, -0.11217697709798813, -0.031231040135025978, 0.05393829196691513, -0.10523765534162521, 0.021919280290603638, 0.07981989532709122, -0.094112329185009, -0.12731149792671204, 0.018279774114489555, 0.03705428168177605, -0.21302880346775055, 0.1115967407822609], [0.04809967428445816, -0.04394202306866646, -0.025136560201644897, -0.03159458562731743, 0.05760464817285538, 0.0608515590429306, -0.10610860586166382, 0.03821079805493355, 0.05284113436937332, 0.0682813823223114, 0.06565629690885544, 0.037712499499320984, 0.033968281000852585, 0.20372220873832703, -0.05839766561985016, 0.048627253621816635, 0.042567647993564606, -0.10431229323148727, 0.061235640197992325, 0.012290775775909424, -0.015026604756712914, -0.11983373016119003, 0.07002998888492584, 0.07097344100475311, 0.1552792489528656, -0.04406069219112396, -0.008084331639111042, 0.022078383713960648, -0.09633694589138031, 0.03209642320871353, 0.03404638543725014, -0.014304990880191326, -0.04301789030432701, -0.03752654790878296, 0.15660835802555084, 0.14333899319171906, -0.07675809413194656, 0.010371052660048008, -0.015343672595918179, -0.08476326614618301], [-0.13221997022628784, -0.0033567387145012617, 0.0025805975310504436, -0.023990724235773087, -0.022745560854673386, -0.012391996569931507, -0.03340885788202286, -0.028476443141698837, 0.008947550319135189, -0.03178092837333679, -0.030713917687535286, -0.017041239887475967, -0.08480323851108551, -0.0470065101981163, -0.10486464947462082, 0.07854384183883667, -0.16843967139720917, 0.0827883929014206, 0.08548842370510101, -0.018279075622558594, -0.052212104201316833, 0.07052440196275711, -0.0162586010992527, 0.025535723194479942, -0.006921292282640934, -0.17448148131370544, -0.19344760477542877, -0.026427196338772774, -0.007085252553224564, -0.0014887346187606454, 0.007426506374031305, -0.0981062576174736, 0.018512878566980362, -0.07687906175851822, 0.09762056916952133, 0.05783669650554657, 0.19945065677165985, -0.04751749709248543, 0.2659238278865814, -0.18274538218975067], [0.1763603538274765, -0.05349988862872124, 0.06249363347887993, -0.02898477204144001, 0.03368747606873512, 0.07759468257427216, 0.05214845761656761, -0.06166458874940872, 0.0729857012629509, 0.049790751188993454, -0.011790099553763866, 0.027075381949543953, -0.03809135779738426, -0.08356470614671707, 0.0508735254406929, 0.07525654882192612, -0.09846985340118408, -0.10926074534654617, -0.007010632194578648, -0.0998283103108406, -0.08879182487726212, 0.15596707165241241, 0.03321293741464615, 0.03367109224200249, 0.027329212054610252, 0.011459609493613243, -0.08892885595560074, -0.009413735941052437, -0.07440250366926193, 0.06737373769283295, -0.16730351746082306, 0.0908256247639656, -0.059251245111227036, 0.03950241208076477, 0.12810319662094116, -0.15961427986621857, 0.042295172810554504, -0.010125727392733097, 0.028755147010087967, 0.01976676657795906], [0.1511116921901703, -0.0020123508293181658, -0.02078912779688835, 0.00628566462546587, -0.09221665561199188, 0.052842434495687485, 0.031999621540308, -0.019407445564866066, 0.009613024070858955, -0.1259573996067047, 0.0036882711574435234, -0.13169671595096588, 0.018367670476436615, 0.05144694074988365, 0.023973511531949043, -0.022149594500660896, 0.02890545129776001, -0.024382254108786583, 0.01972019672393799, 0.07374095916748047, 0.11060408502817154, -0.052414730191230774, 0.0035220065619796515, -0.0033631708938628435, -0.1589912623167038, -0.09405147284269333, 0.03652793914079666, -0.04915456846356392, 0.1117321252822876, 0.13022182881832123, -0.10306281596422195, -0.14463111758232117, 0.04544445872306824, -0.009207081981003284, -0.22809043526649475, -0.17049574851989746, 