{"actor_logstd": [0.01907208003103733, 0.004767130129039288, 0.018594982102513313], "shared.0.weight": [[0.013149878941476345, 0.04525192454457283, 0.06525058299303055, 0.014165571890771389, -0.08331522345542908, 0.0224754698574543, -0.06765702366828918, 0.04300697147846222, 0.06242702901363373, -0.17371878027915955, 0.04819750785827637, -0.05797382444143295, 0.06096867844462395, 0.07072688639163971, -0.15541505813598633, -0.14078564941883087, 0.11487192660570145, 0.013999861665070057, -0.07526659220457077, 0.044784076511859894, 0.0104671660810709, 0.08105537295341492, -0.15302132070064545, -0.05142052844166756, -0.013464285060763359, -0.03892076015472412, -0.01426015142351389, 0.011845133267343044, 0.13847123086452484, 0.0016312096267938614, 0.013756920583546162, -0.040380313992500305, -0.07212889194488525, -0.10367451608181, -0.0954531580209732, -0.04589841887354851, 0.030432207509875298, -0.07167840749025345, -0.17729519307613373, 0.014847606420516968], [-0.20453573763370514, 0.14144764840602875, 0.11198257654905319, 0.13237863779067993, 0.1262003779411316, 0.03245798125863075, -0.05569935962557793, 0.024289242923259735, 0.049488384276628494, 0.11118514090776443, -0.022372210398316383, -0.03319258987903595, -0.055366721004247665, -0.05445298179984093, -0.03422318026423454, -0.013823759742081165, 0.11539783328771591, -0.00845186598598957, 0.0440252348780632, -0.05195661634206772, -0.16517306864261627, -0.10136033594608307, -0.03301306813955307, -0.087706059217453, 0.0016597895883023739, -0.00013246391608845443, 0.11771854758262634, -0.033273983746767044, 0.05370239540934563, -0.08001349121332169, -0.03667270019650459, -0.04659516364336014, 0.04650702700018883, -0.08018704503774643, -0.03513326868414879, -0.06521740555763245, -0.03140272945165634, 0.04746001586318016, 0.06209568679332733, -0.11526243388652802], [0.08888670802116394, 0.08926069736480713, -0.07286567986011505, -0.043010663241147995, 0.02390056848526001, -0.12016917020082474, -0.11275283247232437, 0.06791014224290848, -0.23191878199577332, -0.07525888085365295, -0.016446387395262718, -0.0950004979968071, -0.08083958178758621, -0.04204830527305603, -0.07461856305599213, -0.0045014661736786366, -0.055869534611701965, -0.020645268261432648, 0.02434220165014267, 0.16074877977371216, -0.1818421185016632, -0.01721043698489666, 0.02773677557706833, -0.11633213609457016, -0.06386744230985641, -0.016451284289360046, 0.17240940034389496, -0.12141809612512589, -0.00793429184705019, -0.0732613056898117, -0.02437227964401245, 0.02338595874607563, -0.11137985438108444, 0.05187969654798508, -0.02557031810283661, -0.09909779578447342, 0.08067873865365982, 0.14998352527618408, -0.21637161076068878, 0.0676526129245758], [0.03513700142502785, 0.0010618162341415882, 0.05700579285621643, -0.0597408227622509, -0.11163584142923355, 0.01599358767271042, 0.18977591395378113, 0.08490590006113052, -0.019960978999733925, 0.038733989000320435, -0.15791372954845428, 0.03774448484182358, 0.05101444944739342, -0.049961138516664505, -0.09057237952947617, -0.09544745832681656, 0.015834126621484756, -0.06356251984834671, 0.048752620816230774, 0.025694288313388824, 0.12988141179084778, -0.1740904152393341, -0.002822715090587735, 0.032600611448287964, -0.026478474959731102, 0.14344759285449982, 0.014914469793438911, 0.12558162212371826, -0.14153598248958588, -0.0103627759963274, -0.12549293041229248, -0.030911017209291458, -0.06032232195138931, -0.03102124109864235, 0.006143690086901188, -0.05623355880379677, -0.02601165696978569, -0.07558996230363846, -0.09536842256784439, -0.0058237104676663876], [0.044064149260520935, 0.12055151164531708, -0.029897771775722504, -0.08708840608596802, 0.0949104055762291, 0.07024159282445908, 0.07507366687059402, 0.0753927081823349, -0.011483512818813324, 0.054642755538225174, 0.04903634265065193, 0.07692296802997589, 0.0361144095659256, 0.011855465359985828, -0.11274037510156631, 0.06817438453435898, -0.022039828822016716, -0.054126184433698654, 0.03311360627412796, 0.08919317275285721, -0.16850881278514862, 0.11062690615653992, 0.0527849979698658, -0.0893353745341301, 0.08465174585580826, 0.03036486729979515, -0.04157024621963501, -0.07779477536678314, -0.14323113858699799, 0.0614066980779171, 0.16476979851722717, -0.05696723237633705, 0.14853572845458984, 0.058988917618989944, 0.02491166815161705, 0.1058591678738594, 0.016469694674015045, -0.009418011642992496, 0.08446020632982254, -0.072568379342556], [0.11328328400850296, 0.15183678269386292, -0.030555136501789093, 0.027130302041769028, -0.06031643599271774, 0.0042513469234108925, 0.1522304266691208, 0.11516701430082321, 0.08863385021686554, -0.07448061555624008, 0.003127892967313528, 0.058221761137247086, 0.19416400790214539, 0.034709382802248, 0.06524354219436646, 0.02040806971490383, -0.08863574266433716, -0.06903886049985886, 0.14592041075229645, 0.05735034495592117, 0.056474409997463226, -0.05809923633933067, 0.008123102597892284, 0.09813310950994492, -0.10059966892004013, -0.07054995745420456, 0.0470314584672451, 0.12297914177179337, 0.08775865286588669, 0.007085263263434172, -0.07707546651363373, -0.09864163398742676, 0.12654311954975128, 0.15844100713729858, 0.16407810151576996, 0.019283834844827652, -0.027090074494481087, 0.030763205140829086, -0.07781917601823807, 0.1254192739725113], [0.08384934812784195, -0.09043785184621811, -0.07103479653596878, -0.06556633859872818, -0.09503303468227386, -0.0988018810749054, -0.031824804842472076, 0.0015148133970797062, 0.036002859473228455, 0.10236433148384094, -0.03703976795077324, -0.007610668893903494, -0.09956531226634979, -0.08291249722242355, 0.12094368785619736, -0.02345411106944084, -0.2179740071296692, -0.1348307728767395, -0.014893668703734875, 0.08309567719697952, 0.0921890139579773, -0.14827875792980194, -0.07708224654197693, -0.038521502166986465, -0.007487686350941658, 0.011876393109560013, 0.08220873028039932, 0.021076608449220657, 0.16587983071804047, -0.0752309113740921, 0.03907713666558266, 0.20331184566020966, -0.012598734349012375, -0.1959889680147171, -0.10619354248046875, -0.019191481173038483, -0.05438883975148201, 0.1343885362148285, 0.026714524254202843, 0.05841120705008507], [-0.009778141044080257, -0.08481121808290482, 0.03028487041592598, -0.09702834486961365, -0.0021615708246827126, 0.06888708472251892, 0.09297115355730057, 0.11336441338062286, 0.08648410439491272, 0.1651013195514679, 0.0627673789858818, 0.01968483440577984, -0.04510434716939926, 0.10558980703353882, 0.044098228216171265, -0.14257396757602692, -0.043420471251010895, 0.016372205689549446, -0.12199052423238754, 0.09206633269786835, -0.017932264134287834, -0.14201302826404572, 0.008939805440604687, -0.0899573564529419, 0.16184206306934357, 0.003147133393213153, -0.024608656764030457, 0.05278490111231804, 0.06771469861268997, 0.018973514437675476, -0.03682221472263336, -0.12437330186367035, -0.03165239095687866, 0.028006667271256447, -0.07843012362718582, 0.09005782008171082, 0.061757512390613556, 0.12033632397651672, 0.009167845360934734, 0.10564030706882477], [0.016374528408050537, 0.048833366483449936, -0.05274142697453499, -0.08357658237218857, -0.00604223320260644, -0.06441940367221832, 0.15135593712329865, -0.0767684280872345, 0.058046888560056686, 0.12434305995702744, -0.15973198413848877, -0.0035349803511053324, 0.1902797669172287, -0.1923617422580719, 0.011254249140620232, 0.1021493449807167, -0.11696026474237442, -0.04925227910280228, 0.010817792266607285, 0.01023824606090784, 0.0022672489285469055, -0.025013593956828117, 0.028770675882697105, 0.053763579577207565, 0.12980617582798004, -0.040396127849817276, -0.08322177082300186, 0.029461096972227097, -0.1257670372724533, -0.025369917973876, 0.11011724919080734, 0.0022064263466745615, -0.006580205634236336, 0.0400925949215889, -0.010850257240235806, -0.08629247546195984, 0.015930233523249626, -0.019738344475626945, 0.11336281895637512, 0.08737753331661224], [0.04338180273771286, 0.033020153641700745, 0.014119136147201061, 0.05192688852548599, -0.1720452904701233, 0.02028569020330906, 0.18715792894363403, 0.013116734102368355, -0.0447644479572773, 0.0035283006727695465, -0.04524208605289459, 0.07881466299295425, 0.06859337538480759, 0.05764474719762802, -0.06536638736724854, 0.08090674877166748, -0.025891698896884918, 0.06802155822515488, -0.08653928339481354, 0.0007479366613551974, 0.0006874823593534529, -0.02565051056444645, 0.18910443782806396, -0.010580425150692463, 0.06637156754732132, -0.12474125623703003, -0.07053588330745697, -0.03930068016052246, -0.07745862752199173, 0.12042149156332016, 0.008419849909842014, -0.021789466962218285, -0.07577452063560486, 0.03650515899062157, -0.0861230343580246, 0.08017779141664505, -0.09268811345100403, 0.08501734584569931, 0.03546297550201416, 0.09010909497737885], [0.10552621632814407, -0.012431802228093147, 0.005600134376436472, -0.12032134085893631, 0.004560496192425489, 0.15130308270454407, 0.009196891449391842, -0.07390596717596054, -0.15608727931976318, 0.05575938522815704, -0.1983882039785385, -0.24164262413978577, -0.14338673651218414, -0.024899693205952644, -0.12503200769424438, -0.10534339398145676, -0.12004343420267105, 0.03970171883702278, 0.007562357932329178, 0.0037105258088558912, 0.13409283757209778, 0.03230961412191391, -0.005636273417621851, -0.02360013872385025, 0.11948854476213455, 0.08629199117422104, 0.024601859971880913, 0.052182454615831375, -0.05762721598148346, 0.03656051307916641, -0.04767904803156853, -0.08899425715208054, -0.02313004806637764, 0.13967016339302063, 0.02475445531308651, -0.030584212392568588, -0.08719916641712189, -0.07640532404184341, -0.009841375052928925, 0.24964456260204315], [-0.004519076086580753, 0.013088293373584747, 0.1159832552075386, 0.07141012698411942, 0.022103818133473396, -0.18688814342021942, 0.06595179438591003, -0.07696545869112015, -0.0554315410554409, 0.04139905050396919, -0.11731955409049988, -0.04143504053354263, 0.05770226567983627, -0.09713958948850632, 0.15099050104618073, 0.0677044466137886, -0.06700237840414047, 0.209133118391037, 0.04844169318675995, 0.047977812588214874, -0.07356249541044235, 0.12047410011291504, -0.08207575231790543, -0.11009333282709122, 0.12536326050758362, -0.0004938232013955712, -0.03950544819235802, 0.15367618203163147, -0.11613503843545914, -0.12191455066204071, 0.03165654093027115, 0.047976382076740265, 0.03787463903427124, -0.024891328066587448, -0.042183589190244675, -0.05704263970255852, -0.03626371547579765, -0.12716330587863922, -0.04131123796105385, 0.0002347659901715815], [-0.030111894011497498, -0.005077766720205545, 0.20205570757389069, 0.003350987797603011, -0.14747992157936096, 0.03256896138191223, 0.003799465484917164, 0.05109221115708351, 0.0261119082570076, -0.06193424016237259, -0.02325468696653843, 0.025588348507881165, -0.1339167356491089, -0.042031921446323395, 0.09607642889022827, -0.01687326468527317, 0.09956797957420349, -0.0366814099252224, -0.06521819531917572, 0.09366978704929352, -0.09637784212827682, 0.015743929892778397, 0.10930974781513214, 0.1068396344780922, 0.1307983547449112, -0.10149241983890533, 0.048253536224365234, 0.06696033477783203, -0.04576771333813667, -0.06699340790510178, 0.11780945956707001, -0.09913574904203415, 0.11803682148456573, 0.09956659376621246, 0.002612271811813116, 0.11176057904958725, 0.0351904034614563, 0.11740531027317047, 0.01841205358505249, -0.08898857980966568], [0.07638826221227646, -0.22007699310779572, 0.16992199420928955, 0.008281060494482517, 0.026559948921203613, 0.061198581010103226, 0.02324819751083851, -0.02612861804664135, -0.08305384963750839, 0.2337155044078827, -0.03498275950551033, -0.16717688739299774, 0.007719418965280056, 0.008084816858172417, -0.01614597998559475, 0.011045265942811966, -0.017189284786581993, 0.07558620721101761, 0.06540681421756744, -0.00682230805978179, 0.019999777898192406, -0.0790625736117363, 0.009884737432003021, 0.07055408507585526, 0.002563583431765437, -0.11206090450286865, -0.03239224851131439, -0.08338990062475204, -0.10268333554267883, 0.09367026388645172, 0.0579020194709301, -0.03994569182395935, 0.027955830097198486, -0.1320050060749054, -0.004928980488330126, -0.08003199845552444, 0.03300538286566734, -0.08284268528223038, -0.006534717511385679, -0.007591896690428257], [0.08939056843519211, -0.06386526674032211, -0.05465497076511383, 0.006862711627036333, 0.114412821829319, 0.1553022414445877, -0.19120845198631287, -0.02334071509540081, -0.04177389293909073, 0.024407261982560158, -0.13118413090705872, 0.12766139209270477, -0.11717108637094498, 0.015243945643305779, -0.08429872989654541, -0.0002745982783380896, -0.035305485129356384, 0.03192238509654999, 0.20717744529247284, -0.05134018138051033, 0.037014640867710114, -0.0930778905749321, 0.11888881772756577, -0.042397640645504, -0.008526588790118694, -0.0566607266664505, -0.06654340028762817, -0.005616695620119572, -0.09942617267370224, 0.05841398239135742, -0.15248608589172363, 0.07589283585548401, 0.08992510288953781, -0.10778068751096725, -0.10521053522825241, 0.18311147391796112, 0.08223568648099899, 0.16672086715698242, 0.0019079303601756692, -0.057705871760845184], [-0.06908250600099564, -0.09731430560350418, 0.04935581609606743, 0.026086071506142616, 0.062273502349853516, 0.12732765078544617, -0.052449170500040054, 0.047557126730680466, -0.09010336548089981, 0.0744641125202179, 0.09347395598888397, 0.06280600279569626, -0.1585250198841095, -0.06395477056503296, 0.12799549102783203, 0.09782831370830536, -0.0748748853802681, 0.02881784737110138, -0.023315304890275, -0.04629306122660637, 0.09537948668003082, -0.06697173416614532, 0.012172753922641277, -0.0003918109287042171, 0.05695771798491478, -0.042026761919260025, 0.03906581178307533, 0.03812030702829361, 0.012963477522134781, 0.09539590030908585, -0.10592731088399887, 0.0007220887928269804, -0.048235129565000534, 0.18772882223129272, 0.0329018160700798, 0.008086936548352242, -0.029264012351632118, 0.11815502494573593, -0.13261868059635162, -0.015512852929532528], [-0.001698496867902577, -0.054641563445329666, -0.051505014300346375, -0.07223653793334961, -0.06568858027458191, -0.056854911148548126, -0.00736565887928009, -0.0642709881067276, 0.016922052949666977, 0.014659134671092033, -0.07714244723320007, -0.07661525160074234, -0.07165689766407013, 0.11941543221473694, -0.03339683264493942, -0.055027302354574203, -0.1321210265159607, -0.1864759624004364, 0.03583493456244469, -0.009163412265479565, -0.047063667327165604, 0.00673301937058568, 0.006953379604965448, -0.04350103810429573, 0.014399626292288303, -0.02607755921781063, 0.03848397731781006, -0.05391278862953186, 0.004582734778523445, -0.19267429411411285, -0.003639436326920986, 0.018618693575263023, -0.05312231928110123, -0.1374477595090866, 0.11039024591445923, 0.02873104251921177, -0.007207722403109074, 0.0406835600733757, -0.08233200013637543, -0.09371152520179749], [0.10346747934818268, -0.017626168206334114, -0.050697047263383865, 0.03150531277060509, -0.048705555498600006, 0.012475485913455486, 0.2174624651670456, -0.02192060463130474, -0.1141819879412651, -0.03599724918603897, 0.09594392031431198, -0.049940261989831924, -0.03578228875994682, 0.03643316403031349, -0.03241662308573723, -0.05290311202406883, -0.12688665091991425, -0.16773435473442078, -0.1280687153339386, -0.20346584916114807, -0.06921102106571198, -0.06771093606948853, -0.09664538502693176, 0.06823406368494034, -0.10319206863641739, 0.013363317586481571, 0.032308999449014664, -0.037824735045433044, 0.14977750182151794, 0.027898386120796204, 0.1997094303369522, 0.16970489919185638, 0.013424267992377281, 0.04276690259575844, -0.154145747423172, 0.16860075294971466, 0.059914734214544296, 0.055229995399713516, -0.03510047122836113, -0.07417476922273636], [-0.05933394283056259, 0.026834573596715927, -0.022737350314855576, -0.1620919406414032, -0.1461058109998703, 0.06449390202760696, -0.13086088001728058, 0.011995349079370499, 0.08728217333555222, -0.15253719687461853, -0.03630625084042549, 0.14111684262752533, 0.05022992193698883, 0.08975262939929962, -0.03951172158122063, 0.19343192875385284, -0.09836775064468384, -0.0643453598022461, -0.00775520084425807, -0.14260104298591614, 0.17726407945156097, 0.06255661696195602, 0.03691825643181801, 0.026156101375818253, 0.08138442784547806, -0.06782553344964981, -0.06473028659820557, -0.007117098663002253, -0.09420806914567947, 0.05514499545097351, 0.07573315501213074, 0.05824359878897667, 0.03510940819978714, 0.0975557193160057, 0.05662178248167038, -8.64463800098747e-05, -0.04774327576160431, -0.03576985001564026, -0.16661500930786133, -0.20301447808742523], [-0.03781842067837715, 0.06746197491884232, 0.014487954787909985, 0.016824739053845406, 0.0904027670621872, -0.18295279145240784, -0.059453096240758896, -0.05052312836050987, 0.015281553380191326, -0.07778527587652206, 0.034362856298685074, -0.03144637867808342, 0.13397693634033203, -0.03374546393752098, 0.1182260662317276, 0.05415470898151398, -0.06376109272241592, 0.0756814107298851, -0.13587895035743713, -0.06077088043093681, -0.002262301277369261, -0.04213723912835121, 0.17193499207496643, -0.05543062835931778, -0.1925574243068695, 0.017926357686519623, -0.08409087359905243, 0.14322572946548462, 0.07411563396453857, -0.07323048263788223, -0.09994274377822876, 0.030261017382144928, -0.02817615307867527, -0.08960630744695663, 0.08803166449069977, 0.10072755813598633, 0.015723606571555138, -0.08268342912197113, -0.01860169507563114, 0.0887904018163681], [0.07515259087085724, -0.07773236185312271, 0.08795149624347687, 0.009764314629137516, -0.015525057911872864, -0.11052905023097992, -0.09999927878379822, -0.10096085071563721, -0.014667660929262638, 0.025460219010710716, 0.09976289421319962, -0.08745311200618744, 0.06309244781732559, -0.025575250387191772, 0.10200254619121552, 0.21088489890098572, -0.021870547905564308, -0.027997734025120735, -0.049250587821006775, -0.1623951494693756, 0.014754061587154865, -0.04797615110874176, 0.01909259520471096, 0.1588192880153656, 0.19064751267433167, 0.04830551519989967, 0.01668670028448105, -0.20316055417060852, -0.15280216932296753, -0.01341722346842289, -0.026912063360214233, -0.04325232654809952, -0.014593216590583324, 0.02280169539153576, 0.015670180320739746, -0.08730923384428024, 0.034459322690963745, 0.01798304170370102, -0.01923534646630287, -0.016641270369291306], [7.078800990711898e-05, 0.06794381886720657, 0.1307319700717926, -0.008946550078690052, -0.15378022193908691, 0.19070790708065033, -0.22774896025657654, 0.09853088855743408, -0.040280357003211975, 0.05401476472616196, -0.012366319075226784, -0.07094625383615494, 0.02102358266711235, 0.1616874784231186, -0.0003224193933419883, -0.05244297534227371, 0.10872837156057358, -0.024043606594204903, 0.1601923704147339, -0.06258220225572586, 0.014401155523955822, 0.06779570877552032, 0.10975553095340729, 0.015717653557658195, -0.07622400671243668, 0.013763648457825184, 0.06285174190998077, -0.05399388447403908, 0.08652174472808838, 0.0928451418876648, 0.036302436143159866, 0.06640925258398056, 0.017170080915093422, 0.09540731459856033, -0.09368430078029633, -0.03711162135004997, 0.030236607417464256, -0.027049195021390915, 0.02643986977636814, 0.031207693740725517], [0.1505800485610962, -0.05221361666917801, -0.12439697980880737, -0.12924085557460785, 0.021464122459292412, 0.02744521014392376, -0.09505517035722733, -0.019983384758234024, 0.013671379536390305, 0.03434203192591667, -0.016719477251172066, 0.08526796102523804, 0.06120303273200989, 0.12872429192066193, -0.0368022583425045, 0.007200931198894978, -0.09488637000322342, 0.04079543799161911, 0.03251674026250839, -0.03107236884534359, -0.018925173208117485, 0.08071916550397873, 0.08909650892019272, -0.07225196808576584, 0.03499847277998924, 0.06676850467920303, -0.011692376807332039, 0.10419444739818573, -0.018547702580690384, -0.1155887320637703, -0.08966613560914993, -0.07252732664346695, -0.04071570560336113, -0.04216437414288521, 0.03631557151675224, 0.010943271219730377, 0.122062087059021, 0.04991687089204788, -0.07432670891284943, -0.1075134351849556], [0.15155477821826935, -0.09055514633655548, -0.19891242682933807, 0.11942684650421143, -0.003845136146992445, -0.0350775308907032, 0.17772391438484192, -0.08183543384075165, -0.009094946086406708, 0.06259210407733917, -0.0849432423710823, -0.06654802709817886, 0.1726883053779602, 0.07912994921207428, -0.01736469566822052, -0.04639163613319397, -0.013534857891499996, 0.1658410131931305, 0.0027552007231861353, 0.04501162841916084, -0.08881229907274246, -0.09103047102689743, -0.03974025323987007, 0.053226254880428314, 0.07271182537078857, 0.040077563375234604, -0.153109610080719, 0.02421211078763008, -0.008868986740708351, -0.06965479254722595, 0.07138149440288544, -0.09482233971357346, -0.048503514379262924, 0.03493177890777588, -0.09420337527990341, 0.10955210775136948, 0.02531418576836586, 0.20981945097446442, -0.07273349910974503, -0.0958300232887268], [-0.22407302260398865, 0.10711392760276794, 0.11369931697845459, 0.005763010121881962, 0.24903607368469238, -0.02478720061480999, 0.014868748374283314, -0.09841997176408768, -0.07474306970834732, -0.05471557378768921, -0.03642392158508301, 0.12275576591491699, -0.06795408576726913, 0.1287844181060791, 0.01633111760020256, 0.033540353178977966, 0.11309006065130234, 0.11611934751272202, 0.09383704513311386, -0.016185931861400604, 0.05440852418541908, 0.06883379817008972, -0.009457770735025406, 0.02266036905348301, -0.09821326285600662, -0.038084592670202255, -0.12454872578382492, 0.1491428017616272, -0.08222049474716187, -0.07992992550134659, 0.15442106127738953, -0.11849068850278854, 0.07004748284816742, 0.15226909518241882, -0.09979420155286789, 0.02162477746605873, 0.020358167588710785, 0.004384804982692003, 0.09779822081327438, -0.009219222702085972], [-0.12492548674345016, 0.014053533785045147, -0.044512346386909485, 0.05576121062040329, 0.04222744703292847, -0.01639438048005104, 0.0959601178765297, 0.12970151007175446, -0.03159211203455925, -0.04792303219437599, -0.04875916987657547, -0.0752745270729065, -0.04342063143849373, -0.09951978176832199, 0.029284382238984108, 0.092872753739357, 0.20584239065647125, -0.21188805997371674, -0.016442982479929924, 0.009356495924293995, 0.04418022185564041, -0.05149824172258377, 0.08224812150001526, -0.06438977271318436, -0.06723042577505112, 0.050213757902383804, -0.045044802129268646, -0.021318748593330383, 0.09877687692642212, -0.04347074776887894, -0.07200180739164352, 0.12349960952997208, 0.11621823906898499, -0.07863330096006393, -0.06544259190559387, 0.12763820588588715, -0.09367416054010391, 0.03519272059202194, -0.10953710973262787, -0.3157939016819], [0.0665435865521431, -0.04487743601202965, -0.1039382740855217, 0.048021767288446426, 0.007854449562728405, 0.13439689576625824, 0.11440642923116684, -0.06757678836584091, 0.154238760471344, -0.06492723524570465, -0.032354384660720825, 0.058342404663562775, -0.025853663682937622, 0.00041472428711131215, -0.16674810647964478, 0.1117217168211937, 0.027638977393507957, 0.024289043620228767, 0.015529435127973557, 0.11910896003246307, 0.20552407205104828, 0.1090177670121193, 0.04526282846927643, 0.01381490658968687, -0.10361961275339127, 0.10384170711040497, 0.1890384703874588, 0.11223268508911133, -0.09314202517271042, -0.17514769732952118, 0.08778423070907593, -0.10118382424116135, -0.02109294757246971, -0.06918028742074966, 0.003359837457537651, 0.0032837344333529472, -0.12823939323425293, 0.21417707204818726, 0.15034523606300354, 0.1314556896686554], [0.03036106750369072, 0.07498665153980255, -0.11999787390232086, -0.06959040462970734, -0.10485167801380157, -0.05500636622309685, 0.10337168723344803, 0.09085042774677277, 0.11513099074363708, 0.016118500381708145, -0.09657168388366699, -0.00033442562562413514, -0.008747179061174393, -0.1615278273820877, -0.18812578916549683, -0.05506397783756256, 0.042660318315029144, 0.07294300198554993, -0.13881535828113556, -0.14180904626846313, -0.04899138957262039, 0.012862506322562695, 0.06027796491980553, -0.026954539120197296, 0.09072107076644897, 0.08140863478183746, -0.11273040622472763, -0.082833431661129, -0.09367481619119644, -0.06438785046339035, 0.08647490292787552, -0.0882314145565033, -0.06969685107469559, 0.00248315860517323, -0.07552003115415573, 0.1388930231332779, -0.11579892784357071, 0.11578698456287384, -0.0069811781868338585, -0.018363909795880318], [-0.13402555882930756, 0.06084184721112251, -0.10697602480649948, 0.26717209815979004, 0.04225931316614151, -0.005060593597590923, 0.0316176675260067, 0.015347910113632679, -0.02549007348716259, -0.09226661175489426, 0.0161769837141037, -0.013786870054900646, 0.16197510063648224, 0.0074509442783892155, -0.10704613476991653, -0.05382957682013512, -0.017940517514944077, -0.12415064871311188, -0.10297613590955734, -0.027239417657256126, 0.14719682931900024, 0.06891749054193497, 0.073014035820961, 0.08234758675098419, 0.0011505760485306382, 0.0034409621730446815, -0.005489705130457878, 0.009067404083907604, -0.0014233925612643361, -0.07264283299446106, 0.04263432323932648, 0.02085447870194912, -0.06362123787403107, -0.05546410381793976, 0.11433861404657364, -0.032709237188100815, 0.02469760738313198, 0.04855950176715851, 0.11360391974449158, -0.03928640857338905], [0.0017156465910375118, -0.09774571657180786, -0.14981546998023987, 0.01980891451239586, -0.0034625648986548185, 0.006547119468450546, 0.025508824735879898, 0.09594140201807022, 0.1239238902926445, -0.048142287880182266, -0.08313315361738205, 0.14444448053836823, -0.11864910274744034, 0.11496630311012268, -0.0973033457994461, -0.14582861959934235, 0.027494458481669426, 0.07541757822036743, -0.09504227340221405, 0.041851192712783813, -0.05072733387351036, 0.07505035400390625, 0.18569494783878326, 0.1418221890926361, 0.044381946325302124, -0.07704922556877136, 0.1295846402645111, -0.15681852400302887, -0.05382542684674263, 0.0028960970230400562, -0.04104664549231529, 0.1273658573627472, -0.007057050243020058, 0.0025205763522535563, -0.004041267558932304, -0.10617078840732574, 0.19911332428455353, 0.12829768657684326, 0.03771074116230011, -0.013901015743613243], [0.14387662708759308, 0.1479562371969223, 0.030923031270503998, 0.0016924513038247824, 0.12011341005563736, -0.031873032450675964, 0.09527342766523361, -0.00826448854058981, -0.0201107244938612, -0.008681736886501312, -0.10065779834985733, -0.022819355130195618, -0.02962065488100052, -0.0370548777282238, 0.07088498771190643, -0.12334820628166199, -0.11716494709253311, 0.12301186472177505, -0.10632283240556717, -0.04112960025668144, 0.016199707984924316, -0.12472891807556152, 0.05382879078388214, -0.13208404183387756, -0.07242804020643234, -0.16136164963245392, 0.05089215189218521, 0.09766899049282074, -0.0293497983366251, -0.08129431307315826, 0.11971411854028702, 0.09612410515546799, 0.08389215916395187, 0.11876097321510315, -0.1211104542016983, -0.10745678097009659, -0.05594818294048309, -0.03484547883272171, -0.01743745058774948, -0.013522299006581306], [-0.04934703931212425, -0.05085520073771477, -0.16089209914207458, -0.05292164161801338, 0.012853953056037426, 0.05488225445151329, -0.08093877136707306, 0.0582490898668766, -0.0035267502535134554, 0.013061500154435635, 0.22116166353225708, -0.022098159417510033, -0.16136710345745087, -0.029015252366662025, -0.07678297907114029, -0.06402812898159027, -0.009806222282350063, -0.057032953947782516, -0.029196439310908318, -0.14979611337184906, -0.025462491437792778, -0.11791688203811646, -0.07635669410228729, -0.013219129294157028, 0.03244295343756676, 0.007928047329187393, -0.03335526958107948, 0.01758725196123123, -0.020959077402949333, 0.14036647975444794, -0.04869808629155159, 0.028096908703446388, 0.2039516270160675, -0.0024630827829241753, 0.10500910133123398, 0.16302067041397095, 0.0923815667629242, 0.02708403579890728, -0.0359768383204937, 0.20355157554149628], [0.15841664373874664, -0.04289255291223526, -0.04821097105741501, 0.1308351308107376, -0.012941104359924793, 0.013867338187992573, 0.02064226195216179, 0.15229986608028412, 0.09878646582365036, 0.00559794157743454, 0.15623773634433746, 0.05868130549788475, 0.004887477029114962, 0.21924829483032227, 0.011706996709108353, -0.0468289814889431, -0.08570615202188492, -0.008125360123813152, 0.029061073437333107, -0.09289800375699997, 0.01843388006091118, -0.061044733971357346, -0.05918462201952934, -0.04426250979304314, -0.02951635606586933, -0.05599134787917137, -0.03797248378396034, 0.004639044404029846, -0.18284407258033752, 0.14793379604816437, 0.11995560675859451, 0.1092415452003479, 0.10964929312467575, 0.03011160157620907, -0.06520555913448334, 0.13191938400268555, -0.060935020446777344, 0.08576378971338272, 0.008891643956303596, -0.023914245888590813], [-0.18370088934898376, -0.16081053018569946, -0.09912997484207153, -0.003750881180167198, 0.004153857473284006, 0.07548393309116364, -0.021918198093771935, 0.15511560440063477, -0.06280183047056198, 0.04351542145013809, -0.02077694796025753, -0.03630964085459709, 0.021160507574677467, -0.018000667914748192, 0.1903294175863266, 0.044230081140995026, 0.012125750072300434, 0.17095448076725006, -0.09516892582178116, 0.07261983305215836, 0.0007823891937732697, 0.04329020157456398, 0.17200824618339539, -0.17375102639198303, -0.09548742324113846, 0.015124364756047726, -0.010354257188737392, 0.00399370351806283, -0.037995219230651855, -0.012277590110898018, 0.009877868928015232, -0.12882034480571747, -0.0291413813829422, -0.11629539728164673, 0.03589572384953499, 0.06741175055503845, 0.03637409955263138, 0.0022041487973183393, -0.08122529834508896, 0.022084467113018036], [0.035858601331710815, 0.05545758828520775, 0.03295993059873581, -0.0025767614133656025, -0.01760292798280716, 0.11727425456047058, 0.13735108077526093, -0.0083596957847476, 0.10531678050756454, 0.18350563943386078, 0.031112823635339737, 0.14196644723415375, -0.20977553725242615, -0.25290730595588684, 0.07732532173395157, -0.17358045279979706, -0.06994368135929108, -0.006711272988468409, -0.01713394932448864, -0.062412992119789124, -0.06899561733007431, 0.06431429833173752, -0.0023298515006899834, -0.05648138001561165, 0.03198336809873581, -0.014954839833080769, -0.00673667062073946, -0.13766923546791077, 0.09187644720077515, -0.0018123829504474998, -0.06273303180932999, 0.10352543741464615, -0.12848684191703796, 0.12756454944610596, 0.22926150262355804, -0.097561776638031, 0.006289570592343807, -0.07957758754491806, 0.03959755599498749, 0.013941076584160328], [0.12223132699728012, -0.0779140293598175, 0.013634778559207916, 0.05336309224367142, -0.002753452630713582, -0.013843667693436146, 0.0587756484746933, -0.0571221299469471, 0.00957631878554821, -0.04915066435933113, -0.010528557002544403, 0.02236628718674183, 0.03744806721806526, 0.14330102503299713, 0.05220183730125427, -0.007906189188361168, 0.0771433413028717, 0.0003046348865609616, -0.18545489013195038, 0.08513829857110977, -0.09914717078208923, -0.0855121910572052, 0.15461790561676025, -0.07224589586257935, 0.004655756521970034, -0.1719425916671753, 0.07826109230518341, 0.07521536201238632, 0.007729560136795044, 0.0926235169172287, 0.019148526713252068, 0.07624794542789459, 0.07154162973165512, 0.0819665864109993, 0.03812810406088829, -0.11609183996915817, -0.06603248417377472, 0.014816905371844769, 0.023461641743779182, -0.08837413042783737], [0.013182113878428936, -0.08007653057575226, -0.11529302597045898, -0.02190330997109413, -0.0494992695748806, 0.09609994292259216, 0.07278383523225784, -0.04631194844841957, -0.07881329953670502, 0.05514836683869362, -0.07056424766778946, 0.16110694408416748, 0.06204511597752571, -0.11184809356927872, -0.04326900839805603, 0.024106059223413467, -0.08910663425922394, -0.002904907800257206, 0.017856314778327942, -0.09264560788869858, -0.0829082727432251, 0.04790591076016426, 0.020290108397603035, 0.09390533715486526, 0.009702027775347233, -0.2212887406349182, -0.002619020873680711, 0.14023008942604065, 0.11842340975999832, -0.012556364759802818, 0.04070436954498291, -0.17489725351333618, 0.06012316420674324, -0.058040499687194824, 0.14782169461250305, 0.027884922921657562, -0.056211814284324646, 0.08550853282213211, 0.04187944903969765, 0.011591743677854538], [-0.31607162952423096, 0.18592281639575958, 0.04037673771381378, 0.0527212992310524, 0.07425802201032639, 0.0034840297885239124, -0.17572900652885437, -0.0071592777967453, -0.05901787430047989, 0.0007275182870216668, -0.02130303718149662, 0.0912439301609993, 0.04609988257288933, 0.19064109027385712, -0.12500376999378204, -0.1442977637052536, -0.1515888124704361, 0.013479993678629398, -0.20073117315769196, 0.0006203752709552646, -0.07669449597597122, -0.0019197836518287659, 0.03681003302335739, -0.030212724581360817, 0.044503189623355865, 0.11272405087947845, 0.005658410489559174, 0.048738520592451096, 0.11902409046888351, 0.012436388991773129, 0.09792984277009964, 0.11731992661952972, 0.18528562784194946, 0.0015720748342573643, 0.06319434940814972, -0.12103010714054108, 0.0319778174161911, 0.10104560106992722, 0.08710935711860657, 0.01778077334165573], [0.08885954320430756, -0.013719986192882061, -0.23055711388587952, -0.06735415011644363, 0.11670378595590591, 0.03953247889876366, 0.0908985286951065, 0.17048059403896332, -0.04240713641047478, -0.060887936502695084, -0.06313366442918777, -0.09140758961439133, 0.08000720292329788, 0.11800683289766312, -0.011137413792312145, 0.08088599145412445, 0.06434004753828049, 0.004662348423153162, 0.07266607135534286, 0.015704741701483727, 0.053397368639707565, -0.1284179836511612, -0.005074327811598778, 0.06768768280744553, 0.04080531373620033, 0.15197943150997162, 0.044509489089250565, 0.18920265138149261, 0.011501737870275974, -0.18535245954990387, 0.036652468144893646, -0.12942928075790405, -0.03232249617576599, 0.09797366708517075, -0.026650315150618553, 0.1686226725578308, 0.08407079428434372, 0.16762620210647583, 0.0505097396671772, 0.013347375206649303], [-0.02155648171901703, 0.02718312479555607, 0.0420004166662693, 0.05188506096601486, 0.024413710460066795, 0.01941550336778164, 0.0503980927169323, 0.09525710344314575, -0.16863927245140076, -0.07019107043743134, 0.14864803850650787, 0.1823548525571823, 0.13207204639911652, 0.08217419683933258, 0.05300556495785713, 0.011111260391771793, 0.053997691720724106, 0.04703366756439209, 0.071318618953228, -0.042863767594099045, -0.06095368415117264, -0.09821423888206482, 0.011185684241354465, -0.02117372862994671, 0.054641060531139374, 0.17762096226215363, -0.02831859700381756, -0.03634035959839821, -0.11820753663778305, 0.05134321749210358, -0.10106455534696579, -0.04050832241773605, -0.03862142190337181, -0.05984466150403023, 0.18992768228054047, -0.09436440467834473, 0.1042543277144432, -0.26233676075935364, 0.023426208645105362, -0.12319321185350418], [-0.020407551899552345, 0.07686645537614822, -0.07531338185071945, 0.036838598549366, -0.07273733615875244, 0.06827939301729202, 0.05938470736145973, -0.035127654671669006, -0.04924438148736954, 0.05090803653001785, -0.11924818903207779, 0.1107797771692276, 0.05342346057295799, -0.023438604548573494, 0.03379776328802109, -0.050121232867240906, 0.017959052696824074, 0.025131361559033394, -0.04731413349509239, 0.04391104727983475, 0.03786064311861992, -0.18825720250606537, -0.09279589354991913, 0.07587052881717682, -0.032786354422569275, -0.0059590148739516735, -0.10230065882205963, 0.037810228765010834, 0.05318049341440201, 0.07500903308391571, -0.10970106720924377, 0.09993782639503479, -0.006906190421432257, -0.027604050934314728, -0.023462770506739616, 0.08347015827894211, 0.05352947488427162, 0.03647167608141899, -0.057782597839832306, 0.04114643111824989], [-0.033079516142606735, -0.14750385284423828, 0.013605193234980106, -0.14763431251049042, -0.08471118658781052, -0.03099021688103676, 0.00133865000680089, -0.007766700349748135, 0.06702907383441925, -0.18847040832042694, -0.09033186733722687, -0.007658535148948431, 0.04185835272073746, 0.03255320340394974, -0.1802515983581543, -0.011646287515759468, -0.06911139190196991, 0.017111873254179955, 0.07089860737323761, 0.10187924653291702, 0.055499739944934845, -0.06575904786586761, 0.037054769694805145, -0.11555981636047363, -0.01589537039399147, -0.13252373039722443, 0.01949959248304367, -0.13982848823070526, 0.09652402251958847, -0.017555758357048035, 0.08204219490289688, -0.04221730679273605, 0.06352092325687408, 0.0449679009616375, 0.0519302599132061, 0.145232692360878, -0.05112490430474281, -0.11509165912866592, 0.06108028069138527, 0.02830403670668602], [0.08979788422584534, -0.11356489360332489, 0.07215679436922073, -0.011470252647995949, -0.10708050429821014, -0.01924976147711277, 0.08166290819644928, 0.0023559893015772104, -0.09842740744352341, 0.0013398953014984727, -0.08512796461582184, 0.11482003331184387, -0.09051381796598434, 0.009740971028804779, 0.06113571301102638, -0.14359265565872192, 0.1010860800743103, -0.02089664898812771, 0.1728488653898239, 0.08287300169467926, -0.09049227833747864, 0.11260579526424408, -0.10732551664113998, -0.035192400217056274, 0.06708228588104248, 0.009656334295868874, -0.10886973142623901, -0.05876431241631508, 0.08729390054941177, -0.06595552712678909, 0.14438821375370026, -0.018532412126660347, 0.05644097179174423, -0.08354870975017548, 0.016293160617351532, -0.13037891685962677, -0.018828758969902992, -0.0879998728632927, 0.08076731860637665, 0.11432719975709915], [0.14148308336734772, 0.04189486429095268, -0.004920296370983124, -0.07608376443386078, 0.1891927868127823, -0.1026386246085167, 0.1940924972295761, -0.10686483234167099, -0.07697650045156479, 0.006950329057872295, 0.013572807423770428, -0.048041291534900665, -0.07483488321304321, 0.0036518911365419626, 0.030002465471625328, 0.07450070977210999, 0.24334333837032318, 0.043896302580833435, -0.061518870294094086, 0.029228411614894867, 0.051132287830114365, 0.10992531478404999, 0.27597904205322266, -0.012282881885766983, -0.011370205320417881, -0.09025156497955322, -0.07419906556606293, 0.018274812027812004, 0.1244368627667427, 0.016148019582033157, 0.09605300426483154, -0.12239272147417068, 0.01921982690691948, 0.006734887138009071, -0.06607803702354431, -0.05323590338230133, 0.029557280242443085, -0.15715216100215912, -0.03343725576996803, -0.027101024985313416], [-0.015761569142341614, -0.09268517047166824, -0.07457851618528366, -0.0019315116805955768, -0.12895846366882324, 0.13747219741344452, 0.06374485045671463, -0.2057855725288391, -0.005171498283743858, -0.08956745266914368, -0.019303617998957634, 0.0891079381108284, 0.012540832161903381, -0.0958985909819603, 0.09977515041828156, -0.08725079149007797, -0.13564647734165192, -0.030785173177719116, -0.010505005717277527, 0.04669753834605217, -0.15996336936950684, 0.01293546985834837, -0.11272962391376495, -0.04456428438425064, -0.14209255576133728, 0.14430926740169525, -0.06034199893474579, -0.02917439490556717, 0.008328501135110855, 0.006996561773121357, 0.009586917236447334, -0.024318568408489227, -0.014992010779678822, -0.005079437978565693, 0.13170425593852997, -0.15557585656642914, 0.034352030605077744, 0.008917534723877907, -0.0801951140165329, -0.13363036513328552], [0.08581694215536118, 0.11748406291007996, -0.18720106780529022, -0.26218706369400024, -0.030443383380770683, 0.103736512362957, 0.016429217532277107, -0.050115905702114105, 0.031208261847496033, 0.031012583523988724, 0.018411628901958466, -0.0662611648440361, -0.018790557980537415, 0.16611039638519287, -0.006048883311450481, -0.005629607476294041, 0.2235507369041443, 0.022783899679780006, -0.053152039647102356, 0.06623918563127518, -0.07589220255613327, -0.13430263102054596, -0.039572589099407196, 0.13879697024822235, -0.08276078850030899, 0.036218926310539246, -0.16549324989318848, 0.01318492740392685, 0.03736718371510506, -0.04295119643211365, 0.09977716207504272, 0.15983988344669342, -0.025365911424160004, -0.02729182504117489, -0.04390693083405495, -0.13243387639522552, 0.04421791434288025, 0.0008366460097022355, 0.057047080248594284, -0.029420489445328712], [-0.04072341322898865, -0.07050176709890366, 0.13569313287734985, 0.02956584468483925, 0.0010309511562809348, -0.02215750887989998, -0.027801835909485817, 0.038942284882068634, 0.06429820507764816, 0.11588402837514877, 0.11884989589452744, -0.1331087052822113, 0.032057974487543106, -0.0829252302646637, 0.026987386867403984, -0.12079411745071411, 0.04348452389240265, 0.1361270695924759, 0.12157534062862396, 0.014663665555417538, 0.0743493139743805, -0.23301520943641663, -0.016729937866330147, 0.04531480371952057, -0.06503922492265701, 0.03177550807595253, 0.014573702588677406, 0.06078098714351654, -0.07450501620769501, -0.0723516047000885, -0.004024731460958719, -0.12274547666311264, 0.07804542779922485, -0.006383184809237719, -0.03937813639640808, -0.1162610650062561, 0.10157483071088791, 0.040872443467378616, 0.0875934287905693, -0.0635150894522667], [0.03359336405992508, -0.007513976190239191, 0.03367573395371437, 0.07568968087434769, 0.010306512005627155, 0.04500746726989746, 0.04657060280442238, -0.04177206754684448, 0.10879071801900864, -0.0994872897863388, -0.057713232934474945, -0.054639630019664764, -0.04881798103451729, 0.026104459539055824, 0.0730084702372551, 0.038065388798713684, -0.14558570086956024, -0.10490314662456512, 0.1274641752243042, 0.06757751852273941, -0.14735840260982513, -0.019481373950839043, 0.06822608411312103, -0.195280522108078, -0.006011481396853924, 0.10730802267789841, 0.17806893587112427, -0.032832514494657516, -0.08290213346481323, 0.09581834822893143, -0.13365289568901062, 0.03809105604887009, 0.10251174122095108, -0.06231224909424782, 0.09027361869812012, 0.05117056891322136, -0.07262831926345825, 0.07245402038097382, 0.053560636937618256, -0.01461519580334425], [0.09635169804096222, 0.01947791501879692, -0.034636739641427994, 0.10577844828367233, -0.03802190348505974, 0.00038524437695741653, 0.05235376954078674, -0.047763511538505554, 0.019788051024079323, -0.14666219055652618, 0.10995807498693466, 0.04534917324781418, 0.015233504585921764, 0.03923140466213226, 0.03682588040828705, 0.043538983911275864, -0.17220112681388855, 0.03681361302733421, -0.11310184001922607, -0.1021508201956749, -0.057980116456747055, 0.008065284229815006, -0.01676902361214161, 0.0299966000020504, -0.05452597141265869, 0.14363843202590942, 0.008709832094609737, 0.1933097243309021, -0.13897524774074554, -0.005492560565471649, 0.010791721753776073, -0.15529537200927734, -0.058450184762477875, -0.04110115021467209, 0.013499877415597439, -0.06667272001504898, -0.07580014318227768, -0.018195249140262604, 0.1307460069656372, 0.01389877125620842], [-0.06052972376346588, 0.033918023109436035, -0.010998014360666275, -0.044065237045288086, 0.003501195926219225, -0.12457529455423355, 0.09170450270175934, -0.12068203836679459, -0.059977177530527115, -0.229890838265419, -0.03339133411645889, -0.0573095977306366, 0.014336072839796543, -0.12682613730430603, 0.1315859705209732, -0.013000798411667347, 0.047379251569509506, -0.16241340339183807, -0.0534018836915493, 0.06811532378196716, 0.017761822789907455, -0.11321789771318436, 0.12138083577156067, 0.16804921627044678, 0.019512949511408806, 0.11904995888471603, 0.04576119780540466, -0.03508637845516205, -0.032025016844272614, -0.017250141128897667, -0.07299700379371643, 0.11553674191236496, 0.08325246721506119, 0.04907162860035896, -0.07320576906204224, -0.15469467639923096, 0.06733496487140656, 0.029110603034496307, -0.19753485918045044, 0.027794353663921356], [-0.04317360743880272, -0.049655038863420486, -0.14188078045845032, 0.0017125067533925176, 0.007202179171144962, 0.0975174531340599, -0.05797514691948891, 0.03388548269867897, 0.06244191527366638, -0.12659643590450287, 0.05404794216156006, -0.22957229614257812, 0.02234145998954773, 0.060729190707206726, -0.019460152834653854, 0.0014771639835089445, 0.009379486553370953, 0.0897180512547493, 0.09180239588022232, -0.03974665701389313, -0.03319240361452103, 0.06532211601734161, -0.11028382182121277, -0.17499828338623047, 0.01536686159670353, 0.0126487510278821, -0.12092743068933487, 0.08084297925233841, -0.03312314301729202, 0.09049002081155777, -0.12121149897575378, 0.1816912740468979, 0.03673025593161583, 0.15354742109775543, -0.1918049454689026, -0.10657861828804016, 0.08229940384626389, 0.06876391917467117, 0.08558938652276993, 0.02120979130268097], [0.15644462406635284, 0.1399339884519577, 0.09406627714633942, 0.02705123834311962, -0.016678476706147194, -0.03557737171649933, -0.03883644565939903, 0.00022511632414534688, 0.07655523717403412, -0.0350894071161747, 0.02246987074613571, -0.029967064037919044, -0.12992163002490997, 0.03920280188322067, 0.04405295476317406, 0.05949190631508827, -0.12662354111671448, -0.1332596242427826, 0.010536253452301025, -0.043455418199300766, -0.09172370284795761, -0.06973949074745178, 0.014971865341067314, -0.0020017772912979126, -0.06315559148788452, -0.07034999132156372, -0.10929565876722336, -0.018501507118344307, -0.08288858085870743, 0.00177493947558105, 0.06550686806440353, -0.15525943040847778, -0.08880890905857086, 0.06397203356027603, 0.0981992557644844, 0.09262475371360779, 0.010137145407497883, -0.038806602358818054, 0.03485143557190895, -0.0019933138974010944], [-0.1203015074133873, -0.11374455690383911, -0.07008660584688187, 0.00011469765740912408, -0.0375792421400547, -0.0005363348172977567, 0.042427342385053635, -0.050764866173267365, 0.019187290221452713, 0.026535220444202423, 0.11832991987466812, 0.0009525239001959562, 0.043225593864917755, -0.03209913149476051, -0.0914146900177002, 0.010715397074818611, 0.06705562025308609, -0.024990994483232498, 0.14524562656879425, -0.09186550229787827, 0.017664289101958275, -0.018564384430646896, -0.049283258616924286, 0.17064455151557922, 0.016308801248669624, -0.02864883281290531, 0.09431915730237961, -0.11561388522386551, -0.03330404683947563, -0.06526686251163483, -0.08435804396867752, 0.06322650611400604, 0.14416265487670898, 0.0018387254094704986, -0.1649327576160431, -0.1798335760831833, 0.06065304949879646, 0.12949681282043457, 0.09238865226507187, 0.03360248729586601], [-0.07870151102542877, -0.0043148319236934185, 0.028974244371056557, -0.10256770253181458, 0.005481342319399118, -0.017496440559625626, 0.11151034384965897, -0.1577216535806656, -0.008844626136124134, -0.05248885601758957, 0.20009218156337738, 0.01022118516266346, -0.19532765448093414, 0.045104388147592545, -0.1733701527118683, 0.124656543135643, 0.09034349769353867, 0.02809094451367855, -0.036700159311294556, -0.09006768465042114, -0.07521096616983414, 0.012453686445951462, -0.007504986599087715, -0.052264533936977386, -0.01262680534273386, 0.030401242896914482, -0.15337900817394257, -0.02696857787668705, -0.08509977161884308, -0.1600620001554489, -0.11679713428020477, 0.0043859840370714664, -0.10337482392787933, -0.0019368965877220035, -0.11164869368076324, -0.06687555462121964, -0.2108508050441742, -0.054774630814790726, 0.07307540625333786, -0.04328063502907753], [-0.14809183776378632, -0.042207323014736176, -0.14766277372837067, -0.07194174081087112, -0.15461613237857819, -0.012114863842725754, -0.02232285402715206, 0.049877870827913284, 0.14276963472366333, -0.14560119807720184, 0.004937572404742241, -0.1433742195367813, -0.007200452033430338, -0.098159059882164, 0.02826233021914959, -0.07232005894184113, -0.10797065496444702, -0.0803760439157486, 0.047671880573034286, -0.04330333694815636, 0.015169735997915268, -0.031041219830513, -0.006727275904268026, 0.04018723964691162, -0.0291550662368536, -0.06554515659809113, -0.07824835926294327, 0.06420624256134033, 0.13568904995918274, -0.10753138363361359, 0.1416550874710083, -0.0075882356613874435, 0.1600845754146576, -0.007456428837031126, -0.09810177981853485, 0.025397231802344322, -0.09435302764177322, -0.06789840757846832, -0.056560177356004715, 0.10127362608909607], [-0.018196921795606613, 0.02641240879893303, 0.12942112982273102, -0.031616732478141785, 0.05981585755944252, -0.14044636487960815, 0.052286744117736816, 0.0844305232167244, -0.03273704648017883, 0.04530966281890869, 0.04652552679181099, 0.09277898073196411, -0.05420401692390442, 0.07503163069486618, 0.00014984208974055946, -0.03236408531665802, -0.10441175103187561, -0.015967894345521927, -0.08759516477584839, 0.008889774791896343, 0.044769562780857086, -0.07716391235589981, 0.012029621750116348, 0.1355888992547989, -0.04555502533912659, 0.11668451875448227, 0.153671532869339, 0.09764519333839417, -0.04770246148109436, 0.06592677533626556, 0.09054993093013763, 0.034140754491090775, -0.058836471289396286, -0.029245834797620773, 0.06906504184007645, 0.1377200335264206, -0.1409427374601364, 0.011365849524736404, 0.010562467388808727, -0.010388675145804882], [0.0658811405301094, -0.0004514571628533304, -0.007565945852547884, 0.009912227280437946, -0.07879447937011719, -0.05774134024977684, -0.105946384370327, 0.006643438246101141, -0.11071472615003586, 0.05503241345286369, 0.09460238367319107, -0.07608529925346375, -0.06860369443893433, -0.09494609385728836, 0.24100546538829803, 0.007445127237588167, -0.12714755535125732, 0.01350051537156105, 0.0028109007980674505, 0.037163857370615005, -0.04767065495252609, 0.10968167334794998, 0.04729276895523071, -0.013546355068683624, -0.06657356768846512, 0.04223974421620369, -0.06534598767757416, -0.046697501093149185, 0.12944644689559937, 0.13151466846466064, -0.14703167974948883, 0.011714449152350426, -0.0404905267059803, 0.007424539886415005, -0.09879905730485916, -0.026670275256037712, 0.01939743012189865, 0.06958998739719391, 0.03001841902732849, -0.0220950897783041], [-0.038443151861429214, 0.02914494276046753, -0.06120673194527626, 0.07541019469499588, -0.06795123219490051, -0.08262088149785995, -0.020924033597111702, -0.1860453486442566, 0.03226078674197197, 0.10896207392215729, -0.01526463869959116, -0.046477630734443665, -0.002505015581846237, -0.013290094211697578, -0.1483333855867386, 0.026771698147058487, -0.03256680443882942, 0.04743201285600662, -0.019873082637786865, -0.0738600566983223, -0.05468345806002617, -0.08732113242149353, 0.02980083040893078, -0.04449993744492531, -0.05733681470155716, -0.1014823317527771, 0.10590610653162003, -0.023370692506432533, 0.011751974001526833, -0.04992508515715599, 0.09062356501817703, -0.07866455614566803, 0.02879299223423004, -0.02693973481655121, 0.14085979759693146, -0.010151708498597145, -0.07278656214475632, -0.10890870541334152, -0.11634665727615356, -0.02921789139509201], [-0.13525144755840302, 0.041972313076257706, 0.02922189235687256, -0.0379742756485939, -0.07093903422355652, 0.03339351341128349, -0.13070493936538696, -0.052157916128635406, -0.042128972709178925, 0.08268295228481293, -0.07196354866027832, -0.12691879272460938, 0.012931427918374538, 0.04703875631093979, 0.05690845474600792, -0.0019075976451858878, -0.22716642916202545, 0.04590483382344246, -0.18026389181613922, -0.033222999423742294, 0.059422947466373444, -0.023914579302072525, 0.14551497995853424, -0.0026345797814428806, -0.004577821586281061, -0.10710050165653229, 0.11164158582687378, 0.1680365353822708, 0.010076775215566158, 0.014966631308197975, -0.009794607758522034, 0.07056715339422226, -0.06432317942380905, 0.12305312603712082, -0.04448233172297478, 0.051129017025232315, 0.014851344749331474, -0.11142794042825699, 0.05468092858791351, -0.03167307749390602], [-0.041680708527565, 0.0024727170821279287, -0.08729284256696701, -0.015214646235108376, 0.11344166845083237, -0.09610205143690109, 0.020796507596969604, 0.1041015088558197, 0.02378985844552517, 0.09217596054077148, 0.09259343147277832, -0.11823491752147675, -0.11779363453388214, 0.004695282783359289, 0.014896787703037262, -0.03950664773583412, 0.0780944898724556, -0.018175750970840454, -0.034202490001916885, -0.11497466266155243, -0.02139849215745926, 0.1481439769268036, -0.09613350033760071, 0.09495215862989426, -0.06626039743423462, 0.04497659206390381, -0.11002055555582047, -0.05631641671061516, 0.04414139315485954, 0.2019941806793213, 0.005227223504334688, 0.0509687140583992, -0.03384324163198471, 0.0032120547257363796, 0.10435377061367035, 0.17204168438911438, -0.07613334059715271, -0.056849945336580276, -0.005106729920953512, 0.10727069526910782], [0.061382025480270386, -0.10748245567083359, -0.007913326844573021, -0.2151924967765808, -0.015866508707404137, 0.061418063938617706, -0.11919362843036652, 0.12072888761758804, -0.15757641196250916, -0.13255614042282104, 0.020911047235131264, 0.11440161615610123, 0.014481672085821629, -0.03313593193888664, 0.08432184904813766, 0.016448991373181343, 0.06567354500293732, 0.015502284280955791, -0.04560379683971405, 0.05111106485128403, -0.08852960914373398, 0.07176858186721802, -0.11614145338535309, 0.0018385157454758883, -0.18281133472919464, 0.012859801761806011, 0.037627194076776505, -0.07407867163419724, 0.050635382533073425, -0.01192798838019371, 0.005170920398086309, 0.16107533872127533, -0.15775057673454285, 0.019786396995186806, 0.03430590778589249, -0.015322886407375336, 0.1248716339468956, -0.02273293398320675, 0.19633834064006805, 0.03222965821623802], [0.09725639969110489, -0.004973994102329016, 0.02686833031475544, 0.08273325860500336, 0.07352861016988754, 0.02373121865093708, 0.027397120371460915, 0.05829557031393051, -0.054959092289209366, -0.06192921847105026, 0.03798868507146835, 0.007662554271519184, 0.05358067527413368, 0.08134331554174423, 0.06712443381547928, -0.046061426401138306, -0.0045274789445102215, -0.12024058401584625, 0.052148591727018356, 0.10655304044485092, 0.10451280325651169, -0.10778948664665222, 0.052277326583862305, -0.11749980598688126, -0.1221238449215889, -0.05911136046051979, -0.07539093494415283, -0.010754484683275223, 0.12104477733373642, -0.19601963460445404, 0.03952167183160782, 0.08474338054656982, -0.08436843007802963, 0.016459165140986443, -0.06886137276887894, -0.10408501327037811, -0.13354530930519104, -0.04851461574435234, -0.15774866938591003, 0.14514370262622833], [-0.023329799994826317, 0.06680580228567123, -0.047096412628889084, 0.0917479619383812, 0.12151763588190079, 0.011364434845745564, -0.01877358742058277, 0.0829639881849289, -0.0002295147569384426, 0.0813702642917633, -0.04535699263215065, 0.15154896676540375, 0.12449828535318375, 0.07529807090759277, -0.07601756602525711, 0.06297412514686584, -0.025361422449350357, 0.19840578734874725, 0.0258689746260643, -0.05125165358185768, 0.046732258051633835, -0.059605810791254044, -0.0344727449119091, 0.17996874451637268, -0.049604132771492004, 0.08071653544902802, 0.128177672624588, -0.15080097317695618, 0.11842707544565201, 0.10965850204229355, 0.14112375676631927, -0.058323513716459274, -0.0966230109333992, -0.11944346874952316, -0.06212512403726578, -0.12711572647094727, 0.04418868198990822, 0.12086223810911179, 0.07442482560873032, 0.015485639683902264], [-0.14231684803962708, 0.12547768652439117, -0.05688904598355293, 0.1007886603474617, -0.07461331784725189, -0.15174873173236847, -0.140355184674263, -0.06400540471076965, -0.041671089828014374, 0.04173222929239273, -0.09449073672294617, -0.03679262101650238, -0.06629954278469086, -0.05050399526953697, -0.14418594539165497, -0.08656194806098938, -0.18424008786678314, -0.08546936511993408, 0.04786260798573494, -0.054777003824710846, 0.06286390125751495, 0.04177991673350334, 0.025117622688412666, 0.11095011234283447, 0.14498667418956757, 0.05176360532641411, -0.022174695506691933, 0.12524932622909546, -0.0874747782945633, -0.05214298516511917, 0.056203536689281464, -0.027119234204292297, -0.05925476923584938, -0.13063105940818787, -0.18569475412368774, -0.08523067831993103, 0.03949952498078346, 0.05608898028731346, -0.2837466299533844, -0.015789516270160675], [0.04660564288496971, 0.1499924212694168, 0.01314686518162489, -0.11053773760795593, 0.004158948548138142, -0.0913066491484642, 0.11228612810373306, 0.11148838698863983, 0.2018866091966629, 0.002364469226449728, 0.054871171712875366, -0.11879889667034149, -0.06234266236424446, 0.0037529112305492163, -0.05069437995553017, -0.17774546146392822, -0.1085035651922226, 0.11034643650054932, 0.2463948279619217, 0.11517259478569031, -0.03679169714450836, -0.09743812680244446, -0.017110297456383705, 0.07946394383907318, 0.02559102512896061, -0.0710764154791832, -0.07079097628593445, 0.0378911979496479, -0.012107467278838158, 0.037409111857414246, -0.016399415209889412, -0.06839542835950851, 0.057468295097351074, -0.20179490745067596, -0.21021206676959991, 0.07541944086551666, -0.11905576288700104, -0.04611421003937721, 0.09885773807764053, -0.03480834886431694], [0.04166798293590546, 0.22868777811527252, 0.10984054207801819, 0.0916101410984993, 0.08628670871257782, -0.022155936807394028, -0.09247064590454102, 0.1188759058713913, 0.04237235337495804, -0.08493222296237946, -0.06338385492563248, -0.015118095092475414, -0.050702713429927826, -0.09950119256973267, -0.09122300893068314, 0.027143243700265884, 0.18765714764595032, -0.06231860816478729, 0.08174924552440643, -0.07251229137182236, 0.016542134806513786, 0.05743250250816345, -0.17063063383102417, 0.07025923579931259, -0.04035051167011261, 0.02186889760196209, 0.09001369029283524, 0.06275176256895065, -0.08135607838630676, -0.16910392045974731, -0.15081539750099182, 0.056870605796575546, -0.021425725892186165, -0.06778985261917114, 0.028744634240865707, -0.053434424102306366, -0.16151122748851776, -0.07436687499284744, -0.04024739935994148, 0.22632171213626862], [0.003333107102662325, 0.03839286044239998, -0.2616492807865143, 0.007866215892136097, -0.0029621748253703117, -0.1304628551006317, -0.059207733720541, -0.08317602425813675, -0.0023912808392196894, -0.038225311785936356, 0.19748875498771667, 0.00874081626534462, -0.09763302654027939, -0.02506408281624317, -0.008705360814929008, 0.12470832467079163, -0.0990959107875824, 0.007950830273330212, 0.1521161049604416, 0.08254053443670273, 0.040185000747442245, 0.03130899742245674, -0.011370866559445858, -0.05592797324061394, -0.08610641211271286, -0.031186727806925774, -0.07990015298128128, 0.07866057753562927, -0.01824694685637951, 0.07923543453216553, -0.04720333218574524, -0.005410858429968357, 0.0042421515099704266, -0.026524892076849937, 0.20740196108818054, -0.09262743592262268, 0.06496395170688629, -0.0773419737815857, -0.05827898159623146, 0.11070556938648224], [-0.0535164438188076, 0.11044757813215256, 0.04048919677734375, 0.15677064657211304, -0.11769191175699234, -0.1093112975358963, -0.029286019504070282, 0.04775535687804222, 0.0891643688082695, -0.11236725002527237, 0.10108352452516556, 0.02705528773367405, 0.009858174249529839, 0.02653617411851883, 0.01793583668768406, -0.16218774020671844, -0.12252477556467056, 0.09580477327108383, 0.00966519396752119, -0.003735132748261094, -0.10051994025707245, -0.0960068628191948, 0.1497887223958969, 0.20649279654026031, 0.21020379662513733, -0.22873304784297943, 0.14482486248016357, 0.02736467309296131, 0.024586429819464684, 0.05683804675936699, 0.05647733435034752, -0.017893511801958084, 0.030819974839687347, -0.10000928491353989, -0.0034040671307593584, 0.041815385222435, -0.07034282386302948, 0.023034071549773216, 0.1010931208729744, 0.019442696124315262], [-0.02426961623132229, 0.10321419686079025, -0.1428820937871933, -0.00836520828306675, -0.125067800283432, -0.09102391451597214, -0.06344577670097351, -0.06389322876930237, -0.23808027803897858, 0.005350080318748951, 0.005445142276585102, -0.02011781930923462, 0.007811347953975201, -0.0027570826932787895, 0.17018195986747742, -0.15236203372478485, -0.02054852992296219, -0.016544559970498085, 0.10864975303411484, 0.10596563667058945, -0.04910406842827797, 0.006045091897249222, 0.07390491664409637, -0.05113723501563072, 0.006536522880196571, -0.15723095834255219, -0.14787790179252625, -0.03019106201827526, -0.007176833692938089, -0.0737004354596138, -0.023670990020036697, -0.027135392650961876, 0.08717849105596542, -0.18809014558792114, 0.04272373393177986, -0.0706450343132019, -0.11400552093982697, -0.026485217735171318, 0.2005046308040619, -0.052029430866241455], [0.1010872945189476, 0.19264483451843262, -0.07977798581123352, -0.03641645982861519, -0.07593189179897308, 0.04543338343501091, -0.1026938259601593, 0.042644016444683075, 0.08736253529787064, -0.00486591923981905, -0.026218080893158913, -0.028524793684482574, -0.05383668839931488, -0.03950440511107445, 0.09748753160238266, -0.11156949400901794, -0.03249558061361313, 0.07083757221698761, 0.08873669058084488, 0.014277540147304535, 0.022478226572275162, -0.02193373255431652, 0.10473726689815521, 0.062213316559791565, -0.11477447301149368, -0.004299194552004337, 0.17875590920448303, 0.10140737891197205, -0.07611086964607239, 0.03818271681666374, -0.045506931841373444, 0.1263422816991806, 0.0020110420882701874, 0.03619849309325218, -0.07904095947742462, 0.1156025305390358, 0.08535561710596085, -0.04514990746974945, -0.14437563717365265, -0.055056069046258926], [0.04216236248612404, 0.1304570883512497, 0.07081688195466995, -0.13009239733219147, 0.07870466262102127, 0.07652691006660461, 0.03377820551395416, 0.050682634115219116, -0.07391712814569473, 0.08053223788738251, 0.11760909110307693, 0.13814139366149902, 0.04552126303315163, -0.05137597769498825, -0.00976258609443903, 0.04191204532980919, -0.24631652235984802, 0.006649116054177284, 0.03779662027955055, 0.0727095752954483, 0.028821561485528946, -0.03182924538850784, -0.04916362836956978, -0.017116684466600418, 0.11834666132926941, 0.016692792996764183, -0.02916957065463066, -0.04606875032186508, -0.1265036016702652, 0.040224965661764145, -0.10676146298646927, -0.05121252313256264, -0.029329169541597366, -0.0828632339835167, -0.03847726806998253, 0.04905598610639572, -0.041280411183834076, 0.18866875767707825, 0.020734988152980804, 0.014699006453156471], [-0.10985636711120605, 0.10398896038532257, 0.04403391480445862, -0.08125970512628555, -0.11583832651376724, -0.12750571966171265, -0.0694059208035469, 0.0074952649883925915, -0.121319480240345, 0.13688334822654724, 0.047403085976839066, -0.01404479518532753, 0.03674185276031494, 0.051526106894016266, -0.09717635065317154, 0.14196427166461945, -0.03861455246806145, 0.02771155536174774, 0.11115003377199173, 0.09238527715206146, 0.0335303358733654, 0.15089809894561768, 0.14487679302692413, 0.028423652052879333, -0.06511123478412628, -0.09053828567266464, -0.020266665145754814, 0.002973939524963498, 0.01911189965903759, 0.07393758744001389, -0.16815291345119476, 0.12400207668542862, 0.20433101058006287, -0.029343098402023315, -0.022144516929984093, -0.15354487299919128, 0.018482239916920662, -0.12481490522623062, -0.09413313865661621, 0.09143363684415817], [0.0323806069791317, 0.06451164186000824, -0.08280100673437119, 0.0029179698321968317, 0.10640062391757965, 0.09294270724058151, -0.08446285873651505, -0.03294248878955841, -0.008787281811237335, 0.018989400938153267, 0.10802758485078812, -0.08945418894290924, 0.06034065783023834, -0.07484358549118042, -0.012741920538246632, -0.11106318980455399, -0.04891718551516533, 0.04055042937397957, -0.08093371987342834, -0.056055959314107895, 0.0383630096912384, 0.05577866733074188, -0.050313837826251984, 0.030465442687273026, 0.018568653613328934, 0.19682833552360535, -0.12778832018375397, 0.027378423139452934, 0.011529866605997086, -0.03394094109535217, -0.009562724269926548, 0.04826824367046356, 0.0028996935579925776, 0.028605086728930473, -0.05916116014122963, -0.02365366369485855, -0.136897474527359, -0.03763566166162491, -0.08385348320007324, 0.04612979665398598], [0.04982159659266472, -0.016741937026381493, -0.021547280251979828, 0.050960082560777664, 0.051542360335588455, -0.18602918088436127, -0.04242062568664551, -0.039656490087509155, -0.11072509735822678, -0.01980973593890667, -0.025391345843672752, -0.09301929175853729, 0.06786532700061798, 0.047610219568014145, -0.05573267862200737, 0.06820299476385117, -0.038703277707099915, -0.12451169639825821, 0.13324446976184845, 0.09203560650348663, 0.049009762704372406, 0.010518249124288559, -0.04350182041525841, -0.11769165098667145, 0.07896989583969116, 0.05886157229542732, -0.05839274078607559, 0.029250791296362877, -0.03609633445739746, 0.04814985394477844, 0.06207655742764473, 0.057751018553972244, 0.018334422260522842, 0.09593906253576279, -0.05065618455410004, -0.14786559343338013, 0.027280418202280998, 0.05231975391507149, 0.09394875168800354, -0.029772013425827026], [0.08983837813138962, -0.005651925224810839, -0.06320289522409439, 0.012195134535431862, -0.03170362487435341, 0.061754681169986725, 0.0051015205681324005, -0.16443924605846405, -0.003391002304852009, -0.07335322350263596, 0.06781350821256638, 0.14788362383842468, 0.005169135984033346, -0.05954904109239578, 0.06267012655735016, -0.009487382136285305, 0.0806051716208458, -0.10060806572437286, -0.022905927151441574, -0.15348394215106964, -0.029151789844036102, 2.6167923351749778e-05, 0.08759526908397675, 0.08162935823202133, -0.02494903653860092, -0.06115521863102913, 0.151304230093956, 0.013711214996874332, 0.11392737925052643, -0.02352616935968399, 0.022266017273068428, -0.11314219236373901, -0.13387922942638397, 0.09187303483486176, -0.05702371522784233, 0.044379062950611115, -0.009910812601447105, -0.14003095030784607, 0.10126371681690216, 0.09993813931941986], [-0.027081385254859924, 0.012682085856795311, 0.1933925598859787, -0.03590474650263786, 0.02253906801342964, -0.011321119032800198, -0.05438336730003357, -0.10567400604486465, -0.159373939037323, -0.14852318167686462, 0.1597701609134674, 0.13179463148117065, 0.02539571188390255, -0.02242572419345379, 0.07244691252708435, 0.11887210607528687, 0.0283217690885067, -0.08950968086719513, -0.015084603801369667, -0.0753200426697731, 0.09000102430582047, 0.1394762396812439, -0.05429058149456978, 0.09595736861228943, -0.011271500028669834, -0.06470613181591034, 0.0435478650033474, 0.016500435769557953, -0.1384604424238205, 0.13411900401115417, 0.1557566225528717, 0.017262037843465805, -0.008917990140616894, 0.007934991270303726, -0.15096157789230347, -0.023298678919672966, -0.02408418245613575, 0.02246972732245922, -0.08572183549404144, 0.03958375006914139], [0.012662926688790321, 0.015533785335719585, 0.02757137268781662, -0.02617931179702282, 0.19448286294937134, 0.004034290090203285, -0.045536238700151443, -0.14641323685646057, 0.0555623397231102, 0.01707461290061474, 0.026406800374388695, 0.16931499540805817, 0.20193763077259064, -0.09741991013288498, -0.016729790717363358, -0.09396865218877792, -0.02424538880586624, 0.13141852617263794, -0.05040997266769409, 0.0020757915917783976, -0.004194789566099644, 0.056465402245521545, -0.15237957239151, 0.03044802136719227, -0.026909692212939262, -0.00223438604734838, -0.03384001925587654, 0.0682012289762497, -0.08756183087825775, -0.0027434753719717264, -0.04908496141433716, 0.09855113178491592, -0.013621577993035316, 0.1613883674144745, 0.03578649461269379, -0.021258283406496048, -0.17663238942623138, 0.005780534353107214, 0.07600156962871552, -0.0812992975115776], [-0.02674015797674656, -0.20665451884269714, 0.13462403416633606, 0.06560702621936798, -0.07807571440935135, -0.19723564386367798, -0.005365446209907532, 0.09763752669095993, 0.10323096811771393, -0.04702245071530342, -0.04250573366880417, 0.06979041546583176, 0.08121051639318466, -0.15649597346782684, -0.039520520716905594, 0.008619057945907116, 0.09880409389734268, 0.0516977421939373, -0.03494131192564964, -0.062378983944654465, 0.017135364934802055, 0.030695615336298943, -0.08376748114824295, -0.08456074446439743, 0.15833421051502228, 0.015621442347764969, -0.052271805703639984, 0.11827342957258224, 0.08032802492380142, 0.1878000795841217, 0.00796179473400116, 0.07804717123508453, 0.055853571742773056, 0.1541827768087387, 0.003351867664605379, 0.05677551403641701, -0.12198685854673386, 0.008845070376992226, -0.15412859618663788, 0.15255768597126007], [-0.04206501320004463, -0.0018617208115756512, 0.11859811842441559, 0.09450551867485046, 0.031565554440021515, -0.1664694994688034, -0.021378139033913612, 0.1404425948858261, -0.0013505002716556191, 0.07978672534227371, 0.13383516669273376, 0.021455615758895874, 0.15603694319725037, -0.052848488092422485, 0.04345616698265076, 0.04028170183300972, 0.05748656019568443, -0.0010926621034741402, 0.07804176956415176, -0.11479159444570541, -0.08550076186656952, 0.025761280208826065, 0.04555444046854973, -0.03155701607465744, -0.04097045958042145, 0.010946203954517841, -0.08660993725061417, -0.04771803319454193, 0.10311086475849152, -0.018138064071536064, 0.05368022248148918, -0.04129163920879364, -0.15422038733959198, -0.1584523767232895, 0.025889365002512932, -0.02993822656571865, -0.13674432039260864, 0.07326348125934601, -0.007957182824611664, -0.05543208867311478], [-0.0036396097857505083, 0.08190596848726273, 0.07394755631685257, 0.025414681062102318, -0.09325382858514786, -0.014431072399020195, 0.0672203078866005, -0.09166873246431351, -0.05003147944808006, -0.12321484088897705, 0.049675218760967255, -0.12039456516504288, -0.03147447854280472, -0.07763441652059555, -0.12279956787824631, -0.11285324394702911, -0.03054969571530819, -0.057777971029281616, -0.06044795364141464, 0.11193595081567764, -0.005866606719791889, -0.014955541118979454, 0.1122838705778122, -0.03263087198138237, 0.12136393785476685, 0.1046883761882782, -0.049431752413511276, 0.06800872087478638, 0.04381893575191498, 0.095331571996212, -0.11816207319498062, -0.01154615543782711, 0.004469140898436308, -0.012316688895225525, 0.020430637523531914, 0.027203986421227455, -0.0983903706073761, -0.07139591872692108, 0.010336369276046753, -0.1100129783153534], [0.08369020372629166, -0.03821484372019768, -0.008669562637805939, 0.07325367629528046, -0.07017798721790314, -0.13717171549797058, 0.0092431316152215, 0.007279728539288044, -0.1759442687034607, -0.10869590193033218, -0.06253137439489365, -0.015551560558378696, -0.04964321851730347, -0.033758047968149185, -0.1458822637796402, 0.10623979568481445, 0.14539769291877747, 0.09118793904781342, -0.1870541125535965, -0.13995155692100525, 0.10190083831548691, -0.07475969195365906, 0.02071768417954445, -0.07651010155677795, -0.006068056914955378, -0.011720634996891022, 0.022820616140961647, 0.021337492391467094, 0.05815063789486885, 0.1121334582567215, -0.014074712991714478, 0.10842479765415192, 0.07317440956830978, -0.12144829332828522, -0.14362187683582306, 0.030605508014559746, 0.07298470288515091, -0.12697230279445648, 0.0655381977558136, -0.036182429641485214], [-0.12332195043563843, -0.04189817234873772, 0.0268529262393713, 0.04704649746417999, -0.03820563852787018, 0.05894043669104576, 0.040795713663101196, -0.014603936113417149, -0.06866389513015747, 0.035795100033283234, -0.07536544650793076, -0.0032615552190691233, 0.14755801856517792, -0.14150285720825195, -0.008645785972476006, -0.14016079902648926, -0.00976124033331871, 0.011692922562360764, -0.00814909115433693, 0.10648396611213684, -0.08659385144710541, -0.10887119919061661, 0.10489729046821594, -0.030106665566563606, -0.16783882677555084, 0.08893406391143799, 0.07293429970741272, 0.023339591920375824, -0.17037740349769592, 0.026728706434369087, 0.023046713322401047, 0.06758928298950195, -0.017430784180760384, 0.20796124637126923, -0.049830883741378784, 0.135758176445961, -0.014191312715411186, -0.04956069588661194, -0.19170686602592468, 0.15742337703704834], [-0.02729438804090023, -2.264068098156713e-05, 0.006553353741765022, -0.0551065094769001, 0.08727815747261047, -0.07030458748340607, 0.03930497542023659, -0.08891661465167999, 0.18885669112205505, 0.10678154230117798, -0.09422101825475693, -0.020668435841798782, -0.02068984881043434, -0.11158163845539093, 0.08466842770576477, 0.04971744120121002, 0.01887778379023075, 0.06360966712236404, -0.09048859030008316, -0.09542332589626312, 0.06708028167486191, 0.08363335579633713, 0.058526813983917236, 0.033248499035835266, -0.08402981609106064, -0.09491132944822311, -0.05828465521335602, 0.07392492145299911, -0.12247517704963684, -0.06749819964170456, -0.015670858323574066, 0.14173506200313568, 0.057571783661842346, -0.08502082526683807, 0.030552100390195847, 0.05827612802386284, 0.1162910982966423, 0.06795535236597061, -0.007006712723523378, -0.0035644990857690573], [-0.04460878670215607, 0.05515648424625397, 0.0026562705170363188, 0.018109409138560295, -0.07959387451410294, 0.02005017176270485, 0.26037105917930603, 0.10706514865159988, -0.10073643922805786, 0.08583462238311768, 0.20307819545269012, 0.09252482652664185, 0.030141681432724, 0.002417671261355281, -0.05229642242193222, 0.03658803924918175, -0.006649102084338665, -0.028935497626662254, -0.16983655095100403, 0.1533340960741043, 0.09218064695596695, 0.08016377687454224, 0.1762397736310959, -0.08657842874526978, 0.008820000104606152, -0.00383236282505095, -0.13023127615451813, -0.058250103145837784, -0.10014460980892181, -0.07547599077224731, 0.08363402634859085, -0.056226201355457306, 0.030723579227924347, 0.0004731181252282113, -0.033585987985134125, -0.12121447920799255, 0.040840838104486465, -0.06191706657409668, 0.07129744440317154, 0.1574888974428177], [-0.021726705133914948, 0.13789492845535278, -0.19810770452022552, -0.10172178596258163, 0.025134216994047165, 0.046949177980422974, -0.11850477010011673, 0.052845343947410583, -0.0038073749747127295, 0.013636074960231781, 0.08444103598594666, -0.15219049155712128, 0.05786925181746483, -0.07926758378744125, 0.11913920938968658, -0.017386114224791527, 0.1222982108592987, 0.06548058241605759, 0.02608349546790123, 0.02536049671471119, 0.10997342318296432, -0.12486737966537476, 0.1093968078494072, 0.0571410246193409, 0.09841702878475189, -0.09071576595306396, 0.05069644749164581, -0.25130829215049744, 0.02632816880941391, 0.12423038482666016, 0.1814422458410263, -0.008190233260393143, -0.06320807337760925, 0.02181006409227848, 0.08251891285181046, -0.10146477073431015, 0.09191377460956573, -0.04251209273934364, -0.12491544336080551, 0.18033342063426971], [-0.011550558730959892, -0.09800773113965988, -0.040759965777397156, 0.1675502210855484, 0.0031316152308136225, 0.025716980919241905, 0.1381615549325943, 0.23169538378715515, -0.06964055448770523, -0.057357486337423325, 0.09451819956302643, 0.13000579178333282, -0.02810489386320114, -0.07945067435503006, -0.0009836009703576565, 0.2413977086544037, -0.06081628426909447, 0.06707829236984253, -0.035703182220458984, -0.012479121796786785, 0.005827669519931078, -0.012986353598535061, -0.014216363430023193, 0.03196344152092934, -0.060659244656562805, -0.17164072394371033, -0.006504749413579702, 0.08147051930427551, 0.05263371020555496, -0.039893217384815216, -0.16764038801193237, -0.1567811369895935, -0.13945512473583221, 0.12229058891534805, 0.05853340029716492, -0.2644604444503784, 0.0006022714078426361, 0.12034819275140762, -0.05192714184522629, 0.086052305996418], [-0.1324499398469925, 0.12211412191390991, -0.05120467022061348, -0.18975040316581726, 0.25481799244880676, 0.19914981722831726, 0.0752008929848671, -0.01411950308829546, -0.027372488752007484, 0.08426923304796219, 0.06932973116636276, -0.07408968359231949, 0.05635920539498329, -0.104877769947052, -0.07998137176036835, -0.07518076151609421, -0.0366036556661129, -0.20655101537704468, 0.08125199377536774, 0.11744590103626251, -0.022999929264187813, -0.21021656692028046, -0.10253719240427017, 0.06033282354474068, 0.028519965708255768, -0.03933976590633392, 0.09456801414489746, -0.06355984508991241, 0.029649265110492706, -0.06502725929021835, -0.012941187247633934, -0.08188581466674805, -0.06118132174015045, 0.05390053242444992, 0.11139670759439468, -0.006739841308444738, 0.08667925745248795, -0.17748908698558807, 0.004795572720468044, 0.022815413773059845], [0.15722274780273438, -0.001520528574474156, 0.11998944729566574, -0.018233362585306168, 0.006600040011107922, -0.07149272412061691, 0.010724100284278393, 0.26193130016326904, -0.024024667218327522, -0.0060808658599853516, 0.12438050657510757, -0.11162834614515305, 0.094667948782444, -0.01967116817831993, -0.17591314017772675, -0.047880738973617554, 0.06581063568592072, 0.08532515913248062, -0.004357259254902601, -0.0432802215218544, 0.009085380472242832, 0.033147264271974564, 0.09806235134601593, 0.052638355642557144, -0.14776766300201416, -0.08240152895450592, 0.01621616631746292, 0.03820495679974556, 0.0995950847864151, -0.08084391057491302, 0.2409897893667221, -0.018092351034283638, 0.0055531710386276245, 0.013055133633315563, 0.08583993464708328, -0.11059363931417465, 0.06184699013829231, -0.021167244762182236, -0.0029647608753293753, 0.13091450929641724], [-0.08331932872533798, 0.04094527289271355, -0.20014998316764832, -0.02790999598801136, 0.012934846803545952, -0.04324040189385414, 0.05525055155158043, -0.07595200836658478, 0.019312411546707153, 0.04264029860496521, -0.08019226789474487, 0.08415922522544861, -0.07737665623426437, -0.17103183269500732, 0.15419358015060425, 0.0002586233604233712, 0.06371800601482391, 0.03450191393494606, 0.12902800738811493, 0.09699206799268723, 0.04133860021829605, 0.14132608473300934, -0.015153132379055023, 0.1189131885766983, 0.08019164949655533, 0.06760632246732712, 0.24525001645088196, -0.04709027335047722, 0.04359273985028267, 0.008563120849430561, -0.09385237842798233, 0.14861026406288147, 0.1115608960390091, 0.03786850348114967, -0.16472555696964264, 0.07521280646324158, -0.14248895645141602, -0.054442230612039566, -0.018259195610880852, 0.057158198207616806], [0.012583880685269833, -0.09591588377952576, -0.11154256761074066, 0.03503281623125076, 0.06562265008687973, -0.11764014512300491, 0.06628682464361191, -0.05567584186792374, -0.03509317338466644, -0.051798611879348755, -0.05530781298875809, 0.10229820013046265, -0.09434376657009125, -0.005058081354945898, -0.09413909167051315, -0.00959019735455513, -0.180210679769516, 0.0024956800043582916, 0.05464551970362663, 0.07391579449176788, 0.051380280405282974, -0.029669445008039474, -0.09982900321483612, -0.12401758134365082, -0.010931217111647129, -0.1401854306459427, 0.05561693757772446, 0.11282459646463394, 0.010853220708668232, -0.025968560948967934, 0.06362220644950867, -0.18714246153831482, 0.08639846742153168, -0.020668458193540573, -0.036547377705574036, 0.16944773495197296, 0.12382297962903976, 0.03601768612861633, -0.012160021811723709, -0.059835635125637054], [0.19266588985919952, 0.0026966468431055546, -0.06044953688979149, 0.04747102037072182, 0.20759135484695435, 0.055861759930849075, 0.07128974050283432, -0.004749636631458998, 0.07487349212169647, -0.015060918405652046, -0.01314904261380434, 0.10646067559719086, -0.10562749952077866, -0.04830802604556084, -0.1120709702372551, 0.048712972551584244, -0.0270874984562397, -0.08451435714960098, -0.08514820784330368, -0.0028610622975975275, 0.17379213869571686, -0.0333012193441391, -0.008234558627009392, 0.18056967854499817, -0.14355935156345367, 0.009509140625596046, -0.09449289739131927, -0.06847567111253738, 0.15045031905174255, -0.027753034606575966, -0.004473838023841381, 0.1384720802307129, -0.03196778893470764, -0.13675710558891296, 0.010455766692757607, 0.0055945394560694695, 0.06747990101575851, 0.08137323707342148, 0.0691920667886734, 0.11771146953105927], [-0.05427980795502663, 3.80709461751394e-05, 0.03709084913134575, -0.052846264094114304, 0.029915496706962585, 0.021734125912189484, 0.05185085907578468, 0.06790083646774292, 0.1567373275756836, -0.13339026272296906, -0.17136281728744507, 0.22244501113891602, 0.12378191947937012, -0.06323599070310593, 0.009873184375464916, -0.14468444883823395, -0.09270700067281723, 0.022593185305595398, -0.04043908417224884, 0.07210882753133774, -0.1027689278125763, 0.050240371376276016, -0.011317872442305088, 0.038487646728754044, -0.0933859720826149, 0.051026973873376846, -0.007817910052835941, -0.07591430097818375, -0.06534351408481598, -0.016035890206694603, -0.010723250918090343, 0.021394338458776474, -0.06688718497753143, 0.012586168013513088, 0.0031558109913021326, 0.10666754096746445, 0.0026098901871591806, -0.142684668302536, 0.0820336788892746, 0.022914385423064232], [-0.0705709457397461, -0.1654733270406723, 0.12232280522584915, -0.047310322523117065, 0.014379977248609066, -0.1085437685251236, 0.025392308831214905, -0.11819570511579514, 0.0804234966635704, -0.03351834416389465, -0.08060826361179352, -0.004294174257665873, 0.05722149834036827, -0.04269314929842949, -0.09512276202440262, 0.03633744642138481, 0.06838949024677277, -0.1404474526643753, -0.12129713594913483, -0.0074202436953783035, -0.07520676404237747, -0.12342289090156555, -0.020359650254249573, 0.06253031641244888, 0.09018129110336304, -0.1527627855539322, -0.13326866924762726, -0.15018031001091003, -0.04424465447664261, -0.07385415583848953, -0.05951309949159622, -0.12929923832416534, 0.017683126032352448, 0.02167297899723053, -0.040467508137226105, -0.004910653457045555, 0.051262203603982925, 0.05385703966021538, 0.00312935677357018, 0.11766526848077774], [0.09545186161994934, -0.11599478125572205, -0.08560645580291748, -0.15141038596630096, -0.18356424570083618, 0.05141372233629227, 0.11490591615438461, 0.010634640231728554, -0.1295478492975235, 0.06043883040547371, 0.03441811352968216, 0.026400558650493622, -0.019045280292630196, -0.11436895281076431, -0.17811967432498932, 0.02458830736577511, 0.23592758178710938, -0.018745945766568184, -0.00837502907961607, -0.020289171487092972, -0.09456595778465271, 0.06749940663576126, 0.04913895204663277, 0.04204277694225311, 0.045030683279037476, -0.10776640474796295, 0.1511564403772354, 0.1692284196615219, -0.009140044450759888, -0.04376097023487091, 0.041126102209091187, 0.10716225951910019, 0.011602210812270641, 0.05880076810717583, 0.026869874447584152, -0.028849508613348007, -0.061461735516786575, 0.10921884328126907, 0.08975943922996521, -0.13787217438220978], [0.01901060901582241, -0.12717726826667786, 0.092866450548172, -0.041321855038404465, -0.0692010372877121, -0.12805260717868805, -0.13715548813343048, -0.0076315514743328094, 0.17133772373199463, 0.23916590213775635, 0.06670191138982773, -0.20607814192771912, 0.04632454738020897, 0.031319815665483475, 0.017095712944865227, -0.10365482419729233, 0.09180904924869537, 0.0674569234251976, -0.013282997533679008, 0.09231384098529816, 0.0009432437946088612, 0.06847255676984787, -0.05692536011338234, -0.11398406326770782, -0.30280062556266785, -0.09224510192871094, -0.07654557377099991, 0.09393928945064545, -0.04039387404918671, -0.07203415781259537, 0.06909342110157013, -0.06914601475000381, -0.07427629828453064, -0.11253474652767181, -0.06550710648298264, 0.09644697606563568, 0.04197695851325989, 0.072805255651474, -0.020099835470318794, 0.06438901275396347], [0.05764538049697876, 0.12402957677841187, -0.0561908595263958, 0.006795553024858236, -0.020676732063293457, -0.05583074316382408, 0.1216500774025917, -0.16316848993301392, -0.0007843413040973246, -0.08276599645614624, 0.09821516275405884, 0.025102034211158752, -0.07961991429328918, 0.06742151081562042, -0.08126020431518555, -0.07571230828762054, 0.00026455149054527283, 0.0919828936457634, 0.1348116248846054, 0.06391588598489761, -0.16948150098323822, -0.05440320447087288, 0.1401633620262146, -0.032151542603969574, 0.052308421581983566, -0.008494139648973942, -0.13727834820747375, 0.07329586893320084, -0.12245161086320877, 0.0719965398311615, 0.11807779967784882, 0.1153227761387825, -0.08886581659317017, -0.06965191662311554, 0.10731580853462219, 0.0012676818296313286, 0.10211046785116196, 0.02536620758473873, 0.12001945823431015, 0.011799153871834278], [-0.09646818786859512, 0.003373652696609497, 0.030131110921502113, 0.006890059448778629, 0.014606460928916931, -0.06558316946029663, -0.011435667052865028, -0.19829462468624115, 0.039093002676963806, 0.0658622682094574, -0.0012722993269562721, -0.016806254163384438, 0.01419874094426632, -0.06979413330554962, 0.04022830352187157, -0.03419322520494461, -0.03409123420715332, 0.06999697536230087, -0.12385951727628708, 0.012952545657753944, 0.009815772995352745, -0.07461442798376083, -0.10585325211286545, -0.08998145163059235, 0.009529613889753819, -0.08089078962802887, -0.10595013946294785, -0.12335226684808731, 0.04835015907883644, 0.046880390495061874, -0.0746837854385376, 0.04505837336182594, -0.0001502837985754013, -0.17727531492710114, -0.16050943732261658, 0.03853227198123932, 0.03832995146512985, -0.13139945268630981, -0.02358265034854412, -0.01841830648481846], [-0.11236070096492767, -0.07446760684251785, 0.030490634962916374, 0.09229446947574615, -0.08245625346899033, -0.05695683881640434, -0.012046312913298607, 0.03157011419534683, 0.0276194978505373, 0.22319339215755463, 0.015277464874088764, -0.04063002020120621, 0.06434871256351471, -0.11202645301818848, -0.07654619216918945, -0.0062568229623138905, 0.03374699875712395, -0.09146523475646973, 0.07627648115158081, 0.07027789205312729, 0.07786296308040619, 0.07788174599409103, 0.1129937618970871, 0.08568023890256882, -0.16294264793395996, 0.19290876388549805, -0.05436556786298752, 0.0040387180633842945, -0.0869746282696724, 0.05856700614094734, 0.12026329338550568, 0.11076818406581879, -0.0030361332464963198, -0.009090625680983067, 0.0628758892416954, 0.004637086298316717, -0.043396394699811935, 0.030832814052700996, -0.017335467040538788, 0.025726664811372757], [0.039980318397283554, 0.08118443936109543, -0.06737256050109863, -0.17329278588294983, -0.034170713275671005, 0.014608289115130901, 0.10147740691900253, 0.05570586770772934, 0.04607853293418884, -0.10212713479995728, -0.059667956084012985, 0.180772066116333, 0.06740622222423553, 0.15976865589618683, 0.04526367411017418, 0.08024274557828903, 0.10238899290561676, 0.18424800038337708, -0.036950040608644485, -0.06972210854291916, -0.10370507091283798, -0.049524031579494476, -0.00546250818297267, -0.04429583624005318, -0.1490003913640976, 0.11626358330249786, -0.05818306654691696, 0.018282601609826088, 0.052563153207302094, 0.039917029440402985, -0.1630147099494934, 0.15749746561050415, 0.008724805898964405, -0.15087346732616425, -0.05576254427433014, 0.0060480921529233456, -0.03668062016367912, 0.0908612608909607, 0.0609770268201828, 0.06728608161211014], [-0.0543784461915493, 0.04353361204266548, 0.010466566309332848, 0.0626765564084053, -0.021448323503136635, -0.029534274712204933, -0.015069443732500076, 0.05707130208611488, 0.13850058615207672, 0.0509553924202919, -0.20932677388191223, -0.0467415526509285, 0.007295189891010523, 0.1504654735326767, 0.053371090441942215, 0.0799742341041565, 0.0347428023815155, -0.04794131964445114, -0.07996764779090881, 0.08156278729438782, -0.009551091119647026, -0.051956288516521454, -0.1137549951672554, 0.04680213704705238, 0.025887366384267807, -0.08766009658575058, 0.06379617750644684, -0.05182082578539848, 0.01146666333079338, -0.05319267883896828, -0.10203614085912704, 0.12977778911590576, 0.12567423284053802, 0.03287449851632118, -0.0762355849146843, 0.031612493097782135, -0.1179635152220726, 0.11068447679281235, -0.08751681447029114, 0.10488773882389069], [0.11437226086854935, 0.022849010303616524, -0.033108215779066086, 0.06756565719842911, -0.09012222290039062, 0.10770725458860397, -0.09442102164030075, -0.06313604861497879, 0.08712860941886902, 0.0496017150580883, -0.09077806770801544, -0.1586908996105194, -0.04549860581755638, -0.02725866250693798, -0.039746347814798355, 0.10655201226472855, -0.025302279740571976, 0.053024858236312866, 0.05844540894031525, 0.06314948946237564, -0.1551811248064041, -0.0414072722196579, 0.1302410513162613, 0.012669540010392666, 0.009299746714532375, 0.05547467619180679, 0.05967215448617935, 0.011328082531690598, -0.013104244135320187, -0.1146060898900032, -0.008276903070509434, 0.06091340631246567, 0.05939885973930359, 0.040892478078603745, -0.03882276266813278, -0.06393584609031677, 0.07076700031757355, -0.195100337266922, 0.06408261507749557, -0.07172320038080215], [0.08144477754831314, -0.14144547283649445, -0.01831813156604767, 0.09584729373455048, 0.00594248017296195, -0.1196892186999321, -0.1953641176223755, 0.13795694708824158, -0.003735616570338607, 0.015157770365476608, -0.038253940641880035, 0.027348671108484268, -0.06783997267484665, 0.11206309497356415, -0.09730752557516098, 0.00030229694675654173, -0.13958099484443665, -0.06696613132953644, 0.025507202371954918, -0.042896755039691925, -0.0792764276266098, -0.21483227610588074, -0.16088253259658813, -0.10376772284507751, 0.0857086107134819, 0.01416829414665699, -0.11303088068962097, 0.00841068010777235, -0.08440039306879044, 0.16314145922660828, -0.019323240965604782, -0.2568129003047943, -0.0677274838089943, 0.047376714646816254, -0.21311555802822113, -0.0701901912689209, -0.0576559416949749, -0.2207329422235489, 0.15502576529979706, 0.04268261417746544], [0.06262889504432678, 0.08301142603158951, 0.02970287948846817, -0.08440094441175461, 0.16729836165905, 0.039254456758499146, 0.11160731315612793, 0.04582882300019264, -0.14212310314178467, -0.007506375201046467, 0.0430273711681366, 0.016412220895290375, -0.07780001312494278, -0.04673100262880325, 0.009454446844756603, 0.10080182552337646, 0.01079449150711298, 0.0618714764714241, 0.05782383680343628, 0.08115788549184799, -0.10565295815467834, 0.059820350259542465, 0.03166613727807999, -0.11755642294883728, 0.11981920897960663, 0.03387298807501793, -0.1214456558227539, 0.03620319068431854, 0.06936716288328171, 0.07480646669864655, -0.029343873262405396, -0.02371590957045555, 0.1132965236902237, 0.02003423497080803, 0.08898872882127762, -0.03662222996354103, -0.09336530417203903, -0.02817019447684288, -0.1685711145401001, -0.06555601209402084], [-0.01742561161518097, 0.045340996235609055, 0.0724368616938591, 0.12933291494846344, -0.14857670664787292, 0.05030367150902748, 0.12155511975288391, -0.055566877126693726, -0.11059155315160751, -0.06787239015102386, 0.07444944232702255, -0.06473657488822937, -0.13328370451927185, 0.11559562385082245, 0.0017205552430823445, 0.09844231605529785, -0.04617990553379059, 0.11922512948513031, 0.25340762734413147, 0.010159031488001347, 0.05606658011674881, -0.058710768818855286, 0.03185275197029114, 0.06399238854646683, 0.003429280361160636, -0.12867006659507751, 0.11976367235183716, -0.011257346719503403, 0.030257659032940865, 0.1539279967546463, 0.07297027111053467, 0.0270819254219532, -0.06864993274211884, 0.12726858258247375, -0.0628175139427185, 0.08854582160711288, 0.07949315756559372, -0.1147727221250534, -0.07097315788269043, -0.08022542297840118], [-0.09056922793388367, -0.17201749980449677, 0.019610518589615822, -0.009314443916082382, 0.19042353332042694, -0.09169711172580719, -0.013293367810547352, 0.15439647436141968, 0.0011434019543230534, 0.02008344978094101, 0.01823991723358631, 0.03328469768166542, -0.1564260572195053, -0.025548234581947327, 0.05269878730177879, -0.05356503650546074, 0.00017043834668584168, 0.04957665875554085, -0.1542641818523407, -0.03310718759894371, -0.003348889760673046, 0.05602739751338959, 0.07955453544855118, 0.12269780039787292, 0.012272887863218784, -0.025884775444865227, -0.07981031388044357, -0.16382820904254913, 0.004288863390684128, 0.023182779550552368, -0.11653824895620346, -0.020223110914230347, -0.009728183038532734, -0.003347632009536028, 0.19737640023231506, 0.05792186036705971, 0.14251141250133514, 0.07923140376806259, 0.17567560076713562, -0.02833956480026245], [-0.0321609266102314, -0.0776684433221817, 0.12368064373731613, 0.04884801805019379, 0.01850651577115059, 0.072959303855896, 0.044510774314403534, -0.010430790483951569, -0.05939379706978798, -0.06800435483455658, 0.004762943834066391, -0.25446856021881104, -0.04096669703722, -0.02747506834566593, 0.01642538048326969, 0.09843887388706207, -0.15244419872760773, -0.032946981489658356, -0.10797660052776337, -0.01757260225713253, -0.15434955060482025, 0.07765839993953705, -0.010721991769969463, 0.10724175721406937, -0.1510448157787323, -0.001323457108810544, -0.030779024586081505, -0.12403611093759537, -0.026173574849963188, 0.09186776727437973, 0.005076275672763586, 0.08095644414424896, -0.06584860384464264, -0.09608670324087143, -0.10970337688922882, 0.040979962795972824, 0.13011731207370758, -0.11744918674230576, 0.00819761585444212, 0.0589439831674099], [-0.03303397074341774, 0.022144343703985214, 0.006019843276590109, 0.03793244808912277, 0.047049231827259064, 0.12451787292957306, -0.08796470612287521, 0.1148826852440834, -0.08683042228221893, 0.12732228636741638, -0.04401329159736633, 0.027727823704481125, 0.14877508580684662, 0.06106448546051979, 0.060901377350091934, 0.0010717002442106605, -0.15544617176055908, -0.042362138628959656, -0.028491979464888573, 0.006447318475693464, 0.05656991899013519, 0.03154784440994263, -0.05131859704852104, 0.08372066915035248, 0.15212684869766235, -0.1677902489900589, -0.09407384693622589, 0.062244486063718796, 0.11751899123191833, -0.1826251745223999, -0.09661982208490372, 0.16116811335086823, -0.07602844387292862, 0.016419369727373123, 0.029974227771162987, 0.07398509234189987, 0.04046359658241272, -0.16556672751903534, 0.035133861005306244, 0.004211839288473129], [-0.13779476284980774, 0.02475924789905548, 0.04856368526816368, -0.027108291164040565, 0.1816110610961914, 0.08581080287694931, -0.021853763610124588, -0.03938373178243637, 0.060802243649959564, 0.10796067863702774, -0.05901477858424187, -0.06088762730360031, -0.05624658614397049, 0.08522963523864746, -0.07968463003635406, -0.06974855810403824, 0.03942503780126572, -0.11345747858285904, 0.05573011562228203, -0.06796595454216003, -0.11947575211524963, 0.1041601300239563, -0.06019982695579529, -0.07015193998813629, 0.041318196803331375, -0.09596847742795944, 0.13529419898986816, 0.10537821799516678, 0.028885725885629654, 0.10084020346403122, 0.14592280983924866, 0.030642781406641006, 0.07629094272851944, -0.01152464747428894, 0.22694294154644012, -0.05603476241230965, -0.12896370887756348, 0.13962531089782715, -0.0886455848813057, 0.0853981301188469], [-0.0189505722373724, 0.08265656977891922, -0.0018829519394785166, 0.15348318219184875, 0.0005852284957654774, -0.08837925642728806, -0.06309524178504944, 0.010772607289254665, -0.029879072681069374, -0.07298313826322556, -0.045386143028736115, -0.12863364815711975, 0.005350856110453606, 0.14851108193397522, 0.11383257806301117, 0.054834164679050446, -0.03748120740056038, -0.012997991405427456, 0.07983620464801788, -0.002818264300003648, -0.06602197885513306, 0.17107750475406647, 0.14034193754196167, -0.03762560710310936, -0.04096512496471405, 0.11940551549196243, 0.0021995333954691887, 0.04189540073275566, -0.04239886626601219, -0.036626193672418594, -0.1290634721517563, -0.020404744893312454, -0.14480021595954895, 0.04869348555803299, 0.10129203647375107, 0.005074813961982727, -0.1389298141002655, 0.007254002150148153, -0.08291711658239365, 0.043925292789936066], [-0.09005019813776016, -0.012843925505876541, -0.06536173075437546, 0.15488143265247345, -0.06216900795698166, 0.00689257076010108, -0.05127890035510063, 0.07249941676855087, 0.06569409370422363, 0.09011466056108475, -0.017283104360103607, 0.08215270191431046, 0.028145061805844307, -0.011564241722226143, 0.2176477164030075, 0.019282851368188858, 0.0603940449655056, 0.16307853162288666, 0.07767459750175476, -0.14353960752487183, 0.07587283104658127, 0.07233068346977234, -0.04504850506782532, 0.12676872313022614, 0.1529151350259781, -0.06024215370416641, 0.028539534658193588, -0.039159875363111496, -0.041323401033878326, -0.03925817832350731, 0.0009153268183581531, -0.018573177978396416, 0.17346802353858948, -0.0312512032687664, 0.13954049348831177, 0.021632637828588486, -0.05494832992553711, -0.06716465204954147, -0.018748030066490173, 0.07422692328691483], [-0.021975815296173096, 0.0340862013399601, -0.08557435870170593, 0.006431754678487778, 0.05564461648464203, -0.008942392654716969, -0.09342000633478165, 0.0710643008351326, 0.1249949038028717, -0.00257891695946455, 0.23370040953159332, -0.1779020130634308, -0.11587731540203094, -0.0430319644510746, 0.0956830158829689, 0.14983612298965454, -0.0768827423453331, 0.04538651183247566, -0.03147437050938606, -0.017148487269878387, 0.07771304249763489, 0.032131630927324295, -0.002449628198519349, 0.10642890632152557, 0.22787243127822876, -0.020684827119112015, -0.014577995054423809, 0.03836119547486305, 0.083944171667099, 0.0863274484872818, -0.047132425010204315, 0.08831685781478882, 0.06311675161123276, -0.14016292989253998, -0.143368661403656, -0.06909593939781189, -0.14431239664554596, -0.04637301340699196, -0.022833548486232758, 0.07215633243322372], [0.13054858148097992, -0.1711587756872177, 0.04522159323096275, 0.0008955884259194136, -0.03623206540942192, -0.21791616082191467, -0.04452351853251457, -0.06362833082675934, -0.012158839963376522, -0.016451485455036163, 0.2001875340938568, 0.12445984780788422, -0.006057647056877613, -0.0344054140150547, -0.16133789718151093, -0.031102700158953667, 0.052339594811201096, 0.04851790517568588, 0.12623104453086853, 0.03260624408721924, -0.03521506488323212, -0.09183286875486374, -0.11900864541530609, 0.10539238899946213, 0.03556545823812485, 0.0018382874550297856, 0.09300283342599869, 0.16706547141075134, -0.0031262279953807592, 0.11622099578380585, -0.006176275666803122, 0.033981774002313614, -0.09699396044015884, -0.030429968610405922, -0.0013780846493318677, 0.012120500206947327, 0.21700121462345123, 0.015669509768486023, 0.021532969549298286, 0.02232380583882332], [0.11994343250989914, -0.17612981796264648, -0.09051787853240967, 0.008827725425362587, -0.011027987115085125, -0.05152427405118942, -0.03281434252858162, 0.05384799465537071, -0.08112344890832901, -0.024867992848157883, -0.10113715380430222, -0.030825946480035782, -0.16679798066616058, -0.11004096269607544, -0.08174677938222885, 0.12116840481758118, 0.011295522563159466, 0.007888293825089931, 0.034469522535800934, 0.08031388372182846, -0.04205111786723137, 0.11676973849534988, -0.1903383731842041, 0.028103364631533623, -0.07479365170001984, 0.03156076744198799, -0.04644687846302986, 0.026685647666454315, 0.07138954848051071, 0.06515298038721085, 0.16201910376548767, 0.07534400373697281, 0.28591248393058777, 0.13805456459522247, 0.07590220123529434, -0.11705949902534485, 0.015813441947102547, 0.11583803594112396, 0.09752000868320465, -0.05087695270776749], [0.13146135210990906, 0.01942058466374874, 0.10157348215579987, 0.060237541794776917, 0.03752314671874046, -0.14010192453861237, -0.01833333447575569, 0.16803565621376038, 0.07747631520032883, 0.2059289515018463, 0.0037520616315305233, 0.09688574820756912, -0.12511326372623444, -0.06225765496492386, 0.02341022901237011, -0.11559270322322845, 0.012363532558083534, 0.038254790008068085, -0.17309275269508362, 0.03564085066318512, -0.07886441051959991, -0.028945336118340492, -0.13937905430793762, -0.0831575021147728, -0.17866067588329315, 0.029776206240057945, 0.056075822561979294, 0.028314076364040375, -0.10349497944116592, -0.02081966958940029, -0.13113050162792206, -0.01518860924988985, 0.1284913718700409, 0.09642884880304337, 0.055375680327415466, -0.046752266585826874, 0.0031529755797237158, -0.0920245572924614, -0.03858090564608574, -0.2594255805015564], [-0.08456946164369583, 0.17160624265670776, -0.1482742726802826, 0.011935773305594921, 0.06113904342055321, -0.10316069424152374, 0.03019256331026554, 0.03796878457069397, -0.027858460322022438, -0.07240212708711624, -0.042253781110048294, 0.05032952502369881, 0.0054273298010230064, 0.03519720584154129, -0.13347147405147552, 0.18419648706912994, 0.04987191781401634, 0.09621378034353256, -0.05011210963129997, 0.07513519376516342, 0.06144976615905762, 0.16623663902282715, -0.10235366970300674, 0.045989587903022766, -0.09512636065483093, -0.09211987257003784, 0.13941720128059387, -0.115312859416008, -0.08990995585918427, 0.0887838825583458, 0.05888064205646515, 0.036148909479379654, -0.09672466665506363, -0.00017323934298474342, 0.01008527260273695, 