{"biases":[[-0.0255492433874576,0.0,0.00333529479008459,-0.000452887826382724,0.00170393730988062,0.00502981704743759,0.0,-0.00552256230885,-0.0015992429429398,-0.00865683240430904,-0.00295922604250904,0.0153406449798703,-0.00608432672013997,-0.0074279796275317,0.000749223942076932,-0.00120329943054466,0.0302384547609115,0.000451354278893359,-0.00851132064136013,0.0,0.00263441829938942,0.0,0.00425290453475095,0.0287811908927158],[0.00493186870815265,-0.000607069296965118,-0.0409788097308014,0.0,-0.0369070599362386,0.0403194233825493,0.0,0.00867590518474999,-0.00908331518462098,0.0115425751493997,0.0455674940864844,0.0,0.00150967365304281,-0.0568952643740054,0.0133277737983045,0.0309008230216253],[0.0859797132187406,-0.220774427259212,0.0394517266965925,-0.00209070893577488]],"weights":[[[0.121904655337286,0.194255542370207,-0.0261016317185132,0.0425988245678901,0.146530707744653,0.144356867809045,0.114844513382601,-0.130712062885241,-0.0959415472199037,0.0203192012925531,-0.0936184710794665,0.179380570960994,0.245253622671449,-0.294051080393671,-0.250000858883902],[-0.0479605965363167,-0.204537992928782,-0.135497810659645,-0.0934558987447139,0.15918418213832,-0.317192097194235,-0.0450527836632844,-0.0887179690411951,-0.0598327938129241,-0.0355201922849668,-0.193168775232122,-0.119865698231466,-0.175159511732042,0.323972239305528,-0.210725098589395],[-0.305332119696794,-0.282857881559032,-0.177285369911873,0.068671358949168,-0.140701615404548,-0.241635413200971,0.240113861649503,0.0280075615659481,-0.125370774864293,-0.0524832556510771,0.212509964764357,0.0457885373166787,-0.168203955565802,0.300186701935821,0.2232633011346],[-0.148294058732488,0.136082376600745,0.131626638028247,0.227292015983595,0.044663725987115,0.0925493924715415,0.346193670387999,0.28994767110289,0.139754926178967,-0.102193520315994,-0.349069707545526,-0.310172069490687,-0.3672355593092,0.191087151240129,0.0107847013045174],[0.333388059034546,-0.0413972856716393,0.168584465016801,0.0809244301103849,-0.174248651351188,0.349635020989962,0.0580573608838598,-0.105734831733609,-0.288446115965257,-0.194959316174723,-0.335510521232981,-0.351170479330774,0.248002274478589,0.145157777773933,0.31778252569813],[0.302652484468156,0.309954727254821,0.325901449752556,0.0903542427828686,0.108798299960568,-0.332489858180289,-0.242138925462595,-0.178936681477811,-0.129694117089359,0.138626927246095,0.158048932380898,-0.0244839869572333,0.0490417333829522,0.267265059684284,-0.142101847381842],[0.0346153564785185,-0.00144914956744008,0.164500667921556,-0.353539095090947,0.154219567308991,-0.253758090119793,0.307861842311308,-0.196463756465913,0.23241596929158,-0.308684613907666,-0.234865960107707,-0.365004642582805,0.0753041965274971,-0.166513788431657,0.187508951714126],[0.00120113992783989,0.0791015300623369,0.259607838826318,0.283595164185296,0.171598677505204,-0.118726078422404,-0.362071696925488,-0.132543668593718,0.0899721252802848,0.36387804509696,0.167696853939435,0.232850486196735,-0.172101026993962,-0.175846590238396,0.0551042273729532],[0.224312230611645,-0.242766152867157,-0.128812670851405,-0.075301460590868,-0.149792786724964,-0.236803710172056,0.144468735852019,-0.0934557713376822,0.145804665390892,0.0380370305540413,-0.131401642793631,-0.277246910194443,0.342723655616191,0.066835505347597,0.205001239196426],[0.146968865389323,0.230886820795554,-0.0347414478483552,0.299908986543821,0.255605315648908,-0.0661306574935955,0.0487354275291891,0.281610862950692,-0.331133783254,-0.313192377294549,0.0629502235712465,-0.18128732370782,-0.148651074524152,-0.202907579620365,-0.0628681388707434],[0.095697161999088,0.0790439725614003,0.237730707252307,-0.160832437529833,0.0967634200259115,0.315632980491848,-0.28523917047442,0.130257094198861,-0.238658972137697,0.172866793678421,0.0498369331857304,-0.177663972740132,-0.319138209759403,-0.290075042657154,0.307226249070885],[-0.340374296986317,0.207617089507138,-0.139964573258556,-0.281965235783021,0.224775459716738,-0.300195090029769,-0.0744185009405579,0.0977229749900635,-0.287768988793369,0.3589522004934,0.304138383961138,0.241684469063143,0.284095042816616,-0.242171887615019,0.175356779576337],[0.325826413811202,0.159308998753533,-0.015648422375251,0.0318642645346707,-0.257413324351617,0.175606692872329,-0.0918092250818679,0.113541749599341,0.127808126670882,-0.278975306519197,0.205016701314075,0.356394404790402,-0.0274793774214499,0.306015046746849,-0.356185965289974],[0.103848360944633,-0.032414816094054,-0.0257426659184139,-0.159196735215207,0.295222470846095,-0.0599343478371931,-0.166421454129461,-0.188183021383581,-0.147015427883122,-0.0530510563285504,-0.0125920197904277,0.0464344315884269,0.329446276241701,-0.226853766171094,0.20817157379532],[0.0455384708656999,-0.161198471382545,0.196516699890775,-0.0739168543160274,0.115192703069403,-0.0211484204251458,0.0971777253532721,0.363163424022204,-0.237196150895414,-0.00689562849118236,0.301405597694643,-0.31936373500501,-0.165099708719923,0.0135881431737133,0.170925134563632],[-0.248426957047257,0.356582334553088,-0.19112822238972,0.311317760475975,-0.276767570250553,-0.174777418325596,0.283836527989625,-0.280645727023353,0.236493102514187,-0.304503970365132,0.0116250621362413,-0.268950021888473,0.231722499843656,0.191927560535999,-0.279113197233511],[-0.280741161864202,0.3846409006458,-0.0947112061255775,0.107906065563128,0.208907514603981,-0.0890121207654384,-0.266616117561199,-0.0991566297270965,0.17692362705673,0.313454427969346,0.0467236064341315,-0.209173036738901,0.373071860314537,-0.0677551622540065,-0.203333676921326],[0.0496442407456411,0.325232824378225,0.0646590730566216,0.238047878943445,0.245045946517451,0.103177469605611,-0.211668118474397,0.0781872968133628,-0.185026973487954,0.124905308267392,0.0204316605034137,-0.272301716257725,-0.279475637541162,-0.284239662345045,-0.195327356629188],[-0.0888066202990239,0.181667519286276,0.282004086261193,0.0336994736774016,0.286541628306278,0.0694857137026598,0.337693197366892,0.101108781870095,-0.327467871208776,0.0735533685595865,-0.25906273489336,-0.212014892004333,-0.282817459752462,-0.054940415596465,0.159941419652768],[0.309540807396877,-0.29221493996921,-0.339490981846861,-0.123944468068557,0.187260040425629,0.0751931735289227,-0.0226578758207589,0.321647948056712,-0.282805691934983,0.0739719881856385,-0.0427320893775611,0.201179839488068,-0.332194302702782,-0.223703525742446,-0.229142377945827],[-0.00104283779838936,0.283388187229719,0.0769401989780737,-0.254822564188165,-0.33794252496811,0.148142274821696,-0.00264825004363363,-0.0162909319135122,0.206101204910892,0.225161796930422,0.265486561405515,0.34415753371658,-0.0206563602291714,0.0984687415050499,0.265112208980615],[0.119498577171622,-0.332591376687275,-0.239544079656881,0.301439852573366,0.260333994634036,0.180259002836723,0.00439227240680273,-0.171600560149768,0.297307641694363,0.353955425472906,-0.0740666033341029,-0.281666552331016,0.0465375944844613,-0.309949700371329,-0.00244837635117051],[-0.328984347513063,0.100832912515527,-0.260077432767082,0.0789451071474445,0.111597304694862,-0.340283728555085,0.0353281308152822,0.149245780562975,0.265001935691374,0.110686382634942,0.294120548764154,-0.265099797923782,-0.328705940728321,0.096782075576341,0.326207926187096],[-0.21654093175963,0.147743312429483,-0.0699674805427882,-0.281357068074064,0.35750961514871,-0.112961258307566,-0.244817812414441,0.15660928154802,0.108567389060283,-0.0242288105309981,0.118894233266273,0.19178119039242,-0.333801068648811,0.132754196991049,0.249699139547182]],[[-0.0265625774451595,0.285423737779788,0.090766574400167,-0.147700402496881,0.0794580231531772,-0.273841981171432,-0.0325630990029429,-0.00671842864751942,0.121681036308017,0.212438114052689,-0.0344833767926952,-0.124780065741274,0.0239970553612339,0.129107414156841,-0.201265529937842,-0.08466573877021,-0.120943346457403,0.0824859514503486,0.186498258064872,-0.10298536857604,0.126220140427843,0.122067745464823,-0.116898070318936,0.181990493130795],[-0.160029448143524,0.072368726957632,0.061733107561681,-0.0678116120403553,-0.110014913098479,-0.111293814871481,-0.228064781235868,-0.198402874563359,-0.180781706680243,-0.284273943834051,0.279469299272139,-0.215392418471659,0.00545467889971702,-0.103663735963209,-0.215206929628328,-0.0228250287253794,-0.224864087177632,-0.163015624387179,-0.0876644857885889,-0.162036928116552,0.251017364666814,-0.263681122881418,-0.152712410938728,-0.0893734124849735],[0.0928710169140929,0.0377034939968548,-0.142311491087775,-0.217005962061931,-0.254003454430622,-0.0415215436577929,0.143488648957122,0.158975917072224,0.0572110711228331,0.0813417018918674,0.185257280298936,-0.237369331227531,0.221541076234774,0.00341752501255081,-0.162227033638393,-0.270635013395111,0.0666096443603044,0.173300415082236,0.233713448404963,-0.107137982238013,0.0164158028514058,-0.0349718406941978,0.0120921581067213,-0.00177280766745171],[-0.232017154091899,-0.112219133022263,0.219607896718057,-0.165441961398886,-0.231731075246573,0.160885776496984,-0.190142447453262,-0.276977769962415,-0.196226428665746,0.0670059925916014,-0.263800170705472,-0.129815691014106,-0.25885023249031,-0.0596991930320457,0.192855908336258,0.0475966321497991,0.0437647781715677,0.0211737963257017,-0.19313272847553,-0.269009233219842,-0.198776343069309,-0.111231916953255,0.206081874861976,-0.207336567514121],[0.0697164246460133,-0.211961599351195,-0.177983227152926,-0.200492865102475,0.179762098841268,-0.273882058880768,0.0101008274697592,-0.0852557532292785,-0.0585972871550973,-0.123086707499004,-0.169596576333714,-0.0457858660980283,0.0269660559262801,0.197794356280247,-0.208407099914986,-0.0825868505415886,0.0412755002605724,-0.128559808515225,0.230975416600929,-0.177268466773316,0.063790257305361,0.0288874250795212,0.22144714232821,0.12463408507583],[-0.103712152037929,-0.0279709927393864,0.0759428737211153,0.0840174868033185,-0.191614616374943,0.0499501061262633,0.220698690113788,-0.0678612882577095,0.253279798967704,-0.172443505192498,-0.19325777292112,0.0382987265274634,0.084689868473539,0.290347264272329,0.0751512463962268,0.284545220352657,0.198157238431774,-0.0140834711777377,-0.0126630102884323,0.0886242615135953,0.124241764776545,0.187130892021746,0.261715168404429,0.0705534938876412],[-0.169488290751476,-0.0462516015152753,-0.0285390283603569,0.266785101080686,0.216475110822335,0.140345061730805,0.0488576278640631,0.0292785754004394,0.135917450248895,-0.0580989674717932,0.0470477686018994,-0.118517272391828,-0.145452677980745,0.195569130452018,-0.233095625386928,-0.0824174090358859,-0.221161491931421,-0.148247189120982,-0.254393576151452,-0.251218041150454,-0.238930077592062,0.260205219233484,0.188670503379619,-0.244514447904545],[0.26071956459195,0.188511842022646,0.105700712644271,0.0157020569505991,0.0903604452841285,-0.0455188549861898,0.0242801029304886,-0.137462936769692,0.0496684415086676,-0.186371196907668,0.244087047199179,0.0642276503688482,-0.0291268903533032,0.139729729773863,0.235788948536781,0.00383237771537517,0.287312560162254,-0.0225947884021108,0.0936838965658977,-0.218010101386235,0.0147170953291582,0.00741849969196295,0.276624421514608,-0.0198245063756954],[0.195195919836525,-0.140705918579105,-0.191974241424869,-0.102341992942223,-0.0729629928259675,0.0342987859662795,-0.116670394035834,0.0867972457203524,-0.219117428970463,-0.101966979006646,0.0732726439983414,-0.212465800454225,-0.268138076220137,-0.0499810259390954,-0.0535686973008753,0.112164905256484,-0.277768941421125,-0.0939705105480907,0.0267031582882389,0.07646199277854,0.223452855556962,0.0549876169561703,-0.244248044319602,-0.0870072230696873],[0.110163265017521,0.208360569783175,-0.231924733124168,-0.19958331373719,0.163215244501823,0.229688598351802,-0.0579472650601944,-0.240150383509478,0.148814867423725,-0.24438684566053,0.0900956355685593,0.123197666153243,0.281861886898111,-0.0502418212165683,0.0221825802902373,-0.255582745418533,0.166629206813292,-0.240648324291085,0.123761708686073,0.115584025373784,-0.122027706654046,-0.167541223052892,-0.192559018830686,0.156669531064904],[0.231590898580729,0.275036733973545,0.107712108765972,0.0462370055776173,-0.265657242869115,-0.0544724228266683,0.174844514495037,0.106791352204921,-0.26358108710594,-0.254743699925863,-0.109482203480914,0.158771886879037,0.191065143873507,0.089033634957398,-0.176383459411611,-0.0030572867027347,0.231022289497315,0.196308010792695,0.0434433253391633,0.0635349579035757,0.275757388325596,-0.198916595738331,-0.0789791296258298,0.279382248449981],[-0.257091387433205,-0.236861786548375,0.200103075249306,-0.190057965860718,0.111580461864695,-0.0735438081524601,0.241781333747617,-0.145671954669509,-0.240732858518017,-0.0166870628629118,-0.0120507675670302,-0.0248948575724,0.0981330406882727,0.101226571106988,0.136195363368256,0.128939072403816,0.117220931231815,-0.145093157606597,-0.265893488313321,-0.242747974293256,-0.271327318333789,0.0776749393005449,-0.0594287844777842,0.270279970379179],[-0.27298305213859,-0.244847967343557,-0.255548865552781,-0.0202455475914483,0.130662975027785,-0.275194378388333,0.195242854178795,-0.118542788096875,0.272821046389445,0.223734349481546,-0.17791316093369,0.00396166758611906,0.276411342557884,-0.174124822302918,0.146711684299053,-0.0552086170040086,-0.19042958943255,-0.165276873162001,0.0119757829526392,-0.0331790205129298,-0.0600970680051946,0.144617966223512,0.00433212734640653,-0.153408225740902],[0.267246769428001,-0.0404200230937201,-0.285143061584339,0.133234269534964,-0.208242400091383,0.0603171446267369,0.162048657837418,0.0426024039602228,-0.00958373249953521,-0.0683042196013574,0.043294695771245,-0.0978727863340533,0.0757507338022246,0.109371249513778,0.0376638443310283,-0.0541759624264024,-0.197775131129119,0.258123548290904,0.152621806728133,0.198031390543905,0.103262460215156,-0.261577455407708,-0.115432002579659,-0.247441581291102],[-0.255081337118768,-0.07812771818351,0.28341089367998,-0.0198721329588091,0.281736374590008,0.071083837014234,-0.112111887109886,0.217764939787559,-0.1026393072267,-0.197521824086909,-0.0402844198799073,-0.276414477144214,0.0755077280660929,-0.152707096380929,-0.137576645315525,-0.150170221597954,0.0933185185342213,-0.210197821158449,0.216362650923288,0.149552468096834,0.243786751108781,-0.114976998118507,0.191051188988431,-0.08366631351793],[-0.135137047942129,0.0602470967949055,-0.057436830308221,0.21038763477725,-0.255966318508521,0.0696120074843678,0.0907568459420554,0.227481750509273,0.287593528322881,-0.121809951424276,0.0816419723391307,-0.115488503194882,-0.15556236939195,-0.00874839381342532,0.083991791111412,0.19248983314576,0.134747770295296,-0.0303419902146518,-0.034714852031182,0.0748346343172319,0.185287865833321,0.239108114718729,-0.179640729920114,0.221074040155868]],[[-0.0504856586307244,0.155042173014435,-0.226598494016431,0.00713208435646423,-0.0602784106452026,0.072466872092297,-0.222774843742863,0.0450944487702677,0.32885551778549,0.0895239085647228,0.198996998533162,-0.0693095767545972,0.266636160532109,-0.249111719613387,-0.195317552438109,-0.299284463185831],[0.0109553980248671,-0.257270464337848,0.203077777013175,0.0532028826257034,0.269914350650247,-0.239555808364305,-0.100396094531857,-0.0454207726555,0.338719373742483,-0.056293723510614,-0.309766776039807,-0.131932169810013,0.0887796939532471,0.214457709968446,-0.0742929279440884,-0.271057898538808],[-0.0290666666603013,0.152388433206601,0.283674348317093,0.0706746990241913,0.179447045186603,-0.0898487072460732,0.223811583989933,0.0109912722462351,-0.299768928240792,0.0263644199763851,-0.196835239801757,0.0313283978819203,0.0236808659257284,-0.295935177069112,0.360936802201232,0.120803500554702],[0.0915369326591363,-0.115556657761982,0.272883223403205,-0.351184771922661,0.255563873342781,0.019230302791311,-0.123262032823924,0.0388537770840363,0.00802836485755151,0.193242462644512,-0.312553095609341,0.302329111341418,-0.0146484493653729,-0.293617629870929,0.0561725286468095,-0.314368032653515]]]}