{"biases":[[0.0517268278703366,0.00216025489825372,0.0137121291591868,-0.0290046652582734,-0.00134928370593059,0.075899143936445,-0.0506820485724783,0.0678644359055965,-0.0130711535139258,0.00547879993689158,0.0495545084738145,-0.00176338486411783,0.15595383389776,0.0280053269130444,0.0,-0.000420327316731574,0.0400039342637946,0.0702116247488622,0.00425653661488131,0.0820957895703943,-0.00002086548984472,0.00047569548112451,0.0307899368750708,-0.00659664729892306,-0.00985955267429819,0.145966441342021,0.0720326033260211,0.178265630560951,-0.00022587942263692,0.0413987136879067,0.033908741175962,-0.000158466452504071,0.0880536980305153,0.00792584748782308,0.0182082637210812,0.0,0.0129929334519458,0.115371558882953,-0.0456155290030008,0.0289336245795854,0.0,-0.00141470729408624,-0.0032751807758733,0.02257446434501,0.00080711757464915,0.0150052913343464,0.14146950895268,-0.00333547698197294],[0.0,-0.0000395372406330986,-0.0251883550108672,0.0526239432158852,0.0797039660462188,0.0648273439027234,0.0872039365268075,-0.0282675368481814,0.0748215004840403,-0.0131550835138567,-0.0272737243357812,0.0203215363554845,0.0801594873367994,0.0952547783516259,0.057596105598567,-0.00293683550851344,-0.0288959023479442,-0.014571730638114,0.0004935535784555,0.0055147666293936,0.090261521618389,0.0403661321152357,0.127682905574119,0.191891721239647,-0.00282863372003908,0.0744186593096051,0.0463217026169101,-0.0288704509929335,-0.0222907692504008,-0.0322209469174733,0.0,0.00000050609044357],[0.121334465831168,0.0685797779990788,-0.104656200677173,0.141773495360823,0.0935833587717301]],"weights":[[[-0.445481271583607,0.423663460681991,0.152645196276276,0.404107974013396,0.574575392956965,0.260654804440231,-0.389950749636584,0.185964042700836,0.0810907310653993,0.37517368388492,-0.0690296766746242,-0.239617193501409],[0.00406770882927686,0.383298359959506,-0.0350955223559858,-0.179626862512455,-0.134560754953533,-0.26616861906284,-0.372785405852041,0.14534550262862,0.127252149666397,0.14862347034177,-0.367584450237746,-0.223865455706799],[0.0509424011828067,-0.0948274013398855,-0.021851416866254,0.219001239271021,0.435413096316601,-0.340785525456501,0.20703693511967,-0.117407954868403,0.097729657181841,0.175791471644971,0.423067928918244,0.0230688321096052],[-0.644979835709664,-0.0977660802755159,-0.491738802764752,0.27982059809549,-0.152164761732552,-0.156633373835254,-0.167673261075987,0.0918521846880389,0.0281514296206296,0.367058087832118,0.222056797333607,0.11914692248464],[-0.0187119968145007,-0.335050411922994,0.322201126653091,-0.139710198789427,-0.251319920836237,-0.0142409944984447,-0.0337613048991076,0.0594118430971206,-0.199433180879806,-0.404533591529724,-0.39579405139119,0.0351276916515764],[-0.202300986076996,0.480461564202534,0.120563536178327,0.182863887871061,-0.182969765946719,0.0250873377022056,0.389352993012934,-0.0042781477890772,0.219969747589251,0.427540678136978,0.448968831041855,0.133007953996866],[0.181046168834771,0.229527727931807,-0.298110689386901,0.178129037144091,0.206901154095383,-0.13169023061847,0.11626644305834,0.228631576496945,-0.118016038123353,-0.196389230282158,0.211812984129296,-0.269883945852911],[1.01819012682687,-0.200902913567927,-0.155522251295349,-0.491468010322686,-0.503325462343631,0.131592923938419,0.309701281663192,-0.0313938624787451,-0.0055788596428164,0.373008434872705,-0.342836369399158,-0.0400404757635174],[-0.236418420214547,0.385316552381416,0.385116670780348,-0.212931610745924,-0.26435966631978,0.367031045229379,-0.301232899129783,-0.313126513864646,-0.228303329729874,-0.272176767411973,-0.386969102847741,-0.0573330337264391],[-0.105502150502508,-0.231524884193924,-0.325109245947037,0.0663928483976059,-0.0386384046061687,0.383441173690075,0.163857374731504,0.407300713338736,-0.293150542113391,0.0580293791047699,0.175962708531914,-0.095133209255642],[-0.414558390185678,0.353973636606024,0.460015380197498,0.0264500968453479,0.629114920525001,0.063595828584599,-0.255137603354652,-0.218270366361212,0.258882121049284,-0.191014010663804,0.162241951677321,0.295247008446316],[-0.36251994242919,0.141095801772738,0.291929720700985,0.348478157366231,0.344355755670445,0.0886962924748245,-0.0697710784070029,0.0437412336011853,0.142331765961167,0.378534394189806,0.0577901586795625,-0.225914603019757],[-0.848424762661467,0.47951319908709,-0.161152207393272,-0.358293035111634,0.0248227724351661,-0.0722519005211696,-0.366385008777358,-0.035498248337233,-0.239326822301671,-0.0308355419253456,-0.0426895474494836,0.468212863813419],[0.848900453551662,-0.0215632612967627,0.213484972629493,0.196161439554166,-0.611541035032197,-0.222561266250589,0.175960150192766,0.166451326379477,-0.450466891123363,0.323525850539542,-0.0415518846120763,0.153200011729905],[-0.232119425730811,-0.233962712775062,-0.265333162008229,-0.368215734903703,0.133095208490981,0.167772774977903,0.106896257932577,-0.204411607805549,0.272327004918913,-0.352451372529688,0.363790143829745,0.17360728037949],[0.279321054268107,-0.260683321434219,-0.314952659407716,0.127478069483953,0.162954157297685,-0.0883689053286871,0.127347858466967,-0.403066226245144,0.334664374924845,-0.366496356301699,0.129793309038209,0.317697912548414],[-0.0560950180760466,-0.0578652859301665,0.304235093704466,0.162995202071354,0.173607444980616,0.336249780036021,0.23545675810505,0.140785549800478,0.128556356753757,0.148643920806381,0.30706637941794,-0.0812170522328079],[0.208778785076676,0.0651908895229579,0.00723177882856941,-0.370306049394248,-0.505833581996634,0.263086383241257,0.326825487977588,0.398102003327737,0.225539406105284,-0.336304909799983,-0.110914982493765,0.35676872205149],[-0.191926437524971,-0.177484364847962,0.388588196247939,-0.0947350136667642,-0.0160632380515305,-0.16591262256772,-0.0324955551591503,-0.36763945582479,-0.383355582426924,-0.0577415732501771,0.0550569910588837,0.10666778445831],[-0.236504686723424,-0.107883685226796,0.291163804013509,-0.248288320399347,0.272459548265932,0.251168640023091,0.264071841263921,0.341842235095284,-0.00156306752958362,0.427517621553185,0.37810788763708,-0.170567308097685],[-0.380696006689352,-0.068498545795993,-0.230162224321412,0.069949343306146,0.362213280360129,-0.297167733178605,-0.107697476868496,0.37149153137441,-0.360726749218417,-0.0521435120308968,-0.320024816053003,-0.165093162651703],[-0.0935387454164071,-0.298999431584943,0.227559260125243,0.0765505409365757,-0.0287954657555522,-0.248170874562012,0.167422166148217,-0.144632860853937,0.0253454933219762,-0.312928337692087,0.191962695171432,0.0549042614119476],[-0.262625040886467,0.0953809390208741,-0.0361131992075626,0.326773301440691,-0.191437115011019,-0.167676000958354,-0.0173683207383351,-0.0879411421904598,-0.182063838288357,0.273711991390314,0.439309599104445,0.270790794828878],[-0.123639979808931,-0.0047543333501569,0.244266411305356,0.138462321571453,-0.184884295311614,-0.287740406593566,0.402216501886274,-0.310032589872248,-0.392038143230032,0.161602837933816,-0.252684293076017,-0.34332850615953],[-0.157004073067085,-0.283750477290385,-0.333558233291055,-0.246436377114323,0.218511191914604,-0.0597879480569428,-0.0492640430367832,0.204317573895669,-0.329167939097013,0.33033734986975,0.403290208525639,0.0423450971009382],[-0.848209171455238,0.00616165825464227,0.0964361703794828,0.196586240966663,0.570808190211671,0.253888228846768,-0.257139196818669,0.213521903208471,0.383311323118291,0.236515211405013,0.139369044770828,0.434835286602516],[-0.774389241229355,0.236577283506017,0.17704197098704,0.319828485605324,0.0776490536005384,0.512547374040184,-0.380650849461996,0.168488701195903,0.386929277028168,0.401674731842347,0.33423204850985,0.137641963469868],[1.22434915936966,-0.349969077643288,-0.00692579977922454,-0.551289260254123,-0.859798530178334,-0.713153697283928,-0.0297885068843911,0.179492183684653,0.0197815901594749,0.0543373807144093,0.220032598004441,-0.0924020074311759],[-0.386204564222891,0.0560186601999289,-0.209460892449196,0.0865402245153826,-0.193413893737375,-0.175851525088898,-0.153422275454026,0.277356447069246,0.29640962325009,-0.37372777835352,-0.0540086201293579,-0.0775566304404354],[-0.55396014862863,0.245872810071844,-0.234401362777441,0.428007829551424,0.0308200412696206,0.284636412083809,0.317619798563662,0.214552950967616,0.17325424814743,0.189252952626754,0.324390447330259,0.319682853810857],[0.190246296206873,-0.348453737084672,0.328899648916102,0.0494973965971369,0.368107887762935,-0.330527285949309,-0.00324129899915221,0.420855314901332,0.150849126445503,-0.349480697591306,-0.0900137559621652,-0.129003807105069],[0.229599783212407,-0.326596375348883,0.0270889659099087,0.326325793551671,-0.126681061590256,0.0762628448840904,-0.153073946093631,0.0363459043942564,-0.143197229238342,-0.194940828725235,-0.173435354736331,-0.240004794864185],[-0.225866166963488,-0.177558242315553,-0.229847265585395,0.520513096307741,0.326289105706381,-0.307032887170048,0.133429531458481,-0.0891102787614986,0.0833074358242586,0.31482338789239,0.391856174330464,-0.037039510680426],[-0.0186258515680637,-0.0411246344878653,-0.00794526989974776,0.237275329599403,0.209811199166608,0.237787090508082,0.0678705342119283,0.287752100129924,-0.153422666791157,-0.235462817786571,-0.131715829767343,0.182310542509],[-0.276665915186401,0.0189616961799432,0.374183354053523,0.399409134805415,-0.0643774284512866,-0.318456390842178,0.171057855877244,-0.0543990178173406,0.412874400747068,0.137447573286826,-0.296519703588775,-0.148469137707006],[-0.28809617197705,-0.297054428890735,-0.0948622873301118,-0.200074920512873,0.0185896009532501,-0.210294566019138,-0.00284219254179385,-0.0796831324374385,-0.0243720089486456,-0.182054323675061,-0.143389779336242,-0.167976501193934],[-0.0882989977348501,-0.0389611382376251,-0.152862091466691,-0.122911658942339,-0.217338019765546,0.371384863438105,0.327623254569073,-0.278702572599521,-0.185686108933438,0.239595124784979,0.236248065780716,0.0130598738426477],[-0.593603117127376,0.172407631576098,0.232929901657474,-0.0641581637372049,0.462593709798925,0.359706659902826,-0.0058328062413911,0.303223111242087,0.458967172201213,-0.113975027193151,-0.0697075856819066,0.456410653115385],[0.129875172796292,0.0483422041512446,0.0510329024695485,0.158715953581597,0.0843880389628253,0.0404105252220094,0.239277009417877,0.189922683178241,0.0540619531193545,-0.296405105634174,-0.364507815579682,-0.148507820657736],[-0.328347619520817,-0.236485775606672,0.189426889105659,0.271169818073243,-0.261881070921639,-0.271993707070069,0.0676882771703483,-0.428536959976365,0.43900232499105,-0.0359856322367776,-0.208960209592514,0.26384237111538],[-0.133911626620973,-0.0249573329499681,-0.385055169765971,-0.308374518228618,-0.105010918385209,-0.161071718755637,-0.0621345642439478,0.238218497328964,-0.079317913174311,-0.250424451743287,-0.357531970167847,-0.184036311220003],[-0.585212442258063,-0.134258844145227,-0.0493638481282646,0.501905505568737,-0.098538586221397,-0.220875033229555,-0.242805914554628,0.240601161957318,0.436408419973714,-0.112827506657564,0.207353067816233,0.300835065469862],[0.149355711018491,0.289198547348408,0.201941629721909,0.0681702425727075,-0.401140115498966,-0.222645050130169,-0.235211178991645,0.035662930869135,0.23277148042478,0.316306145674558,0.0585992846665115,-0.134803787891996],[-0.129660781629954,-0.270217293194302,0.178829033525027,-0.361521865974345,0.0593538699804482,-0.392444693620426,-0.257747380139093,0.383039363825049,0.158521004482339,0.40584721022441,0.22542798021937,-0.0344095633262606],[-0.124654532374721,-0.212438599438313,0.229439310687318,-0.200626848530967,0.0317678688567763,0.137853307334218,0.179256484929225,0.265553200460339,-0.379910376969447,-0.253838925026846,-0.0565449882239249,-0.122130679902468],[0.506977117965169,0.0996572611413968,0.187609207829649,0.235398082221136,0.171123921837829,0.0619982745577807,0.192651874855923,0.353997291997742,-0.366622381837017,-0.380005526321347,0.366106425117701,0.380886391445119],[-0.812487934280302,0.406718259640681,-0.20021085951322,0.488060656195998,0.792895051491604,0.228768219745074,0.0638028600066828,0.344528842466488,0.163174430655213,0.44523142770941,-0.131184039641587,0.0827663409922134],[-0.43092016064077,-0.251847167309188,-0.274741683322239,0.0856224703905185,-0.360466041814323,0.127797438291607,0.17177495391724,0.246158810577078,0.176785546073772,0.279088420935513,-0.207965783894638,0.161268321454229]],[[0.163595199650273,-0.149194465571912,-0.0425784405565732,-0.0418430270707764,0.0141359128448195,-0.186150839485691,-0.0334643793463242,0.0190606375090891,-0.0561367331084793,-0.0669431559627617,-0.0635955038178645,-0.0307955028837539,-0.0747829678802877,-0.134200476464519,0.0940724795066489,0.0018985790857958,-0.00842800191313542,0.134233210796416,-0.166487955933304,-0.193646124387691,-0.0931652180395503,-0.0592158546831809,-0.0578788587581425,-0.13022707739235,0.0523662242815111,-0.0861161097827583,0.0691369583509079,0.0814970616191273,-0.103865817388682,0.0276432270147665,-0.154354768932226,-0.0587675709898752,0.16493200049402,-0.0563234918015917,-0.0379561683129944,0.201698213319754,-0.131353351436368,-0.107636260460428,-0.186072163860928,0.203294461605921,0.0923938972209718,0.0394852469860268,-0.202116413907653,-0.159285412725535,-0.173373820912571,-0.0444825918798807,0.0593199515088439,0.187600655690882],[0.100460635440433,-0.173018662741284,-0.135626768201142,-0.105764201150197,-0.0604289520014072,-0.0719737724454619,-0.117221222962466,-0.0331555560855059,-0.171467373027864,0.0532299298602507,0.163148132236925,0.14211480396985,0.20090828295548,-0.106226225946744,-0.0715368620071124,0.12144639648132,-0.0571190560748104,0.0193255878500319,0.179495167735817,-0.198839419970226,0.107976081795035,0.193998020724877,-0.185271099510272,0.152937021972488,-0.202748202912038,0.1531827647639,0.196647827835137,-0.114591931820647,-0.175316900510819,-0.150352486685421,-0.113412920595803,-0.101193138753654,-0.0282719997797163,-0.0954035185889123,0.00389740992209434,-0.163398820822511,-0.0702821277022133,0.0807466051555197,-0.184656933908777,-0.193197380291473,0.130727857051629,-0.147134569462945,-0.0192174015422216,0.0870307321751349,-0.102676845913194,-0.0307871719754901,-0.101028107756737,-0.173728978938908],[-0.0352964942152836,-0.0918237617752902,0.150443179133237,-0.0555932324538865,-0.197773467046147,0.0279829852092663,-0.175413778682566,0.0448470441402641,-0.157853270931439,-0.104506271404914,0.0694648326190626,-0.00862131480604803,0.148709797080223,-0.0779596652966277,0.146758984753835,0.0288177396242534,0.0926805359367744,-0.220783796605885,0.0938385165651033,0.0682083409276764,0.00806816434554478,-0.115720960008999,0.159531486246264,0.0167366296171169,0.173586334683752,0.0461077390684221,0.118655893337611,-0.100662438621813,0.00831929543278839,0.00519068567525224,-0.0716646024622643,0.111645127690832,-0.0842038416970411,-0.0596488836600707,-0.0199532993282108,-0.0159292985782462,0.172379383407109,0.205566267051481,-0.0642443173919202,-0.138357238094334,-0.034942112404681,-0.0530758553453698,0.169592766235909,-0.0915581949388395,0.163166355777999,-0.0115847524119456,0.122400959906704,0.158651133452101],[0.0315553829471362,-0.17989931482106,0.208935638741323,0.0295534954682504,-0.0719878947843802,0.109539448152244,0.0125605041718869,-0.320917872737229,-0.112910550945692,0.069034468456606,0.298725993100135,0.180453113091339,0.31115147094718,-0.19826001954888,-0.0454441537977532,0.0121677094747444,-0.087590122412619,0.046479962010039,0.166940956995901,-0.0545486706991582,0.170251481775062,-0.18931610507888,0.125617125484979,0.119016029698774,0.0464001326607787,0.184831331288943,0.0624081917737964,-0.409184256295337,-0.028419802102585,0.264254474156014,-0.0948549356413494,0.0339803513199249,0.0763070274748171,0.0508731062432023,0.140501619578911,-0.122878943110027,-0.0423559102163976,0.244088323223678,-0.140441753574075,0.218508736570813,-0.0292970095073873,0.260955335705586,-0.0606106712066151,0.177056613338766,-0.138669352311084,0.17799381174134,0.397990891368793,0.228624035421368],[-0.219062144548933,-0.0931907596851208,0.000186466697400856,-0.259987838732368,-0.19176732447592,0.125987434298448,-0.126145682824358,0.0856371795614688,0.120143811244296,0.111480887566527,-0.070122010762357,0.105686755803363,-0.289967819566207,0.0487591753003475,0.109801128809603,0.200007261583341,-0.034085312096876,0.251448289205774,-0.0807918283869541,0.141443088440194,-0.0809833069283893,-0.0891106120563342,0.160700350021377,0.00163842489340057,0.178571725503543,-0.279213242387313,0.0151284200286283,0.440745201016404,-0.184968403736392,0.089579144713558,-0.185697303970625,-0.0775708728646088,-0.114558389506757,0.0536614414368026,-0.0206532286160184,-0.0711659676735142,0.200843989538503,0.0941502544756845,0.124451431731874,-0.0697810718516366,0.181518819144185,0.0445029302985652,0.109572958739932,0.184532548289545,-0.095879800822773,-0.10623035537015,-0.209083260531271,-0.177534429235474],[-0.0833337757703968,-0.0464665838182131,0.0470457992028127,-0.0133995962412654,-0.0405695490853067,-0.0544401514774829,0.0345533065122477,-0.0620951860744575,0.197137965914363,0.0739125024054581,0.00223365472503474,-0.0236594164576553,0.0790941250617271,0.159337111814296,0.132270985195297,0.153336268353974,0.0902339150096167,0.208143238311609,0.200859481469018,-0.142730498214297,-0.0221808619078896,-0.095891040573719,0.124733809070471,-0.189954199614589,0.110301301914064,-0.216993838675619,0.0754759598637002,0.240872950957559,-0.0861304240571663,-0.137891849924357,0.167640313174663,0.050923193650711,-0.115516427660956,-0.170971014097953,0.0315500321824244,-0.0364264128412308,0.00158782314945611,-0.0350279067294594,0.0348467500299256,0.164702517336438,-0.0757627012622223,-0.0297583165854782,0.100247413205591,-0.0327967367182387,0.103094841529552,-0.0417850387905012,0.0170076686851912,0.0152072893527383],[0.191896389247209,-0.0791351884312318,0.0216418293139437,0.243407414750421,0.155901823648901,0.326797283558669,-0.0563570814396691,-0.169587638751637,-0.0732400632158473,0.0758432813907718,0.174617964090225,0.0428773342516499,0.364422180068618,-0.263512601564061,0.091701483387496,0.0915278950076298,0.166082207264117,-0.192180224230693,0.0780539179464544,0.113308908596553,-0.0831730148742139,0.0824790661176928,0.0766333610750981,-0.0982507736524057,-0.151528559634305,0.363443556153507,0.480790263520799,-0.528686717762297,-0.159763649582549,0.10382965208237,0.138517393526794,-0.0103913570608903,0.10355863110444,-0.0609741580901845,-0.0651998630323148,-0.0336871075577324,-0.0818416599315443,0.366732389929334,-0.117763975503467,0.254391519413346,0.0473019605521367,0.314116899417355,-0.164418323974963,-0.176753937400565,-0.00186201987512805,-0.0510943156680345,0.501138277330731,0.0744483081261114],[-0.104626168447095,0.147098589922199,0.117506853647291,0.141912441707983,-0.103652251886452,-0.00440425570614356,0.191677180284956,0.153421515100942,-0.0593660500230808,0.0171226641759579,0.105102921213006,-0.138611024784838,-0.162848868297121,-0.0464646084932271,0.0392146021824223,0.060986379548573,-0.0928045439574132,-0.00787423380131754,0.188639996034937,0.0818444726147543,0.0848646014159367,-0.0635182946315615,-0.159242024949111,0.116363369237565,0.106757850226497,-0.00574644272231318,-0.201320686560174,0.0155729891987024,0.0327048565022141,-0.204587485904671,-0.145837859890516,0.0571565695473868,0.054458424920829,-0.0238284465442501,-0.146386565871562,-0.111581700517511,0.0207719496617458,0.180892577762419,-0.013507872761446,0.147442462302688,0.0146150785498686,0.0107657305558967,0.0284841244367781,0.0388937814472049,0.190081993842182,0.114885277079473,-0.0695337906043031,0.0703752912150726],[-0.00331184977550744,-0.147636020702654,0.10023474710885,-0.038588053454982,-0.0275685853794547,-0.108749936472062,0.016303035440696,-0.0114543109319749,0.063868624602717,-0.0225885871109747,-0.0455642570435238,-0.195885258832726,-0.178077533955427,0.341484879010143,-0.0185604953491044,0.196553661096512,-0.0291695616019639,0.152536774763773,-0.0565367691809991,-0.177235444675165,-0.193977875621797,0.108662398361285,0.0047773182871785,0.112020209247762,0.102953208587386,-0.263010872588952,0.0623180724095853,0.333450037981724,0.171422466900078,0.130596802014162,-0.213003023807122,-0.130330979607489,-0.06554706474974,-0.166906590349898,0.138022640966665,-0.143827814553875,-0.106403108884813,0.0412532629942421,-0.148055635362336,-0.0740060420353037,-0.0980421021971989,0.0917976474454912,-0.122461056102833,0.102458693104307,0.189120339676884,-0.0734698066445327,-0.0473301948330842,0.0949231677777178],[0.365071067228033,0.128702417307648,0.221144140362567,0.151114005158793,-0.145464680680355,0.0806881566021626,-0.0147022210942772,-0.506416117028728,-0.0603921013810472,0.14211637530132,0.367369184487212,0.323687942354947,0.453964697610368,-0.216109594426988,-0.02666302847411,-0.0971139692289351,0.108116642149505,-0.0438682687975737,-0.0385141021936051,0.228374784680093,-0.118820644363441,-0.102944842853448,0.190242396978235,-0.112583849102635,-0.0124892283462033,0.445996009253266,0.48592618307406,-0.725314005094722,-0.179892847513051,0.432536255701618,-0.141460346212609,-0.0275269820724493,0.311664911490414,-0.108609140599968,0.0638972622045672,0.178844856530289,0.200798049012473,0.278894199724841,-0.0597667625931502,0.255781763702448,-0.108167087741494,0.0725051011580368,0.0223230671922983,0.116949690132115,0.100964457431472,0.0040766178371575,0.35342815792766,0.129192962146125],[-0.166906221721102,0.124006770303609,0.100181814904227,0.160638303796021,0.170971759967803,-0.089608418568472,0.0958269910616874,0.0693513731207937,-0.118584384153337,-0.0783572395830387,-0.130992360638145,0.183247759666679,0.107077453761573,-0.187150353835499,0.1473578382794,-0.0774625013532392,0.0428637442732484,0.0501473923608934,0.113815442663078,0.0443382206043554,-0.0660985337702147,0.195691260855057,0.118525306671604,-0.179440842723652,0.0302701278731331,-0.164614097259626,-0.194325441863893,0.0688427543574202,0.0341940801372941,-0.187218372696041,0.00465121839813259,-0.0584064978270453,0.0217344987323075,-0.0497397967077937,0.1942419902819,-0.0236601052771596,-0.0456473272956712,0.119277055179035,-0.105513644419859,0.0861897404976005,-0.174858334093962,-0.0438254781560769,0.111744259153931,-0.0769392463261339,0.173776578973555,0.177430174809716,-0.157460901598669,-0.0745261764108008],[0.0774792166460694,-0.170464396838759,-0.112652436247212,-0.00252169195909696,0.0942919987402967,-0.081329745570618,0.186830642942108,-0.109303465387519,0.0492629615629452,-0.0333604517674261,0.214979441832935,0.205468594057485,-0.108801263870707,0.181595862010683,-0.197380490440645,0.188583789562284,0.0836725472086118,-0.140713382004074,0.00455264354171481,0.1352943057701,-0.111089428829099,-0.0984610855797133,0.0256202133858921,-0.0342036289636325,0.168233997063691,0.0531976300284955,-0.0548373971360094,-0.0492835388192398,-0.0121802835746863,-0.173430478234807,-0.132613565256731,0.146570712301171,0.175584435365503,-0.0252843824208574,-0.00954268913024776,-0.0696553686225602,0.200834199130954,0.0346105259420635,0.142347777131577,-0.119293208796783,-0.140373919009561,-0.0614476971838269,-0.141455219796044,-0.130375890419753,0.0686111365314898,0.0815646903744394,-0.146830870788312,0.0946094560314374],[-0.130146460168188,0.119730515734818,0.138328006352309,-0.00194642424774868,0.00806740548783979,-0.13001924618981,0.184380983668163,0.32660979625088,0.159501168077845,0.0899799480791662,-0.14606020814594,-0.110291211215563,-0.0776218945172048,0.388612830974901,-0.083515920908785,0.14453558514337,-0.175841635131638,0.260957193193223,0.0486353182807074,0.116651896280661,0.0595688425723864,0.0547282072549701,0.133591676959991,-0.00470644280253082,-0.199480680219171,-0.247670637176623,0.0633940709110229,0.346157458534711,-0.050149505752235,0.0877728961391187,0.169839455939319,-0.00945949440544454,0.00204049091118531,-0.108112663888399,-0.143597830466646,0.0913618686607326,0.0896930960391357,-0.220458637625117,-0.171213682853683,-0.127760550938669,0.0785242884750235,-0.167581882070803,0.127149920342613,0.0449333085778131,-0.0210108636591086,0.0653161801315118,-0.15453404671952,-0.101709513472437],[-0.0725674327733035,-0.0113184200197082,0.00547869901624635,-0.188563485248708,-0.0995955258233909,0.149243552961156,0.128517860457263,0.35880779167646,-0.173182596663625,-0.0218567200613729,-0.12829652016607,-0.109002369145505,-0.0453316748101303,0.140563311120473,0.198686827910201,-0.0211616396611609,0.0466995422993262,0.133806138068342,0.140492259145965,-0.043091072940849,-0.00981855490726604,-0.00566778124073179,0.140520248477139,0.03089070843069,-0.174824178046936,0.00374004150836452,-0.0774897375626944,0.458431693414362,-0.0860511960054434,-0.055432774873891,-0.194390880550909,0.0178431296687258,-0.148490447168071,-0.119445543213678,-0.246625364388262,0.0261556898086459,0.0871299448353848,-0.0235129838151539,0.140703351069825,0.0461174008582186,0.0240325171503415,0.0820912728505169,0.0116686641086174,-0.138990958378807,0.0389438820118561,0.0253604074839786,-0.290892338835169,-0.0697914045767586],[0.0803577137684639,-0.00214163833309735,-0.0498947413129267,0.240752652865438,0.159720964190661,0.265876615666176,0.199025818146072,-0.219941797068177,-0.133770607864676,-0.134861864918906,0.15129402397747,-0.0847751777962799,-0.102433199332046,-0.232211153786927,0.0974288717681974,-0.0844968270501713,0.208543862406551,0.0370963866665252,-0.0975214935105186,0.1272978396012,0.146952024376675,-0.183330356610609,-0.0459930615905536,-0.0287190202257128,0.0302491062047095,-0.0419507282754053,0.00659910906356314,-0.210796603924822,-0.0640788287221751,0.234354836349493,0.112791065909174,0.0097282250786896,0.0495900702943533,-0.144272957354118,0.020534722016722,-0.142182530902672,0.0616122698793517,-0.0833633329604743,0.0516799400475444,0.182483083214862,0.133839303449015,0.0964763863782201,-0.000782653314382273,0.12249539780387,0.092902294684292,0.128135778982815,0.198195138562046,0.0275157381679492],[0.0692894925545142,0.11156152168672,0.148935800909259,-0.136780807509883,-0.115352937567523,0.0462279368136873,-0.200182115109276,-0.0589459702456641,0.177082052028815,-0.203415952275688,-0.14345753468161,-0.00807757485165606,-0.144696813604589,0.0847447718747974,-0.152088241837767,-0.170585009953256,0.0694272265319973,-0.13426242761263,-0.149097595710841,-0.0231157073527112,0.162031650054771,-0.0870414320956379,-0.106866811509717,-0.0972400708753763,0.0958290208016325,0.0793825236519179,0.0772159688296096,-0.0156679012252148,0.159266258603691,-0.171984864468425,0.206445499866324,-0.136432386000471,0.0154156275872983,-0.150675359743075,0.174355542833388,0.0515967000834818,0.0196029562692236,-0.106036648335149,0.194884829813507,0.0658608564281201,0.0191965425228789,0.030043932247917,-0.0283473508713353,-0.0645676066459579,0.134696101649862,0.1314910769289,-0.0536069301734515,-0.110207706186366],[0.292875856462181,-0.104396237615358,-0.126482903635089,0.275383860454378,-0.179507463938416,0.223233986248131,-0.120544587606281,-0.0183432908952272,0.0240229549869221,0.132375356234579,0.0150079507999706,0.121058191443188,0.276958400774018,-0.211351218301009,-0.107598942572425,0.146837454569645,0.0460071304980012,0.0705517385873846,0.00534843706930276,-0.152819920984337,-0.0629780453401098,0.00112704053936983,0.17248992324837,0.167576856115436,0.0795430789129202,0.335177285909785,0.29429130226417,-0.0998306771252351,0.0676324841719764,-0.098866127842037,-0.13600635740381,-0.154483759513527,-0.0776581021934431,-0.111237053013901,0.238519967670011,-0.0986569158195491,-0.0596582289487648,0.298899158877772,0.0681867273660955,-0.0251078582822344,-0.0573575852679806,0.038027059759976,-0.0239430688811549,0.00851719759439264,-0.180306064765329,-0.240192474595844,-0.0151502928853551,-0.0376964517697803],[-0.0611932001709652,0.146078953154376,0.0908540242114122,0.290707682983599,-0.108309802881906,0.178667487286176,0.0524491383584373,-0.280873645589023,-0.126043446219193,0.137102067775666,0.277933907727505,0.170871757882356,0.28031770947922,-0.231914944377757,-0.193964837391011,0.091633257704567,0.0726339706908385,0.129892472955635,-0.0916114079141692,-0.069779175357767,-0.16102084059544,-0.110385123472324,0.168561360072394,-0.0898165224521714,0.113454098335346,0.15241461252571,0.263880440172094,-0.461563571889452,0.186520876530898,0.0617819518018972,0.0820220129990975,-0.185803444245594,0.231231614205163,0.145549567947569,0.0392985381025334,0.0919990978700093,0.203017382250075,-0.0359515338311531,-0.192874304084336,-0.121523418283819,-0.203229527994923,0.0121547199238903,0.147262839954206,0.112396002502995,0.0745211285656798,0.0659676447315078,0.254094703172907,-0.0543768418471543],[-0.0115493394664902,-0.157806456881852,-0.149629067879292,0.166798684554698,0.118139512590585,-0.0147271771870385,-0.00331788317790374,0.139778771044041,0.187493828062634,0.0784371049881662,-0.203353752539607,0.0756275680804436,0.0701963437880886,-0.197143166444048,-0.0577156021179826,0.176576592641982,0.0981940126624008,-0.0279806000725986,0.0261741506756478,-0.173972897891476,-0.0539517713116363,0.191956999879831,0.0462199600287944,-0.143296840609482,-0.0696897532610931,0.199076640237658,0.0319188211097476,0.0279257854849445,-0.144924814622657,0.00317396117265153,0.0784091604533849,0.0220377990359166,-0.0201629975173682,-0.141289077565354,-0.0320669541034104,-0.134223982417087,-0.132691028975088,0.146938353842612,-0.101342836612137,-0.190440667610609,-0.195256593058955,-0.173917303579482,-0.115487153630163,-0.164359648488403,-0.137517415608822,-0.150600401027107,0.0967323019904096,-0.0384621806509436],[0.138475562223781,0.0628030412546958,-0.0920036287763886,-0.141682781395276,0.161012752847427,0.193250715979877,0.0648005313422046,-0.123050206954358,-0.0691645434298384,0.200651960141551,0.0365601114952235,0.0337904875711351,0.0733878860662978,-0.189011218052799,-0.135402196789428,-0.0157585397093863,0.122492878410092,-0.174577282987505,0.168227977721996,0.0800674945268253,-0.202645438725926,0.0657202030183309,-0.164063913235806,-0.0565878653762653,-0.150962574833608,-0.117948180008311,0.0732090828634466,0.0270673294247428,-0.188077638146489,-0.00315154662865641,-0.181142768101073,0.0968673997854154,0.123761842540061,0.106608126478658,-0.18342208916656,0.199364551915179,-0.114219997303867,-0.0261938891876948,0.0930914621725357,0.136543335418494,-0.11719354078661,-0.147222649558932,0.00845240337372689,0.0263160596311967,0.189235009584489,-0.0530633120195121,0.12997048860775,-0.196962803682267],[0.317484635610995,-0.080168125217998,0.0221329378235116,0.341434379701681,0.111533485189729,0.132077877684125,-0.131704202307062,-0.425469129840415,-0.117117116928547,0.0067136108659324,0.140079466665235,0.138618027806668,0.357933671454979,-0.259260860346057,-0.0938965339713237,0.0461753688322499,0.201167143820174,-0.143434251199696,0.140256173098777,-0.0119694025478444,0.155840701858294,-0.0123065129681816,0.235271769907719,0.0319865465833545,-0.0207818383443267,0.247570271931974,0.530359162798249,-0.375199252851902,-0.195530868448129,0.245549428450962,0.189750022478754,0.0809506241175307,-0.0159464798319458,0.136689907537401,0.266283954927811,-0.179211486285061,0.131017102919446,0.396950185708185,-0.153349511229713,0.208314933391373,0.184473845174862,0.382820704995891,-0.172293259775842,-0.157620798624101,-0.101773400272377,-0.0836707564418461,0.538669379037652,0.25056358322284],[0.122916313593356,-0.153175760029383,-0.090552176763326,0.0816830172529012,-0.04892942252709,0.12789020238971,0.0895534963983677,-0.051792874836643,-0.120266506667,0.129730151080599,-0.0963241270745941,-0.125934570672294,0.174377738340542,0.0316836318892194,-0.0152466421578679,0.0566744503749907,-0.0807854687554703,-0.130124456225517,-0.129897828916418,-0.0900155617531975,-0.0377503257391939,-0.172907128599986,0.204556092889708,-0.0350903944191121,0.00816622830209488,-0.0338222911929155,-0.0723617222300956,-0.0900150979715977,-0.179715317725065,0.115350295444561,0.0649831717424603,0.198143993500974,0.153448228315097,-0.00896722611705841,0.0574117228744848,0.108390386154699,0.0111866589758555,-0.142494278779159,0.199358139141213,-0.0247139784325423,-0.104894659423016,-0.0358318322281693,-0.0762456171736468,-0.158796948642518,0.172369945443615,-0.178652961762152,-0.0169340553276323,0.22968030087505],[-0.13931956628617,-0.0959838988642553,0.0433780203287711,-0.0250658160785145,-0.149722716457067,0.189762477622951,0.0909650335070293,0.325411728913706,0.0671734152738752,0.144635837303615,-0.266879079168042,-0.159624956414837,-0.293409342124896,0.494671702713156,-0.155823959406546,0.163228974419261,0.130796675877762,0.00852288105907091,0.144976117921086,-0.0209202334528545,-0.0486316045532967,0.157265066726048,0.155921813172362,-0.169045796626345,-0.188223745295205,-0.26702996342295,-0.145493623576168,0.411141468763433,-0.0193396923249678,0.0784989156790814,0.0248895558535877,-0.0389011603699966,-0.0267419043931455,-0.0455061480839917,-0.198594194104238,-0.10288206713694,0.116774586015905,-0.203229258708489,-0.175793805266354,-0.176533377281067,-0.0234666783829287,-0.00831995995861924,0.297293545613897,0.0637120030079847,-0.101173266441936,0.225826925736197,-0.386838600910828,-0.123715940284862],[0.00677713015745331,0.208855704393788,0.0963192806545513,0.0792589774265807,0.0170502398172153,0.267606994095878,-0.0359962109934692,0.54048105021703,0.186102407861389,0.0318015913571997,-0.152671547014547,-0.257098750260567,-0.337865663313736,0.286375840285988,-0.0691794557200865,-0.132327979933343,-0.0483401984992847,0.253917591744346,-0.0164710614552822,-0.0997626982747201,-0.0277790103495879,-0.128133384614405,-0.0266578907954318,-0.170113835099564,-0.206360732967261,-0.353546413382447,0.0137444852160074,0.291085110726616,0.0824763875665138,-0.27126830601252,-0.117525085699084,0.0490958042946206,-0.12783390461081,0.117838042210818,-0.182564603967822,0.066578080533984,-0.132651126095271,-0.152934625712784,-0.0378954501822116,-0.200385421303482,-0.0048239876342116,-0.247981737081815,0.142139241665172,0.131279787450775,0.170461424522462,0.376281977399005,-0.157106582821532,0.112638289665833],[-0.110880693685047,-0.070008011123245,0.0843223971547841,-0.120124652074272,0.035825143446794,-0.0425429151626447,-0.199909293022295,-0.0755230252363383,0.0681695501613416,0.14290892072291,-0.0920086396505275,-0.0570015888697355,-0.0651520682742597,-0.0446266411924789,-0.123210979714243,-0.0893452840678961,0.0847141654347445,-0.132397958952171,-0.184260326839185,0.0592053138601928,-0.143090570006346,0.147165800787833,-0.00871722344577622,-0.0904927196869019,-0.0831023100146979,0.110008552891705,-0.174361821034853,0.0892674499175122,-0.187992090744498,0.149092449696125,0.0448514739352796,0.0136706611144757,0.115770462566958,0.14320881911671,0.103528501116514,0.156946016909186,-0.141556162988316,-0.183470652995747,-0.070054406202615,-0.0759417093814686,0.00731061124479596,-0.127025234868645,0.0725818166782968,-0.18539436217495,0.154598726256195,0.104825742826927,-0.10931925472843,0.00217331508576515],[0.262493668897352,0.016656810743649,0.0682352031633309,0.242463631869157,0.00335863166037012,0.0473592531045508,-0.0625550011702561,-0.170845335025263,-0.189700523750081,0.0611836204768181,0.222096365599873,0.295147927812309,0.0423907440141045,-0.255184863603788,-0.0981471186688037,0.0932223280781659,0.0421239651741865,-0.128243400187217,-0.198311847164343,-0.124528447219391,0.01220131839324,0.179138450659226,-0.119186921860311,-0.146122425151378,-0.131640287083586,0.209864328215734,0.306209163162582,-0.330946124503944,0.0523709083226975,0.34171532806103,0.0181899593188031,-0.04138162827511,0.107879658365036,0.0482854500172519,-0.0287725537724078,0.169908528752675,0.100712611514885,0.280667073397808,0.0288616712114448,0.0860932541507986,-0.173568820655843,0.192205466977864,0.016428355294029,0.147462935182833,-0.0983512398078831,-0.00392990505516852,0.377409135471587,0.0755401670848015],[0.291715566021736,0.0861236629035248,0.164850244216278,0.187818845942037,0.0655614068768533,0.00509561520137391,0.0835403570142819,-0.117053783568237,0.0767694796388047,0.0878716666652818,0.116220584882784,0.224076224491158,0.103807818637051,-0.241047133577513,0.153244601141777,-0.0461046378556557,-0.134838473899206,-0.174020495146381,0.00685175367849048,0.106177332886284,0.0889859617821815,0.10345455393717,0.0293647707642642,0.153451126180981,-0.145706433190121,0.142221200144858,0.165064287529587,-0.131409553066851,0.00214706448346474,0.300573434435087,-0.142253653097146,0.0904915456718561,0.147650424677404,-0.054268966849799,-0.130841043584155,-0.0864314190307434,0.0109519479696239,0.202686998106617,-0.122347610156011,-0.155069723778829,0.0369667313685561,0.088765987544174,-0.00297367995568165,-0.0763122642832939,-0.114660859828737,-0.0098498228730226,0.160723778321974,0.0998712761125491],[0.17598981875311,0.04243940645857,0.145429967953949,-0.125930133871316,-0.17059148297359,0.0462539646753255,-0.140032389014902,0.12886653105769,-0.0235607671629454,-0.0141639251112943,-0.189582720603834,-0.162481921021525,-0.105840928853454,-0.0346881987233685,-0.107608846029663,0.0311495530142988,0.0449465258246845,-0.100058682060978,0.0688695536701917,0.19717163890132,0.0266744333760882,0.0236934430522089,-0.095215667442997,0.056515369157278,-0.156919237930002,-0.128270385558949,0.0545491749995857,-0.0832696937219896,-0.151321562180061,0.101871285773733,0.195585525552949,-0.0893132674296713,0.0766096723133713,0.15127197230426,-0.0788731384178742,0.131730714383728,-0.211093924585002,-0.0105659782029096,0.0753559786871597,-0.00670646436268239,-0.0804535388722657,0.143518621617941,-0.137905211170676,-0.0607303492163853,0.200054910327479,0.124737856275611,-0.0615545268910763,0.0516782412839369],[0.350290551712945,-0.164409911133973,0.214953585258704,0.302292619800481,0.174623033686825,0.19790364020034,0.136337249656471,-0.0772393772307505,-0.188474836020718,0.113874839617797,0.208126036583662,-0.0730859095383068,0.190987338276983,-0.151971360362093,0.0450598304650153,0.134377795171989,0.218613751970158,0.0539955031468209,0.0960167782154987,0.18416987327415,-0.106364511411226,-0.0141300129998283,-0.00234656003048685,-0.113542812227556,-0.150671723874287,0.387987337613566,0.309054039599056,-0.383218576458624,-0.186047556025206,0.244190962172143,0.133103263390082,-0.194970910594175,-0.00261580215746934,0.187667625601082,-0.0439181391249186,0.136297235693114,0.0996583796339322,0.231660611983335,-0.0710097116110093,-0.0908408109708316,-0.0504155476666823,0.283016945941704,-0.20918480193585,0.0292611708609431,-0.165672768753544,-0.199844072069278,0.18690576007944,-0.112896523896406],[-0.113224504001114,0.0951975224860292,-0.154626867912999,0.00959951699001465,-0.111061515499069,-0.208124362372006,0.129011358835832,0.146852383681399,-0.052876289248047,0.0858793497473166,-0.0063343017382872,0.0212521670297581,-0.178664160567091,-0.170112028001771,0.0137099338766364,-0.00351654091335544,0.0747986259265641,-0.112109043563541,0.027719129317518,-0.096383655457658,0.0567810360339472,-0.147004033566949,-0.00836748673160592,0.135229721283996,0.0173847442399443,-0.201082867490229,0.0439012045353352,0.0634431603651811,-0.13995260938125,0.174579440599248,-0.0307311424640678,0.168675668701396,0.110463858801418,0.0906628812116778,-0.0433399766146978,0.0523636769247283,0.0692806389687496,0.200477397489618,0.122950153261348,-0.0435625661556056,0.0000340374855976,0.149817061922115,0.0166418526615551,-0.0916377985931715,0.0187932219837775,0.157192531785135,-0.164446794307356,0.139803038069464],[-0.128363213734503,-0.189007966674558,-0.0272894488295819,0.0543083509056868,-0.0353757496495025,-0.171681859760956,0.12394278599303,-0.00851790678234376,-0.148529485460917,0.0499593532395731,-0.14054247586671,0.146287791429622,0.0655980491412992,-0.0124741742833039,-0.0203315236669797,-0.124242451232332,-0.191429577693131,0.165097615504396,-0.0493390048473593,-0.0955984671274943,0.0500290685408465,-0.033270245860291,-0.0576871492751964,-0.0304299259139788,-0.138146325079095,0.00735095750660134,-0.0744164116282929,0.0140863446100388,0.185673083958189,0.191707230876033,-0.130109912349747,0.127646052507486,0.149957471090344,-0.0715061615963359,-0.00703241485394629,-0.0140966320236895,-0.146547207128293,0.0251122759475522,0.179080657498173,-0.172004845926431,0.198560512673272,-0.146702059702795,-0.120105220932981,0.159146638486765,-0.0461354229069027,-0.0618190706370117,-0.0322519786035918,-0.173296186774272],[0.0882539028569646,0.126691698696036,-0.0180741612934555,-0.023146882836853,-0.11330436934742,-0.150105991243248,0.175536209615124,-0.0379192242625982,-0.139737566731538,-0.170907971891949,0.142319360059597,-0.0773692270609829,0.0451175500504435,-0.0192225082781133,-0.0587981418579856,0.0612848112989607,-0.104620478350052,0.130469814887561,-0.192267649712211,0.181164257715392,-0.159531254359648,0.0317886067170897,-0.0625621083805934,0.0616051031790586,0.0191076069795716,0.0944594602203853,-0.0373276529988855,-0.159108189445236,-0.0278653079313324,0.165564491138434,-0.158612638219513,-0.131165130465735,0.0504649727397231,-0.0571454764611802,0.175943202281375,0.126852445998377,-0.167982699410717,-0.00038532105742852,-0.172133837579792,-0.0505753399697594,0.140545255433781,-0.0910133145487194,-0.0206132006838236,0.0828147354821027,-0.093316868787191,-0.0562319851404689,-0.173323088736879,0.0454785121941261]],[[0.0888036129399348,-0.193747099916157,0.0548677098670887,-0.235633347461853,0.449087200971991,-0.0569487170551894,-0.663061743122432,0.121459314306409,0.134318877468897,-0.823590876223612,-0.141851733402736,-0.12147789818846,0.252595493172988,0.485584291561397,-0.143203448549929,-0.214759681164515,-0.194638877277121,-0.390507018120136,-0.158898247305119,0.202504502207896,-0.613883417786456,-0.0769255284392058,0.350995488537803,0.490164431262266,-0.0821755715545052,-0.388812966139122,-0.464508349387353,-0.201807051979249,-0.341983951122222,-0.240733353833553,-0.0713844905730937,-0.0108922290230885],[0.154987889574971,-0.224104763029405,-0.23359121603851,-0.498988707205332,0.262255381333552,0.012395786129865,-0.436397705753617,-0.187144704666067,0.320500470612859,-0.805135781221961,0.0525413280254268,-0.135323709928714,0.479108649558204,0.429978948506848,-0.412154711176884,0.0187338994469125,-0.186949630702701,-0.288135429802827,-0.213639775559068,-0.0278264901957304,-0.638957447073949,-0.147947845495506,0.455647814883469,0.382111269971383,-0.222587816562384,-0.304160124705194,-0.147421522128891,0.151876880502765,-0.539966302474626,-0.151059630131744,0.0439893885671094,-0.0679426599594301],[-0.0177790801535987,-0.22223822385404,0.285801016947649,0.553738123048996,-0.382745788262192,-0.352016778388208,0.701244720120554,0.230150896725802,-0.0394460311645613,0.690586189465914,0.206932888282381,0.0753570941933091,-0.475690421283942,-0.357074742287331,-0.015664574191268,0.21059228062323,0.422809565598725,0.201150450564411,0.0401053866021694,0.181012831119258,0.613674147493453,0.0107896450044432,-0.367156083704993,-0.472245744576257,-0.126759428944202,0.409308867334633,0.280548377641279,0.150535300539003,0.342732138049304,-0.143173628542403,-0.139578766763211,0.0213435904643761],[-0.16345424469201,0.0714227187338618,-0.0670020910928639,-0.434845956615047,0.226680497171273,0.101693873189216,-0.623936678714478,-0.107772600943351,0.227030381509555,-0.673664084530214,-0.139764908869753,0.120818198642647,0.345321060339452,0.0808384275082641,-0.21231561515007,0.141310609939966,-0.379551067069542,-0.362279535288047,0.204921016676344,-0.025296255779903,-0.598700400498388,0.194627344372551,0.603667769189811,0.594151553926262,-0.087995650103686,-0.454546437932219,-0.361582524712663,-0.152822736303069,-0.421969494868693,-0.118695118202572,-0.123297351064233,0.0272587988546379],[-0.00540295784278233,0.145290761023993,0.0739470295199651,-0.0766979525109408,-0.0974289493515934,0.223195489246731,-0.110060411143977,0.133017906892491,0.189145241296686,-0.208736833883522,0.0293331608252679,-0.0241653105205861,0.0719144533816506,0.101944781891305,-0.194297473412931,-0.0280281595091281,-0.155425675960507,-0.432588865650266,-0.235360854113212,-0.210105854822209,-0.54539192842689,-0.2183808542135,0.444099863662413,0.318123817873524,-0.069039368310618,-0.380016931077321,-0.0598626323884113,-0.103649218192054,-0.231556241236827,-0.0967651344320556,-0.0305562090027546,-0.0263900653375824]]]}