{"biases":[[0.0,-0.0000458717904160312,0.0644398269982397,0.0,0.0,-0.0219156941410324,-0.00951361384106828,-0.0953616746416203,0.00809062726914102,-0.00498730127884975,-0.0296411344963302,0.0,0.0767127406392076,0.0,-0.00916606377470569,0.00174986851967961,-0.00323399421053054,-0.0477022445366277,0.0301773191820889,0.0445077575577378,0.0,0.112665301862719,0.0,0.0677566679278898],[-0.0118854997060315,0.041886515963661,0.000219152036310178,-0.00178387425659322,-0.00787042419012111,0.0,0.0240352838301369,0.000952087513158617,-0.0593422695298466,-0.0229902948445243,-0.000256172030029698,0.17148493209233,0.000060306058422377,-0.0156381742715253,0.0,-0.0327980206234847],[-0.0229136973372384,-0.0329612113525441,0.0752264478450127,0.0037925379511737,-0.00239865463484837]],"weights":[[[-0.163852062536253,-0.151661378517107,-0.204059608798534,-0.188703219675751,0.142570563734623,-0.30602024804113,-0.169022415067266,-0.258012544274888,-0.286449178267449,0.00337840781861476,-0.23574003305782,-0.366336219995747],[0.348105528955087,0.158378299831538,-0.366055806314979,-0.272393655232452,-0.187365583695135,0.0164074072200359,-0.100292401154899,0.282782129525813,-0.197081302641655,-0.331217389128498,-0.230462868320292,-0.198207144513603],[-0.0357621260083097,-0.126813296517644,0.275400658535753,-0.00961705469760628,-0.394170057259864,-0.154110877974422,0.11969617928735,0.0200775526760352,0.422256981406863,0.157821738685396,-0.281162577650222,0.291106391280709],[-0.047210114666883,0.235048950673801,-0.394038082408812,-0.319785511856825,0.12046353476588,-0.165142760751557,-0.114025289947624,-0.245066891065212,0.240554544017773,-0.0684731351665159,-0.400541232997445,-0.405706483540618],[-0.0824514334012531,-0.245815641868387,-0.397436735798892,-0.310759971933095,-0.237603797681236,0.170860683690627,-0.0654536478262317,-0.294102445908206,0.231354753033122,0.0198636078265771,-0.105704289087921,-0.171354926664439],[0.355442288195247,-0.345386024054619,-0.249239465736992,0.0738231790300181,0.303914703654421,0.274696475705183,0.155679595201551,0.288178872488047,0.337075145851995,0.220776594282506,0.366160032027487,-0.160253504599051],[0.0708434870407319,-0.0595437718512064,-0.16087301993008,-0.329779177030675,-0.104033343151549,-0.377390789541049,0.0645412723191972,0.303481604845118,0.185166803490047,-0.161301905219703,0.184464698959668,-0.0872512951450897],[0.206396778065522,-0.111872248321478,0.274958333509633,0.0634794317645744,-0.0728075750024881,-0.19681748253851,0.342465509471143,-0.3701131143251,0.00804330681709558,-0.402181498313079,-0.0900401395845396,0.288015281335294],[-0.114742504989432,0.281269533116223,0.370804486072776,-0.139520361153033,0.0430914149922792,0.154492439514429,-0.380866273126243,0.0108167043451887,-0.158617285068713,0.154286475273763,-0.178059652433858,-0.198223480398695],[0.230733956815698,-0.337171696227991,-0.257732627690767,-0.0609527352081445,-0.352640255683155,-0.0238582349259766,-0.226900349977523,-0.39031999167378,-0.311586661288031,0.337575643241735,0.0880282007302953,-0.0402729073910897],[-0.324376135116682,-0.364879726027755,0.347197534728091,0.217296031303686,-0.29345001228744,-0.294741912654489,0.39820144821056,0.169403175996716,-0.140649080722048,-0.293278747083755,0.352780382445966,-0.164855753630167],[-0.0310026176594505,0.22493054992054,0.0485694744671816,-0.400368634928027,-0.0132453614493832,-0.0196067879576557,-0.171129870139132,-0.306403785570695,0.0627410548412721,-0.00830827161070985,-0.0473605759118604,-0.150843907970192],[-0.330634153648637,0.127931867688719,0.0171388300943756,0.122202678452784,-0.0959868592512342,-0.0965459553356962,0.333203163824953,-0.0130459440385358,0.332086323629226,-0.138302250300142,0.389506926387176,0.317515266229589],[0.106994645246806,0.0747829845781143,-0.348970648862076,-0.327544110770654,-0.294801646283005,0.24766247161256,-0.399200744304636,-0.184081838808533,0.0388227382011515,-0.206344792187111,-0.348580198653674,-0.138290108140283],[-0.387327035108453,-0.131388358191742,0.35957819801799,-0.0602004732720551,-0.384428731421424,0.193808511059243,0.0228844288771139,0.29588897531997,0.0565764479322766,-0.322447485552349,-0.312828223723468,-0.0589165741753468],[0.187694248286257,-0.0798160338761546,-0.0521822782798075,-0.111223073763587,-0.0961280695686136,-0.185506857231563,0.267813175191091,-0.387022206777115,0.33293962741434,0.369009702313976,-0.212057255381259,0.259916489743608],[0.26021210529248,-0.344276639098541,-0.389196383274464,-0.0158074777597391,0.0926732387119095,0.170180527411987,-0.143963775993833,0.090052691311101,0.118302686546697,-0.315851038863686,0.117828740363889,0.21091099514637],[0.0420301417455975,-0.010221829061462,0.0867752046809334,0.333635501175051,-0.0977432772721109,-0.33502144341346,0.189198300881944,-0.106448085560824,0.00325935525772689,-0.0832035299597851,-0.143222374911718,-0.0964679029096542],[-0.226138380907167,0.0806452343568517,-0.276374643848523,-0.217815572182844,0.409588869430318,0.05321858665301,0.368327561944811,-0.142710270921736,-0.291516597459481,0.382824657641933,0.389756961467521,-0.0656767694261588],[0.432102315817929,0.169178795787818,-0.0911734565339276,0.358319040059848,-0.244650609546796,-0.382524201341155,0.297790523270486,-0.291419508416127,0.367510649933977,0.427973303082617,-0.296097576619476,-0.248010451594405],[-0.248965812681603,-0.231382042015449,-0.25082581240115,-0.370897903961018,0.13777913530064,-0.186121095552172,0.182692816765521,0.0361120680092383,0.189142627741056,0.0746829966229718,0.0695308062571008,-0.0316209449873081],[0.203143799891457,0.178554837114202,-0.195445223575372,0.331124778918116,-0.0478301167365655,-0.0894097471277772,0.308583858080573,0.224385240323754,0.447898068850746,0.421533149722175,0.421706886663536,-0.303960475521334],[-0.0714348381334528,-0.219579013706587,-0.170053445030318,-0.0704823218551248,-0.129650574885577,-0.0212799571956526,0.226579967080427,0.251556067874912,-0.0884170320668017,-0.161540828562764,-0.139502842066155,-0.366468814738407],[0.121075180927932,0.348311137791241,0.145645835502085,0.281504373073511,-0.0154438704716886,-0.31295193837847,-0.132889287354264,0.0258663244939291,-0.0765325728715414,0.331326053275406,0.332650020055181,0.2573533496889]],[[0.198795989250611,-0.23319854851439,-0.0412228708686434,0.00963608665184035,-0.0299020833516473,0.149456760257404,0.224662740102001,0.0916915950296491,0.194370773360513,0.199466677482972,0.0967336334412963,-0.138019073301001,0.215648916950451,-0.208551030726525,-0.0511971080667816,0.243723663038134,-0.0378180941794152,0.187794113196107,-0.0393216443957759,0.0531671380410506,0.0519986062177621,-0.189753610117929,0.232642989878383,0.214200487515983],[-0.091552770848266,-0.076604155192505,0.143043802824116,-0.261645335662034,0.00759335795839527,-0.107164030543797,-0.0615964118073149,-0.243302493612196,0.22472721835607,-0.193663537252845,-0.13752859026611,-0.10928210552087,0.220344733903825,0.0164387396787503,0.202754263867065,0.185985873738845,0.0399513970310846,-0.160719757690226,0.0866178330891876,-0.0997752626966437,0.167501070355927,0.101894263405494,-0.151654718322024,0.250325299993206],[-0.0922469928131158,0.0358661142265741,0.271042957375543,0.273876475111907,0.191913312938792,-0.182038141346332,0.109266762978645,0.127614958281756,0.116527388785136,0.201245963699065,-0.0880388916568917,0.24888579627646,-0.271090113725388,-0.0756792308483104,-0.173194291052764,-0.250030609641949,0.22550813018784,0.00439485729103598,0.190477238648911,0.0206225859747348,-0.114104883274282,-0.0978558912052156,-0.126621037766261,-0.161187307435378],[-0.116609842609128,0.0881068476563783,0.200950450830523,-0.0335535516693997,0.0739455728236937,-0.0917162447873831,0.165363548558671,-0.0812465079376367,0.135598163556224,0.0267807844383756,0.279538841815346,-0.26942941072252,0.199589858904857,0.0175249322230854,-0.228459870338046,0.002648399810144,0.138514850508068,0.214770017144111,0.143198215410037,-0.0203164381808205,-0.25611747466239,-0.238272562111048,0.288143233611345,0.2581813921564],[0.210342458984188,0.211268485193876,-0.0501422748507255,-0.155649486223104,-0.0570521897161902,0.190898018312339,-0.0819759503020468,-0.0499332446677242,-0.182310490297479,-0.183292860806249,0.149696832616141,-0.13728047942907,-0.0819786705586445,-0.253424426559529,-0.0355919900313636,-0.130896770183778,0.287640833903464,0.0967245425632441,-0.00978427526538728,0.134409992342472,0.25762579132419,0.0180568656190437,-0.185706533895209,-0.243486875921053],[-0.203779411420969,-0.124008779614443,0.154845963000884,-0.0845755587326808,0.2482494340828,-0.066570233572516,-0.25648206239722,-0.116415633202997,0.163986510754092,0.24513974658647,-0.159598344934797,0.101365991939875,-0.250960013789394,-0.243225586059977,0.280891728913323,-0.00168811666767438,-0.151917234458963,-0.17450973439087,-0.0796740584360893,-0.162566600744907,-0.0497201989255783,-0.257585159158963,0.0253178181628345,-0.0936754506649848],[-0.109246429352534,0.0489890085938543,0.0862890063900563,0.224714075808918,-0.0965593497303579,0.280360260632816,-0.186144127355919,-0.148305861144324,0.11303396861486,-0.0528713294455773,0.122359546825958,0.129532727378847,0.249204828318442,-0.138242536195072,0.17022081717987,0.0487969333138474,0.179037085058093,0.246189255430941,0.244591417610912,0.292532063662211,-0.101354236005525,0.31369614067628,-0.28103594483562,0.302567107298477],[0.0854592178654874,-0.219660980294144,-0.276805971084744,0.108572180611401,-0.195169229677866,0.136264802486729,-0.0770568287537729,0.164270127425141,0.0296416405728961,0.163538135848121,-0.0691133327979237,-0.111750622610835,-0.0916894129667315,0.221130642558986,-0.0956625129938143,-0.192072705838752,-0.108062127574981,-0.0973550625588626,-0.145594388182814,0.119957287389033,-0.163593203913195,-0.164857594140791,-0.0625191958980625,-0.111612982146153],[-0.115328599535113,0.109430098954936,-0.188131365047602,0.233212499051569,-0.073327134209579,-0.00444253265603605,-0.223964202454438,0.186214309016664,0.140566148483408,0.213987937459676,-0.288776526158047,-0.141789045274699,-0.0641105568450582,-0.0209637569525016,0.0916545267041951,0.0790904873501541,0.179899618341274,0.0727395284824256,-0.207476048439531,0.00560923961541357,-0.214127480839837,-0.0384598587171611,-0.0583001567587914,-0.189401750347269],[-0.264058314527575,-0.140358844862145,0.211272340558789,0.193686924642568,0.25004210905637,0.240483517180253,0.106897937827733,-0.233477367037365,-0.0327465184559386,-0.22938270706537,0.208612462119,0.118805281788785,0.0630117789990682,0.286802243552634,0.256404713386942,-0.199709945546418,0.262712896735034,-0.0588416141034626,0.0424175932516853,-0.0196939344488554,-0.166459506123487,-0.197354034379412,-0.153771332911819,-0.103406981837033],[0.215388385576438,-0.160057613193936,0.121460461574282,0.100271578765545,0.0768848471344185,-0.0731698687826155,0.0929052464238299,-0.0792899150826782,0.0682805401647864,-0.10048450425725,-0.0663381303762915,-0.176870156744723,-0.003488599351759,0.0234208813484421,-0.109128855756816,-0.259065540593768,0.247139117678423,-0.103923786942019,0.114022946348957,-0.236506298413883,0.260681375782134,-0.257700663241708,0.0913352477669484,0.108535322318177],[0.194050121940774,-0.111196602114535,0.322158075533077,-0.119296412729205,0.100025475611808,-0.05452794609895,-0.177305822351921,-0.137689066443337,0.204265676273279,-0.13693000885228,-0.213051101449297,-0.273800645661926,0.307014137384629,0.0443003499775853,0.243274096701595,0.0291663792131713,0.0825278351217223,-0.206304032305709,0.11558023850544,0.267053456695242,-0.192580990873578,0.226309413473209,0.176691892065046,0.372391209801602],[0.25860604889615,-0.19534160794198,-0.11826701123427,-0.244923668108771,-0.248090707076532,-0.258711948474396,-0.198474447570433,-0.0937897403538178,-0.0155516020847537,0.0465175561186439,-0.157492061830296,-0.0906966669799843,0.107627123872543,-0.0943731126839892,0.257689242396121,-0.16494615806109,-0.1899945546509,0.183993121398135,0.211743644080316,0.272803544199671,-0.156496494524585,-0.227757885946261,-0.110435389541809,-0.0231187972271613],[0.206119953222963,-0.00619597191660637,0.0159181957144676,-0.200221336922456,-0.0283569360309817,-0.0815180020523359,0.0131090384120199,-0.113522226636226,0.0763466504238799,0.105590166818838,0.20661683179899,0.131652157676697,-0.208767214939617,-0.149907020732269,0.167459224049434,0.147342946344596,-0.166257690623019,-0.0980585299780974,0.11744242731784,-0.0429099966094679,-0.157856622745464,0.261322902759669,-0.07451154167204,-0.0470824807807109],[0.114941353518186,-0.110315507408858,0.129962222131438,0.111118117402437,0.161809703254648,0.0094912389852963,0.0447615261379989,-0.175189604102891,-0.268035980586832,-0.121631727750348,-0.267307126373654,-0.277709299776653,0.126581563422391,0.0731350123859814,0.0346988665229804,-0.0224238817013019,-0.276798887015607,-0.0890999578522605,-0.20276301283169,-0.258684392952881,0.268942840887358,-0.245410676809288,-0.205914389589321,-0.287053852099158],[-0.0680086468764572,0.165243305389592,-0.00730583032669867,0.157751947735924,0.243139134116119,0.0180894383802202,-0.252568221739204,0.173562681216097,0.271038427659734,0.00593732507790129,0.262904033691254,-0.284012468514139,-0.186841452681071,0.2559261000323,0.238357784652769,-0.00172058180165763,0.18233477034906,0.155865295598049,0.26462426460886,-0.219829707046687,0.000243954608464214,0.241427928524736,-0.258515009865676,0.276293750441167]],[[-0.257214512105134,0.173271716131926,-0.0483342760554741,0.0168268698161642,0.243257600436827,-0.0713069045999316,0.159820496750816,0.211501694013251,-0.0188508224548796,0.064161513587905,-0.194340549271159,-0.306250982744624,-0.310486771829878,0.220632822562541,-0.300437067076629,0.196463903616975],[-0.028418300029356,0.0493578385978633,-0.0734237714045291,0.0223857510619637,0.153538392951826,0.157904779885476,0.333605691661846,-0.108174211072344,0.287030510995025,-0.159715973263722,-0.0764831538332139,0.547258300537485,-0.334423457902436,0.0293966225671768,0.126523615072961,0.212441378441533],[0.0101971847232279,-0.0107448152269845,0.316819877310585,0.027191656306169,0.281970267674046,-0.236491987660675,0.184043635800312,0.164023019430046,-0.334846697695707,-0.212239778388295,0.0964955335373417,0.213392199125104,0.345993071138028,0.147576071044996,-0.329298295638729,-0.308753121819293],[0.127807800176406,-0.116480475250469,-0.348189330089921,-0.301578757824008,0.0561119433386095,-0.341822002520156,-0.228708091463232,-0.121397090715233,0.238101473447916,0.249031412478085,-0.188840468240642,0.319012095565226,0.274115856327903,0.230645447929444,-0.0240767069479221,0.240186947771793],[-0.229378343193032,0.199136350513728,-0.235338451303488,-0.147859032337706,-0.0868928853859919,-0.242613718598088,0.197456514030635,0.236272196087449,-0.244661314821908,-0.246521801355948,0.026167856651764,0.324887728442881,0.233035717405047,-0.136754650635394,-0.248728088483917,0.262434799622503]]]}