{"biases":[[-0.073732263202886,-0.39765026722999,0.0281821251653959,0.00845071504815868,0.129443413013073,0.0502892104054089,-0.200727143980511,-0.216770955707785,0.0668782085479106,0.16270019115701,-0.068142199807109,-0.346977343071992,-0.065917242200474,0.365987783477365,0.0228944233144426,-0.135155524763076,-0.0435534144068648,0.0,0.0796438650634448,0.287453021146038,-0.741237292383722,-0.130703813531406,-0.428892331266756,-0.113516886567851],[0.0349151287047188,0.00241747141520887,-0.0101297238440791,-0.0661793213343755,0.0172223415800589,0.174247699833025,0.356545297770817,0.0247244080977413,-0.0554100950885272,0.000244291772872939,0.0230051604501664,0.252544178643071,0.242422937354185,0.00853267038074245,0.0205652621655305,0.128698693869285],[0.0768569429141771,0.00788392007407623,0.0715402924691554,-0.0378479778536715,0.0972774609006657]],"weights":[[[0.114510491819582,0.230252187641162,0.319951231806939,0.0214753042626313,0.25794433216666,0.324630287995373,-0.342679188075593,-0.155750678118292,-0.35405380883357,-0.344819212049195,-0.247167753918613,0.347330772591265,-0.0742049706665957,0.263278363245514],[-0.183448709876722,-0.286240046022203,-0.759773448290733,0.540812132597431,-0.764765410735964,-0.56557065370738,-0.0773415510918456,0.178261980827055,0.347217474327954,-0.297887924561478,0.0818904812760947,0.524225277281198,-0.368977619369274,-0.0215196786643435],[-0.254757120939541,-0.0297214028685646,0.285563401728997,-0.21521440293541,-0.193967933029822,0.245202648841534,-0.346422889806213,-0.270819077020643,0.0416538841517324,-0.00791847016825013,-0.297944211320706,0.310095500482914,0.156488844233797,-0.36556282670664],[-0.340432970460911,-0.183707631295909,0.0868861156164064,-0.226088798342115,-0.137599478100785,0.236987635218185,-0.0386105419866757,0.247542923040816,0.105292163599724,-0.0801275412726307,-0.150944397455086,-0.193020441657329,-0.131015508923485,0.243485845272794],[-0.0300090439731685,0.332853254129025,0.325831002242501,0.280094886213604,-0.142297351644196,0.125695656771558,0.236349422348558,0.00629706490730873,-0.00571390589670073,-0.00306879759798807,0.258252721337184,-0.259937829066988,-0.159034620031187,0.12593662686767],[-0.134696910127724,0.0223945562726699,0.24124112406367,-0.179979630809597,0.00903993679480692,0.390136107278894,0.299478068998039,0.203307331785356,0.37700598868725,-0.277971796644258,-0.0588168808413402,-0.0732649209400124,0.291755072232277,0.203991451265456],[0.0796402710384928,0.141114117172731,0.358090974162177,-1.42575926040376,0.359071064617139,-0.0863244362959865,-0.0424196908625613,0.156045828389213,0.0530889868173661,-0.153682352132511,0.254457146873265,2.17084649060491,-0.0436308061882447,-0.284396303276081],[-0.137334129779508,-0.241774888328985,0.413676525747643,-1.49403675362995,0.291912054289739,-0.367949867889424,-0.187571950429705,0.373525233437537,-0.368892297959114,-0.0909549254061638,0.270437056240172,1.75813921678414,-0.0238656571246901,-0.110261833325488],[0.115735632190307,0.271819851364573,0.0644086272516757,-0.161726517545119,-0.139896673289251,-0.293353444178336,0.352561525062948,0.332015318711391,-0.0748159429686742,-0.33019777561696,0.00788744848906224,-0.18746161208139,-0.0997592738259988,0.238720081436662],[0.278500202535057,-0.206604551949762,0.129547814235414,1.00284526482025,-0.983797876618314,0.218083596173428,0.317130173794159,0.335824411796495,0.0854157899880003,-0.184319331354908,-0.124711152334314,0.260352661163394,-0.0856089842603356,0.0588856964287892],[-0.156976507764433,-0.253934245103658,0.0975578327226011,-0.41098076835226,0.0117596680232117,-0.0704053317162262,0.337802718672788,-0.218279254106269,0.287165093945067,-0.0210735394814484,0.275538394960216,-0.12338920319678,0.295800480855901,0.225597834303677],[-0.0653038283571076,-0.38053942399043,0.69279764818096,-1.81130652601581,1.01808283376143,-0.4402804161057,0.132978979973424,-0.240478824234361,0.258133599458385,-0.288007660808477,0.33356548754061,0.614914066636626,-0.774847783694405,-0.536964249248934],[0.148347517461321,-0.112183487811662,0.490645188363572,-1.68888013800808,1.61792206539917,-0.263461854121818,0.207404261081014,-0.21306189238572,0.361911157819887,0.00344848712675831,0.138330270322199,-2.00393546906829,-0.649343303042862,0.244562526210108],[0.656749041542614,-0.0803165184575275,-0.146268552373644,0.324300678625909,-0.872214965815529,0.248653220242376,-0.258299300682634,-0.330568047192484,-0.129382331068338,0.0377575091067716,0.278055464724444,-0.178528306282627,-0.0810350681607465,0.210004898016489],[-0.267331066748185,-0.0428348310545965,0.106482845130105,0.0877816794524478,0.157056746250874,-0.0812253414969885,0.129215571118361,0.124648854512965,-0.370330575052062,0.176204538995011,0.324966076376864,-0.332457959246318,0.0831163642858187,0.200136405628401],[-0.222762460814447,0.0786448610814712,-0.796126931029159,1.89227558386993,-1.01114011073037,-0.204543184953969,-0.232920241122681,0.298935474687079,-0.363852321300919,0.272580436901691,0.0816488792333732,0.902487186928397,0.296853391038117,-0.190267037554705],[0.322037635206977,-0.224755497842415,0.297002029273179,-0.341042064963,0.0621315812826522,0.270273480169168,0.0202756849527016,0.176740548475338,0.00746453456032165,-0.0652990248488134,0.219254866891128,-0.377389847378837,-0.35260224067634,0.116655510180077],[-0.203464130708381,-0.171673572778023,-0.29783984180818,-0.332530707442056,0.0333494680947258,-0.00663504534439224,0.285556945561274,0.374650032364366,-0.32570805711491,-0.333530894178936,-0.104803766979013,-0.240639385727499,0.260307712989369,-0.337997045315851],[0.300933307540475,-0.202339662127737,0.0509889622066509,-1.4217895989435,2.98936867265525,-0.269976291566873,-0.301552535653337,0.119256452034538,-0.347550816290873,0.00667190384573535,0.348144170177587,-3.9153315226571,-0.832259498467006,0.474856541452637],[0.439070066339939,-0.102423300978314,0.0123809786644769,0.0538414966194283,-0.421390147307996,0.556136740055701,-0.0250079578859083,-0.266171222633801,0.252238501154835,-0.0381284983593295,-0.357647976235993,-0.215135869842881,0.147797077337117,0.172937345280243],[-0.629594340219606,0.0899367384031387,-1.08791293070639,2.18732136567458,-1.83980887197923,0.0855413218486867,-0.26957382604625,0.110468474479552,0.0897893999528988,-0.337843871959635,0.0969348307925003,0.872297461223699,0.0251541618907278,-0.711824927180273],[0.058986706405879,-0.247328802190999,-0.73623721316552,1.30959738232194,-0.549722367772975,-0.018617424874275,0.26338184445931,0.270833618150847,-0.108641219441343,0.242825674607038,0.34679801583821,0.583281130668438,-0.063144934809508,0.10674808844686],[-0.517192905620721,-0.0150518492468112,-1.78521646003739,3.02495178453506,-3.8746427077469,-0.405175891307914,0.0610461298462624,0.0196671190112167,0.067262135544479,0.0511589779771552,0.280277994606295,-1.25168474067102,-0.178918416819338,-0.272326036984271],[0.0982910650968955,0.167654249593943,-0.0662829268896457,0.802599091410397,-1.16071787232682,-0.120047637928034,0.00182576957656323,-0.159333380359885,0.338721771447667,0.241332655764164,0.0779643383710864,0.8452377424949,0.406676596245844,0.12855337546135]],[[0.320399681682992,-0.184847508017918,0.162678128976686,0.269365059814862,-0.0397664520763655,-0.276753174907252,-0.175446758572481,0.0211445712018901,0.00593532992714817,0.220399028180891,0.026180070818735,0.111903882577935,-0.132088731271247,0.0682184212493143,-0.223162133233147,0.03520539325993,0.115534996392262,-0.252354004315468,-0.245634902470571,0.0377209746662839,-0.215679310935937,-0.0161932544315989,0.214534415501038,-0.222170920216489],[-0.13721526748732,0.233401653924678,-0.149338535190611,-0.266788718385768,-0.101091247191876,-0.212412459774947,0.312916089977744,0.0599747165601814,0.165845114195936,-0.0207079232924173,-0.0450161054902041,0.231622977434925,-0.256231837838541,-0.1640822484618,-0.130364074832136,0.215292994966569,0.222503655067145,0.209611889918721,-0.104466732643102,-0.223492936348804,-0.170931746378192,-0.248315700690413,0.283514031874074,0.151467214800831],[-0.287875906373815,0.117366072214966,-0.0513571624091659,-0.0467046435805186,0.00719489823486714,-0.0551664933430922,-0.225888574855145,0.105547976109592,0.209419037705932,-0.284479454635178,-0.0124150488885097,0.274099194510116,-0.108593336808102,0.269725798426866,-0.112030628244013,-0.0404336129590073,0.0308286087987595,0.0382532585973268,-0.238864792314119,-0.156584136610045,-0.20012224548225,0.0727643980231142,0.204169338432172,-0.197604662431789],[-0.168245292683146,0.177099412470652,0.14684313831728,-0.152023331384385,0.0115905191301787,0.276749375357883,0.120736065885094,-0.0144391747855978,0.099173703021107,-0.229743724334576,0.0710466087096595,-0.255028014969965,-0.124952606599781,0.0127050739435882,0.281223086376229,-0.0746528972634411,0.0197827220705649,0.238188908628226,0.101155232181675,0.130715601906792,-0.238266207675155,0.160292843844498,0.153725477638233,-0.211907805595303],[0.0227593147725179,-0.248732017524659,-0.0361930701837708,-0.264596867013812,-0.226604982206473,0.25862988116113,0.269429590581233,0.360111578863526,0.00659924205372372,-0.170946136666778,-0.267445165723455,0.17840412125213,-0.175292238152313,0.062606106690166,-0.173948813460279,-0.191535184122425,0.20624868626658,-0.038729005781524,-0.201678070027586,-0.254367832701128,0.2734569645238,0.0670649584373479,0.24738817850023,0.17349767746726],[0.313823839019922,0.364734345950458,0.311116406849626,-0.0804129871810661,0.317824349426653,0.16563024758226,-0.788110832952884,-0.94397872435447,0.247321422496143,0.192933287363695,0.165282582032853,-0.335833542939745,-0.332028172626948,0.238706580902625,-0.291802898479137,0.715837102593706,0.161880458326664,0.215098092670748,-0.880999505454305,0.436555153807574,0.70876540654535,0.523893583464511,1.29659314726681,0.188739395254815],[0.341377871967586,-0.760662502856218,-0.028487517896073,0.220952380869587,0.150652965244295,-0.197771368096502,1.36417854932243,1.34952019376927,0.0981716126877681,-0.685539406830622,-0.00000663970050847673,0.94292853728397,1.41044799028386,-0.484752171110085,0.0261377382739175,-0.359730721524857,0.150458650053745,0.182414038310958,1.88793475396842,-0.262272780323504,-0.849730811750299,-0.632023292584779,-1.75809835328764,-0.37361012842711],[-0.113980288751542,0.251052841452912,-0.205995267737697,-0.159655183213158,0.0906642902217896,-0.00874608270127179,-0.193235336121042,-0.0729028042825739,0.132711412831818,0.313359394983787,-0.218245975489393,0.168225400693004,0.0603036901572907,-0.0511948865197982,-0.182800511681846,0.0237650368630637,0.158348853568708,0.231744715934725,-0.101905865690621,-0.0677980195022541,-0.139088569481876,0.151085353908508,-0.160402608981735,0.111433967444497],[-0.140389030386867,0.143443378764164,-0.0524413568382063,0.0336239985391011,-0.249761737918145,0.235431418019098,-0.257798063033636,0.213835468858369,-0.24567642123834,0.0621225356631783,0.0198594782719869,0.101425278751785,0.234178336239018,-0.219553875292725,0.272030822658569,-0.0177470975942425,0.19895476253649,0.201573393168129,-0.0184192450873756,-0.0188133187166444,-0.259072843040119,-0.240215235283647,-0.171539307587691,0.0957480083497668],[-0.277968408465769,-0.203685299258706,0.121929187672797,0.0808842956317107,0.134428333308162,-0.0741130808780926,-0.0237869749789056,-0.285698306828481,-0.168977981813321,-0.247279127146266,-0.0997645699157933,0.0578171178868125,0.279732050947196,0.174269281141863,-0.0763760702344067,0.00540394359165606,-0.0367846335744933,-0.268865124357913,-0.171320041001605,0.0734121497509836,-0.274811560148139,-0.232463285947998,-0.00365791565658839,-0.163231377825527],[0.0553875653726966,0.308248756940992,0.143930238248298,0.0225806316186448,0.25559367779965,-0.0648449309673417,-0.120655611716631,-0.475130738394935,0.100701909244998,0.0395001205089653,0.185828967683527,-0.300639752261922,-0.168141021917956,-0.0623908551302492,0.0527999760229103,-0.184045659179259,-0.0487050989271875,-0.110173334527783,-0.242887853819284,0.236745980703122,0.37138192684241,0.201072600172668,0.558671900679271,0.101306980533605],[0.628263619433015,0.554872207526317,0.123121470013983,0.249294009805937,0.205758245202598,0.266788032229614,-1.4689938124247,-1.02890601473822,-0.0594808236044662,0.575598887141723,-0.149543412442314,-0.603251254893422,-0.835832139521863,0.584026088244351,-0.0473247926678434,0.965628707279473,0.0989091760887623,-0.0413656660464931,-1.42099790215278,0.315896947079129,0.886379781717392,0.45552842714262,1.75924192455704,0.795170068960272],[0.225498982805235,-0.187511235310727,0.113770945236224,0.289517410275904,0.0546027581515966,-0.218260411057225,0.873590821203822,0.523806877490498,-0.00792801557300534,-0.154479047961245,-0.250984827650773,0.609172599457415,0.715495617036559,-0.3725501860929,-0.0417349756175317,-0.531449479904303,-0.137330117179384,0.257126433145663,1.28817389814862,-0.170376647337376,-0.672628700449809,-0.126475385129911,-0.999921506306723,-0.125028815085648],[-0.26549653894729,0.226383842801123,-0.149055410243559,0.0876147047566821,-0.0464548181560466,-0.058232113974902,-0.277148643757237,0.175883510852668,-0.0217084172235227,0.299800651093972,0.255837905863389,-0.239662407646861,0.0193465673623189,0.0787957859402342,0.294622319947838,-0.10938597464561,0.2599147027072,0.00201258304084062,0.143428291244052,0.196350638309067,0.131604735548386,-0.218930242687399,-0.161407662252045,-0.0489336905327023],[-0.242933739535677,-0.000651034013052387,-0.141322546214265,0.281479694585453,0.14134337789295,-0.157996881061983,-0.162109422587405,0.201711083370271,-0.205849444291777,0.0891221507463019,0.117525790609564,0.121053728446543,-0.041798267196528,0.130508349315801,0.182476443035987,-0.10813172024544,0.0654724241693563,0.231776210593779,0.25424976803892,-0.128931927494252,-0.124141541631478,-0.189705917607429,-0.228790452694543,0.176332667811402],[0.310457617532039,-0.274357227429215,-0.224081138985544,-0.251003946033944,-0.189811327323874,-0.266273725656095,0.206771571880186,0.467103007495752,0.187606821809706,-0.128698669104009,0.221408253354115,0.271261386279775,0.530962533481499,-0.0678183968766634,0.0529960813590025,-0.10356778440069,-0.0387244064039653,-0.0308449994476282,0.539382049518157,-0.328264056892624,-0.36338938495647,-0.0166027629419205,-0.731643986498233,-0.118964062311696]],[[0.144764853215047,-0.151410529538083,-0.314541921037208,-0.304247500671843,-0.396948161706697,0.921542911159337,-1.7644543945754,0.173710148966826,-0.129943209481033,-0.0888801729742727,0.203051320030234,1.68224434234114,-1.16193667724682,-0.35166947427447,0.14892488838607,-0.451828836184185],[-0.0949749769514937,0.226242488016728,-0.122761636919076,0.0871579631736161,0.310380041078108,-1.2421534984426,1.66671031507712,-0.197908545522354,-0.278547667836327,-0.171087816278218,-0.423835746776778,-1.50926018367267,1.10776276964033,-0.0744891657843561,-0.00565750894039901,0.631490364963409],[-0.0761824285294824,0.0513985363401573,0.280705362652194,0.0715747655288159,-0.142486497273403,-1.17173449244415,1.84633120462794,0.0585800468375819,-0.152422820722439,0.110091530428938,-0.573039258025018,-1.55506352490093,0.944731613105481,0.0829825050245185,0.253347473208558,0.462704988984163],[0.261776586270176,0.0463672536946092,0.150877875325926,-0.187302017499001,-0.388049895494703,1.07397846286933,-1.80991531776118,0.170141468242778,0.142573073569946,0.337432198548431,0.367845536869189,1.61509712963705,-0.878514153835221,-0.209789012345135,-0.316242485907082,-0.617179867558602],[0.0933818178930188,-0.203949171654651,-0.27021934112053,-0.137851294767745,-0.156666259736506,-0.57077571364528,1.16371622390193,0.0525240804244626,0.151440216020633,0.188407777359914,-0.283817847525969,-1.24017179440691,0.788298553135663,-0.279522918568255,-0.322334271742417,0.519873487348936]]]}