{
	"W1": [
		[
			-0.188305977252325,
			-0.299229093045317,
			-0.215065724740732,
			0.233814090752577,
			0.306263715319626,
			0.182756572483918,
			-0.0595664546532676,
			0.0107901808447447,
			-0.249533646983033,
			-0.278567181626882,
			0.0159161779117831,
			0.0157162747984942,
			-0.160000954660464,
			-0.208735246447047,
			0.0516762054356062,
			-0.211134077070588,
			0.207584238136576,
			0.270675035269915
		],
		[
			0.251738911386694,
			0.0605702201764975,
			-0.109798572452338,
			-0.0844671001735689,
			-0.0285033910729091,
			-0.171419801903884,
			0.0451839881917275,
			0.206518053066592,
			-0.0559187419055887,
			0.0278247096605887,
			-0.19261426545191,
			0.196208609430591,
			-0.133179460884812,
			-0.202108911647421,
			-0.319351382376526,
			-0.260140469362788,
			-0.0389696582800132,
			-0.315775446134196
		],
		[
			0.275224303066764,
			-0.10911393631126,
			0.0620143085611631,
			-0.0750429364800925,
			-0.193552243065785,
			0.0763930284703487,
			0.28081911442272,
			0.275116854254534,
			-0.0450852118287965,
			-0.188837004851004,
			-0.340114285011964,
			-0.0147936393394041,
			-0.081793550474835,
			-0.0336276145697467,
			0.301903700537377,
			-0.0228564297720425,
			-0.299905997747104,
			-0.214048133315213
		],
		[
			-0.297837837899852,
			0.0361287862105238,
			0.271667363504744,
			0.169290404977112,
			0.0660327108951022,
			-0.104550363825112,
			-0.225500585619605,
			-0.200340983786827,
			0.000976598274950079,
			0.00959798169835965,
			-0.00252781793684704,
			-0.0837023390239855,
			-0.0632586826595239,
			-0.279708808578253,
			0.198254761787904,
			-0.20294263947032,
			0.113873401524473,
			-0.0553836407900966
		],
		[
			-0.133663268244369,
			-0.161102236517073,
			0.197151406013615,
			0.0664759891748113,
			-0.00298198018434881,
			-0.102554437219229,
			-0.211546639703074,
			-0.0498299256611956,
			0.0721708853075373,
			0.172073054266103,
			0.271540256778187,
			0.22596276370553,
			-0.134111268675231,
			0.116488941507012,
			-0.121583445779169,
			-0.174465177857736,
			0.269592188500309,
			0.00871705964848214
		],
		[
			0.151873094724956,
			-0.102051788195176,
			0.186804528524025,
			0.239992088046246,
			-0.28533234523019,
			-0.0568928761223373,
			-0.188076891192639,
			-0.209473271740242,
			-0.149196795450203,
			-0.044201031182027,
			0.0997703469307971,
			-0.295583189786025,
			-0.00681210700117069,
			0.240442337625544,
			-0.308503666085139,
			-0.19863903272252,
			-0.0126770960090764,
			-0.360757113563667
		],
		[
			-0.489440721294595,
			0.36627573971023,
			0.213217432435115,
			0.372088642620955,
			0.901436681022888,
			1.02463819757343,
			-0.0134915054792312,
			0.383991121287347,
			0.52039397174453,
			-1.11003292170017,
			-0.166488513859377,
			0.459581747432423,
			0.885042538169701,
			-0.0915925414904179,
			0.187985821005888,
			0.331037963323615,
			1.16817223808501,
			0.536710119081768
		],
		[
			-0.0709020719066371,
			-0.153621225891204,
			0.195300114028636,
			-0.18889430162684,
			0.252664866609022,
			0.246771017192635,
			0.26952643788062,
			0.160936106885904,
			-0.189749413879598,
			0.0564557119612384,
			0.289907351485648,
			0.3159747389796,
			-0.00512336988909544,
			0.0994505592379864,
			0.106374013826157,
			0.0613472865772397,
			-0.332012806483788,
			-0.110360633053108
		],
		[
			-0.134640324558323,
			0.168107399439568,
			-0.175810642746065,
			0.0111393459761024,
			0.24265305434497,
			-0.161589930814486,
			0.12367604806875,
			-0.0096185168961503,
			-0.0266810645088363,
			-0.353223494659111,
			0.296444519565247,
			0.206382125227724,
			-0.271028689654777,
			0.329796932579091,
			0.309089369777801,
			0.0322002659803259,
			0.444178269486992,
			-0.0570163952371356
		],
		[
			-0.286358745765319,
			0.542338332092246,
			-0.0113354376763386,
			-0.0565083907329214,
			0.179689689807254,
			0.563829031810068,
			0.250651201368562,
			0.174942043252567,
			0.402319495477672,
			-0.591296055511164,
			0.371919177743633,
			-0.0642483510761426,
			0.0961222348649875,
			0.325810336710259,
			-0.148559153545085,
			0.0560454230001917,
			0.361237903471061,
			0.627158249232799
		],
		[
			0.140388470308668,
			-0.240886631800296,
			0.0147282066024227,
			-0.304742287887501,
			0.0461594900159021,
			0.17233569810212,
			-0.174335346946588,
			0.301139606962429,
			0.20684890939848,
			-0.247405348715051,
			0.0845704769402241,
			-0.185589700132348,
			0.00991772921607049,
			-0.268869209603905,
			0.252668168786749,
			0.322855325964124,
			0.210750919572317,
			0.113801491455162
		],
		[
			0.0218643242829472,
			0.210797223946889,
			-0.253123091121287,
			-0.24528916155637,
			-0.0457104810930366,
			0.156812040877795,
			0.316647472378628,
			-0.192442116632665,
			-0.0944749525595977,
			-0.099439719604037,
			0.281144817201759,
			0.197693744053537,
			-0.123606512364597,
			-0.194958284948731,
			0.0618263433431907,
			0.357584922824699,
			0.222626371513652,
			-0.0712940211973998
		],
		[
			0.0542027148414338,
			0.207833677320402,
			0.324308215714799,
			0.210964468158974,
			0.224090405837082,
			0.394460784613076,
			-0.178995950210213,
			-0.106878212251276,
			0.229488041798203,
			-0.719709515999975,
			0.33131746511797,
			0.25724513250099,
			0.0991316056495172,
			0.303296880459833,
			0.35265648243751,
			0.520513403022599,
			0.438287830709462,
			0.270203635442407
		],
		[
			0.1049757136828,
			-0.206968823266988,
			0.28636863416185,
			-0.269406936359483,
			0.195454122087879,
			-0.192299617553927,
			-0.343354940302063,
			0.181028008765058,
			0.0945676402218082,
			0.269169030740083,
			0.111701830154153,
			0.0305974084849706,
			-0.288082869843391,
			0.0111642953154589,
			-0.305636256740771,
			-0.125317975877694,
			-0.0401167167127358,
			0.260608724817875
		],
		[
			-0.00256366001918342,
			-0.298303816124093,
			0.0941046790249541,
			0.240434113188693,
			0.206810368874949,
			0.250952576783857,
			0.168439415598769,
			-0.244127223631431,
			-0.223911071838069,
			-0.32857764389501,
			-0.248310683883901,
			-0.0213266112285592,
			0.173924726094831,
			-0.118993676759377,
			0.201751392138132,
			-0.0473102400807393,
			0.0311157546494412,
			-0.317968189687655
		],
		[
			-0.244793732186792,
			-0.0511018085248014,
			0.187197376442021,
			0.256577863943335,
			-0.113932035491617,
			-0.387621821022078,
			-0.182767986854503,
			0.20100101807646,
			-0.010957281053623,
			-0.312828685934818,
			-0.116123809279062,
			0.0652708169935779,
			-0.186577363361309,
			0.0828144524735915,
			-0.0745478922644833,
			-0.338154474016889,
			0.247667791816081,
			-0.116193727757434
		],
		[
			-0.0113290588229141,
			-0.10705029940383,
			-0.177924282449496,
			0.0459779977879184,
			-0.0996312220418665,
			-0.002556612433624,
			-0.278810256307128,
			0.327140420769846,
			-0.0489223557573554,
			-0.0721235428966212,
			0.28107613097973,
			-0.19581609819464,
			0.213474658083468,
			0.235390262281344,
			0.124928251578066,
			0.318950306191843,
			0.19193193177412,
			-0.157948306468443
		],
		[
			-0.129394318486408,
			-0.0581475044880208,
			-0.269808182688037,
			0.0444948295337867,
			-0.0318180125660088,
			0.0177029726151604,
			-0.185881718390965,
			-0.0667464475150704,
			-0.290578451742911,
			-0.0995801523147405,
			-0.283576123266225,
			-0.0751806654275281,
			-0.229886771835549,
			-0.0947644285850146,
			0.0437062721303574,
			-0.133839458681241,
			-0.238578084989729,
			0.220626393427471
		],
		[
			0.150072794017147,
			-0.132416757450035,
			0.109673426567888,
			-0.191372600079316,
			0.0195426059407986,
			0.204765672644605,
			0.190851467375043,
			0.0130281207975917,
			0.246551375041583,
			0.299111215857373,
			0.224712410460354,
			0.0743924739963922,
			0.373709652640558,
			-0.213702326847807,
			0.0651716993106277,
			-0.190788553619962,
			-0.0709493351294372,
			0.0230256329873818
		],
		[
			0.0586722372406187,
			-0.295580937701244,
			0.0347447241906748,
			-0.0327819954897089,
			-0.247428785898789,
			-0.0258493278567703,
			0.168836041617763,
			-0.0991226470957704,
			0.22700974521181,
			-0.143456122221123,
			0.24307296504058,
			0.280260797422247,
			-0.248332255430457,
			0.0078430287835965,
			-0.217175759096705,
			0.0026683546734374,
			-0.0510681059155364,
			-0.330832747138083
		],
		[
			-0.169396750109908,
			-0.0532366165909501,
			-0.0918056692657845,
			0.258175814556336,
			0.251022621731919,
			-0.14065499908901,
			-0.126514036595039,
			0.323496545931931,
			-0.165346687149992,
			0.218726754147778,
			0.204800308452475,
			-0.341557593305442,
			0.141437808069864,
			-0.0446115362318357,
			0.165903058584079,
			-0.311970333007305,
			0.089382287829782,
			0.0039465750299059
		],
		[
			-0.13011835888386,
			-0.217151713028557,
			-0.243082770272669,
			0.279553289699873,
			0.179615893449625,
			-0.294240567253411,
			0.193795001945428,
			0.121266814728218,
			0.00468298131823865,
			0.240658051544321,
			0.12170329981407,
			0.0199447463215053,
			0.341842148247088,
			-0.222611438783033,
			-0.135166080146296,
			0.0318282458157208,
			0.0732267331032768,
			0.0430043679899798
		],
		[
			-0.0828618251568225,
			0.0440079705419843,
			-0.220456785586515,
			0.155236163261406,
			-0.0504136678033143,
			0.0171543196908386,
			-0.219677028600674,
			0.30651300896145,
			-0.285768059635724,
			-0.02756675500798,
			-0.197315342456455,
			-0.10851737344584,
			-0.287940502913635,
			-0.172643901062446,
			-0.234211055940553,
			-0.323830126658535,
			0.144716956300586,
			-0.271454846059854
		],
		[
			0.0432403130139422,
			0.136266754212978,
			-0.272139678693681,
			0.107685980559419,
			0.45849392227648,
			0.578347937979199,
			-0.0977461498741318,
			0.27739723387665,
			0.493928103034227,
			-0.57592181948037,
			-0.0993773731241448,
			0.158016063836535,
			0.441462148005409,
			-0.0447281689450683,
			-0.0538758967947613,
			0.304478569761552,
			0.225449066689648,
			0.304753269717813
		]
	],
	"W_actor": [
		[
			-0.250440243389486,
			-0.000487684434172546,
			0.120872170342931,
			-0.173868720391545,
			0.285083328238639,
			-0.0644342483908364,
			0.366560818622325,
			-0.232155425700326,
			0.157688803013454,
			0.53094824946159,
			-0.0840907163758628,
			0.0239155869041408,
			0.260309810310547,
			0.217882220774639,
			-0.0627297176974625,
			-0.197979061358411,
			0.000536268479029362,
			-0.239841059364868,
			0.257604647801565,
			0.274896007889572,
			0.0883408858257946,
			0.149458317905331,
			0.112523448259079,
			0.409082528652328
		],
		[
			0.0794931904116635,
			0.0410048136305624,
			-0.155089729982602,
			-0.0237102412549173,
			-0.0402287233930716,
			0.0772423270411943,
			0.465203074791693,
			-0.0241419724870154,
			0.0171789789528059,
			0.294171016038713,
			0.11210432436132,
			-0.0610343381422181,
			0.462915743906303,
			0.0932288195015281,
			-0.0471852036667492,
			-0.157450811133678,
			0.124449671474771,
			-0.0417587066892479,
			0.289031344657759,
			0.0654281533898299,
			-0.27728567141497,
			-0.0482533249090953,
			-0.248268280024013,
			0.294347775300096
		],
		[
			0.0161820640373155,
			-0.0833923886112786,
			-0.0186315844678376,
			-0.200492177897619,
			-0.175721680970583,
			0.00478297390263525,
			0.580379544120314,
			0.150477188806076,
			-0.252989102863528,
			0.566527727530922,
			0.0896719805725979,
			0.265755071905622,
			0.175579154379963,
			-0.0333468137105146,
			-0.128471963059444,
			-0.201982317393162,
			0.141739499533933,
			-0.109964970460027,
			-0.229852273088932,
			0.203117098668533,
			0.0315957411161281,
			0.209639804960911,
			0.262126303841316,
			0.305038949082385
		],
		[
			0.154464075821138,
			-0.199560196782782,
			-0.179409385044495,
			-0.160775392133936,
			-0.0948500598635833,
			0.284196034670798,
			0.530455418220991,
			-0.180849775717635,
			0.194612935933618,
			0.193186389717374,
			0.234598386735098,
			0.132532419081797,
			0.102924748293065,
			0.0793122603746234,
			0.150954824809987,
			-0.0244772873763767,
			0.0528015416598447,
			-0.202628447180565,
			-0.094621017346515,
			-0.186730703284578,
			0.1485874195033,
			-0.21197956634383,
			0.155563392261484,
			0.264657245014142
		]
	],
	"W_critic": [
		[
			0.0456615677870932,
			-0.0158688319744259,
			-0.162755881932898,
			-0.101812701136756,
			0.204445585798471,
			0.157336995995562,
			2.9657894132624,
			0.234382764585476,
			0.489822883538181,
			1.32637777416192,
			0.372028251438814,
			0.222628055930084,
			1.41121673175114,
			-0.0521402637264246,
			0.0109825448499463,
			-0.0840766740553088,
			0.218322332542043,
			0.04872026069287,
			0.0347904439632963,
			0.271473237867816,
			-0.249475738176672,
			0.183984520824214,
			-0.0577859780927564,
			1.22459108064744
		]
	],
	"b1": [
		0.00497824640545611,
		-0.00000538116077852138,
		-0.0452318847400458,
		-0.104593338475317,
		-0.0197422733676894,
		-0.0563585931325647,
		0.392625718611753,
		-0.0136432956674513,
		0.0494613188989598,
		0.429476358017328,
		-0.012484199695808,
		0.0540871873984905,
		0.196695866314713,
		0.040232670282801,
		-0.00193871447379065,
		-0.207474785618347,
		0.055921977804223,
		-0.000151274768046468,
		0.108632710700891,
		0.000867345878565118,
		-0.00576616088709667,
		0.0396688050802111,
		0.0000754701992177977,
		0.224484567221252
	],
	"b_actor": [
		0.626630849355173,
		0.645206760737488,
		0.503055269384289,
		0.306827468897379
	],
	"b_critic": [
		1.3398044742019
	]
}