{"biases":[[0.0202726467282529,0.0112477855387659,0.0,-0.00494422445984737,-0.00486863576870909,0.0113710653657912,-0.00330785665992651,0.0,0.0272116688252482,-0.00363245501154843,0.0,-0.0156082360584365,0.0,0.0210243178263713,-0.00906078014905024,-0.0141758434099826,0.0000151034057379967,-0.000127557977811759,0.00464466963466914,0.00963662733934765,-0.00769080341336681,-0.00364164739002614,-0.0146580270688539,0.0],[-0.028888518033708,0.0,-0.0339247862277151,0.0984869666257582,-0.0243464967106377,0.0101082471514408,0.0,0.0,0.00242675721416542,0.0361338584120927,-0.0229192774095309,-0.000033712980558623,0.0339617629353443,0.0,-0.0117023175283663,0.0161688589540822],[0.0853349812469867,-0.00732637361441945,-0.136948352104067,0.0247034393485657]],"sigma":0.497754494753936,"weights":[[[-0.0209820691012083,0.215995160196311,-0.167434063420337,0.286107284154932,0.231063744391827,0.291073611726538,0.289491032922945,0.101751454841732,0.298306479814234,0.13289892953059,0.160178032016174,-0.0729628946246653,0.119012229727687,-0.113897785749212,-0.170846038596276],[-0.0654962095646902,-0.327465510477179,-0.309736571843919,-0.0681065523521462,-0.0206405985295184,-0.0130612390374223,0.318020984192939,0.00181202433008304,0.0135604994674731,0.207125884452451,0.280303046406259,0.0147344470167122,-0.311505794267235,-0.26499311002191,-0.354278764307034],[-0.285259992700141,-0.261626495091915,-0.118180214304591,-0.341431478498428,-0.310089281741551,-0.144689861132215,-0.0749542888322612,0.277868184173196,0.31076917367429,-0.052064954022845,0.167483996682033,0.0894215163217816,-0.258385024744415,0.0446625974199232,-0.185521318113923],[-0.19574466846358,-0.00394760073719031,-0.260058976984661,0.0177501547004428,-0.17111276927526,-0.0921578853007339,0.313101894991147,0.108583114775898,0.311263705976502,0.161631074260284,0.0604893482653095,-0.0716692609526221,-0.335597748977459,-0.127853672357392,0.0905133634896691],[0.183792768430293,-0.0717799168414561,-0.173478306774602,0.0825050597136915,-0.361971184863094,-0.000239510734827989,0.0589184104949058,0.272248715538476,0.232372197751882,0.335059700287888,-0.259566186467448,0.0914511217761738,-0.108190903202783,0.24843833415588,-0.287366830626576],[-0.130468003704371,-0.0211604008674926,0.32613180486244,0.0847684300798954,0.35130414445662,0.258149590677956,-0.125722406547737,-0.149253060111458,0.226516271161958,0.0112376833467033,-0.179778135367563,0.350580015820535,-0.110176103189128,0.0621655073919823,-0.236592683783145],[-0.286982899710569,0.23779277257217,0.224848170754537,-0.188629474337997,0.02295792398811,-0.0356796822171849,-0.0801668575338772,0.292296399636302,0.0634100284153902,0.101609314012207,0.0183990896638691,-0.183043019889929,0.205233458992067,-0.128432136681666,0.23556102000332],[-0.178157088200812,-0.0964768189140957,-0.184478936516357,-0.292484886895884,-0.152766720660591,-0.272406653160219,-0.247001243385451,0.222974434162198,-0.0530205611540544,0.131967829664335,-0.0263822622946938,-0.0670934475188112,-0.308484753212348,-0.0957526777186581,0.0504624983371953],[-0.274090660276746,-0.0473059064760068,-0.226458543648113,0.0784366787890566,0.333803745348291,-0.0296952428730794,-0.203840346060936,0.0417537280934165,-0.0736992878411286,-0.148567873241784,0.0319139802121631,-0.13688244711748,0.254709182052386,0.208242543824451,0.0360468810913363],[-0.207894694711795,-0.0484981688333674,-0.298966370808922,0.0655776719673132,0.212686428757978,-0.317188971705792,-0.0400295588264451,-0.271359336968247,-0.227988114067342,-0.223786437177818,-0.0467839970531304,-0.221109352095159,0.201785606799895,-0.173488950022514,0.144039579737813],[-0.287291703981028,0.15766050914508,0.332676212622076,0.293696416429054,-0.190957890000801,0.345098038668666,-0.0936428580074581,-0.254881224217988,-0.352113738635091,-0.123366055222468,0.0801887727455861,-0.0324666335029478,0.340970539191235,0.141201835790069,0.126171574635606],[0.180979800852585,-0.323687454005388,0.159653620254144,0.33176248549512,0.154898218344469,0.0420384119568088,0.270805856520806,0.108798174815633,-0.309659864361259,-0.249383836382191,-0.146578129894293,-0.252569743753949,-0.06930081156753,-0.244610634573107,0.212988107619945],[-0.146260394172379,-0.218581162032462,-0.228452762893145,-0.221376471712136,0.124474308367242,0.171837868035189,-0.254839218011858,0.0680633822196263,-0.237182094822389,-0.0106806678993948,-0.259390497277313,0.0941548616874016,0.0617638560001615,0.237411401490426,0.0934158869075498],[0.0137513341251551,-0.0891377528081743,0.0935578961033143,0.105151161854498,0.358852085967953,-0.0883045180505735,0.109509298394399,-0.0481226166337447,0.32053583184813,0.377335038057811,0.271094959343928,0.0933942445874359,-0.215192524866914,-0.0370276282389172,0.307482698358213],[-0.327554298317052,-0.238072162831049,-0.362508147035591,0.0302358828825818,0.207825730535165,0.0216147092790188,-0.28541712041386,-0.02416638258882,0.105352127398801,0.29532132427947,-0.048149277771247,-0.296936360046339,0.195946791738568,-0.303721925885502,0.0346476422876999],[0.344226410706143,0.337718418967276,0.284549579175542,0.361041569363044,0.320780549667414,0.0548293160349109,0.174585625014128,-0.0174525297842013,-0.186688094324125,-0.0186314324863875,-0.142462951909238,0.363670184331817,0.127138243522167,-0.0421269471418743,-0.125579893950905],[0.210643571569428,-0.286774166012981,-0.0438332645034685,0.291849260862872,-0.219216046694744,-0.258106489779037,-0.151387777405942,-0.196876480083401,0.0279023478932215,-0.0691079146080415,-0.173388625554864,-0.231447392050607,-0.0503583876925427,-0.162138758257741,0.290315038465771],[-0.081618599868993,-0.362496546125595,-0.17424805787589,0.004679519238832,-0.175612580737947,0.0858474119474834,-0.0553739756050838,0.107040534945482,0.207818142188473,0.300538805777433,0.196120560790411,-0.125662832893871,-0.048699363525253,-0.272909153134141,-0.351733447847633],[0.340763670676983,0.130634282549889,0.269741630719286,0.139942405796143,0.0673550455272861,0.203226990909731,-0.049786426338848,0.187318338046561,-0.34314163005608,0.0263306844426233,0.319212327750835,-0.236749575406073,-0.273448205942655,0.31286803549006,0.0158739524406048],[-0.0168581599543755,-0.00789354526824148,0.0321184818930826,0.173414290593646,0.147733743566322,0.332821738504378,0.299305768000287,0.149079253832872,0.318428801330299,-0.319141495720428,-0.0578779854445305,0.0128173937164534,-0.185123159922721,0.305066055573995,-0.141936905389417],[-0.196039780072605,-0.14664488108532,-0.0909989149742566,-0.043819321229544,-0.190725910696113,-0.278688113895015,-0.0440269683566997,-0.247347423378372,-0.127546860958356,0.287299858546323,-0.0106255288443501,0.189566719076191,-0.0228887355131458,0.0113865345448004,-0.0464283608781708],[0.278590795349594,-0.109032296293837,0.289485065276885,0.0441165697128426,0.251297416677295,-0.274681312533118,0.062380615490359,-0.222886515778521,-0.139973985602417,0.1956765726994,-0.282012868278566,0.281284397067185,-0.135677398718419,0.223467399471037,0.355905068201189],[-0.118661916329166,-0.107504691607168,-0.0855694769128714,-0.0656619472129139,-0.113052616836488,-0.301866402083838,0.303736172131799,0.270426240734397,0.0958211959995515,-0.0915311128525727,-0.184478578635589,0.0983199143189381,-0.332670399673555,-0.0881945287575594,0.070615154679001],[0.0152201600049522,-0.115814769197385,-0.324634950399597,0.173206957301169,-0.193097617699642,0.358037962460197,-0.327118537321255,0.31367305188461,0.0204644837242584,0.0964399869040143,-0.291828883803323,0.219803018250496,-0.178825213187168,-0.181577725157303,0.317254299825193]],[[-0.000165708164183159,-0.227683303248311,0.0614076604339512,-0.242759463124249,-0.272142266017274,-0.168041409061956,0.0817180022193602,-0.264233513070938,0.0813872074731774,0.225080818774918,-0.175478844453835,-0.136845609159992,0.272903614312764,0.217567062603947,0.0607499486765432,-0.241497438883324,-0.232729692393098,-0.208333451812947,0.281144548245213,0.150683046317279,-0.00411333548538772,-0.0281510367589511,0.251894517574337,-0.023305872860636],[0.287872636767556,0.0369436840119981,-0.24966916426518,-0.266360440310505,-0.184685292903274,-0.0402862232535976,0.126375410405013,-0.12919178812236,0.181720700222062,0.0723274431361183,0.224795957316807,-0.285494981780653,0.0809434609629274,-0.214639469736303,-0.203399179733825,-0.265820701769884,-0.196548952364447,0.254020701844308,0.0659416957013653,0.0542556956598377,-0.119099504202156,-0.190426150732315,-0.00357592663107253,0.190046980460705],[-0.0682561783957058,0.108429389478243,0.259527331496964,-0.0512096416361904,0.0703899087675057,-0.209989228327106,-0.0482581012927531,0.221863659822412,-0.0731163628548119,-0.160073014356595,0.0884337699629298,-0.0654937970737939,0.235901642874879,-0.162355327313819,-0.110797835166965,0.256657841505802,-0.110009594856783,-0.250858087659038,-0.0440566752013661,-0.179263150516717,-0.0937638915125161,0.156123749319512,-0.189673765157401,0.131767688264518],[0.300923881272591,0.195479250065609,-0.0211072756993702,-0.151060659127426,0.162183449074516,-0.236533731912369,0.0614618973224322,0.287814999947104,0.23350951991993,-0.0960368771559573,0.0225958416800058,0.138615332796351,-0.0108426699369737,0.301622908654039,0.172829348196477,-0.127964627494605,-0.0181903813728252,0.0573655356904764,-0.105582406948839,0.214020684390761,-0.0234429102090538,0.0243054894509915,-0.110925442566772,0.146372600196988],[0.23144725788987,-0.135016592684027,0.285073481637853,0.172954930876059,0.103410904705641,0.205951178357827,0.0689823478777398,0.22346124590463,-0.248125028151137,0.171637739350882,0.00521532482663439,0.193985362032873,-0.0870670585229182,0.00553574306540732,0.106045298395901,0.0506282749027853,0.174183363515065,0.152384750306035,-0.205708656884912,-0.270341345236085,-0.0690704429888788,-0.276794807435219,-0.0759722408417199,-0.0263555284202138],[0.118394839654384,0.264355589698895,0.0779680492187103,0.0999344350052759,-0.235187739925243,0.145148183014338,0.0010521031458684,0.00393049117266869,-0.1204339066317,-0.226506841971013,-0.220968090308458,-0.207694308594611,0.249831695647313,0.230760243764901,-0.157459743554396,0.225070010377317,-0.274067895347312,0.182703691264931,0.00827138239177097,-0.0571191784376332,-0.0515986410871981,-0.0519280014672309,-0.107786982478232,-0.159838418359367],[-0.1931556599491,0.22112142305889,-0.28465687089667,0.201742056447273,-0.140767668624661,-0.25381209319741,-0.266799960169979,-0.130096555798342,-0.184327786116147,0.137185592088906,-0.25717811853571,-0.22201481128003,0.0532285587742289,-0.156414625462806,-0.074552028081677,0.100819711334956,-0.0750084234203292,-0.136288050225236,-0.285858804176912,-0.0815823118279856,0.172534935716236,0.00789242295917403,-0.252481625298186,0.264384671805528],[-0.179493421963176,0.153612115386846,-0.192078221152863,0.28303543307517,-0.0846262433468175,-0.0254547584532054,-0.144483145754602,-0.18127239569031,0.020724273410018,-0.0182219991419324,-0.147388651665477,-0.0695788222739484,0.169011196886107,-0.280851766419683,-0.0443541326518495,0.0335600190634691,-0.0797360246941195,-0.143719837899956,0.149037477818875,0.167013331417303,-0.220900293031614,-0.127823070441826,-0.280416074566602,-0.10100315324533],[0.109494136679545,0.11276953327473,0.0965704588717132,0.0354299108183335,0.112987423366501,-0.0839442858137064,-0.278083755902244,0.255965638463074,0.123607894674748,-0.116332483205977,0.00713663499411266,-0.292879447397743,-0.157381559353531,0.188002679966443,-0.0715600576478062,0.287052067495223,-0.205011757901721,-0.12320469857069,0.0389506099787657,-0.0749156430737025,0.126132500890298,-0.0537653663806685,-0.131499978345282,0.084018102114459],[-0.238348239623426,-0.162895482314921,-0.025267394814437,0.210870843255782,0.0939471635441343,0.255078589597413,0.0538039778735361,0.203224796664541,0.0746347977326024,0.233317075611726,-0.136806094359249,-0.153587043592936,0.211713014044924,-0.161980002962288,-0.146892601043125,0.226716709042461,0.149052215543601,0.00105210810586972,-0.017789985230617,-0.00669347966426231,0.287516074810157,0.256571688400221,0.074928304203194,0.277671784471193],[0.0728357008841705,-0.0231402630262634,-0.0094635517062876,-0.144658375443594,-0.288183846932537,0.0832539782156014,-0.107966084579197,-0.208192412451222,-0.286972133125044,-0.279642632416175,0.238666780262974,0.198291779663926,0.138765488525909,0.0468036900728128,-0.179129196334714,0.0381097490859574,0.237191807616838,0.230974834904095,-0.249653257781009,-0.0368976790989599,-0.162292526605813,-0.0240549998994108,0.074281333975299,0.0785662586876895],[-0.123401464478583,-0.228520964129718,-0.241410997106695,-0.171832073721701,-0.0123009211331802,-0.0809115220411528,-0.256925544648266,-0.266609837775823,0.191025520521345,0.0746477159500123,0.0764460466531792,0.137202102623936,-0.21590456526785,-0.225180454054967,0.023463503274629,-0.09705428553758,0.0095214579901331,-0.121654327624539,0.0902520173594397,-0.0296695479569893,-0.0845558849444319,0.230271841161316,0.260913732058808,-0.134289827702834],[0.175994107426206,-0.187142667804302,0.103469907557245,0.0356317319296764,0.23233064925258,0.0912672415359781,0.223981444377201,0.161095359007278,0.270789301230379,0.12457336679894,-0.255697369087146,-0.122356415495695,-0.174183824508332,0.134293397264522,-0.0669857265914236,0.27137160333837,-0.124450997576491,0.25318428907393,0.287354003483973,-0.0274614481501657,0.275006176426476,-0.271820710274358,-0.116458765517621,0.0719027433294057],[0.176395297140309,-0.264899281161583,0.0694928101504428,0.23369558643415,0.0761016784658148,0.236452329925607,-0.0986742192137409,-0.0717861361675848,0.0036062023918314,-0.271785087750332,0.0199257724210155,-0.207114235842134,-0.13739043855214,-0.262942978960054,-0.280986119965287,-0.245296739452245,0.243852962601165,-0.0183607010754621,0.0937357324656929,-0.163079747498033,-0.112260862822883,0.0353778233699552,-0.0530369774393277,0.102190431369426],[0.0264011085332003,-0.052125132735973,0.0450515903128407,0.184565103184488,0.249976706638833,0.237307620755561,-0.138759122344337,0.254436079067843,-0.0174117089062208,0.168993159436782,-0.0484778151885331,0.229313601270626,-0.204823102763628,-0.0839451560405499,-0.246000200044129,0.186769367703219,0.0353323411456471,-0.247693354967301,-0.254890450857432,-0.110478617666309,-0.27651014854878,-0.133805371982111,-0.11217853149206,0.156589703007593],[0.290067222772582,-0.0665721884012622,0.176761388236806,-0.115103910787077,0.0616960226736017,0.000290350158674588,0.075885877572739,0.203073332400235,0.223409406251143,-0.230476186534203,-0.0151277794934602,-0.139801518177857,-0.00545288609751271,0.207174814359606,0.179432414871497,-0.0303435264558143,-0.0437280261501332,0.277944334627817,0.276149978490295,-0.167279828850381,-0.245316981014759,0.205195692441625,-0.146785459368202,-0.106324914621013]],[[-0.164317590042994,0.10102425234605,-0.215969885552426,0.34666327437521,-0.258886186092679,-0.0860529888612499,-0.23836439739327,0.10078230532679,-0.0107249221991477,0.0890551810760229,-0.0335050885667631,0.153630081673172,0.190540637013616,0.122035422214803,-0.0658160379796549,0.066508336471655],[0.0472300864362018,0.22156445039877,0.202019707918425,0.0807854289035732,-0.0718335897679875,0.161610351064147,0.325557352950446,-0.25884539679246,-0.214097749623967,0.125214985229276,-0.144359524203863,0.253400595365062,-0.22938061809159,-0.313566088997367,-0.263222841491047,0.254747967390952],[0.0739019888074619,-0.139544991349008,0.0368513688285599,-0.221576310363654,-0.00529704719503455,-0.291877077208532,-0.0841341162478173,-0.0900221392924293,-0.124810942176857,-0.344077925694003,-0.203866050532506,-0.0905842260742219,-0.166389286707077,0.26632599108097,-0.168753802080147,-0.228088902347927],[-0.290004712780961,0.0188243234226289,-0.0390330862763161,0.230103007852888,-0.224039431627901,-0.119131390949256,-0.23522946859586,0.0247791996396918,0.165640126798294,-0.268073819678929,0.155755637689406,0.223050029621614,0.318972077387812,0.266262203975705,-0.197170489464808,0.178149438851341]]]}