{"W1":[[nan,nan,nan,nan,-0.177739821735847,0.057789149989902,-0.375245407302924,-0.289725116975294,-0.234197326126183,0.00872616443457099,0.324247161093716],[nan,nan,nan,nan,0.404013137770894,0.316076977211611,-0.397943629107791,-0.256010882629391,0.0102699250913268,-0.374838002911527,-0.18189895330926],[nan,nan,nan,nan,0.301136015444752,-0.407166565312305,-0.372293326855788,-0.389229865854476,0.127195955218287,-0.378061283435156,0.379184943364914],[nan,nan,nan,nan,-0.207205793526591,-0.264429224104168,-0.318413277117646,0.142581244306057,0.201771033880203,0.166334023800332,0.0649950016479446],[nan,nan,nan,nan,-0.0200463934240136,-0.190150727505182,0.0477895437211372,0.385230927200925,0.115551263856108,-0.169938910552412,-0.0304066474564579],[nan,nan,nan,nan,0.267976590139313,-0.292378561806172,-0.283408381813255,0.174124525878358,-0.228888574266573,0.352624490870383,-0.258345211183667],[nan,nan,nan,nan,-0.00838483185957786,-0.28937777170694,0.082315395561507,0.323256701629377,0.422684494052574,-0.366340877162842,0.384130543714088],[nan,nan,nan,nan,0.424724998593474,-0.105999203938711,-0.309619329161167,0.301920136231425,0.227106554723439,-0.110709056750132,0.186879601860922],[nan,nan,nan,nan,0.301794617900848,-0.36530323293462,-0.103923379926222,-0.0525574314677444,0.103919480056424,-0.345891513480749,-0.362687225266056],[nan,nan,nan,nan,-0.0101226486910915,-0.268863231870715,-0.386668627848388,0.338550831334833,0.250002221432938,0.360050841785958,-0.128860718911321],[nan,nan,nan,nan,0.423094373910239,-0.339881857678166,-0.112781321062536,-0.0300504866044821,0.39243664893605,-0.338570665970257,-0.2986457855659],[nan,nan,nan,nan,-0.228843980283546,-0.371979145270993,0.284758093673235,-0.0102170177617668,0.0755344759054118,-0.217311911546969,0.119689781353285],[nan,nan,nan,nan,-0.299151924269377,0.0645926948480346,0.0287905813491445,0.369788753333907,0.414842103465751,0.189186815810754,0.265332695430118],[nan,nan,nan,nan,-0.175932460085211,-0.224565140060815,-0.174600177638334,0.0596068472352935,0.233537773967952,0.00835547066046902,0.243415587489247],[nan,nan,nan,nan,-0.355548643317293,-0.362799217090461,0.209886584461416,0.28047876278993,0.0285866530677729,0.257603888525042,-0.239155767830427],[nan,nan,nan,nan,-0.129849682642973,0.361483552618822,-0.154134761542905,-0.0445562793384653,-0.216403267231631,0.0193057652538666,-0.115341053655105]],"W_actor":[[-0.343722393755862,-0.177859310311372,0.0546337287834179,0.00108737858105225,0.130769244675196,0.00891610280126585,0.307024115174798,0.184397041853468,0.0657092070809794,0.0110383915446681,0.167527802526052,0.342246873110465,-0.0781835278919695,-0.169434931016511,-0.30652531335352,0.173253757343195],[0.300681588342116,-0.350379382093326,0.201982563700386,-0.275053239280425,-0.0903007142994947,-0.140178139284636,-0.0212874061436935,-0.287987138186469,-0.187935065555545,0.173566231511471,-0.282708608110196,-0.198546764672291,0.303309103867837,-0.196876094526932,-0.107888554982978,0.34537109393985],[0.0723755539817422,-0.313049324122735,-0.0239169135609159,0.0727266404717378,0.0381635318381969,0.274029585174128,0.223525384265125,0.255684662622559,-0.082599925716518,0.189191081278459,0.244006121177771,-0.208996437943307,0.0307805529004195,-0.105597629794586,-0.252975811353319,0.0601201807831232],[0.268267968243284,0.00397044931066167,-0.0982222231533361,-0.262292474309153,0.0333340583229845,-0.0528027804086258,-0.307094591687207,-0.341098743015608,0.140137479538579,0.277583308337215,0.148279359711182,0.0426834480286418,0.275635423553988,0.00284739231129501,0.209926907876513,-0.107273379118704]],"W_critic":[[0.0872523467214288,-0.0572729186613496,0.183671805115295,-0.159118284336945,-0.128830526710912,-0.236026531163719,0.20888036012383,0.0593912079731991,-0.0625737904822898,-0.301388678130725,-0.349340960751368,-0.207275476244669,-0.320900703322563,-0.327968390622397,-0.170748727781259,0.286070095266627]],"b1":[0.0,0.0,0.0,-0.000306794622584969,-0.000296166327360419,0.0,0.00181883502071059,0.0,0.0,-0.00140516786731925,-0.000943436312720914,-0.000519717583205692,-0.00188303928439564,0.0,0.0,0.0],"b_actor":[0.00369339916266601,-0.0016698760901994,0.00257247480477393,-0.0104224287611478],"b_critic":[0.963461193470363]}