{"W1":[[-0.135708818243074,-0.0924246325622111,-0.0204415253956543,0.210031409919311,0.0406274294895007,0.189169344929075,-0.0804757716988389,-0.219354541167018,-0.338407515955051,-0.0376352237848618,-0.228571003274283],[-0.0309716357202695,0.284845648030437,0.0225489159603339,0.170620409953744,-0.267910699299257,-0.17380348299803,0.14049914176715,-0.0508145149115603,-0.172334185944201,0.329756109243075,-0.15469328725442],[0.0794495540498098,-0.332571947059688,-0.245723071013843,-0.123496231311279,0.354982577968729,-0.287243346052937,-0.334885406400415,0.166695856430723,-0.326405118729944,0.20877345770669,0.331411237493996],[-0.211791154908625,-0.252973874252286,0.103792739164147,0.358945669274567,0.263323496683039,-0.412017093973753,0.273628734033218,-0.0239245125063164,-0.302072996832544,0.16237377510874,-0.395892307234072],[0.29637747125645,-0.181129720913997,-0.108301065217336,-0.21822790682217,0.256851842157129,0.233358407066752,0.0931718729543129,-0.403574642357234,0.353005271481797,-0.180590445476506,-0.0445934298302634],[-0.0715593880369582,-0.0163463858930011,0.281067908296805,-0.0558039901522414,-0.238465284476189,-0.344743517196378,0.0762359118223934,-0.124347661028756,0.186073983680266,-0.122630232778073,-0.0156057168240854],[0.320192948305265,-0.394357061484835,0.0969649381506482,0.0811811294131934,-0.317740808838103,0.328248943176336,0.125944826351027,0.173755534484241,-0.211288933180666,-0.20725528147535,0.245216980477499],[0.234855912232923,-0.14051657110812,-0.156135697843735,0.331397999981633,-0.183286801682048,-0.366376910848699,0.210211190798721,-0.162314234169501,0.0342645041208612,0.335079413042306,0.00700211203563185],[-0.0502971775445301,0.424679546674774,0.00832718700614194,0.0875853327256765,-0.125056283489007,-0.297458277104629,0.00014763138352431,0.383546253471617,0.330375643523629,0.142809043088221,0.423755179659308],[-0.208768656411303,0.185766500353535,0.423824050675028,0.176954042881278,0.424566652478017,-0.125582815845997,0.322903452566025,0.337290095170862,0.468841487712805,0.322501370090232,-0.395257167418877],[0.258298151648134,0.0345926907589634,-0.0435186965280274,0.218799793786427,0.260297632420527,-0.208257277205949,0.295718608016381,0.409544073414341,0.208997186956903,0.353531888991656,-0.145276868066936],[0.0627698026107259,-0.140065127323312,0.0409687198904943,-0.225532287055892,-0.254564886020018,-0.391934376814742,-0.0930115081784682,0.279495706602468,-0.208306912341513,0.41988431500102,-0.11947584214891],[0.444381282145251,0.509481819870529,0.140390399729523,-0.29715385729186,-0.351157666504464,0.280885749195974,0.411621600694323,0.319126529692963,0.295950063651604,-0.347535136974636,0.166702984871226],[0.0401455739902978,0.390210920271487,-0.0339726491813482,0.224704735868767,0.339233973010864,0.197898814824443,0.0852970434177516,-0.2557972983777,0.311362400562934,0.383982211885418,0.0556970084225984],[-0.314783243914654,0.117449676138131,-0.0597541625511897,0.113000060919163,0.186420666983972,0.417166121534481,-0.0134975161477133,-0.185399961849337,-0.192130292445545,0.192383305264623,-0.311755868654871],[0.37042777149532,-0.0720242991062168,0.096413939156976,0.271580470415907,0.188780810594718,-0.246610162269672,-0.199087836393244,-0.38233269155394,-0.168502135424286,0.334296275689456,0.290900110043495]],"W_actor":[[0.0631186937645813,0.259798795272313,0.179906605811344,0.300047726877033,-0.287652061820077,-0.233248494805437,-0.220182191395761,0.096093942816993,0.0378906403582739,0.335593144358087,0.219976410993184,0.28945001352356,0.407961792386408,0.13170880320042,-0.127365830038483,-0.255019542582552],[0.203791191740829,-0.178500122918214,0.32435258324654,0.101487500361869,-0.00415270043958374,0.212940509584555,0.0726093162580243,0.128492007704513,0.0870473668357613,0.427581245689648,0.106208796024576,0.239020931440153,0.0785753509418447,0.354876853202291,0.297099585679619,-0.270168056106611],[0.0186439367766212,-0.0746673357905374,-0.0688190813033424,0.27131630309539,0.120612754756307,-0.102913079773678,0.018615940886154,-0.160855500483716,0.35219267266538,0.374175695006869,0.359416563737238,0.334577047616748,0.376819244690238,-0.00629139167501319,0.0385889200630305,0.112898828753403],[0.204598492122761,-0.162608654464244,-0.0989844648959621,-0.22934129280923,-0.336341491886988,-0.2746136527667,-0.267783857831194,0.0164107031093722,0.104260524468585,-0.0731705316813356,0.161825567124642,0.0668976591377873,-0.216315403661561,0.330005515051915,-0.228979330535897,-0.151135200126362]],"W_critic":[[0.263503156195959,-0.0273527663233138,-0.317118680501188,0.126767489580073,0.080002523563677,-0.109811266195279,0.200873156200132,0.0697511959705399,-0.0669531602957706,-0.18924615110375,-0.00796453727371557,-0.281566237674883,0.50140597028781,0.192918096794644,0.0968720626052538,0.110119466072272]],"b1":[0.0,-0.013320930295202,0.0,-0.000168288738308134,-0.0253082966283865,-0.036955990301356,-0.0050500294386897,0.0249307993629262,0.0102030471319776,0.0616851677748455,0.0412331630084691,0.0,0.130322178585901,0.0875506274859961,-0.00377460199193194,0.00154585877184514],"b_actor":[0.103817361127236,0.129927523254646,0.0643559830497372,0.0169866611840361],"b_critic":[0.17250124803424]}