{"W1":[[0.223597719337835,-0.128384402913762,-0.115740306366416,0.319207755334779,0.209983894110174,0.0473588797769998,-0.266135704418595,-0.293132146343624,-0.269490895540923,-0.293857431010434,0.182546558514773,0.282638606608787,0.0698852086794528,-0.150714720692031],[0.0467490185181119,0.0247111060878998,-0.128969348600701,0.0739295559920092,-0.0682298689277463,-0.370695168352537,-0.290040329031086,-0.110138593412016,0.398621573371684,0.470134897310269,0.281834905037191,0.00289155947644687,0.516629311644664,0.313022318713998],[0.177803549696109,0.3197049167769,-0.0885706820745661,-0.0442011730782279,-0.0840764545197432,-0.130991444314097,0.247420755487534,0.366916873945964,0.253258954298589,0.169031529257451,0.105768100250826,-0.0449652406323719,-0.372848762786252,-0.270669170715284],[0.148424721716655,0.163866634216058,0.322470126037495,0.15932935658108,-0.32283614197253,0.314610615822937,0.165834548136453,-0.0274979355086054,0.55254168058156,-0.133652478092553,-0.351558545436571,-0.22295239612665,0.336134264847587,0.0640742254291414],[-0.0143832102135415,-0.021327109996544,0.363972183695286,-0.0645632113073175,-0.357255632519325,0.0797404788219335,0.229322741214194,0.063164821580846,0.0529139055830166,-0.247779324225152,0.104138076337962,-0.0498417864061816,-0.171785567295849,0.0671596003811694],[0.0867731580452657,0.361113791027031,0.109022194899437,-0.214255234246503,-0.192028400629788,0.057916219938568,0.372363059635036,-0.152800100012342,-0.0159113467643444,0.325464726541994,-0.231783678561966,0.11279546935262,-0.0644377432154999,-0.0819577293750028],[-0.340894948693754,-0.118172157226268,0.145456947742261,0.234568740132931,-0.278480457361594,-0.275402977000266,0.120930231675772,0.208367007380093,0.1135296733702,0.172192501764828,-0.266246981497272,0.238711889937896,-0.0750074832345874,-0.116900026577066],[0.00143353010910458,0.358342071212713,-0.169264899780041,0.221962864547476,0.280935498024888,-0.344630139976372,0.271288615144934,-0.00261391126251958,-0.369043044018955,0.0965740990068099,-0.217208761184633,0.350474967356309,0.0480825827397203,-0.285600169569626],[-0.370624771327416,-0.301536612961455,0.366100450637234,0.377318125950644,-0.285119303989905,-0.0841835926304925,0.102389857457032,0.0772083387555452,-0.0939281691706638,-0.00351102148163543,0.286907335032323,-0.190583338799647,0.293680718560349,0.13583115658482],[-0.303476963330755,0.202230002877423,0.292282103668845,0.213778720554759,-0.0161814371065921,-0.265049167698019,-0.316962732724338,0.249336774717369,0.277681097231821,0.0474378089798344,0.116097928988906,-0.25887546535399,0.348331073108724,0.432102099421728],[-0.140044143416324,-0.112306764809911,-0.128962389485908,0.377082109160123,-0.324931300777362,0.178726921003031,0.0240404180474734,0.29653525948332,0.174133509949144,-0.0721461641312933,0.367188242731851,-0.239808410261026,-0.328974601512957,0.231944191086594],[0.18300174617891,-0.218024411550221,0.164506357204377,-0.36770478667873,0.127544029441917,0.0474219792482075,-0.115510825295518,-0.194794214173852,0.166982721036417,-0.274135949473354,-0.0587422944380688,0.36556850431676,0.283989041527607,-0.361614433155583],[0.221872624287185,-0.0587772909245282,0.133538275377706,-0.358484106370197,0.212288698877016,-0.0135814715887854,0.173137352291949,0.318191051674531,-0.194101119356369,0.246925012772658,0.280048503291313,0.267901978443247,0.340182323750725,0.0546613315138511],[-0.37370721293135,-0.19921983918616,0.334766994017764,-0.0778591952350936,0.184800341539215,-0.294834139785242,0.340524525188668,0.251134303716754,-0.308089117921027,-0.344635085869796,-0.140298258536102,0.134171342278751,0.180886116494402,0.19874230075689],[0.388294749021345,0.0322046005010083,-0.218357820690415,-0.374618218014761,-0.273051503778377,-0.0353180757588609,-0.102423238758071,-0.0992395701626159,0.428976680228154,-0.127766598832772,-0.0583228283058971,-0.300416145259602,0.0197277668463571,0.0455557016907076],[0.297542103100549,0.233479425500278,0.244397532065265,0.303815133711092,-0.0225363101746903,-0.145939918735558,0.232128092092393,-0.0329929798577937,-0.221987891170673,0.494992072288663,-0.232740394747683,-0.0627535181831903,0.0164891620824944,0.336809752578326],[0.354114186470939,0.17277323933675,-0.000454359698038901,-0.288817801325712,0.349790483591595,0.357603453333087,0.114263113879608,-0.00405525515543151,-0.371031998342028,0.170596971996581,-0.121722602481026,-0.307222783815185,-0.104112601192612,-0.100385524720698],[0.223659051943879,-0.16829594939018,0.197205132792667,-0.272418137104424,0.34905390014259,0.0955209178278652,-0.0159615404074031,0.138148672392415,-0.195674655499438,0.0728520217641518,-0.30452534926066,-0.102433189224707,-0.228951819170619,0.175631691477272],[0.335280796405816,0.00727605004467836,-0.154371658592484,-0.290712401935156,0.196370498570469,0.369698547832489,-0.0938176017217945,0.163486497607962,0.00908260509729357,0.383661170363941,-0.207351504881281,0.336354108626007,0.27456658560344,0.586820620772385],[-0.355039786794383,0.366873798063142,-0.251277512095287,-0.0698685710170778,0.313724588986859,-0.00275451274825438,-0.347327205548617,-0.129892599850971,0.321721291116267,-0.123082496460511,-0.168658908221681,-0.260760165871822,-0.112714134712112,-0.251094216754452],[-0.283026197593112,0.0697477356679426,-0.0382506049511746,0.182275664641976,0.287688927412775,-0.163573016502761,-0.124606733265831,-0.0914538750147784,0.256056364414554,-0.19705925647128,0.242571166056734,0.344641839842022,0.329613962983034,0.0791001675147425],[0.267295229554263,0.372684333879375,-0.30769584575927,0.0165080347639442,0.255707549109681,0.361136159786205,0.368601487853706,-0.14953901555201,-0.0400419747367114,0.0598653836730697,0.241262684612614,-0.153512190628767,-0.012336925027177,0.132260664870452],[-0.0914084786309609,0.321113887358992,-0.059683981321998,0.351996599767911,-0.00806927239639045,-0.0397125056129082,0.118911647739571,0.179483432183085,0.519269638317377,0.414076084665333,-0.278414994962098,-0.283291929521456,0.238745770508977,0.352463057389831],[0.310117460694036,0.0686582029520703,-0.0246974954119811,-0.29000429381382,0.11698161255094,-0.166641471854122,-0.363090607598348,0.0146253117216806,-0.0548759198198049,-0.246710319403028,-0.240465497179611,-0.046993365743282,0.0641706074997355,-0.264650222036941]],"W_actor":[[-0.240233594024505,-0.108359370253968,-0.0881092944082758,-0.327977152466231,0.04952070626232,0.0232717862740122,-0.231919580174423,0.256038714195228,0.267311884877914,-0.234510906901489,0.164520698435912,0.279405289588187,-0.0347115271621975,-0.278746925304135,-0.223314355294283,-0.0473111718583135,0.27479498374177,0.256412515437958,-0.364887755277589,-0.1752864577683,-0.0993806989917828,0.150737689838739,-0.196249627398092,0.0102459385740957],[-0.0224837331709432,-0.329179565675279,0.0425432696212454,-0.153421981076421,-0.026205855310279,0.0918516930140141,-0.0542183288998085,0.255365008968468,-0.272167957254683,-0.179269624996754,-0.0561562710420587,0.159087179388721,-0.188022346329524,-0.040568870995406,0.137083628512949,0.0723790057544453,0.219909695740564,-0.214848993203346,-0.197551609386782,-0.0439750170570608,-0.140487206131474,-0.0844252493683727,-0.331609297966066,-0.0743504903696302],[-0.0954712240964609,-0.342545988805271,0.0219450053443007,-0.265972096994527,-0.162118701386282,0.224514684702438,0.0273212358078045,-0.117991840802874,0.172796861252313,0.0769766313055656,-0.227937850487293,0.0706845469796111,0.245692045547658,0.188816746944801,-0.112032116078272,-0.12771809331407,0.0913257603164023,0.271036377083313,-0.331258954656879,-0.165121057128208,-0.282237044811566,0.0355193689075022,-0.262335636556444,-0.0230420816088999],[0.0257668903572353,0.124995741824499,0.199427144035527,-0.214584228862197,-0.15424402733158,-0.140721977552582,0.104016011031492,0.0762197164782123,0.245243042743936,-0.0270619649121262,-0.0968280602299535,0.246723080881157,0.00275197957025093,0.217906632914004,0.126699249237991,0.148573996463786,0.139874813518556,0.157456658710801,-0.178217869716341,0.0847817055719131,0.239249247612168,0.0906317416837552,0.161199712845394,-0.280119756945263]],"W_critic":[[0.0115098383363502,-0.759324034006114,0.174825056410291,-0.289040723888521,-0.164537186053633,-0.0548313432102095,-0.169729218633356,-0.0899844752089917,0.224865461749873,-0.450616978691634,0.0562506228188377,-0.0555662470573109,-0.0971665818493283,0.0790825968379019,-0.39567116855491,-0.417643602822084,-0.13094172714159,0.0677004832050776,-0.604281006446585,0.0597559913328415,0.0202161496853055,-0.0774976743385903,-0.640172791116605,-0.176958985396953]],"b1":[-0.00415573949612394,0.245605965247524,-0.00975517196707218,0.23511834901404,-0.0000332265860784485,-0.0214826911072761,-0.0120258482280216,0.00620235532674071,-0.0507420765403682,0.140184860404334,0.0058230003799878,0.0157103282341442,0.00788762651351729,0.0,0.139145308784204,0.120513776479947,-0.0154776820009407,-0.0377595187435663,0.325937555112899,-0.00627458188995209,-0.0084203646472175,-0.00292907531922245,0.252914800130355,-0.00479256144513554],"b_actor":[-0.204682011597579,-0.201772495149676,-0.179633032511546,-0.132661554507201],"b_critic":[-0.428252704424846]}