{"actor_logstd": [0.2129298895597458, 0.24047517776489258, 0.2913372218608856], "shared.0.weight": [[0.017350642010569572, 0.03179529309272766, 0.059666313230991364, 0.02643589861690998, -0.08643592149019241, 0.03326897323131561, -0.25180524587631226, 0.06965834647417068, 0.06700429320335388, -0.1850915551185608, 0.04911911487579346, -0.047996409237384796, 0.057713694870471954, 0.08404554426670074, -0.09027791768312454, -0.1420140266418457, 0.11364369094371796, 0.012771581299602985, -0.07649482786655426, 0.044784076511859894, 0.0104671660810709, 0.08105537295341492, -0.15302132070064545, -0.05142052844166756, -0.013464285060763359, -0.03892076015472412, -0.01426015142351389, 0.011845133267343044, 0.13847123086452484, 0.0016312096267938614, 0.013756920583546162, -0.040380313992500305, -0.07212889194488525, -0.10367451608181, -0.0954531580209732, -0.049198467284440994, 0.018067916855216026, -0.06788160651922226, -0.1797470897436142, 0.008407852612435818], [-0.19923719763755798, 0.17211155593395233, 0.09888390451669693, 0.14521588385105133, 0.11667509377002716, 0.043999701738357544, -0.1632356196641922, 0.04733825474977493, 0.03993452340364456, 0.10888031125068665, -0.01890241540968418, -0.010837936773896217, -0.05323055014014244, -0.08184987306594849, 0.021307921037077904, -0.02076297625899315, 0.10845877230167389, -0.015391089953482151, 0.03708595782518387, -0.05195661634206772, -0.16517306864261627, -0.10136033594608307, -0.03301306813955307, -0.087706059217453, 0.0016597895883023739, -0.00013246391608845443, 0.11771854758262634, -0.033273983746767044, 0.05370239540934563, -0.08001349121332169, -0.03667270019650459, -0.04659516364336014, 0.04650702700018883, -0.08018704503774643, -0.03513326868414879, -0.07335186004638672, -0.03659645840525627, 0.05494228005409241, 0.058036819100379944, -0.10915549844503403], [0.12288855016231537, 0.08247643709182739, -0.06950721144676208, -0.025429917499423027, 0.0034155554603785276, -0.08779460191726685, -0.32852503657341003, 0.07837002724409103, -0.21862606704235077, -0.05924980714917183, -0.038887277245521545, -0.08349926769733429, -0.09314333647489548, -0.03326881304383278, -0.004341429565101862, 0.0025668847374618053, -0.048801228404045105, -0.013576925732195377, 0.03141052648425102, 0.16074877977371216, -0.1818421185016632, -0.01721043698489666, 0.02773677557706833, -0.11633213609457016, -0.06386744230985641, -0.016451284289360046, 0.17240940034389496, -0.12141809612512589, -0.00793429184705019, -0.0732613056898117, -0.02437227964401245, 0.02338595874607563, -0.11137985438108444, 0.05187969654798508, -0.02557031810283661, -0.09271178394556046, 0.07914139330387115, 0.1477356255054474, -0.22706641256809235, 0.0739155039191246], [0.038888655602931976, 0.002863919362425804, 0.07017149776220322, -0.06979908794164658, -0.10975054651498795, 0.0005778542254120111, 0.3680003583431244, 0.0474274568259716, -0.016430452466011047, 0.048622481524944305, -0.1574418842792511, 0.017308825626969337, 0.05539029836654663, -0.04966912791132927, -0.16862860321998596, -0.08740760385990143, 0.02387431636452675, -0.05552256479859352, 0.05679292604327202, 0.025694288313388824, 0.12988141179084778, -0.1740904152393341, -0.002822715090587735, 0.032600611448287964, -0.026478474959731102, 0.14344759285449982, 0.014914469793438911, 0.12558162212371826, -0.14153598248958588, -0.0103627759963274, -0.12549293041229248, -0.030911017209291458, -0.06032232195138931, -0.03102124109864235, 0.006143690086901188, -0.047812193632125854, -0.019306274130940437, -0.07498724013566971, -0.09361712634563446, 0.003419725224375725], [0.04300522059202194, 0.11661823093891144, -0.026790354400873184, -0.10218276083469391, 0.10025575011968613, 0.057773787528276443, 0.23458659648895264, 0.045155905187129974, -0.01615159586071968, 0.06914881616830826, 0.04316334053874016, 0.06753789633512497, 0.03245650231838226, 0.007491669151932001, -0.19301879405975342, 0.06708270311355591, -0.023131437599658966, -0.05521783605217934, 0.03202199563384056, 0.08919317275285721, -0.16850881278514862, 0.11062690615653992, 0.0527849979698658, -0.0893353745341301, 0.08465174585580826, 0.03036486729979515, -0.04157024621963501, -0.07779477536678314, -0.14323113858699799, 0.0614066980779171, 0.16476979851722717, -0.05696723237633705, 0.14853572845458984, 0.058988917618989944, 0.02491166815161705, 0.10548942536115646, 0.037069786339998245, -0.019145213067531586, 0.09057579189538956, -0.07425473630428314], [0.1238936185836792, 0.17551812529563904, -0.034479059278964996, 0.012255899608135223, -0.07032083719968796, -0.0019460897892713547, 0.3469577133655548, 0.06269771605730057, 0.059668004512786865, -0.0813816711306572, -0.01814177632331848, 0.03031170554459095, 0.16858962178230286, 0.001371593214571476, 0.003076675347983837, 0.012015623971819878, -0.09702812135219574, -0.07743124663829803, 0.1375281810760498, 0.05735034495592117, 0.056474409997463226, -0.05809923633933067, 0.008123102597892284, 0.09813310950994492, -0.10059966892004013, -0.07054995745420456, 0.0470314584672451, 0.12297914177179337, 0.08775865286588669, 0.007085263263434172, -0.07707546651363373, -0.09864163398742676, 0.12654311954975128, 0.15844100713729858, 0.16407810151576996, 0.011708409525454044, -0.057857073843479156, 0.0051752058789134026, -0.1113327369093895, 0.12903864681720734], [0.010928289033472538, -0.15064460039138794, -0.08685225993394852, -0.08587110787630081, -0.06349954009056091, -0.1019057035446167, -0.1762865036725998, 0.07304300367832184, 0.06351365894079208, 0.07491650432348251, -0.05938636139035225, -0.005638986360281706, -0.10683915764093399, -0.028032222762703896, 0.1367654800415039, -0.037418611347675323, -0.231938436627388, -0.1487952023744583, -0.028858128935098648, 0.08309567719697952, 0.0921890139579773, -0.14827875792980194, -0.07708224654197693, -0.038521502166986465, -0.007487686350941658, 0.011876393109560013, 0.08220873028039932, 0.021076608449220657, 0.16587983071804047, -0.0752309113740921, 0.03907713666558266, 0.20331184566020966, -0.012598734349012375, -0.1959889680147171, -0.10619354248046875, -0.037074293941259384, -0.06367647647857666, 0.11283022165298462, 0.09055521339178085, 0.023028085008263588], [-0.026548858731985092, -0.08615925908088684, 0.03467109426856041, -0.11456789076328278, 0.0044068763963878155, 0.05779024213552475, 0.2570156753063202, 0.08631141483783722, 0.08510096371173859, 0.16660498082637787, 0.050728507339954376, -0.003894191002473235, -0.04924783110618591, 0.10213001072406769, -0.02993842586874962, -0.14213618636131287, -0.04298301413655281, 0.016809744760394096, -0.12155301123857498, 0.09206633269786835, -0.017932264134287834, -0.14201302826404572, 0.008939805440604687, -0.0899573564529419, 0.16184206306934357, 0.003147133393213153, -0.024608656764030457, 0.05278490111231804, 0.06771469861268997, 0.018973514437675476, -0.03682221472263336, -0.12437330186367035, -0.03165239095687866, 0.028006667271256447, -0.07843012362718582, 0.09143156558275223, 0.05998293310403824, 0.1046287789940834, 0.011298482306301594, 0.101793073117733], [0.008108140900731087, 0.0423087552189827, -0.04973076283931732, -0.09871160238981247, -0.003411671379581094, -0.07490584254264832, 0.3144196569919586, -0.12030907720327377, 0.049303922802209854, 0.137099951505661, -0.16302694380283356, -0.021987220272421837, 0.1882665902376175, -0.19456394016742706, -0.07913146167993546, 0.10129094123840332, -0.11781853437423706, -0.050110604614019394, 0.009959437884390354, 0.01023824606090784, 0.0022672489285469055, -0.025013593956828117, 0.028770675882697105, 0.053763579577207565, 0.12980617582798004, -0.040396127849817276, -0.08322177082300186, 0.029461096972227097, -0.1257670372724533, -0.025369917973876, 0.11011724919080734, 0.0022064263466745615, -0.006580205634236336, 0.0400925949215889, -0.010850257240235806, -0.08759482204914093, 0.029485732316970825, -0.02810470573604107, 0.11022316664457321, 0.08459687232971191], [0.06054588034749031, 0.0466436892747879, 0.014673695899546146, 0.03565303608775139, -0.15630538761615753, -0.011419772170484066, 0.4417160749435425, -0.04760565608739853, -0.06850521266460419, -0.000913427269551903, -0.046701110899448395, 0.06277305632829666, 0.05668443441390991, 0.03529047966003418, -0.14755722880363464, 0.07641095668077469, -0.030387429520487785, 0.06352586299180984, -0.09103507548570633, 0.0007479366613551974, 0.0006874823593534529, -0.02565051056444645, 0.18910443782806396, -0.010580425150692463, 0.06637156754732132, -0.12474125623703003, -0.07053588330745697, -0.03930068016052246, -0.07745862752199173, 0.12042149156332016, 0.008419849909842014, -0.021789466962218285, -0.07577452063560486, 0.03650515899062157, -0.0861230343580246, 0.0776747390627861, -0.08484024554491043, 0.06625697016716003, 0.005223472602665424, 0.0918901190161705], [0.12163828313350677, -0.03297068923711777, 0.015810439363121986, -0.09724786132574081, 0.004189405590295792, 0.1678827702999115, -0.012092327699065208, -0.004169457592070103, -0.12632106244564056, 0.011770603246986866, -0.15209126472473145, -0.24545569717884064, -0.09835714846849442, -0.02864222787320614, -0.07786940783262253, -0.09203176200389862, -0.10673180222511292, 0.05301310122013092, 0.02087373472750187, 0.0037105258088558912, 0.13409283757209778, 0.03230961412191391, -0.005636273417621851, -0.02360013872385025, 0.11948854476213455, 0.08629199117422104, 0.024601859971880913, 0.052182454615831375, -0.05762721598148346, 0.03656051307916641, -0.04767904803156853, -0.08899425715208054, -0.02313004806637764, 0.13967016339302063, 0.02475445531308651, -0.019384874030947685, -0.1638791263103485, -0.01581707037985325, 0.03470625728368759, 0.26585856080055237], [0.019551826640963554, 0.08401661366224289, 0.11956514418125153, 0.09287514537572861, 0.01638251729309559, -0.1904028207063675, 0.043808434158563614, -0.09098579734563828, -0.06896191090345383, 0.03993264213204384, -0.09873809665441513, -0.02320261485874653, 0.06642968952655792, -0.11754085123538971, 0.21833369135856628, 0.07484151422977448, -0.059865180402994156, 0.2162700891494751, 0.05557888746261597, 0.047977812588214874, -0.07356249541044235, 0.12047410011291504, -0.08207575231790543, -0.11009333282709122, 0.12536326050758362, -0.0004938232013955712, -0.03950544819235802, 0.15367618203163147, -0.11613503843545914, -0.12191455066204071, 0.03165654093027115, 0.047976382076740265, 0.03787463903427124, -0.024891328066587448, -0.042183589190244675, -0.04854626581072807, -0.03693642467260361, -0.11338537931442261, -0.06986969709396362, 0.03075883537530899], [-0.0075674280524253845, 0.05745236948132515, 0.22391967475414276, 0.015527650713920593, -0.1445426642894745, 0.02469152957201004, 0.24636989831924438, -0.010442215017974377, 0.03211642801761627, -0.046737413853406906, -0.023929141461849213, 0.023282887414097786, -0.1339697390794754, -0.10379339009523392, 0.06463224440813065, 0.003817774588242173, 0.12025906890630722, -0.015990447252988815, -0.044527068734169006, 0.09366978704929352, -0.09637784212827682, 0.015743929892778397, 0.10930974781513214, 0.1068396344780922, 0.1307983547449112, -0.10149241983890533, 0.048253536224365234, 0.06696033477783203, -0.04576771333813667, -0.06699340790510178, 0.11780945956707001, -0.09913574904203415, 0.11803682148456573, 0.09956659376621246, 0.002612271811813116, 0.14031822979450226, 0.058183975517749786, 0.1149570643901825, -0.009075896814465523, -0.042665354907512665], [0.09266963601112366, -0.2629440128803253, 0.17614200711250305, -0.007399595342576504, 0.02675040438771248, 0.05817917734384537, 0.11952704191207886, -0.05809972435235977, -0.07911873608827591, 0.25034472346305847, -0.036945804953575134, -0.17012470960617065, 0.007392995059490204, 0.009524360299110413, -0.1011323556303978, 0.012877784669399261, -0.015356731601059437, 0.07741866260766983, 0.0672394260764122, -0.00682230805978179, 0.019999777898192406, -0.0790625736117363, 0.009884737432003021, 0.07055408507585526, 0.002563583431765437, -0.11206090450286865, -0.03239224851131439, -0.08338990062475204, -0.10268333554267883, 0.09367026388645172, 0.0579020194709301, -0.03994569182395935, 0.027955830097198486, -0.1320050060749054, -0.004928980488330126, -0.078208789229393, 0.06222133710980415, -0.08232121169567108, 0.00436795549467206, -0.012983494438230991], [0.1614578664302826, -0.11134826391935349, -0.06286053359508514, -0.026748551055788994, 0.13239739835262299, 0.15786083042621613, -0.31031227111816406, -0.03993261978030205, -0.04858779162168503, 0.05263971909880638, -0.12695062160491943, 0.13277316093444824, -0.12015635520219803, 0.028650248423218727, -0.04886993020772934, -0.011001228354871273, -0.04603208228945732, 0.02119579166173935, 0.1964505910873413, -0.05134018138051033, 0.037014640867710114, -0.0930778905749321, 0.11888881772756577, -0.042397640645504, -0.008526588790118694, -0.0566607266664505, -0.06654340028762817, -0.005616695620119572, -0.09942617267370224, 0.05841398239135742, -0.15248608589172363, 0.07589283585548401, 0.08992510288953781, -0.10778068751096725, -0.10521053522825241, 0.18424850702285767, 0.15159301459789276, 0.1733722984790802, -0.035611726343631744, -0.07523199170827866], [-0.04040512070059776, -0.09339968860149384, 0.061984915286302567, 0.01233683992177248, 0.07501406222581863, 0.11907975375652313, -0.09732531756162643, 0.04070427641272545, -0.08383772522211075, 0.12437588721513748, 0.08208738267421722, 0.07500553876161575, -0.16438540816307068, -0.016848787665367126, 0.16329623758792877, 0.10651414096355438, -0.06618910282850266, 0.037503644824028015, -0.014629424549639225, -0.04629306122660637, 0.09537948668003082, -0.06697173416614532, 0.012172753922641277, -0.0003918109287042171, 0.05695771798491478, -0.042026761919260025, 0.03906581178307533, 0.03812030702829361, 0.012963477522134781, 0.09539590030908585, -0.10592731088399887, 0.0007220887928269804, -0.048235129565000534, 0.18772882223129272, 0.0329018160700798, 0.023580079898238182, 0.06184682250022888, 0.09864693135023117, -0.15463387966156006, -0.01851492188870907], [-0.07687394320964813, -0.11991850286722183, -0.06811653077602386, -0.11107739806175232, -0.04672493413090706, -0.0809565857052803, -0.0015341353137046099, 0.017782216891646385, 0.04207375645637512, -0.02140619605779648, -0.07452938705682755, -0.10690594464540482, -0.07103408128023148, 0.1720290184020996, -0.06968935579061508, -0.0770396888256073, -0.1541336327791214, -0.2084885686635971, 0.013822408393025398, -0.009163412265479565, -0.047063667327165604, 0.00673301937058568, 0.006953379604965448, -0.04350103810429573, 0.014399626292288303, -0.02607755921781063, 0.03848397731781006, -0.05391278862953186, 0.004582734778523445, -0.19267429411411285, -0.003639436326920986, 0.018618693575263023, -0.05312231928110123, -0.1374477595090866, 0.11039024591445923, 0.001203782157972455, -0.05415450781583786, 0.031064115464687347, -0.006745839491486549, -0.14190974831581116], [0.11099828779697418, 0.008120988495647907, -0.0147775337100029, 0.03901469707489014, -0.0452309176325798, -0.010912717320024967, 0.40730956196784973, -0.03207557648420334, -0.08865570276975632, -0.029296839609742165, 0.09598854184150696, -0.07225964963436127, -0.03686199337244034, 0.059959057718515396, -0.09034441411495209, -0.021497026085853577, -0.0954803079366684, -0.13632841408252716, -0.09666240215301514, -0.20346584916114807, -0.06921102106571198, -0.06771093606948853, -0.09664538502693176, 0.06823406368494034, -0.10319206863641739, 0.013363317586481571, 0.032308999449014664, -0.037824735045433044, 0.14977750182151794, 0.027898386120796204, 0.1997094303369522, 0.16970489919185638, 0.013424267992377281, 0.04276690259575844, -0.154145747423172, 0.20033659040927887, 0.0654931366443634, 0.044458240270614624, -0.00755939818918705, -0.047019217163324356], [-0.05962168797850609, 0.0157384742051363, -0.018603190779685974, -0.14234916865825653, -0.14037401974201202, 0.0673263818025589, -0.3298398554325104, 0.06725147366523743, 0.10477198660373688, -0.17447707056999207, -0.031247396022081375, 0.14431306719779968, 0.04894425719976425, 0.11263479292392731, 0.03274312987923622, 0.20235782861709595, -0.08944179862737656, -0.05541933700442314, 0.001170844305306673, -0.14260104298591614, 0.17726407945156097, 0.06255661696195602, 0.03691825643181801, 0.026156101375818253, 0.08138442784547806, -0.06782553344964981, -0.06473028659820557, -0.007117098663002253, -0.09420806914567947, 0.05514499545097351, 0.07573315501213074, 0.05824359878897667, 0.03510940819978714, 0.0975557193160057, 0.05662178248167038, 0.006856949999928474, -0.06920023262500763, -0.030237294733524323, -0.1420615017414093, -0.20298928022384644], [-0.04007373005151749, 0.09572885930538177, 0.0060577415861189365, 0.02802170068025589, 0.09233075380325317, -0.17933465540409088, -0.1783231645822525, -0.03018915094435215, 0.00905738677829504, -0.08738960325717926, 0.04122170805931091, -0.013147124089300632, 0.13128438591957092, -0.0347994863986969, 0.19574344158172607, 0.05058131739497185, -0.06733431667089462, 0.07210827618837357, -0.13945314288139343, -0.06077088043093681, -0.002262301277369261, -0.04213723912835121, 0.17193499207496643, -0.05543062835931778, -0.1925574243068695, 0.017926357686519623, -0.08409087359905243, 0.14322572946548462, 0.07411563396453857, -0.07323048263788223, -0.09994274377822876, 0.030261017382144928, -0.02817615307867527, -0.08960630744695663, 0.08803166449069977, 0.09689304232597351, 0.011309769004583359, -0.07979068905115128, -0.03320841118693352, 0.09555020183324814], [0.10250946879386902, -0.07982185482978821, 0.08441780507564545, 0.02297370322048664, -0.0135233448818326, -0.09468844532966614, -0.25052690505981445, -0.08938426524400711, -0.014151542447507381, 0.021727856248617172, 0.09126327186822891, -0.07253136485815048, 0.05126656964421272, -0.02043137326836586, 0.17868585884571075, 0.21177799999713898, -0.020977407693862915, -0.02710461989045143, -0.04835734888911247, -0.1623951494693756, 0.014754061587154865, -0.04797615110874176, 0.01909259520471096, 0.1588192880153656, 0.19064751267433167, 0.04830551519989967, 0.01668670028448105, -0.20316055417060852, -0.15280216932296753, -0.01341722346842289, -0.026912063360214233, -0.04325232654809952, -0.014593216590583324, 0.02280169539153576, 0.015670180320739746, -0.08532141894102097, 0.040933508425951004, 0.013040080666542053, -0.034738171845674515, -0.014600823633372784], [0.00539424316957593, 0.03899138420820236, 0.10172764956951141, -0.014786532148718834, -0.14729349315166473, 0.20196688175201416, -0.43331125378608704, 0.11517872661352158, -0.05524750426411629, 0.0382457859814167, -0.012015299871563911, -0.04717450216412544, 0.017169363796710968, 0.1473419964313507, 0.05771836265921593, -0.07776638865470886, 0.08340494334697723, -0.049367111176252365, 0.134868785738945, -0.06258220225572586, 0.014401155523955822, 0.06779570877552032, 0.10975553095340729, 0.015717653557658195, -0.07622400671243668, 0.013763648457825184, 0.06285174190998077, -0.05399388447403908, 0.08652174472808838, 0.0928451418876648, 0.036302436143159866, 0.06640925258398056, 0.017170080915093422, 0.09540731459856033, -0.09368430078029633, -0.06190982088446617, 0.022346608340740204, -0.0216013565659523, 0.01126668881624937, 0.00828327052295208], [0.13396978378295898, -0.14337006211280823, -0.13116613030433655, -0.16665838658809662, 0.08819960057735443, -3.358093090355396e-05, -0.1385742425918579, 0.026419900357723236, 0.03317313268780708, 0.009879551827907562, -0.02367236837744713, 0.08615420758724213, 0.05228330194950104, 0.190623939037323, -0.006219340953975916, -0.0035200202837586403, -0.10560748726129532, 0.030074505135416985, 0.021795788779854774, -0.03107236884534359, -0.018925173208117485, 0.08071916550397873, 0.08909650892019272, -0.07225196808576584, 0.03499847277998924, 0.06676850467920303, -0.011692376807332039, 0.10419444739818573, -0.018547702580690384, -0.1155887320637703, -0.08966613560914993, -0.07252732664346695, -0.04071570560336113, -0.04216437414288521, 0.03631557151675224, 0.004114925861358643, 0.17026357352733612, 0.028956301510334015, -0.050079669803380966, -0.15864889323711395], [0.17488209903240204, -0.09728538244962692, -0.18570031225681305, 0.11210061609745026, -0.0007161112152971327, -0.049850836396217346, 0.3502853512763977, -0.13550198078155518, -0.010192982852458954, 0.06570369750261307, -0.10815273970365524, -0.08678168058395386, 0.15008743107318878, 0.07115642726421356, -0.08891423046588898, -0.038105353713035583, -0.00524867745116353, 0.17412737011909485, 0.011041342280805111, 0.04501162841916084, -0.08881229907274246, -0.09103047102689743, -0.03974025323987007, 0.053226254880428314, 0.07271182537078857, 0.040077563375234604, -0.153109610080719, 0.02421211078763008, -0.008868986740708351, -0.06965479254722595, 0.07138149440288544, -0.09482233971357346, -0.048503514379262924, 0.03493177890777588, -0.09420337527990341, 0.11978086084127426, 0.02602487988770008, 0.18046045303344727, -0.08531610667705536, -0.08784837275743484], [-0.17804096639156342, 0.1943017542362213, 0.12432608008384705, 0.030077524483203888, 0.19755318760871887, -0.015459411777555943, 0.041663721203804016, -0.23738302290439606, -0.1102602556347847, 0.011814144439995289, -0.02384648285806179, 0.16683492064476013, -0.0658055990934372, 0.07252177596092224, -0.047888629138469696, 0.0490400604903698, 0.12858931720256805, 0.13161860406398773, 0.10933663696050644, -0.016185931861400604, 0.05440852418541908, 0.06883379817008972, -0.009457770735025406, 0.02266036905348301, -0.09821326285600662, -0.038084592670202255, -0.12454872578382492, 0.1491428017616272, -0.08222049474716187, -0.07992992550134659, 0.15442106127738953, -0.11849068850278854, 0.07004748284816742, 0.15226909518241882, -0.09979420155286789, 0.03564206883311272, 0.08327082544565201, 0.018653275445103645, 0.008167843334376812, 0.02812178060412407], [-0.21700620651245117, 0.0562526099383831, -0.0332438088953495, 0.08230544626712799, 0.019393756985664368, -0.01762951724231243, 0.2426927089691162, 0.15397188067436218, -0.01114240474998951, -0.07348192483186722, -0.06003590300679207, -0.08442959934473038, -0.03675667569041252, -0.1256915032863617, 0.0036336262710392475, 0.10308326035737991, 0.2160530984401703, -0.2016773521900177, -0.006232280749827623, 0.009356495924293995, 0.04418022185564041, -0.05149824172258377, 0.08224812150001526, -0.06438977271318436, -0.06723042577505112, 0.050213757902383804, -0.045044802129268646, -0.021318748593330383, 0.09877687692642212, -0.04347074776887894, -0.07200180739164352, 0.12349960952997208, 0.11621823906898499, -0.07863330096006393, -0.06544259190559387, 0.13121621310710907, -0.16841565072536469, 0.026279745623469353, -0.07937362790107727, -0.296256959438324], [0.08647555112838745, -0.06523419916629791, -0.11109606176614761, 0.02667323686182499, 0.012765859253704548, 0.10398223251104355, 0.24915796518325806, -0.1325940042734146, 0.125440314412117, -0.05804158002138138, -0.04299362748861313, 0.051597390323877335, -0.04129302129149437, -0.009070471860468388, -0.2512458860874176, 0.10011066496372223, 0.016027845442295074, 0.012677949853241444, 0.003918371628969908, 0.11910896003246307, 0.20552407205104828, 0.1090177670121193, 0.04526282846927643, 0.01381490658968687, -0.10361961275339127, 0.10384170711040497, 0.1890384703874588, 0.11223268508911133, -0.09314202517271042, -0.17514769732952118, 0.08778423070907593, -0.10118382424116135, -0.02109294757246971, -0.06918028742074966, 0.003359837457537651, -0.008110328577458858, -0.1156555712223053, 0.1882009208202362, 0.12182444334030151, 0.11845960468053818], [0.025390157476067543, 0.07651496678590775, -0.11529093235731125, -0.08395196497440338, -0.09566045552492142, -0.07544945180416107, 0.29768314957618713, 0.05534031242132187, 0.10871340334415436, 0.01632878929376602, -0.09891386330127716, -0.013289051130414009, -0.011018849909305573, -0.16926151514053345, -0.2703494727611542, -0.05612339824438095, 0.04160083830356598, 0.07188351452350616, -0.13987497985363007, -0.14180904626846313, -0.04899138957262039, 0.012862506322562695, 0.06027796491980553, -0.026954539120197296, 0.09072107076644897, 0.08140863478183746, -0.11273040622472763, -0.082833431661129, -0.09367481619119644, -0.06438785046339035, 0.08647490292787552, -0.0882314145565033, -0.06969685107469559, 0.00248315860517323, -0.07552003115415573, 0.1386612504720688, -0.11464639753103256, 0.10598531365394592, -0.008016788400709629, -0.019284669309854507], [-0.15846137702465057, 0.023999430239200592, -0.10503451526165009, 0.27911120653152466, 0.019757570698857307, 0.04611295461654663, -0.04837879166007042, 0.13571996986865997, -0.006784869357943535, -0.11867278814315796, -0.03784678131341934, -0.028035564348101616, 0.13438206911087036, 0.04924849793314934, -0.10399278998374939, -0.0491512306034565, -0.013262088410556316, -0.11947247385978699, -0.09829795360565186, -0.027239417657256126, 0.14719682931900024, 0.06891749054193497, 0.073014035820961, 0.08234758675098419, 0.0011505760485306382, 0.0034409621730446815, -0.005489705130457878, 0.009067404083907604, -0.0014233925612643361, -0.07264283299446106, 0.04263432323932648, 0.02085447870194912, -0.06362123787403107, -0.05546410381793976, 0.11433861404657364, -0.03851744905114174, -0.062174633145332336, 0.02110171876847744, 0.1840716153383255, -0.0710139200091362], [-0.024793341755867004, -0.1419922262430191, -0.14504113793373108, 0.006063197739422321, 0.005574989132583141, 0.0004534870386123657, 0.09453343600034714, 0.08515993505716324, 0.1342788189649582, -0.049316879361867905, -0.08554387837648392, 0.12127207964658737, -0.11200731992721558, 0.12888747453689575, -0.16400806605815887, -0.14474226534366608, 0.028581205755472183, 0.07650414109230042, -0.09395571053028107, 0.041851192712783813, -0.05072733387351036, 0.07505035400390625, 0.18569494783878326, 0.1418221890926361, 0.044381946325302124, -0.07704922556877136, 0.1295846402645111, -0.15681852400302887, -0.05382542684674263, 0.0028960970230400562, -0.04104664549231529, 0.1273658573627472, -0.007057050243020058, 0.0025205763522535563, -0.004041267558932304, -0.10574974119663239, 0.20012563467025757, 0.12608352303504944, 0.05184944346547127, -0.03170831874012947], [0.12454096972942352, 0.15926331281661987, 0.036250486969947815, -0.012994096614420414, 0.1255636364221573, -0.06056341901421547, 0.28324630856513977, -0.02082994394004345, -0.02268080599606037, -0.004077702760696411, -0.08213083446025848, -0.040203582495450974, -0.012902580201625824, -0.03985077142715454, -0.0010621924884617329, -0.12116454541683197, -0.11498109996318817, 0.12519599497318268, -0.10413879156112671, -0.04112960025668144, 0.016199707984924316, -0.12472891807556152, 0.05382879078388214, -0.13208404183387756, -0.07242804020643234, -0.16136164963245392, 0.05089215189218521, 0.09766899049282074, -0.0293497983366251, -0.08129431307315826, 0.11971411854028702, 0.09612410515546799, 0.08389215916395187, 0.11876097321510315, -0.1211104542016983, -0.10601107031106949, -0.04882213473320007, -0.03049387037754059, 0.001024388475343585, -0.009653308428823948], [-0.09904675930738449, -0.12002776563167572, -0.19278398156166077, -0.10456625372171402, 0.028360972180962563, 0.06715270131826401, -0.206565260887146, 0.09027452021837234, -0.005498749203979969, 0.044568512588739395, 0.2027537077665329, -0.010243122465908527, -0.16306661069393158, 0.009071864187717438, -0.11446896195411682, -0.10171165317296982, -0.0474897176027298, -0.094716377556324, -0.06687993556261063, -0.14979611337184906, -0.025462491437792778, -0.11791688203811646, -0.07635669410228729, -0.013219129294157028, 0.03244295343756676, 0.007928047329187393, -0.03335526958107948, 0.01758725196123123, -0.020959077402949333, 0.14036647975444794, -0.04869808629155159, 0.028096908703446388, 0.2039516270160675, -0.0024630827829241753, 0.10500910133123398, 0.12701740860939026, 0.1740468144416809, 0.01039127353578806, 0.003768274560570717, 0.1538551300764084], [0.1843038648366928, -0.005249419249594212, -0.039449602365493774, 0.12232476472854614, -0.03396548330783844, 0.008366856724023819, 0.10686537623405457, 0.13384874165058136, 0.08369159698486328, 0.051526155322790146, 0.13166485726833344, 0.06643503904342651, -0.021465294063091278, 0.21155773103237152, 0.012736601755023003, -0.040319886058568954, -0.07919707894325256, -0.001616255845874548, 0.03557013347744942, -0.09289800375699997, 0.01843388006091118, -0.061044733971357346, -0.05918462201952934, -0.04426250979304314, -0.02951635606586933, -0.05599134787917137, -0.03797248378396034, 0.004639044404029846, -0.18284407258033752, 0.14793379604816437, 0.11995560675859451, 0.1092415452003479, 0.10964929312467575, 0.03011160157620907, -0.06520555913448334, 0.14504395425319672, -0.017427735030651093, 0.0574461854994297, -0.006214121822267771, -0.0034237669315189123], [-0.2684671878814697, -0.13492466509342194, -0.1068531721830368, 0.003911576699465513, -0.002613305812701583, 0.07634603977203369, -0.14514361321926117, 0.2518656551837921, -0.04547745734453201, -0.0019382722675800323, -0.025858229026198387, -0.03351827710866928, 0.015375832095742226, -0.035845428705215454, 0.296942800283432, 0.038481205701828, 0.006376936100423336, 0.16520553827285767, -0.10091754049062729, 0.07261983305215836, 0.0007823891937732697, 0.04329020157456398, 0.17200824618339539, -0.17375102639198303, -0.09548742324113846, 0.015124364756047726, -0.010354257188737392, 0.00399370351806283, -0.037995219230651855, -0.012277590110898018, 0.009877868928015232, -0.12882034480571747, -0.0291413813829422, -0.11629539728164673, 0.03589572384953499, 0.06571447104215622, -0.03240285813808441, 0.00034767494071274996, -0.04838411882519722, 0.024051789194345474], [0.04587339609861374, 0.04678744077682495, 0.036795247346162796, -0.015956485643982887, -0.020762713626027107, 0.11324431002140045, 0.2524644136428833, -0.06554926186800003, 0.0982256755232811, 0.2142188400030136, 0.04288610443472862, 0.1352497637271881, -0.18596462905406952, -0.25556692481040955, -0.0034811508376151323, -0.1726411134004593, -0.06900465488433838, -0.0057723065838217735, -0.01619502529501915, -0.062412992119789124, -0.06899561733007431, 0.06431429833173752, -0.0023298515006899834, -0.05648138001561165, 0.03198336809873581, -0.014954839833080769, -0.00673667062073946, -0.13766923546791077, 0.09187644720077515, -0.0018123829504474998, -0.06273303180932999, 0.10352543741464615, -0.12848684191703796, 0.12756454944610596, 0.22926150262355804, -0.09712788462638855, 0.04225119203329086, -0.0642092227935791, 0.020140979439020157, 0.0134618254378438], [0.11204918473958969, -0.09136782586574554, 0.031170811504125595, 0.05084369331598282, 0.010659761726856232, -0.0502418652176857, 0.19262684881687164, -0.06379549950361252, 0.011758934706449509, -0.050710611045360565, -0.006298129912465811, 0.003786821849644184, 0.031211871653795242, 0.15531869232654572, -0.016385024413466454, 0.005269268527626991, 0.09031914919614792, 0.013480075635015965, -0.17227934300899506, 0.08513829857110977, -0.09914717078208923, -0.0855121910572052, 0.15461790561676025, -0.07224589586257935, 0.004655756521970034, -0.1719425916671753, 0.07826109230518341, 0.07521536201238632, 0.007729560136795044, 0.0926235169172287, 0.019148526713252068, 0.07624794542789459, 0.07154162973165512, 0.0819665864109993, 0.03812810406088829, -0.10155469179153442, -0.05843444913625717, -0.0005011318135075271, 0.04829925298690796, -0.0849328488111496], [0.0182659849524498, -0.125172421336174, -0.1070263460278511, -0.030889932066202164, -0.053355664014816284, 0.11312048882246017, 0.1623689830303192, -0.08089286088943481, -0.07076086848974228, 0.06186641752719879, -0.08428299427032471, 0.1333273947238922, 0.06161390244960785, -0.1018752008676529, -0.13580253720283508, 0.02862195111811161, -0.08459052443504333, 0.0016110081924125552, 0.022372225299477577, -0.09264560788869858, -0.0829082727432251, 0.04790591076016426, 0.020290108397603035, 0.09390533715486526, 0.009702027775347233, -0.2212887406349182, -0.002619020873680711, 0.14023008942604065, 0.11842340975999832, -0.012556364759802818, 0.04070436954498291, -0.17489725351333618, 0.06012316420674324, -0.058040499687194824, 0.14782169461250305, 0.030086282640695572, -0.059764314442873, 0.08458894491195679, 0.04212747886776924, -0.0013440182665362954], [-0.35890939831733704, 0.17194318771362305, 0.04909626021981239, 0.06041862070560455, 0.07177432626485825, -0.003895970992743969, -0.3710459768772125, 0.10196519643068314, -0.04030577465891838, 0.006240255665034056, -0.032864682376384735, 0.10874117910861969, 0.017740774899721146, 0.2813720703125, -0.09720751643180847, -0.1337100714445114, -0.1410011202096939, 0.024067752063274384, -0.19014348089694977, 0.0006203752709552646, -0.07669449597597122, -0.0019197836518287659, 0.03681003302335739, -0.030212724581360817, 0.044503189623355865, 0.11272405087947845, 0.005658410489559174, 0.048738520592451096, 0.11902409046888351, 0.012436388991773129, 0.09792984277009964, 0.11731992661952972, 0.18528562784194946, 0.0015720748342573643, 0.06319434940814972, -0.11690589785575867, 0.04327903315424919, 0.07708073407411575, 0.16565831005573273, 0.006224570330232382], [0.07281649112701416, -0.00658072205260396, -0.22800160944461823, -0.08009076118469238, 0.10935261845588684, 0.01954224333167076, 0.31231799721717834, 0.14265941083431244, -0.050045739859342575, -0.05969015508890152, -0.08131387829780579, -0.10688742995262146, 0.06091348081827164, 0.09830594807863235, -0.06682881712913513, 0.07839374244213104, 0.061847928911447525, 0.00217018136754632, 0.07017384469509125, 0.015704741701483727, 0.053397368639707565, -0.1284179836511612, -0.005074327811598778, 0.06768768280744553, 0.04080531373620033, 0.15197943150997162, 0.044509489089250565, 0.18920265138149261, 0.011501737870275974, -0.18535245954990387, 0.036652468144893646, -0.12942928075790405, -0.03232249617576599, 0.09797366708517075, -0.026650315150618553, 0.16867980360984802, 0.06862014532089233, 0.14015327394008636, 0.04487091675400734, 0.0166940875351429], [-0.007474255748093128, 0.08541429787874222, 0.056764211505651474, 0.050866127014160156, 0.014709406532347202, 0.02718236669898033, 0.2945866286754608, 0.061245840042829514, -0.18524599075317383, -0.05042944476008415, 0.16016870737075806, 0.1601535975933075, 0.15649181604385376, 0.06121942400932312, 0.01311435829848051, 0.02289697714149952, 0.06578335165977478, 0.05881941691040993, 0.08310440182685852, -0.042863767594099045, -0.06095368415117264, -0.09821423888206482, 0.011185684241354465, -0.02117372862994671, 0.054641060531139374, 0.17762096226215363, -0.02831859700381756, -0.03634035959839821, -0.11820753663778305, 0.05134321749210358, -0.10106455534696579, -0.04050832241773605, -0.03862142190337181, -0.05984466150403023, 0.18992768228054047, -0.07840542495250702, 0.11454275995492935, -0.24681560695171356, 0.0018315810011699796, -0.09962411224842072], [0.02401554398238659, 0.0530112124979496, -0.07450935244560242, 0.024217141792178154, -0.0669054239988327, 0.08744963258504868, 0.185688316822052, -0.12447318434715271, -0.056701626628637314, 0.05130841210484505, -0.125099316239357, 0.08595496416091919, 0.05753964185714722, -0.027114659547805786, -0.05538845807313919, -0.05342128872871399, 0.01465902104973793, 0.021831408143043518, -0.050614193081855774, 0.04391104727983475, 0.03786064311861992, -0.18825720250606537, -0.09279589354991913, 0.07587052881717682, -0.032786354422569275, -0.0059590148739516735, -0.10230065882205963, 0.037810228765010834, 0.05318049341440201, 0.07500903308391571, -0.10970106720924377, 0.09993782639503479, -0.006906190421432257, -0.027604050934314728, -0.023462770506739616, 0.07711765915155411, 0.05059242993593216, 0.04453016072511673, -0.11050277948379517, 0.03317657485604286], [-0.054366204887628555, -0.18065012991428375, 0.01050553284585476, -0.1747180074453354, -0.07874828577041626, -0.06017935276031494, 0.13602374494075775, -0.017067521810531616, 0.056493766605854034, -0.1862739622592926, -0.07483737915754318, -0.024707838892936707, 0.05425308272242546, 0.024405160918831825, -0.2730419635772705, -0.021654725074768066, -0.07911983877420425, 0.007103395648300648, 0.06089022383093834, 0.10187924653291702, 0.055499739944934845, -0.06575904786586761, 0.037054769694805145, -0.11555981636047363, -0.01589537039399147, -0.13252373039722443, 0.01949959248304367, -0.13982848823070526, 0.09652402251958847, -0.017555758357048035, 0.08204219490289688, -0.04221730679273605, 0.06352092325687408, 0.0449679009616375, 0.0519302599132061, 0.13815154135227203, -0.046148065477609634, -0.10782624036073685, 0.090477354824543, 0.014333276078104973], [0.13496464490890503, -0.12336946278810501, 0.07492611557245255, -0.02779300883412361, -0.11166755110025406, -0.03003552556037903, 0.24648648500442505, -0.08039434999227524, -0.10829298198223114, 0.026201725006103516, -0.05261607468128204, 0.1007566899061203, -0.05923275649547577, -0.005355193745344877, -0.0323299765586853, -0.14462853968143463, 0.10005033016204834, -0.02193235233426094, 0.17181296646595, 0.08287300169467926, -0.09049227833747864, 0.11260579526424408, -0.10732551664113998, -0.035192400217056274, 0.06708228588104248, 0.009656334295868874, -0.10886973142623901, -0.05876431241631508, 0.08729390054941177, -0.06595552712678909, 0.14438821375370026, -0.018532412126660347, 0.05644097179174423, -0.08354870975017548, 0.016293160617351532, -0.12892048060894012, 0.011570705100893974, -0.057525377720594406, 0.05120934545993805, 0.11859948188066483], [0.1439727395772934, 0.03590911626815796, -0.013001617975533009, -0.1070498377084732, 0.19987860321998596, -0.1290130615234375, 0.4361211061477661, -0.1597350686788559, -0.09191615134477615, 0.019689109176397324, 0.04021472483873367, -0.06102709844708443, -0.051260143518447876, -0.022472573444247246, -0.06009244546294212, 0.05944007635116577, 0.2282828688621521, 0.028835760429501534, -0.0765794962644577, 0.029228411614894867, 0.051132287830114365, 0.10992531478404999, 0.27597904205322266, -0.012282881885766983, -0.011370205320417881, -0.09025156497955322, -0.07419906556606293, 0.018274812027812004, 0.1244368627667427, 0.016148019582033157, 0.09605300426483154, -0.12239272147417068, 0.01921982690691948, 0.006734887138009071, -0.06607803702354431, -0.06332933902740479, 0.05359402671456337, -0.13993500173091888, -0.04485800862312317, -0.03390740603208542], [-0.06988774985074997, -0.14531315863132477, -0.06641451269388199, -0.015896892175078392, -0.12593181431293488, 0.1747494786977768, 0.10922014713287354, -0.18663913011550903, 0.03873036056756973, -0.06854758411645889, -0.054114941507577896, 0.09866119921207428, 0.007406614720821381, -0.07559161633253098, 0.05504423379898071, -0.08318209648132324, -0.1315777748823166, -0.026716506108641624, -0.00643629627302289, 0.04669753834605217, -0.15996336936950684, 0.01293546985834837, -0.11272962391376495, -0.04456428438425064, -0.14209255576133728, 0.14430926740169525, -0.06034199893474579, -0.02917439490556717, 0.008328501135110855, 0.006996561773121357, 0.009586917236447334, -0.024318568408489227, -0.014992010779678822, -0.005079437978565693, 0.13170425593852997, -0.15521541237831116, 0.06762193888425827, -0.0007119583897292614, -0.04835353419184685, -0.15689045190811157], [0.09168451279401779, 0.09189347922801971, -0.18541744351387024, -0.28047996759414673, -0.025148941203951836, 0.09833371639251709, 0.1293187141418457, -0.09715215116739273, 0.028555477038025856, 0.046498049050569534, 0.012522523291409016, -0.07322965562343597, -0.0194264966994524, 0.16304641962051392, -0.09460216760635376, -0.008147280663251877, 0.22103293240070343, 0.020266221836209297, -0.05566965416073799, 0.06623918563127518, -0.07589220255613327, -0.13430263102054596, -0.039572589099407196, 0.13879697024822235, -0.08276078850030899, 0.036218926310539246, -0.16549324989318848, 0.01318492740392685, 0.03736718371510506, -0.04295119643211365, 0.09977716207504272, 0.15983988344669342, -0.025365911424160004, -0.02729182504117489, -0.04390693083405495, -0.13573437929153442, 0.07088588923215866, -0.003999385517090559, 0.0534648559987545, -0.03835196793079376], [-0.16568000614643097, -0.03901999816298485, 0.1120864599943161, 0.02400410734117031, -0.004504152573645115, -0.04880345240235329, -0.012197690084576607, 0.20752550661563873, 0.03668966144323349, 0.021683288738131523, 0.07641401141881943, -0.18188722431659698, -0.00815536081790924, -0.16425968706607819, 0.120430588722229, -0.13989494740962982, 0.024383485317230225, 0.11702632158994675, 0.10247448831796646, 0.014663665555417538, 0.0743493139743805, -0.23301520943641663, -0.016729937866330147, 0.04531480371952057, -0.06503922492265701, 0.03177550807595253, 0.014573702588677406, 0.06078098714351654, -0.07450501620769501, -0.0723516047000885, -0.004024731460958719, -0.12274547666311264, 0.07804542779922485, -0.006383184809237719, -0.03937813639640808, -0.12583611905574799, -0.07023629546165466, -0.017857447266578674, 0.17290544509887695, -0.05851411819458008], [-0.038730133324861526, -0.011381511576473713, 0.020447563380002975, 0.08031152933835983, 0.008703573606908321, 0.031134970486164093, 0.014831501990556717, 0.10101937502622604, 0.11430273950099945, -0.18039071559906006, -0.04994776472449303, -0.07741221785545349, -0.0441034659743309, -0.01055269967764616, 0.17061536014080048, 0.026375019922852516, -0.15727636218070984, -0.11659332364797592, 0.11577381938695908, 0.06757751852273941, -0.14735840260982513, -0.019481373950839043, 0.06822608411312103, -0.195280522108078, -0.006011481396853924, 0.10730802267789841, 0.17806893587112427, -0.032832514494657516, -0.08290213346481323, 0.09581834822893143, -0.13365289568901062, 0.03809105604887009, 0.10251174122095108, -0.06231224909424782, 0.09027361869812012, 0.04498683288693428, -0.2145058810710907, 0.07551278918981552, 0.1175704076886177, -0.023715751245617867], [0.10097747296094894, 0.11746837198734283, -0.011403816752135754, 0.13679476082324982, -0.05234348028898239, -0.02739689126610756, 0.08183906227350235, -0.04785288870334625, 0.004270798992365599, -0.1418197900056839, 0.11172590404748917, 0.057957954704761505, 0.005368547979742289, 0.03368208929896355, 0.11864209175109863, 0.07287126034498215, -0.14286893606185913, 0.06614585965871811, -0.08376959711313248, -0.1021508201956749, -0.057980116456747055, 0.008065284229815006, -0.01676902361214161, 0.0299966000020504, -0.05452597141265869, 0.14363843202590942, 0.008709832094609737, 0.1933097243309021, -0.13897524774074554, -0.005492560565471649, 0.010791721753776073, -0.15529537200927734, -0.058450184762477875, -0.04110115021467209, 0.013499877415597439, -0.034348685294389725, -0.09131694585084915, -0.036061789840459824, 0.11444751173257828, 0.05996610224246979], [-0.115280382335186, 0.028034089133143425, -0.011057091876864433, -0.025610031560063362, 0.0075773680582642555, -0.06805489212274551, 0.042832691222429276, -0.09508869796991348, -0.03666069358587265, -0.3103228509426117, -0.06354952603578568, -0.08626212179660797, 0.010839277878403664, -0.10847222805023193, 0.17187801003456116, -0.011608303524553776, 0.048771824687719345, -0.1610211580991745, -0.05200917646288872, 0.06811532378196716, 0.017761822789907455, -0.11321789771318436, 0.12138083577156067, 0.16804921627044678, 0.019512949511408806, 0.11904995888471603, 0.04576119780540466, -0.03508637845516205, -0.032025016844272614, -0.017250141128897667, -0.07299700379371643, 0.11553674191236496, 0.08325246721506119, 0.04907162860035896, -0.07320576906204224, -0.16024304926395416, -0.04451823979616165, 0.022427698597311974, -0.19992440938949585, 0.017902331426739693], [-0.10283549875020981, -0.06043071299791336, -0.14439600706100464, 0.017354417592287064, 0.003695493331179023, 0.08462189882993698, -0.17188186943531036, 0.16040393710136414, 0.07616038620471954, -0.18665114045143127, 0.04758767411112785, -0.23865748941898346, 0.007868160493671894, 0.0699366107583046, 0.05965279042720795, 0.0022018118761479855, 0.010104140266776085, 0.09044259786605835, 0.09252694249153137, -0.03974665701389313, -0.03319240361452103, 0.06532211601734161, -0.11028382182121277, -0.17499828338623047, 0.01536686159670353, 0.0126487510278821, -0.12092743068933487, 0.08084297925233841, -0.03312314301729202, 0.09049002081155777, -0.12121149897575378, 0.1816912740468979, 0.03673025593161583, 0.15354742109775543, -0.1918049454689026, -0.10561290383338928, -0.00954518560320139, 0.05327810347080231, 0.1579345017671585, 0.013132614083588123], [0.18883687257766724, 0.1655084788799286, 0.08849236369132996, 0.03645935654640198, -0.01731063798069954, -0.032860592007637024, -0.12011434882879257, 0.023690344765782356, 0.0711144283413887, -0.03615556284785271, 0.042349886149168015, -0.020257366821169853, -0.1140018031001091, 0.042308367788791656, 0.11966907232999802, 0.059405483305454254, -0.12670981884002686, -0.13334591686725616, 0.010449985042214394, -0.043455418199300766, -0.09172370284795761, -0.06973949074745178, 0.014971865341067314, -0.0020017772912979126, -0.06315559148788452, -0.07034999132156372, -0.10929565876722336, -0.018501507118344307, -0.08288858085870743, 0.00177493947558105, 0.06550686806440353, -0.15525943040847778, -0.08880890905857086, 0.06397203356027603, 0.0981992557644844, 0.09286201745271683, 0.012856105342507362, -0.01926041953265667, 0.03198057413101196, 0.00879181269556284], [-0.16450007259845734, -0.1536625176668167, -0.0795929804444313, -0.02082572877407074, -0.041304752230644226, -0.0013932950096204877, 0.10667657852172852, -0.06836399435997009, 0.009701831266283989, 0.021546099334955215, 0.09236691892147064, -0.021341029554605484, 0.02525610849261284, -0.038883745670318604, -0.18461795151233673, -0.0021399313118308783, 0.054200269281864166, -0.037846341729164124, 0.13239018619060516, -0.09186550229787827, 0.017664289101958275, -0.018564384430646896, -0.049283258616924286, 0.17064455151557922, 0.016308801248669624, -0.02864883281290531, 0.09431915730237961, -0.11561388522386551, -0.03330404683947563, -0.06526686251163483, -0.08435804396867752, 0.06322650611400604, 0.14416265487670898, 0.0018387254094704986, -0.1649327576160431, -0.19505542516708374, 0.04235842078924179, 0.1034061461687088, 0.10020867735147476, 0.01087447814643383], [-0.10029773414134979, -0.018061013892292976, 0.030744707211852074, -0.1278819888830185, 0.010030494071543217, -0.03819894418120384, 0.2786223590373993, -0.19009102880954742, -0.012929313816130161, -0.03306147828698158, 0.21107831597328186, -0.0026510837487876415, -0.18061457574367523, 0.04048798233270645, -0.26908060908317566, 0.11961496621370316, 0.0853019431233406, 0.023049334064126015, -0.04174172878265381, -0.09006768465042114, -0.07521096616983414, 0.012453686445951462, -0.007504986599087715, -0.052264533936977386, -0.01262680534273386, 0.030401242896914482, -0.15337900817394257, -0.02696857787668705, -0.08509977161884308, -0.1600620001554489, -0.11679713428020477, 0.0043859840370714664, -0.10337482392787933, -0.0019368965877220035, -0.11164869368076324, -0.07037539780139923, -0.18686264753341675, -0.05097365379333496, 0.08884090185165405, -0.04944787919521332], [-0.24541383981704712, -0.027059661224484444, -0.15054264664649963, -0.056868087500333786, -0.15138019621372223, -0.04058564454317093, -0.152779683470726, 0.13628213107585907, 0.1618148684501648, -0.18841780722141266, 0.02509484626352787, -0.1278495490550995, -0.0011751068523153663, -0.06710708886384964, 0.09228749573230743, -0.07292149215936661, -0.1085720881819725, -0.08097747713327408, 0.04707043990492821, -0.04330333694815636, 0.015169735997915268, -0.031041219830513, -0.006727275904268026, 0.04018723964691162, -0.0291550662368536, -0.06554515659809113, -0.07824835926294327, 0.06420624256134033, 0.13568904995918274, -0.10753138363361359, 0.1416550874710083, -0.0075882356613874435, 0.1600845754146576, -0.007456428837031126, -0.09810177981853485, 0.021333012729883194, -0.14225444197654724, -0.05923398211598396, -0.01971789076924324, 0.09605935961008072], [-0.041664816439151764, 0.06196977198123932, 0.136678546667099, -0.04378051310777664, 0.05755447968840599, -0.15104401111602783, 0.25419753789901733, 0.0634775310754776, -0.03318171203136444, 0.0646122619509697, 0.049850162118673325, 0.08656343817710876, -0.04373332858085632, 0.0685952827334404, -0.06357443332672119, -0.02924252487719059, -0.10129021853208542, -0.012846389785408974, -0.0844736322760582, 0.008889774791896343, 0.044769562780857086, -0.07716391235589981, 0.012029621750116348, 0.1355888992547989, -0.04555502533912659, 0.11668451875448227, 0.153671532869339, 0.09764519333839417, -0.04770246148109436, 0.06592677533626556, 0.09054993093013763, 0.034140754491090775, -0.058836471289396286, -0.029245834797620773, 0.06906504184007645, 0.14186182618141174, -0.12476925551891327, 0.00975108053535223, 0.018023189157247543, -0.00339021859690547], [0.06289026886224747, -0.0008286014199256897, -0.012592432089149952, 0.0241274181753397, -0.08197921514511108, -0.034139830619096756, -0.3259386122226715, 0.04564465954899788, -0.10014563053846359, 0.047378767281770706, 0.07819194346666336, -0.050482649356126785, -0.08103025704622269, -0.08924978226423264, 0.3319798707962036, 0.008085363544523716, -0.12650750577449799, 0.014140701852738857, 0.003451103810220957, 0.037163857370615005, -0.04767065495252609, 0.10968167334794998, 0.04729276895523071, -0.013546355068683624, -0.06657356768846512, 0.04223974421620369, -0.06534598767757416, -0.046697501093149185, 0.12944644689559937, 0.13151466846466064, -0.14703167974948883, 0.011714449152350426, -0.0404905267059803, 0.007424539886415005, -0.09879905730485916, -0.027087152004241943, 0.01406810898333788, 0.0632745549082756, 0.03036719188094139, -0.02306455746293068], [-0.024142995476722717, 0.004401815123856068, -0.07055023312568665, 0.08339747041463852, -0.04895460978150368, -0.07511670887470245, -0.15934254229068756, -0.1945509910583496, 0.03515646979212761, 0.0795949175953865, 0.0005364413373172283, -0.04416080191731453, 0.00966308731585741, -0.003547228407114744, -0.10577242076396942, 0.020493166521191597, -0.03884528577327728, 0.04115353524684906, -0.026151610538363457, -0.0738600566983223, -0.05468345806002617, -0.08732113242149353, 0.02980083040893078, -0.04449993744492531, -0.05733681470155716, -0.1014823317527771, 0.10590610653162003, -0.023370692506432533, 0.011751974001526833, -0.04992508515715599, 0.09062356501817703, -0.07866455614566803, 0.02879299223423004, -0.02693973481655121, 0.14085979759693146, -0.019453302025794983, -0.08673860132694244, -0.0900060161948204, -0.13832539319992065, -0.04098333418369293], [-0.17727063596248627, 0.03883574903011322, 0.028742071241140366, -0.022136490792036057, -0.06288797408342361, 0.0389697328209877, -0.3068685829639435, 0.011949826031923294, -0.017627684399485588, 0.04662245884537697, -0.054621901363134384, -0.12241195142269135, 0.02767096646130085, 0.07114718109369278, 0.12475595623254776, 0.001922959228977561, -0.22333639860153198, 0.04973536357283592, -0.17643386125564575, -0.033222999423742294, 0.059422947466373444, -0.023914579302072525, 0.14551497995853424, -0.0026345797814428806, -0.004577821586281061, -0.10710050165653229, 0.11164158582687378, 0.1680365353822708, 0.010076775215566158, 0.014966631308197975, -0.009794607758522034, 0.07056715339422226, -0.06432317942380905, 0.12305312603712082, -0.04448233172297478, 0.05171726644039154, -0.01986151933670044, -0.0913361981511116, 0.084351547062397, -0.03799588233232498], [-0.0451628603041172, 0.10301340371370316, -0.08727135509252548, -0.0014838959323242307, 0.10671816021203995, -0.15344175696372986, 0.03950926661491394, 0.10340573638677597, -0.013093018904328346, 0.08132504671812057, 0.13894957304000854, -0.11420737951993942, -0.10730045288801193, -0.051312632858753204, 0.06393402069807053, -0.03722451627254486, 0.08037668466567993, -0.015893660485744476, -0.03192034363746643, -0.11497466266155243, -0.02139849215745926, 0.1481439769268036, -0.09613350033760071, 0.09495215862989426, -0.06626039743423462, 0.04497659206390381, -0.11002055555582047, -0.05631641671061516, 0.04414139315485954, 0.2019941806793213, 0.005227223504334688, 0.0509687140583992, -0.03384324163198471, 0.0032120547257363796, 0.10435377061367035, 0.17943702638149261, -0.09669294208288193, -0.05007420480251312, -0.01913316920399666, 0.14305634796619415], [-0.02698044292628765, -0.11621163785457611, -0.030785348266363144, -0.26462414860725403, 0.00036817218642681837, 0.03416445851325989, -0.19830015301704407, 0.195229634642601, -0.16571062803268433, -0.10625891387462616, 0.021393679082393646, 0.11258970946073532, 0.015579288825392723, -0.012885073199868202, 0.14311005175113678, -0.00895964540541172, 0.04026474431157112, -0.009906335733830929, -0.07101229578256607, 0.05111106485128403, -0.08852960914373398, 0.07176858186721802, -0.11614145338535309, 0.0018385157454758883, -0.18281133472919464, 0.012859801761806011, 0.037627194076776505, -0.07407867163419724, 0.050635382533073425, -0.01192798838019371, 0.005170920398086309, 0.16107533872127533, -0.15775057673454285, 0.019786396995186806, 0.03430590778589249, -0.028908176347613335, 0.18648475408554077, -0.03195076435804367, 0.23423387110233307, 0.004777985624969006], [0.10162947326898575, 0.0020050450693815947, 0.026960795745253563, 0.1047646701335907, 0.05723842978477478, 0.0444360226392746, -0.1305793672800064, 0.10198798030614853, -0.047756377607584, -0.07840840518474579, 0.0359138622879982, 0.019269432872533798, 0.05023867264389992, 0.08856093883514404, 0.16012023389339447, -0.04351823404431343, -0.001984227215871215, -0.11769746243953705, 0.05469178780913353, 0.10655304044485092, 0.10451280325651169, -0.10778948664665222, 0.052277326583862305, -0.11749980598688126, -0.1221238449215889, -0.05911136046051979, -0.07539093494415283, -0.010754484683275223, 0.12104477733373642, -0.19601963460445404, 0.03952167183160782, 0.08474338054656982, -0.08436843007802963, 0.016459165140986443, -0.06886137276887894, -0.10265105962753296, -0.172409787774086, -0.0410902239382267, -0.15914691984653473, 0.14632143080234528], [0.04297007620334625, 0.07783698290586472, -0.047066912055015564, 0.08038695156574249, 0.11883288621902466, -0.022957250475883484, 0.02439272217452526, 0.05521005019545555, -0.025338057428598404, 0.14485380053520203, -0.07644817233085632, 0.1751156449317932, 0.07224686443805695, 0.039342038333415985, -0.12057826668024063, 0.0631074458360672, -0.025228509679436684, 0.19853821396827698, 0.026001790538430214, -0.05125165358185768, 0.046732258051633835, -0.059605810791254044, -0.0344727449119091, 0.17996874451637268, -0.049604132771492004, 0.08071653544902802, 0.128177672624588, -0.15080097317695618, 0.11842707544565201, 0.10965850204229355, 0.14112375676631927, -0.058323513716459274, -0.0966230109333992, -0.11944346874952316, -0.06212512403726578, -0.12243466079235077, 0.1430748701095581, 0.06959749013185501, 0.07517053931951523, 0.028611384332180023], [-0.14515098929405212, 0.13001444935798645, -0.050360385328531265, 0.12030863016843796, -0.0743204802274704, -0.1388489454984665, -0.37607672810554504, -0.03182845562696457, -0.028821561485528946, -0.001997379120439291, -0.08655297011137009, -0.060167908668518066, -0.06182505190372467, -0.029467616230249405, -0.07996856421232224, -0.07537500560283661, -0.17305327951908112, -0.07428242266178131, 0.05904967337846756, -0.054777003824710846, 0.06286390125751495, 0.04177991673350334, 0.025117622688412666, 0.11095011234283447, 0.14498667418956757, 0.05176360532641411, -0.022174695506691933, 0.12524932622909546, -0.0874747782945633, -0.05214298516511917, 0.056203536689281464, -0.027119234204292297, -0.05925476923584938, -0.13063105940818787, -0.18569475412368774, -0.07799364626407623, -0.01676945388317108, 0.06668681651353836, -0.283362478017807, -0.010941450484097004], [0.03196310997009277, 0.1993737369775772, 0.016679905354976654, -0.11706183850765228, -0.0002195698325522244, -0.08698589354753494, 0.4006044566631317, 0.052113816142082214, 0.1905902475118637, 0.051456622779369354, 0.0505497045814991, -0.08929147571325302, -0.05552951991558075, -0.033897705376148224, -0.10942426323890686, -0.17688283324241638, -0.10764115303754807, 0.11120884865522385, 0.24725738167762756, 0.11517259478569031, -0.03679169714450836, -0.09743812680244446, -0.017110297456383705, 0.07946394383907318, 0.02559102512896061, -0.0710764154791832, -0.07079097628593445, 0.0378911979496479, -0.012107467278838158, 0.037409111857414246, -0.016399415209889412, -0.06839542835950851, 0.057468295097351074, -0.20179490745067596, -0.21021206676959991, 0.07731841504573822, -0.04767552763223648, -0.045225486159324646, 0.07850116491317749, -0.01853950321674347], [0.070979043841362, 0.25362148880958557, 0.09003795683383942, 0.09799662232398987, 0.08619491010904312, -0.02395494654774666, -0.20283669233322144, 0.13818028569221497, 0.0092760119587183, -0.10324956476688385, -0.04933350905776024, -0.0020205965265631676, -0.044934071600437164, -0.12781931459903717, -0.024830680340528488, 0.010675637982785702, 0.17118990421295166, -0.07878632098436356, 0.06528153270483017, -0.07251229137182236, 0.016542134806513786, 0.05743250250816345, -0.17063063383102417, 0.07025923579931259, -0.04035051167011261, 0.02186889760196209, 0.09001369029283524, 0.06275176256895065, -0.08135607838630676, -0.16910392045974731, -0.15081539750099182, 0.056870605796575546, -0.021425725892186165, -0.06778985261917114, 0.028744634240865707, -0.06836135685443878, -0.18281109631061554, -0.06331738829612732, -0.04834940284490585, 0.23418095707893372], [0.03423144295811653, 0.060257747769355774, -0.25801166892051697, 0.030809015035629272, -0.010679060593247414, -0.11090804636478424, -0.18558663129806519, -0.07385490089654922, 0.0009436077671125531, -0.028620051220059395, 0.20075909793376923, 0.02894180826842785, -0.0936918780207634, -0.013264736160635948, 0.06528909504413605, 0.1334313005208969, -0.09037312865257263, 0.01667362079024315, 0.16083909571170807, 0.08254053443670273, 0.040185000747442245, 0.03130899742245674, -0.011370866559445858, -0.05592797324061394, -0.08610641211271286, -0.031186727806925774, -0.07990015298128128, 0.07866057753562927, -0.01824694685637951, 0.07923543453216553, -0.04720333218574524, -0.005410858429968357, 0.0042421515099704266, -0.026524892076849937, 0.20740196108818054, -0.08523193746805191, 0.08083314448595047, -0.06870550662279129, -0.07366638630628586, 0.1225941926240921], [-0.056869786232709885, 0.150255486369133, 0.03016953356564045, 0.1806378960609436, -0.12603142857551575, -0.10983157902956009, -0.16607369482517242, 0.08312516659498215, 0.07642222940921783, -0.13235986232757568, 0.10884226858615875, 0.039042748510837555, 0.003868649946525693, 0.007306123152375221, 0.10339795798063278, -0.16451847553253174, -0.12485557794570923, 0.0934739038348198, 0.007334250025451183, -0.003735132748261094, -0.10051994025707245, -0.0960068628191948, 0.1497887223958969, 0.20649279654026031, 0.21020379662513733, -0.22873304784297943, 0.14482486248016357, 0.02736467309296131, 0.024586429819464684, 0.05683804675936699, 0.05647733435034752, -0.017893511801958084, 0.030819974839687347, -0.10000928491353989, -0.0034040671307593584, 0.039149705320596695, -0.10059048235416412, 0.02330271527171135, 0.09839040040969849, 0.03439180180430412], [-0.054325517266988754, 0.13080614805221558, -0.1380913108587265, 0.01731419935822487, -0.12909464538097382, -0.0747431293129921, -0.2120451033115387, 0.011225669644773006, -0.2149696946144104, -0.012132477946579456, 0.006708239205181599, -0.005044355057179928, 0.010471033863723278, 0.00403228122740984, 0.26899272203445435, -0.14131483435630798, -0.0095012616366148, -0.00549731682986021, 0.11969717592000961, 0.10596563667058945, -0.04910406842827797, 0.006045091897249222, 0.07390491664409637, -0.05113723501563072, 0.006536522880196571, -0.15723095834255219, -0.14787790179252625, -0.03019106201827526, -0.007176833692938089, -0.0737004354596138, -0.023670990020036697, -0.027135392650961876, 0.08717849105596542, -0.18809014558792114, 0.04272373393177986, -0.06126963347196579, -0.1394536942243576, -0.017859643325209618, 0.23006249964237213, -0.039573512971401215], [0.13380329310894012, 0.20455268025398254, -0.08669425547122955, -0.026752596721053123, -0.07005378603935242, 0.06264171004295349, -0.22924555838108063, 0.04702809453010559, 0.08392705768346786, -0.008230524137616158, -0.018399124965071678, -0.005701241083443165, -0.04575839638710022, -0.039041005074977875, 0.1775052547454834, -0.11469636112451553, -0.03562261909246445, 0.06771070510149002, 0.0856098160147667, 0.014277540147304535, 0.022478226572275162, -0.02193373255431652, 0.10473726689815521, 0.062213316559791565, -0.11477447301149368, -0.004299194552004337, 0.17875590920448303, 0.10140737891197205, -0.07611086964607239, 0.03818271681666374, -0.045506931841373444, 0.1263422816991806, 0.0020110420882701874, 0.03619849309325218, -0.07904095947742462, 0.11219435930252075, 0.09532363712787628, -0.029038360342383385, -0.1707170158624649, -0.05265350267291069], [0.06118178740143776, 0.10939908772706985, 0.0708705335855484, -0.14653395116329193, 0.07154641300439835, 0.08330022543668747, 0.11245019733905792, 0.006330137141048908, -0.08746963739395142, 0.10083208233118057, 0.09257293492555618, 0.12464965879917145, 0.02918502502143383, -0.04929365962743759, -0.09232238680124283, 0.038858987390995026, -0.2493700534105301, 0.003596089081838727, 0.034743547439575195, 0.0727095752954483, 0.028821561485528946, -0.03182924538850784, -0.04916362836956978, -0.017116684466600418, 0.11834666132926941, 0.016692792996764183, -0.02916957065463066, -0.04606875032186508, -0.1265036016702652, 0.040224965661764145, -0.10676146298646927, -0.05121252313256264, -0.029329169541597366, -0.0828632339835167, -0.03847726806998253, 0.04461993649601936, -0.022296242415905, 0.16944298148155212, 0.00690194359049201, 0.0032795947045087814], [-0.03139204531908035, 0.060924727469682693, 0.031241947785019875, -0.07804255932569504, -0.09826301038265228, -0.09289026260375977, -0.32065412402153015, -0.028669992461800575, -0.12279840558767319, 0.18949788808822632, 0.05525916814804077, 0.03549189120531082, 0.04264071583747864, 0.09101082384586334, -0.10631640255451202, 0.13183845579624176, -0.04874040186405182, 0.017585713416337967, 0.10102438181638718, 0.09238527715206146, 0.0335303358733654, 0.15089809894561768, 0.14487679302692413, 0.028423652052879333, -0.06511123478412628, -0.09053828567266464, -0.020266665145754814, 0.002973939524963498, 0.01911189965903759, 0.07393758744001389, -0.16815291345119476, 0.12400207668542862, 0.20433101058006287, -0.029343098402023315, -0.022144516929984093, -0.1701294332742691, 0.11860805004835129, -0.09984781593084335, -0.11739256978034973, 0.06529877334833145], [0.015853209421038628, 0.060899075120687485, -0.08566894382238388, 0.019019709900021553, 0.09787597507238388, 0.11171698570251465, -0.2595685124397278, -0.0008397894562222064, 0.0007295317482203245, -0.00038718990981578827, 0.09486531466245651, -0.08672913163900375, 0.05018676817417145, -0.06051066517829895, 0.06277590245008469, -0.1091073751449585, -0.046961475163698196, 0.0425061397254467, -0.07897791266441345, -0.056055959314107895, 0.0383630096912384, 0.05577866733074188, -0.050313837826251984, 0.030465442687273026, 0.018568653613328934, 0.19682833552360535, -0.12778832018375397, 0.027378423139452934, 0.011529866605997086, -0.03394094109535217, -0.009562724269926548, 0.04826824367046356, 0.0028996935579925776, 0.028605086728930473, -0.05916116014122963, -0.02538159303367138, -0.16863232851028442, -0.04420775920152664, -0.08653360605239868, 0.04188336804509163], [0.04771634191274643, -0.047817934304475784, -0.02575765736401081, 0.07347908616065979, 0.03368759900331497, -0.15057030320167542, -0.2746221423149109, 0.018839633092284203, -0.09787490963935852, -0.005987626034766436, -0.046967100352048874, -0.0691315084695816, 0.05636867508292198, 0.06522199511528015, 0.0316290445625782, 0.07068342715501785, -0.036222904920578, -0.12203127890825272, 0.13572509586811066, 0.09203560650348663, 0.049009762704372406, 0.010518249124288559, -0.04350182041525841, -0.11769165098667145, 0.07896989583969116, 0.05886157229542732, -0.05839274078607559, 0.029250791296362877, -0.03609633445739746, 0.04814985394477844, 0.06207655742764473, 0.057751018553972244, 0.018334422260522842, 0.09593906253576279, -0.05065618455410004, -0.14722710847854614, 0.03386484086513519, 0.044177427887916565, 0.11668412387371063, -0.03890150785446167], [0.19826582074165344, -0.012259366922080517, -0.05615563318133354, 0.00045005264109931886, -0.040365222841501236, 0.06828869134187698, -0.0017143010627478361, -0.3977929651737213, -0.050598934292793274, 0.038517359644174576, 0.10652416199445724, 0.18104766309261322, 0.03009359911084175, -0.045872654765844345, -0.0002677437150850892, -0.0018311457242816687, 0.08826138079166412, -0.09295186400413513, -0.015249677933752537, -0.15348394215106964, -0.029151789844036102, 2.6167923351749778e-05, 0.08759526908397675, 0.08162935823202133, -0.02494903653860092, -0.06115521863102913, 0.151304230093956, 0.013711214996874332, 0.11392737925052643, -0.02352616935968399, 0.022266017273068428, -0.11314219236373901, -0.13387922942638397, 0.09187303483486176, -0.05702371522784233, 0.05879123881459236, 0.20760008692741394, -0.10235651582479477, -0.02837974764406681, 0.12483943998813629], [-0.002211423125118017, 0.010592752136290073, 0.19290202856063843, -0.01934361457824707, 0.00016263677389360964, 0.037764064967632294, -0.24686577916145325, -0.08325918018817902, -0.15174780786037445, -0.13127398490905762, 0.13899707794189453, 0.14837482571601868, 0.018424861133098602, -0.009592960588634014, 0.1523691564798355, 0.12167016416788101, 0.031120173633098602, -0.08671160787343979, -0.01228625513613224, -0.0753200426697731, 0.09000102430582047, 0.1394762396812439, -0.05429058149456978, 0.09595736861228943, -0.011271500028669834, -0.06470613181591034, 0.0435478650033474, 0.016500435769557953, -0.1384604424238205, 0.13411900401115417, 0.1557566225528717, 0.017262037843465805, -0.008917990140616894, 0.007934991270303726, -0.15096157789230347, -0.021381158381700516, -0.022233305498957634, 0.024686051532626152, -0.10043338686227798, 0.03805912658572197], [0.031577277928590775, -0.02705226093530655, 0.03810472786426544, -0.03354327380657196, 0.2151251882314682, 0.002280117478221655, -0.10312985628843307, -0.09705665707588196, 0.07146202027797699, 0.035370685160160065, -0.0019054985605180264, 0.1754954755306244, 0.15969733893871307, -0.043264854699373245, 0.006496158428490162, -0.0859304815530777, -0.016207346692681313, 0.13945674896240234, -0.042371876537799835, 0.0020757915917783976, -0.004194789566099644, 0.056465402245521545, -0.15237957239151, 0.03044802136719227, -0.026909692212939262, -0.00223438604734838, -0.03384001925587654, 0.0682012289762497, -0.08756183087825775, -0.0027434753719717264, -0.04908496141433716, 0.09855113178491592, -0.013621577993035316, 0.1613883674144745, 0.03578649461269379, -0.008820106275379658, -0.11633837968111038, -0.02642301470041275, 0.11339367181062698, -0.1030631959438324], [-0.011067389510571957, -0.1705447882413864, 0.1349695324897766, 0.08539455384016037, -0.08128539472818375, -0.19850489497184753, -0.09292644262313843, 0.1183580532670021, 0.10332030802965164, -0.055006254464387894, -0.0312336478382349, 0.0871809720993042, 0.07968710362911224, -0.16130876541137695, 0.04476382955908775, 0.012041812762618065, 0.1022268608212471, 0.05512038245797157, -0.03151858225464821, -0.062378983944654465, 0.017135364934802055, 0.030695615336298943, -0.08376748114824295, -0.08456074446439743, 0.15833421051502228, 0.015621442347764969, -0.052271805703639984, 0.11827342957258224, 0.08032802492380142, 0.1878000795841217, 0.00796179473400116, 0.07804717123508453, 0.055853571742773056, 0.1541827768087387, 0.003351867664605379, 0.06186545267701149, -0.13281859457492828, 0.015301325358450413, -0.16897700726985931, 0.16604289412498474], [-0.04191391170024872, 0.03541004657745361, 0.11727505177259445, 0.11753061413764954, 0.025578206405043602, -0.15236498415470123, -0.11591686308383942, 0.17819823324680328, -0.00037817712291143835, 0.06752306967973709, 0.1315583437681198, 0.030932817608118057, 0.14498484134674072, -0.04883913695812225, 0.12540294229984283, 0.0439993180334568, 0.06120407208800316, 0.002624859567731619, 0.08175913244485855, -0.11479159444570541, -0.08550076186656952, 0.025761280208826065, 0.04555444046854973, -0.03155701607465744, -0.04097045958042145, 0.010946203954517841, -0.08660993725061417, -0.04771803319454193, 0.10311086475849152, -0.018138064071536064, 0.05368022248148918, -0.04129163920879364, -0.15422038733959198, -0.1584523767232895, 0.025889365002512932, -0.027363769710063934, -0.16221782565116882, 0.07076402008533478, -0.01274251937866211, -0.04529567062854767], [-0.08977694064378738, 0.07621689885854721, 0.07830484211444855, 0.045134037733078, -0.10638272762298584, -0.03280464559793472, 0.09832253307104111, -0.026366621255874634, -0.029202865436673164, -0.15991736948490143, 0.05063275247812271, -0.14030839502811432, -0.027401849627494812, -0.09977094829082489, -0.16731160879135132, -0.10810056328773499, -0.025797182694077492, -0.05302532762289047, -0.05569526553153992, 0.11193595081567764, -0.005866606719791889, -0.014955541118979454, 0.1122838705778122, -0.03263087198138237, 0.12136393785476685, 0.1046883761882782, -0.049431752413511276, 0.06800872087478638, 0.04381893575191498, 0.095331571996212, -0.11816207319498062, -0.01154615543782711, 0.004469140898436308, -0.012316688895225525, 0.020430637523531914, 0.02324609085917473, -0.18523642420768738, -0.07781223207712173, 0.09399015456438065, -0.10699868947267532], [0.08885712176561356, -0.03787103295326233, -0.018276341259479523, 0.04929966852068901, -0.06309697031974792, -0.18966184556484222, 0.1611728072166443, -0.02484590746462345, -0.19966143369674683, -0.10606630891561508, -0.018710989505052567, -0.03004232607781887, -0.015967071056365967, -0.055267274379730225, -0.22635968029499054, 0.09355118125677109, 0.13270913064479828, 0.07849932461977005, -0.1997426599264145, -0.13995155692100525, 0.10190083831548691, -0.07475969195365906, 0.02071768417954445, -0.07651010155677795, -0.006068056914955378, -0.011720634996891022, 0.022820616140961647, 0.021337492391467094, 0.05815063789486885, 0.1121334582567215, -0.014074712991714478, 0.10842479765415192, 0.07317440956830978, -0.12144829332828522, -0.14362187683582306, 0.0219841580837965, 0.08757465332746506, -0.10767940431833267, 0.07395147532224655, -0.03392580896615982], [-0.08533772826194763, -0.0026524215936660767, 0.030438901856541634, 0.06832221150398254, -0.03975380212068558, 0.07167903333902359, -0.02971755526959896, -0.09262537956237793, -0.07275936007499695, 0.024721190333366394, -0.0675392672419548, 0.0045890179462730885, 0.13997240364551544, -0.13106350600719452, 0.03449825569987297, -0.13421693444252014, -0.0038176486268639565, 0.017636476084589958, -0.00220549781806767, 0.10648396611213684, -0.08659385144710541, -0.10887119919061661, 0.10489729046821594, -0.030106665566563606, -0.16783882677555084, 0.08893406391143799, 0.07293429970741272, 0.023339591920375824, -0.17037740349769592, 0.026728706434369087, 0.023046713322401047, 0.06758928298950195, -0.017430784180760384, 0.20796124637126923, -0.049830883741378784, 0.13644841313362122, -0.029856806620955467, -0.037265513092279434, -0.2746020555496216, 0.17553187906742096], [-0.04584499076008797, 0.031759243458509445, 0.0033435989171266556, -0.05232296139001846, 0.09065079689025879, -0.08922482281923294, 0.23918016254901886, -0.12944355607032776, 0.1715913861989975, 0.10029175877571106, -0.08497664332389832, -0.042446069419384, -0.006216484121978283, -0.13247966766357422, 0.01730382815003395, 0.04847560450434685, 0.01763608679175377, 0.06236785277724266, -0.09173034131526947, -0.09542332589626312, 0.06708028167486191, 0.08363335579633713, 0.058526813983917236, 0.033248499035835266, -0.08402981609106064, -0.09491132944822311, -0.05828465521335602, 0.07392492145299911, -0.12247517704963684, -0.06749819964170456, -0.015670858323574066, 0.14173506200313568, 0.057571783661842346, -0.08502082526683807, 0.030552100390195847, 0.05242655426263809, 0.10552661865949631, 0.064519003033638, -0.017283888533711433, 0.007644434459507465], [-0.04767512157559395, 0.06796836107969284, 0.016307586804032326, 0.013617345131933689, -0.08053962886333466, 0.01531186979264021, 0.42485949397087097, 0.08324946463108063, -0.09562188386917114, 0.09421620517969131, 0.19298231601715088, 0.077452152967453, 0.027085741981863976, -0.0012557926820591092, -0.12194493412971497, 0.046589769423007965, 0.00335258268751204, -0.018933795392513275, -0.15983495116233826, 0.1533340960741043, 0.09218064695596695, 0.08016377687454224, 0.1762397736310959, -0.08657842874526978, 0.008820000104606152, -0.00383236282505095, -0.13023127615451813, -0.058250103145837784, -0.10014460980892181, -0.07547599077224731, 0.08363402634859085, -0.056226201355457306, 0.030723579227924347, 0.0004731181252282113, -0.033585987985134125, -0.11117947101593018, 0.04565681889653206, -0.07179770618677139, 0.07976081222295761, 0.1657678782939911], [-0.029213497415184975, 0.15778815746307373, -0.20753951370716095, -0.09261861443519592, 0.02566184289753437, 0.06137901172041893, -0.22817473113536835, 0.0842658132314682, -0.00279522268101573, -0.0016857667360454798, 0.08495274186134338, -0.1322219967842102, 0.057623133063316345, -0.07096821069717407, 0.20347078144550323, -0.024196408689022064, 0.115488201379776, 0.05867023766040802, 0.01927320286631584, 0.02536049671471119, 0.10997342318296432, -0.12486737966537476, 0.1093968078494072, 0.0571410246193409, 0.09841702878475189, -0.09071576595306396, 0.05069644749164581, -0.25130829215049744, 0.02632816880941391, 0.12423038482666016, 0.1814422458410263, -0.008190233260393143, -0.06320807337760925, 0.02181006409227848, 0.08251891285181046, -0.10996049642562866, 0.07469034940004349, -0.0378415510058403, -0.139342799782753, 0.1748272180557251], [-0.0005057375528849661, -0.07978979498147964, -0.02830558829009533, 0.16549673676490784, -0.014697016216814518, 0.02331061102449894, 0.30434975028038025, 0.1990620642900467, -0.07451508939266205, -0.04111956059932709, 0.0721965953707695, 0.11661864072084427, -0.04020650312304497, -0.09457475692033768, -0.055865686386823654, 0.25005748867988586, -0.05215644836425781, 0.07573813945055008, -0.027043281123042107, -0.012479121796786785, 0.005827669519931078, -0.012986353598535061, -0.014216363430023193, 0.03196344152092934, -0.060659244656562805, -0.17164072394371033, -0.006504749413579702, 0.08147051930427551, 0.05263371020555496, -0.039893217384815216, -0.16764038801193237, -0.1567811369895935, -0.13945512473583221, 0.12229058891534805, 0.05853340029716492, -0.2540469169616699, -0.004146054852753878, 0.09861484169960022, -0.05946534872055054, 0.09787221997976303], [-0.16509121656417847, 0.1464160978794098, -0.03472095727920532, -0.16731245815753937, 0.250160276889801, 0.1854088455438614, 0.21976865828037262, -0.033504825085401535, -0.016631215810775757, 0.0894724652171135, 0.08480222523212433, -0.0873139426112175, 0.08098041266202927, -0.09910420328378677, -0.1435619592666626, -0.055711157619953156, -0.01713411696255207, -0.187081441283226, 0.10072137415409088, 0.11744590103626251, -0.022999929264187813, -0.21021656692028046, -0.10253719240427017, 0.06033282354474068, 0.028519965708255768, -0.03933976590633392, 0.09456801414489746, -0.06355984508991241, 0.029649265110492706, -0.06502725929021835, -0.012941187247633934, -0.08188581466674805, -0.06118132174015045, 0.05390053242444992, 0.11139670759439468, 0.004641737323254347, 0.08578214049339294, -0.17225176095962524, 0.020634600892663002, 0.04513906314969063], [0.1784280389547348, 0.02337343618273735, 0.12182192504405975, -0.03237634897232056, -0.0037277971860021353, -0.08835350722074509, 0.1381576508283615, 0.21148724853992462, -0.04663879796862602, 0.0251791849732399, 0.10868392884731293, -0.10643456876277924, 0.07163036614656448, -0.027123747393488884, -0.23967425525188446, -0.04922168329358101, 0.06446971744298935, 0.08398418873548508, -0.005698238965123892, -0.0432802215218544, 0.009085380472242832, 0.033147264271974564, 0.09806235134601593, 0.052638355642557144, -0.14776766300201416, -0.08240152895450592, 0.01621616631746292, 0.03820495679974556, 0.0995950847864151, -0.08084391057491302, 0.2409897893667221, -0.018092351034283638, 0.0055531710386276245, 0.013055133633315563, 0.08583993464708328, -0.10834261029958725, 0.09517043828964233, -0.04615437239408493, -0.02144152671098709, 0.14248232543468475], [-0.05817681923508644, 0.11553914844989777, -0.20234182476997375, -0.00843283161520958, 0.006315646693110466, -0.04903555288910866, 0.010889516212046146, -0.1052551120519638, -0.0014864570694044232, 0.047460753470659256, -0.0533403642475605, 0.11721580475568771, -0.06257236003875732, -0.23498548567295074, 0.22115586698055267, 0.0008831814047880471, 0.06434246897697449, 0.0351264588534832, 0.12965281307697296, 0.09699206799268723, 0.04133860021829605, 0.14132608473300934, -0.015153132379055023, 0.1189131885766983, 0.08019164949655533, 0.06760632246732712, 0.24525001645088196, -0.04709027335047722, 0.04359273985028267, 0.008563120849430561, -0.09385237842798233, 0.14861026406288147, 0.1115608960390091, 0.03786850348114967, -0.16472555696964264, 0.08236386626958847, -0.1274876892566681, -0.03306759521365166, -0.052729055285453796, 0.09762834757566452], [0.016387443989515305, -0.11956076323986053, -0.1055302694439888, 0.022021586075425148, 0.06849471479654312, -0.126800537109375, 0.17299367487430573, -0.10667865723371506, -0.03761214762926102, -0.0325140617787838, -0.05566035956144333, 0.08973688632249832, -0.0894278958439827, -0.0005481976550072432, -0.17529632151126862, -0.007306972518563271, -0.17792771756649017, 0.0047788918018341064, 0.05692879483103752, 0.07391579449176788, 0.051380280405282974, -0.029669445008039474, -0.09982900321483612, -0.12401758134365082, -0.010931217111647129, -0.1401854306459427, 0.05561693757772446, 0.11282459646463394, 0.010853220708668232, -0.025968560948967934, 0.06362220644950867, -0.18714246153831482, 0.08639846742153168, -0.020668458193540573, -0.036547377705574036, 0.17205305397510529, 0.15396150946617126, 0.03304228186607361, -0.019357413053512573, -0.061150651425123215], [0.20264573395252228, -0.011745259165763855, -0.05365026742219925, 0.036077700555324554, 0.21465203166007996, 0.036726802587509155, 0.2003968358039856, -0.03283632546663284, 0.07244101911783218, -0.010808718390762806, -0.01177601981908083, 0.08879047632217407, -0.10275600105524063, -0.05016034096479416, -0.17603805661201477, 0.05166617035865784, -0.0241341944783926, -0.08156101405620575, -0.08219486474990845, -0.0028610622975975275, 0.17379213869571686, -0.0333012193441391, -0.008234558627009392, 0.18056967854499817, -0.14355935156345367, 0.009509140625596046, -0.09449289739131927, -0.06847567111253738, 0.15045031905174255, -0.027753034606575966, -0.004473838023841381, 0.1384720802307129, -0.03196778893470764, -0.13675710558891296, 0.010455766692757607, 0.009568114764988422, 0.07634890824556351, 0.07694210857152939, 0.07517021894454956, 0.1147472932934761], [-0.08265086263418198, 0.008489839732646942, 0.04470137879252434, -0.06146581470966339, 0.02574869617819786, 0.014979436062276363, 0.17890729010105133, 0.08405691385269165, 0.15720681846141815, -0.12282124161720276, -0.15497778356075287, 0.21105238795280457, 0.14623601734638214, -0.0529189370572567, -0.049466945230960846, -0.1403956562280655, -0.08841799944639206, 0.026882285252213478, -0.0361500047147274, 0.07210882753133774, -0.1027689278125763, 0.050240371376276016, -0.011317872442305088, 0.038487646728754044, -0.0933859720826149, 0.051026973873376846, -0.007817910052835941, -0.07591430097818375, -0.06534351408481598, -0.016035890206694603, -0.010723250918090343, 0.021394338458776474, -0.06688718497753143, 0.012586168013513088, 0.0031558109913021326, 0.10981275886297226, 0.006471126805990934, -0.12461497634649277, 0.11175897717475891, 0.02130863443017006], [-0.1016264483332634, -0.1650017648935318, 0.1319693773984909, -0.05001639947295189, 0.012999196536839008, -0.1289195567369461, 0.1745499074459076, -0.14116719365119934, 0.08183389902114868, -0.026738174259662628, -0.08821535110473633, -0.029436934739351273, 0.046479806303977966, -0.04408695921301842, -0.17368610203266144, 0.045534875243902206, 0.07758688181638718, -0.1312498301267624, -0.11209974437952042, -0.0074202436953783035, -0.07520676404237747, -0.12342289090156555, -0.020359650254249573, 0.06253031641244888, 0.09018129110336304, -0.1527627855539322, -0.13326866924762726, -0.15018031001091003, -0.04424465447664261, -0.07385415583848953, -0.05951309949159622, -0.12929923832416534, 0.017683126032352448, 0.02167297899723053, -0.040467508137226105, 0.0017792625585570931, 0.05743355304002762, 0.03375636786222458, 0.016964484006166458, 0.12698617577552795], [0.10979270935058594, -0.1348908394575119, -0.07323623448610306, -0.16010689735412598, -0.1843421459197998, 0.04835980758070946, 0.24089892208576202, -0.02670409344136715, -0.1220833882689476, 0.07223796099424362, 0.02324807643890381, 0.008680806495249271, -0.02446080930531025, -0.11278276890516281, -0.2574344277381897, 0.03283310309052467, 0.24417224526405334, -0.010501191020011902, -0.00013028382090851665, -0.020289171487092972, -0.09456595778465271, 0.06749940663576126, 0.04913895204663277, 0.04204277694225311, 0.045030683279037476, -0.10776640474796295, 0.1511564403772354, 0.1692284196615219, -0.009140044450759888, -0.04376097023487091, 0.041126102209091187, 0.10716225951910019, 0.011602210812270641, 0.05880076810717583, 0.026869874447584152, -0.020166607573628426, -0.0511733815073967, 0.09944868832826614, 0.09552448987960815, -0.13528591394424438], [0.02888377383351326, -0.11315756291151047, 0.08609290421009064, -0.03130749240517616, -0.06670916825532913, -0.13064977526664734, -0.24533827602863312, 0.018295034766197205, 0.17449992895126343, 0.23932231962680817, 0.07038581371307373, -0.18169118463993073, 0.03778587654232979, 0.03444083034992218, 0.09309514611959457, -0.1065218523144722, 0.0889420136809349, 0.06458989530801773, -0.016149967908859253, 0.09231384098529816, 0.0009432437946088612, 0.06847255676984787, -0.05692536011338234, -0.11398406326770782, -0.30280062556266785, -0.09224510192871094, -0.07654557377099991, 0.09393928945064545, -0.04039387404918671, -0.07203415781259537, 0.06909342110157013, -0.06914601475000381, -0.07427629828453064, -0.11253474652767181, -0.06550710648298264, 0.09476739913225174, 0.05252132937312126, 0.07001504302024841, -0.02034050226211548, 0.06818269938230515], [0.08126170933246613, 0.12974750995635986, -0.06026987358927727, -0.01615322008728981, -0.020253345370292664, -0.05451676622033119, 0.34369638562202454, -0.22613908350467682, -0.024068491533398628, -0.058942727744579315, 0.09215406328439713, 0.007526152767241001, -0.07832537591457367, 0.04738608002662659, -0.16817179322242737, -0.0845152959227562, -0.008538410067558289, 0.08317991346120834, 0.1260085254907608, 0.06391588598489761, -0.16948150098323822, -0.05440320447087288, 0.1401633620262146, -0.032151542603969574, 0.052308421581983566, -0.008494139648973942, -0.13727834820747375, 0.07329586893320084, -0.12245161086320877, 0.0719965398311615, 0.11807779967784882, 0.1153227761387825, -0.08886581659317017, -0.06965191662311554, 0.10731580853462219, -0.005704981274902821, 0.12620098888874054, 0.020572856068611145, 0.09280884265899658, 0.00910929311066866], [-0.09054091572761536, -0.04586278274655342, 0.025021899491548538, 0.018641170114278793, 0.02950570359826088, -0.0376698262989521, -0.13784945011138916, -0.21646687388420105, 0.05871821194887161, 0.091021329164505, 0.01671328954398632, 0.01849464140832424, 0.03739282861351967, -0.010270756669342518, 0.0018713995814323425, -0.03646084666252136, -0.036358848214149475, 0.06772936135530472, -0.12612701952457428, 0.012952545657753944, 0.009815772995352745, -0.07461442798376083, -0.10585325211286545, -0.08998145163059235, 0.009529613889753819, -0.08089078962802887, -0.10595013946294785, -0.12335226684808731, 0.04835015907883644, 0.046880390495061874, -0.0746837854385376, 0.04505837336182594, -0.0001502837985754013, -0.17727531492710114, -0.16050943732261658, 0.026040775701403618, 0.12318404018878937, -0.09920910000801086, -0.010896191000938416, -0.043121181428432465], [-0.11355721205472946, -0.12027953565120697, 0.015352047048509121, 0.09952531009912491, -0.07417764514684677, -0.03830985724925995, -0.23821400105953217, 0.04749913141131401, 0.02906387485563755, 0.20534458756446838, -0.00044250587234273553, -0.0297919362783432, 0.04867646098136902, -0.10197117179632187, -0.042006947100162506, -0.016395099461078644, 0.0236087366938591, -0.10160336643457413, 0.06613834947347641, 0.07027789205312729, 0.07786296308040619, 0.07788174599409103, 0.1129937618970871, 0.08568023890256882, -0.16294264793395996, 0.19290876388549805, -0.05436556786298752, 0.0040387180633842945, -0.0869746282696724, 0.05856700614094734, 0.12026329338550568, 0.11076818406581879, -0.0030361332464963198, -0.009090625680983067, 0.0628758892416954, -0.008532715030014515, -0.05302419885993004, 0.022190693765878677, -0.013728007674217224, 0.007376362569630146], [0.048419300466775894, 0.09603217244148254, -0.06747736781835556, -0.1886594593524933, -0.03672679886221886, 0.01228068582713604, 0.33858346939086914, 0.02317611128091812, 0.023059407249093056, -0.08819200843572617, -0.06990569829940796, 0.17121191322803497, 0.059198472648859024, 0.13558992743492126, -0.015055102296173573, 0.07523369044065475, 0.09737993031740189, 0.17923879623413086, -0.041959021240472794, -0.06972210854291916, -0.10370507091283798, -0.049524031579494476, -0.00546250818297267, -0.04429583624005318, -0.1490003913640976, 0.11626358330249786, -0.05818306654691696, 0.018282601609826088, 0.052563153207302094, 0.039917029440402985, -0.1630147099494934, 0.15749746561050415, 0.008724805898964405, -0.15087346732616425, -0.05576254427433014, 0.0034023539628833532, -0.022623825818300247, 0.07839209586381912, 0.046149685978889465, 0.0698302835226059], [-0.03780355304479599, 0.07478819042444229, 0.007744711358100176, 0.07981722056865692, -0.031813401728868484, -0.0023774520959705114, -0.10486637055873871, 0.09003868699073792, 0.13784527778625488, 0.05404791235923767, -0.20920275151729584, -0.023411305621266365, 0.009581050835549831, 0.14706626534461975, 0.1326640397310257, 0.0811227411031723, 0.035891421139240265, -0.04679270088672638, -0.078819140791893, 0.08156278729438782, -0.009551091119647026, -0.051956288516521454, -0.1137549951672554, 0.04680213704705238, 0.025887366384267807, -0.08766009658575058, 0.06379617750644684, -0.05182082578539848, 0.01146666333079338, -0.05319267883896828, -0.10203614085912704, 0.12977778911590576, 0.12567423284053802, 0.03287449851632118, -0.0762355849146843, 0.031309857964515686, -0.12140894681215286, 0.12392233312129974, -0.09595870226621628, 0.11433074623346329], [0.13336314260959625, 0.011710909195244312, -0.039259858429431915, 0.07754046469926834, -0.08456817269325256, 0.11273396760225296, -0.22299724817276, -0.031202377751469612, 0.09014245122671127, 0.031935498118400574, -0.06783638149499893, -0.1530405879020691, -0.02798151969909668, -0.022395307198166847, 0.03697996214032173, 0.10423889011144638, -0.027615468949079514, 0.05071162432432175, 0.05613212287425995, 0.06314948946237564, -0.1551811248064041, -0.0414072722196579, 0.1302410513162613, 0.012669540010392666, 0.009299746714532375, 0.05547467619180679, 0.05967215448617935, 0.011328082531690598, -0.013104244135320187, -0.1146060898900032, -0.008276903070509434, 0.06091340631246567, 0.05939885973930359, 0.040892478078603745, -0.03882276266813278, -0.06567248702049255, 0.055735524743795395, -0.16973881423473358, 0.06639663130044937, -0.07293597608804703], [0.10789653658866882, -0.18505354225635529, -0.029353830963373184, 0.0786038190126419, 0.010644728317856789, -0.09960351139307022, -0.4295622408390045, 0.18836188316345215, 0.0076963226310908794, 0.044152140617370605, -0.010103597305715084, 0.06836414337158203, -0.03333573043346405, 0.1299479603767395, -0.03742843121290207, -0.010271796025335789, -0.15015502274036407, -0.07754029333591461, 0.014933159574866295, -0.042896755039691925, -0.0792764276266098, -0.21483227610588074, -0.16088253259658813, -0.10376772284507751, 0.0857086107134819, 0.01416829414665699, -0.11303088068962097, 0.00841068010777235, -0.08440039306879044, 0.16314145922660828, -0.019323240965604782, -0.2568129003047943, -0.0677274838089943, 0.047376714646816254, -0.21311555802822113, -0.07367696613073349, -0.0031835115514695644, -0.17142561078071594, 0.18944357335567474, 0.02742197923362255], [0.05988322198390961, 0.12149930000305176, 0.04188324511051178, -0.07604974508285522, 0.16130119562149048, 0.0294646006077528, 0.3408389091491699, 0.0022582276724278927, -0.1362123042345047, -0.01252591609954834, 0.051121246069669724, -0.006124512758105993, -0.06446336209774017, -0.07060786336660385, -0.04356788471341133, 0.11096961796283722, 0.020962093025445938, 0.0720391571521759, 0.06799149513244629, 0.08115788549184799, -0.10565295815467834, 0.059820350259542465, 0.03166613727807999, -0.11755642294883728, 0.11981920897960663, 0.03387298807501793, -0.1214456558227539, 0.03620319068431854, 0.06936716288328171, 0.07480646669864655, -0.029343873262405396, -0.02371590957045555, 0.1132965236902237, 0.02003423497080803, 0.08898872882127762, -0.02791447937488556, -0.11224064975976944, -0.026045940816402435, -0.18345074355602264, -0.041937001049518585], [0.01940985955297947, 0.10746239125728607, 0.08205165714025497, 0.1547825187444687, -0.15781721472740173, 0.04364967718720436, 0.17159733176231384, -0.10181726515293121, -0.11144357174634933, -0.09047464281320572, 0.1046290323138237, -0.07048580050468445, -0.09973819553852081, 0.08989957720041275, 0.04915934428572655, 0.11125611513853073, -0.03336615487933159, 0.13203908503055573, 0.2662207782268524, 0.010159031488001347, 0.05606658011674881, -0.058710768818855286, 0.03185275197029114, 0.06399238854646683, 0.003429280361160636, -0.12867006659507751, 0.11976367235183716, -0.011257346719503403, 0.030257659032940865, 0.1539279967546463, 0.07297027111053467, 0.0270819254219532, -0.06864993274211884, 0.12726858258247375, -0.0628175139427185, 0.1014137789607048, 0.025537945330142975, -0.08982871472835541, -0.12043145298957825, -0.052356574684381485], [-0.12590113282203674, -0.1832374632358551, 0.03104734607040882, -0.018327774479985237, 0.1844075620174408, -0.11172299832105637, 0.08245361596345901, 0.18238554894924164, 0.006524586118757725, 0.033191241323947906, 0.020264916121959686, 0.015634628012776375, -0.14919374883174896, -0.021206753328442574, -0.002729188883677125, -0.0452832356095314, 0.00845226552337408, 0.057858459651470184, -0.14598232507705688, -0.03310718759894371, -0.003348889760673046, 0.05602739751338959, 0.07955453544855118, 0.12269780039787292, 0.012272887863218784, -0.025884775444865227, -0.07981031388044357, -0.16382820904254913, 0.004288863390684128, 0.023182779550552368, -0.11653824895620346, -0.020223110914230347, -0.009728183038532734, -0.003347632009536028, 0.19737640023231506, 0.07079260051250458, 0.14972235262393951, 0.0720236524939537, 0.22626452147960663, -0.02669893391430378], [-0.12197211384773254, -0.07068826258182526, 0.11940625309944153, 0.05809773504734039, 0.016513675451278687, 0.028585534542798996, 0.1265619695186615, 0.033685438334941864, -0.05282226577401161, -0.09769187122583389, 0.04148314148187637, -0.26675164699554443, -0.015914486721158028, -0.042637694627046585, -0.029270272701978683, 0.09426162391901016, -0.15662159025669098, -0.03712441027164459, -0.11215385049581528, -0.01757260225713253, -0.15434955060482025, 0.07765839993953705, -0.010721991769969463, 0.10724175721406937, -0.1510448157787323, -0.001323457108810544, -0.030779024586081505, -0.12403611093759537, -0.026173574849963188, 0.09186776727437973, 0.005076275672763586, 0.08095644414424896, -0.06584860384464264, -0.09608670324087143, -0.10970337688922882, 0.030696071684360504, 0.07692253589630127, -0.10860201716423035, 0.06676279008388519, 0.06153007969260216], [-0.04077622666954994, -0.014750191941857338, -0.0034234721679240465, 0.023834440857172012, 0.061934277415275574, 0.1418532431125641, -0.29725757241249084, 0.16396194696426392, -0.07570765912532806, 0.13019408285617828, -0.04104853421449661, 0.04422295093536377, 0.14608177542686462, 0.0884561687707901, 0.11361155658960342, -0.007509610150009394, -0.1640283167362213, -0.05094341188669205, -0.037073321640491486, 0.006447318475693464, 0.05656991899013519, 0.03154784440994263, -0.05131859704852104, 0.08372066915035248, 0.15212684869766235, -0.1677902489900589, -0.09407384693622589, 0.062244486063718796, 0.11751899123191833, -0.1826251745223999, -0.09661982208490372, 0.16116811335086823, -0.07602844387292862, 0.016419369727373123, 0.029974227771162987, 0.06825250387191772, 0.06297659128904343, -0.1496051549911499, 0.06027960777282715, -0.017277052626013756], [-0.14902397990226746, -0.00984008889645338, 0.04784449562430382, -0.010840662755072117, 0.17467215657234192, 0.10483623296022415, -0.1785118728876114, 0.024461232125759125, 0.08547905087471008, 0.08017203211784363, -0.07919028401374817, -0.056039828807115555, -0.07101650536060333, 0.10626270622015, -0.041893474757671356, -0.06743262708187103, 0.04174080863595009, -0.11114159226417542, 0.05804583057761192, -0.06796595454216003, -0.11947575211524963, 0.1041601300239563, -0.06019982695579529, -0.07015193998813629, 0.041318196803331375, -0.09596847742795944, 0.13529419898986816, 0.10537821799516678, 0.028885725885629654, 0.10084020346403122, 0.14592280983924866, 0.030642781406641006, 0.07629094272851944, -0.01152464747428894, 0.22694294154644012, -0.060624975711107254, -0.1823212057352066, 0.1328190565109253, -0.05973835662007332, 0.06738800555467606], [-0.023491546511650085, 0.1041787639260292, -0.01568920724093914, 0.1607101857662201, -0.0021731900051236153, -0.08391933143138885, -0.1675647646188736, 0.059322044253349304, -0.037089139223098755, -0.09011582285165787, -0.03823229670524597, -0.10785729438066483, 0.004612965974956751, 0.13541410863399506, 0.19403037428855896, 0.04356444999575615, -0.048750925809144974, -0.024267682805657387, 0.06856632977724075, -0.002818264300003648, -0.06602197885513306, 0.17107750475406647, 0.14034193754196167, -0.03762560710310936, -0.04096512496471405, 0.11940551549196243, 0.0021995333954691887, 0.04189540073275566, -0.04239886626601219, -0.036626193672418594, -0.1290634721517563, -0.020404744893312454, -0.14480021595954895, 0.04869348555803299, 0.10129203647375107, -0.005031870678067207, -0.16186317801475525, 0.013523686677217484, -0.07872164249420166, 0.04425410181283951], [-0.06259677559137344, 0.020746342837810516, -0.07708907127380371, 0.16933739185333252, -0.08480021357536316, 0.04497808590531349, -0.13428416848182678, 0.03495882451534271, 0.04478321969509125, 0.10201404243707657, -0.02149718999862671, 0.09870872646570206, 0.03138478100299835, -0.041650205850601196, 0.28868159651756287, 0.01181636843830347, 0.052927471697330475, 0.1556120216846466, 0.07020804286003113, -0.14353960752487183, 0.07587283104658127, 0.07233068346977234, -0.04504850506782532, 0.12676872313022614, 0.1529151350259781, -0.06024215370416641, 0.028539534658193588, -0.039159875363111496, -0.041323401033878326, -0.03925817832350731, 0.0009153268183581531, -0.018573177978396416, 0.17346802353858948, -0.0312512032687664, 0.13954049348831177, 0.015049673616886139, -0.058845050632953644, -0.05301227793097496, -0.08087032288312912, 0.08194977045059204], [-0.03430267050862312, 0.0675751119852066, -0.09100919961929321, 0.019854936748743057, 0.055703986436128616, -0.023281650617718697, -0.20966362953186035, 0.15291166305541992, 0.12332162261009216, -0.03033185377717018, 0.2450569123029709, -0.16329409182071686, -0.11719118058681488, -0.04918902739882469, 0.18754056096076965, 0.1475975513458252, -0.07912139594554901, 0.04314796254038811, -0.03371291235089302, -0.017148487269878387, 0.07771304249763489, 0.032131630927324295, -0.002449628198519349, 0.10642890632152557, 0.22787243127822876, -0.020684827119112015, -0.014577995054423809, 0.03836119547486305, 0.083944171667099, 0.0863274484872818, -0.047132425010204315, 0.08831685781478882, 0.06311675161123276, -0.14016292989253998, -0.143368661403656, -0.07016277313232422, -0.1795295923948288, -0.045582640916109085, 0.011128746904432774, 0.0772528350353241], [0.17225457727909088, -0.21867913007736206, 0.04332701116800308, -0.021366195753216743, -0.006892577279359102, -0.22959965467453003, 0.0114850252866745, -0.16802476346492767, -0.032708004117012024, 0.02598421648144722, 0.18242999911308289, 0.12181147933006287, -0.0179912019520998, -0.001590540399774909, -0.22231870889663696, -0.036593176424503326, 0.04684913158416748, 0.04302743822336197, 0.1207406148314476, 0.03260624408721924, -0.03521506488323212, -0.09183286875486374, -0.11900864541530609, 0.10539238899946213, 0.03556545823812485, 0.0018382874550297856, 0.09300283342599869, 0.16706547141075134, -0.0031262279953807592, 0.11622099578380585, -0.006176275666803122, 0.033981774002313614, -0.09699396044015884, -0.030429968610405922, -0.0013780846493318677, 0.009723331779241562, 0.3119816184043884, -0.007970524951815605, -0.03171949088573456, 0.00785902515053749], [0.1126658171415329, -0.23753342032432556, -0.08228211849927902, -0.005405853036791086, 0.0010368574876338243, -0.07800976932048798, 0.055809855461120605, 0.0772787481546402, -0.07123792916536331, -0.03454460948705673, -0.09394492208957672, -0.061566874384880066, -0.15796296298503876, -0.09858499467372894, -0.12207812070846558, 0.12454593181610107, 0.014673056080937386, 0.011265819892287254, 0.03784708306193352, 0.08031388372182846, -0.04205111786723137, 0.11676973849534988, -0.1903383731842041, 0.028103364631533623, -0.07479365170001984, 0.03156076744198799, -0.04644687846302986, 0.026685647666454315, 0.07138954848051071, 0.06515298038721085, 0.16201910376548767, 0.07534400373697281, 0.28591248393058777, 0.13805456459522247, 0.07590220123529434, -0.10795353353023529, 0.009492346085608006, 0.11306054145097733, 0.14575520157814026, -0.06120257079601288], [0.11129460483789444, -0.03835933655500412, 0.09259011596441269, 0.03212687373161316, 0.04905122518539429, -0.15197567641735077, -0.00017024209955707192, 0.1511113941669464, 0.08108441531658173, 0.21840108931064606, 0.011125782504677773, 0.09155268967151642, -0.10044437646865845, -0.042684946209192276, -0.037800777703523636, -0.12803202867507935, -7.539209036622196e-05, 0.02581590786576271, -0.1855320781469345, 0.03564085066318512, -0.07886441051959991, -0.028945336118340492, -0.13937905430793762, -0.0831575021147728, -0.17866067588329315, 0.029776206240057945, 0.056075822561979294, 0.028314076364040375, -0.10349497944116592, -0.02081966958940029, -0.13113050162792206, -0.01518860924988985, 0.1284913718700409, 0.09642884880304337, 0.055375680327415466, -0.05781513452529907, 0.039012935012578964, -0.08640947192907333, -0.03166063874959946, -0.30294379591941833], [-0.036503300070762634, 0.23358622193336487, -0.14603936672210693, 0.03490714356303215, 0.043323587626218796, -0.09795758128166199, -0.001029780600219965, -0.041308093816041946, -0.055125389248132706, -0.05041035637259483, -0.03339110687375069, 0.07168480008840561, 0.012992330826818943, 0.023474104702472687, -0.11406245827674866, 0.1921985000371933, 0.057873692363500595, 0.10421568900346756, -0.042110320180654526, 0.07513519376516342, 0.06144976615905762, 0.16623663902282715, -0.10235366970300674, 0.045989587903022766, -0.09512636065483093, -0.09211987257003784, 0.13941720128059387, -0.115312859416008, -0.08990995585918427, 0.0887838825583458, 0.05888064205646515, 0.036148909479379654, -0.09672466665506363, -0.00017323934298474342, 0.01008527260273695, 0.08480635285377502, 0.020955009385943413, -0.07057718932628632, -0.03741101548075676, 