{
	"W1": [
		[
			0.25936242311729,
			0.217811293369394,
			-0.0626966531079994,
			-0.0869829060436557,
			-0.222551566272854,
			-0.276316881841303,
			-0.0439491961939261,
			0.000157345293462651,
			-0.109096684422849,
			-0.253577578174886,
			-0.298956066329731,
			-0.271456076171179,
			-0.010987618225187,
			-0.176920696551208,
			0.241878722412964,
			0.198805986997167,
			0.308135931579107,
			-0.159191721016172,
			0.179635517685064
		],
		[
			0.150098770497998,
			-0.0765192802063538,
			-0.253581065670024,
			0.253194440709183,
			-0.0205295908857257,
			0.153920958960556,
			-0.0805575274370449,
			-0.0807641800752258,
			0.061632058995032,
			-0.0968293972319906,
			0.288187965234841,
			0.235829638716472,
			-0.109148644740054,
			-0.153019337040878,
			0.23387952165404,
			0.186139288369348,
			0.0227296757358148,
			0.182232742987322,
			-0.224822445491686
		],
		[
			0.0805323060378396,
			0.244352770553101,
			0.130545765579211,
			0.233961323306114,
			0.0511513101732429,
			0.0593293369454832,
			-0.251022618103913,
			-0.0383295954728587,
			0.441006964690286,
			0.318161221536706,
			0.00626141589679779,
			-0.224397423009797,
			0.122926051331214,
			-0.0854732492522799,
			0.152673490451115,
			-0.0440193203821765,
			0.188121272823857,
			0.0727357781770435,
			0.33554505446798
		],
		[
			-0.0553461918925052,
			0.146883991841334,
			0.190535494512423,
			-0.315679418540704,
			-0.127892152519677,
			0.258792345804809,
			0.226057335975922,
			0.122055760556829,
			-0.275852763546712,
			-0.0663909148222409,
			0.306670431158654,
			-0.308598487394915,
			-0.275776782997742,
			0.0674494750717886,
			-0.272593634874831,
			0.163840646672691,
			0.319709359100069,
			0.166432661850427,
			0.0282943019831603
		],
		[
			0.125188916549697,
			-0.203654842144561,
			-0.305749874967283,
			-0.0427834235624713,
			-0.228990558962969,
			0.212388913280641,
			0.0340809585946226,
			-0.21863317826925,
			0.30934303028544,
			-0.0156419348282129,
			-0.0236231486595378,
			-0.245594375258773,
			0.136818943178551,
			-0.0468091315444222,
			0.000794756604915201,
			-0.235625946508824,
			-0.22132038951005,
			0.130609935771795,
			-0.286009619497436
		],
		[
			-0.0681853898503225,
			-0.274918061145762,
			-0.248567506726655,
			-0.0598287817167507,
			-0.294162981436988,
			0.139348228345725,
			-0.275921999407006,
			0.306118047355084,
			0.0370042879928898,
			0.119194258770467,
			-0.0979226546060948,
			0.107301929984619,
			0.194287775848792,
			-0.121741177006614,
			0.209676803678352,
			-0.185574947448958,
			-0.258404140763213,
			-0.32343100489826,
			-0.160126721454119
		],
		[
			0.302500161150616,
			-0.269072107213793,
			0.131568522691739,
			0.323066621987582,
			-0.0664752070545091,
			-0.0459831198415318,
			0.150585593345153,
			0.187289512426707,
			-0.0304447926516789,
			0.0245623054909911,
			0.325581573987167,
			0.183856072907218,
			0.209525910597396,
			-0.20836001856657,
			0.102217982309727,
			0.0953972472968042,
			0.154407140352356,
			0.143191725889961,
			-0.226463133294521
		],
		[
			-0.217946251827503,
			-0.200856889141535,
			0.182708811861652,
			0.299635375844403,
			0.249929348448731,
			-0.133989674114606,
			-0.206258210638379,
			0.223940809399827,
			-0.136698584130495,
			-0.308202800725168,
			-0.315989098591231,
			0.0949628604505248,
			0.284339978486051,
			0.165392394495493,
			0.319400099711009,
			-0.11211808079834,
			0.290576325946164,
			-0.161092607589813,
			0.280708583587408
		],
		[
			0.24439678093777,
			0.237683742623735,
			0.0337979647639202,
			0.206030260799694,
			0.238355504178606,
			-0.0520435398228787,
			0.151974151586242,
			-0.25321762753034,
			0.171091326258512,
			-0.2810831907792,
			0.356618705570001,
			0.0780303794739807,
			0.317192367122485,
			-0.296386074049429,
			0.393455472335255,
			0.134970395037704,
			0.0658196173590295,
			0.396670518057261,
			0.413630046926042
		],
		[
			0.276894666910885,
			-0.141059100134713,
			0.206556379148885,
			-0.230261151156831,
			-0.255901094119229,
			-0.196093211034326,
			0.128398813040819,
			-0.324991139507451,
			-0.0704409168917748,
			-0.0751016898089383,
			0.295745805588594,
			0.0957254676097951,
			-0.024207076610207,
			0.0361183938187512,
			0.0400492186143949,
			-0.00861481984252539,
			0.233637423961178,
			0.236490093018374,
			-0.243089189546808
		],
		[
			0.127131070967256,
			0.161458084521193,
			0.228878971227567,
			-0.175699766189187,
			0.158367693110348,
			-0.0798080511142913,
			-0.208462101266005,
			0.226410249666712,
			0.215780602846705,
			-0.00438609655312458,
			-0.247300938676707,
			-0.0593854760019198,
			0.186086981974956,
			-0.0758335993321228,
			0.342151910831267,
			0.0000494424672275514,
			0.293096783104229,
			0.178191420995477,
			-0.180060330085539
		],
		[
			0.116917905808521,
			0.0517560814811446,
			-0.303635983711915,
			0.306171181274185,
			-0.298849230876469,
			-0.0665302773607008,
			0.0905105663315139,
			-0.156211456996996,
			-0.321124811146884,
			-0.0981850896068225,
			-0.176203347490948,
			-0.0849509453780608,
			-0.217680758636797,
			0.25963742951386,
			0.14281683721636,
			-0.0901311534317032,
			-0.0277026837152557,
			0.0395687245501796,
			-0.262621736929244
		],
		[
			-0.189028269342583,
			0.0352817492290201,
			0.0641318474125289,
			0.17231716472151,
			0.0887267389397515,
			0.118112717681503,
			0.0204974950114268,
			0.291792058781294,
			-0.151898295436958,
			-0.0666468858671807,
			-0.189381437442576,
			-0.0210918343002477,
			-0.0460120158503124,
			-0.295787848870075,
			0.0569832374722867,
			0.262308988328784,
			-0.275444541920958,
			-0.204855715363529,
			-0.210640780339326
		],
		[
			0.0978743180465368,
			0.241310331933192,
			0.112712259272822,
			0.158042525000328,
			-0.0740687402108368,
			-0.31482548306413,
			0.0694342541138313,
			-0.248763407513037,
			-0.186432373973143,
			0.290560416993731,
			0.168247227521382,
			-0.237036328252354,
			0.119512956453247,
			-0.169785010173389,
			0.174768304577291,
			0.146316509001677,
			0.267822249982258,
			0.182640163690033,
			0.256412054961113
		],
		[
			0.31512661163838,
			-0.160614074129088,
			0.125494231279303,
			0.213222046358718,
			0.108955891908911,
			-0.140506225485983,
			-0.194727698680828,
			-0.243165987058377,
			0.154765590663053,
			-0.291716067979792,
			-0.181264835056227,
			-0.208256411936653,
			-0.21070749768175,
			-0.043911854390269,
			-0.153369392282833,
			0.0461902261252348,
			-0.261977146959917,
			-0.0030262714454148,
			-0.0565988125512287
		],
		[
			0.0288678415933614,
			-0.263132455523382,
			-0.269412327447614,
			-0.167572058670568,
			-0.0795012872711322,
			-0.0963520960739592,
			0.0416188511196401,
			0.0810165970295481,
			-0.280256973954867,
			0.0377367876546974,
			0.295019993990376,
			0.0477041358833112,
			-0.155330301324928,
			0.0835977285084955,
			0.0467693967602469,
			-0.0178549383986936,
			0.301076338181233,
			0.0948141696344456,
			0.163162403701648
		],
		[
			-0.265711079580274,
			0.269514943379966,
			0.0206248694697609,
			0.155982724685635,
			-0.0952172511587022,
			0.309322263349722,
			0.140788306704745,
			-0.189427408798637,
			-0.0434084016092246,
			-0.0346033385666086,
			-0.141727560414207,
			0.0741363613749254,
			0.197858321612217,
			-0.111619838667274,
			-0.331371505172143,
			-0.0431224828544276,
			0.153052993331836,
			0.223837966933462,
			0.25656812682896
		],
		[
			0.0895675559990643,
			0.0519331773682197,
			0.210232575611088,
			0.0841358388962894,
			-0.0424000640598706,
			0.141104193810451,
			-0.296682734031429,
			0.0356896509244648,
			0.147134941515551,
			-0.212934588010214,
			0.00914865944330844,
			0.0697167189869382,
			-0.150519299423759,
			0.0821241804489125,
			-0.157741610429314,
			0.260691236924467,
			0.322030829519292,
			-0.304370002167242,
			0.117985425128493
		],
		[
			-0.271085424516011,
			0.155296421655801,
			-0.250593408844999,
			0.0563513984412143,
			-0.0399525639860953,
			-0.0833711308472306,
			-0.0231943146812432,
			0.16434588467538,
			-0.227789777696974,
			-0.230554904517708,
			0.243593960639475,
			0.0645391130766947,
			0.175301879873369,
			0.143892085369373,
			-0.122559952956281,
			-0.0622744129996805,
			0.183770369366197,
			0.309344787801218,
			0.0817767878222586
		],
		[
			-0.240946764230145,
			0.0540945751139605,
			0.0217542104692932,
			0.027838506701493,
			0.305506304953659,
			-0.0484247371359527,
			0.0936674697112678,
			0.265681032564005,
			-0.288444634755285,
			0.194874248722203,
			0.200982643258509,
			-0.208466705516429,
			0.280810684622368,
			-0.152586419956494,
			0.318040067414199,
			-0.176894379233086,
			-0.292489405055634,
			-0.251172796562734,
			0.0588714381230148
		],
		[
			-0.289391313597642,
			0.050865599510652,
			-0.224117501887089,
			-0.157032576806725,
			-0.318714704180545,
			0.202149085237412,
			-0.249994253007759,
			-0.132610125134241,
			0.039798565124954,
			-0.30203360603274,
			-0.270487940517592,
			0.0908584226532815,
			0.0252871939906377,
			-0.100998276117729,
			0.0635778478035477,
			0.278043861637873,
			0.10554242932276,
			-0.263105398177251,
			0.249503859601529
		],
		[
			-0.173677982764716,
			0.107984180207855,
			0.22885484793832,
			-0.135386173482693,
			0.209706282538758,
			-0.315027446906268,
			-0.144795205523552,
			-0.014374224062063,
			-0.0347050438286038,
			0.145938899988713,
			0.166483986048975,
			0.276930133970023,
			-0.13357013618259,
			0.0312228960103999,
			-0.231094967642689,
			0.277341347116067,
			0.153253335221748,
			-0.200967201538575,
			0.235144998562481
		],
		[
			0.27346857470426,
			0.199560227174038,
			0.0634109106080338,
			0.313419539039825,
			0.227174526152605,
			-0.0789131422315608,
			-0.140458202613107,
			-0.063639408959796,
			-0.285210960534938,
			-0.0479999691105095,
			0.0596441139208444,
			-0.143236715987649,
			-0.14718514240648,
			-0.242250223374622,
			0.127591563450211,
			-0.173667300110853,
			-0.0418787056165987,
			-0.126401696523474,
			-0.163479875872972
		],
		[
			0.165611139232364,
			-0.16958684190801,
			0.187390777451002,
			-0.0771832710712463,
			0.248384513929202,
			0.252377380672312,
			0.177668726111294,
			0.0909384369484959,
			0.0187929098554019,
			-0.291243236067377,
			-0.238692582782938,
			-0.0314360763156648,
			0.0508460069580789,
			0.214506557779166,
			0.31997279480425,
			-0.228024354306279,
			-0.00428306972510283,
			0.224208394750901,
			0.134240701681332
		]
	],
	"W_actor": [
		[
			0.0805617367945379,
			-0.0658836711333508,
			0.137636007680698,
			-0.147825597525743,
			-0.159726402263346,
			0.0147891474843228,
			-0.219135956274407,
			-0.0416551588763509,
			0.173039178593495,
			0.00620631959853914,
			0.228032787146348,
			0.161020169702529,
			0.0970078496787815,
			0.366373394473171,
			-0.00256060882675367,
			0.25541141486533,
			0.0741021926785158,
			0.218133776231191,
			0.113274488017276,
			-0.0365895147266444,
			0.139090106644791,
			0.085971860986877,
			-0.18821102961792,
			0.308281600834431
		],
		[
			0.301598350115308,
			0.209168450811126,
			0.358299904640947,
			-0.0744711433929941,
			-0.129124739042218,
			0.0950961306670566,
			0.153232197014422,
			-0.109610118530697,
			0.273141882854341,
			0.0654332529886302,
			-0.140867374402241,
			0.0414523194813188,
			0.185506977462641,
			-0.0701847783078656,
			-0.178870993144636,
			-0.261488341362536,
			0.0573860248322117,
			-0.174421683623741,
			-0.242606674877266,
			0.258830066392559,
			-0.185175045417853,
			-0.0486583679380563,
			0.0397489991953063,
			-0.166399248909838
		],
		[
			0.251130556420073,
			-0.00228009826360318,
			0.364389454824564,
			0.105905313969248,
			-0.095701351675221,
			-0.0516706516225832,
			0.0756773408643041,
			-0.0645483550236581,
			0.0843203489324124,
			-0.159729695375687,
			0.275169991513919,
			0.0253610610828337,
			-0.232499325610439,
			-0.131398913319137,
			0.274762123801439,
			-0.101922616948959,
			-0.230759929312861,
			0.0650088143600156,
			-0.0130305209252879,
			0.220807755859504,
			-0.2143762058359,
			-0.0676567084327761,
			-0.233425709840276,
			0.0656105085143054
		],
		[
			0.0188249523062548,
			-0.00360471932340434,
			0.186515175793117,
			0.260124596068379,
			0.263922475796209,
			0.0242451115975904,
			-0.0254267312143857,
			0.0312847959211835,
			0.0773376465892092,
			-0.0657114439377617,
			0.0214115973734904,
			-0.161115223926198,
			-0.00920766473328621,
			0.0657269395285468,
			-0.221904928417712,
			0.218105659203535,
			-0.121239806883027,
			-0.0637709377762251,
			0.0813931835147362,
			0.152554569948197,
			0.0797288489882692,
			0.0584857530160303,
			-0.0952477277642878,
			0.186432006292543
		]
	],
	"W_critic": [
		[
			-0.184801392364473,
			0.23963750756026,
			0.241295054674732,
			-0.0266788299469325,
			0.123053399246399,
			-0.0567125078575461,
			0.147777600472172,
			0.143863256626528,
			0.542942670600548,
			-0.12565581757576,
			0.25981989706939,
			0.166844737816549,
			-0.240342760092185,
			-0.104297501170493,
			0.240444899016804,
			-0.0828869813745236,
			-0.212251684459707,
			-0.0574880638396369,
			0.0548460693052334,
			-0.0248662231152995,
			-0.283148534501795,
			0.0274248120424172,
			-0.23532460545366,
			0.122704683483553
		]
	],
	"b1": [
		0.0314057560941305,
		0.0528705459271039,
		0.124108486970019,
		-0.000138812297273724,
		-0.00873807410380753,
		0.0000102029978751778,
		0.0250042799131044,
		-0.000186980157892952,
		0.108831181974339,
		-0.043609642670351,
		0.0690742637838234,
		0.0,
		0.0,
		-0.0390157533696814,
		0.00790378599040287,
		-0.0111607041182388,
		-0.0327166202524934,
		-0.00170137836787589,
		-0.000578699969656752,
		0.0197674807570702,
		0.000858827395581331,
		-0.000141145490451876,
		-0.0561668311042085,
		0.0314413196308449
	],
	"b_actor": [
		0.11171526946525,
		0.140519851928001,
		0.14424007107696,
		0.0785007579408334
	],
	"b_critic": [
		0.191072379337398
	]
}
