{"actor_logstd": [0.02479715272784233, 0.02755805477499962, 0.021778468042612076], "shared.0.weight": [[0.0376000739634037, -0.046478837728500366, -0.05239076167345047, 0.11540371179580688, -0.013452515006065369, -0.08358597755432129, -0.038406360894441605, -0.045253027230501175, -0.14775530993938446, -0.10248736292123795, -0.01807304285466671, 0.12622003257274628, 0.19737577438354492, 0.16536343097686768, -0.13616807758808136, -0.002914977027103305, -0.06678146123886108, -0.10623948276042938, 0.017230769619345665, -0.02779158391058445, 0.036924801766872406, 0.08432970941066742, -0.05034291371703148, -0.1151980310678482, 0.108132004737854, 0.0853414237499237, -0.06216888129711151, -0.1063927710056305, 0.06438606977462769, -0.0512857660651207, -0.06535737961530685, -0.02514178864657879, 0.005159473046660423, 0.03207749128341675, 0.15837527811527252, 0.17697453498840332, 0.09365707635879517, 0.0275481678545475, -0.1298113465309143, -0.019292213022708893], [0.014159518294036388, -0.0230055283755064, -0.06505837291479111, 0.020098641514778137, 0.13409742712974548, -0.056418679654598236, 0.04292190819978714, 0.08639074862003326, -0.04142436757683754, 0.028168445453047752, 0.03268255293369293, -0.119739830493927, 0.1445763260126114, -0.03386993333697319, -0.14751793444156647, 0.01534417923539877, 0.09563599526882172, 0.11894197016954422, 0.07349685579538345, -0.07771427184343338, -0.11531645059585571, -0.0655665472149849, 0.01582302711904049, -0.05601368099451065, 0.16726836562156677, 0.04369513317942619, 0.08852480351924896, -0.08245480060577393, 0.2190489023923874, 0.07262443751096725, 0.02044391818344593, 0.19022752344608307, 0.06413506716489792, -0.05517859011888504, 0.056089647114276886, 0.15978778898715973, 0.032083794474601746, -0.060959018766880035, 0.04056562855839729, -0.1907312273979187], [-0.011423195712268353, -0.09928850084543228, 0.004060931969434023, -0.1918255090713501, -0.025042247027158737, 0.0498463474214077, 0.02985350228846073, 0.08302421867847443, 0.014260362833738327, -0.07820025086402893, -0.02866649255156517, 0.05576545372605324, 0.09421508759260178, -0.17962487041950226, -0.10820111632347107, -0.010074476711452007, 0.15847094357013702, 0.06183036416769028, -0.06757333874702454, -0.10408242046833038, -0.12213446199893951, 0.02259570173919201, 0.014780867844820023, 0.21320831775665283, -0.06511841714382172, -0.027244465425610542, 0.0769769623875618, 0.01993577554821968, 1.037752917909529e-05, -0.1856055110692978, 0.11638353765010834, -0.07444039732217789, 0.1341375708580017, 0.14271697402000427, 0.15372920036315918, -0.0959237664937973, -0.051264647394418716, 0.008844307623803616, -0.13882404565811157, 0.0088600292801857], [0.054755594581365585, -0.014239800162613392, -0.11516742408275604, 0.12090052664279938, 0.15615737438201904, 0.22563157975673676, 0.05868109315633774, 0.10119321942329407, 0.05292845517396927, 0.013679773546755314, -0.06980174779891968, -0.044494837522506714, 0.14350469410419464, -0.1352536380290985, 0.02841588482260704, 0.0604284331202507, 0.00197122641839087, 0.049119167029857635, -0.06047122925519943, 0.05311782658100128, -0.05542542412877083, 0.08241207897663116, 0.165176123380661, -0.10097616910934448, 0.024641266092658043, -0.027382127940654755, -0.029299942776560783, 0.18135154247283936, -0.26736679673194885, -0.0019183491822332144, -0.11413279175758362, -0.00531262019649148, 0.15608304738998413, 0.09698532521724701, -0.05538429319858551, 0.04984200745820999, 0.0231468603014946, -0.10642028599977493, -0.0007306833867914975, 0.03824586793780327], [0.011990386061370373, 0.09480652958154678, -0.1100693941116333, -0.024117596447467804, 0.07615838199853897, -0.13596488535404205, -0.10946818441152573, -0.08388978987932205, -0.05607754364609718, 0.012174805626273155, 0.006622147746384144, 0.04252427816390991, 0.15680906176567078, -0.0778813287615776, 0.08108312636613846, 0.1578332781791687, 0.10484728217124939, -0.0426577553153038, -0.07630825787782669, -0.017395436763763428, 0.031077507883310318, 0.24650757014751434, 0.01291387714445591, 0.032903824001550674, 0.15683670341968536, -0.008804410696029663, 0.05227731168270111, -0.07560878247022629, 0.08105442672967911, 0.060780901461839676, 0.14802035689353943, 0.0828079804778099, 0.06245497614145279, -0.022591473534703255, -0.05922912433743477, -0.12889006733894348, 0.0676545649766922, -0.05944717675447464, 0.1120929941534996, 0.01497731078416109], [0.15357762575149536, 0.03342987224459648, 0.09417497366666794, -0.046385131776332855, -0.0691828802227974, -0.10201984643936157, -0.006958398036658764, -0.005915960296988487, -0.15397633612155914, -0.022169144824147224, -0.19810235500335693, 0.13032130897045135, -0.1413222849369049, -0.019473694264888763, 0.046286873519420624, -0.11774399131536484, -0.004424530081450939, 0.07938273251056671, -0.1376877725124359, -0.058398324996232986, -0.156195729970932, -0.13812069594860077, -0.00036389194428920746, -0.15249091386795044, -0.004351763520389795, 0.09433289617300034, 0.12570707499980927, 0.06517874449491501, -0.13711506128311157, 0.0013082822551950812, -0.17802274227142334, 0.12268976122140884, 0.02751615084707737, 0.030769219622015953, -0.11331967264413834, 0.0013112308224663138, -0.01576215773820877, 0.0015958447474986315, -0.06589657813310623, -0.01807568408548832], [0.021137569099664688, -0.025315359234809875, -0.05433393642306328, -0.07431003451347351, 0.050133343786001205, -0.012442045845091343, 0.0404365174472332, 0.043750155717134476, -0.06737830489873886, -0.009875989519059658, 0.03032650798559189, 0.049320925027132034, 0.1086643785238266, 0.08411432802677155, -0.10237207263708115, -0.07977455109357834, -0.0801147073507309, 0.06011655554175377, -0.10001135617494583, -0.052342817187309265, -0.1379844695329666, -0.056136418133974075, -0.024762218818068504, 0.2880992889404297, -0.014836655929684639, 0.015412735752761364, 0.03130583092570305, -0.1178022027015686, -0.0521109439432621, 0.12735022604465485, 0.016005026176571846, 0.09087993204593658, 0.05408019572496414, -0.015429339371621609, -0.07826977968215942, -0.06811408698558807, -0.01200328953564167, 0.24989967048168182, -0.05374252051115036, 0.11898478865623474], [-0.020240426063537598, 0.0654078796505928, 0.04823911190032959, -0.042649101465940475, 0.04025134816765785, 0.038607336580753326, -0.06617465615272522, 0.01855345070362091, 0.1128598004579544, -0.12582188844680786, 0.01204044558107853, 0.04261099919676781, -0.01759955659508705, 0.0898376926779747, -0.05701126530766487, -0.21914918720722198, -0.040083371102809906, -0.08982689678668976, -0.15453936159610748, -0.07720541954040527, 0.1367979347705841, -0.09306183457374573, 0.22233210504055023, 0.04185900464653969, 0.04000430926680565, 0.2221873253583908, -0.10245104134082794, -0.031482402235269547, 0.10066094994544983, 0.11116272956132889, 0.09535544365644455, 0.10476453602313995, 0.10120417177677155, 0.06069742888212204, -0.0036511130165308714, 0.014118804596364498, -0.0993039458990097, -0.046480171382427216, 0.013028056360781193, 0.06492016464471817], [-0.10107213258743286, 0.1036626473069191, -0.02869228646159172, 0.06232767179608345, -0.045975249260663986, 0.1520078331232071, -0.08515945822000504, -0.026406561955809593, -0.001767383306287229, -0.013725845143198967, -0.02459215372800827, -0.08121495693922043, 0.07323721796274185, 0.09035275876522064, -0.08644254505634308, 0.036468420177698135, 0.037207454442977905, -0.08319193124771118, 0.005075141787528992, -0.1020643338561058, 0.05837026610970497, 0.06708238273859024, 0.009249464608728886, -0.10890122503042221, -0.034563012421131134, -0.006882385350763798, -0.04259185492992401, -0.017353806644678116, 0.08482525497674942, 0.02257513999938965, 0.053143344819545746, -0.04615382105112076, 0.08114823698997498, -0.021592438220977783, 0.13883180916309357, 0.026412254199385643, 0.05319887399673462, 0.013887523673474789, 0.05391363427042961, 0.011806193739175797], [-0.08531689643859863, 0.10404406487941742, -0.0055084023624658585, 0.1701146811246872, -0.139129638671875, -0.020305734127759933, 0.06582056730985641, -0.10691431164741516, 0.01944713480770588, -0.12632732093334198, 0.0010253045475110412, 0.043615903705358505, -0.035923343151807785, -0.12254711985588074, -0.10994704067707062, -0.12241321057081223, 0.108371801674366, 0.07824907451868057, -0.012472878210246563, 0.026348968967795372, 0.05861273035407066, -0.0586855486035347, 0.01929793879389763, -0.09747208654880524, 0.137542724609375, 0.1622992753982544, 0.00013863283675163984, -0.13256675004959106, -0.06734438985586166, 0.22843484580516815, 0.16094952821731567, -0.02986496314406395, 0.010569438338279724, 0.06358014047145844, 0.1587321013212204, -0.02896375022828579, -0.23316864669322968, 0.10598676651716232, -0.015879301354289055, -0.16238051652908325], [0.0067864637821912766, 0.08922753483057022, 0.09546731412410736, 0.06470796465873718, 0.08096028864383698, -0.1398855596780777, -0.12316719442605972, -0.1682615727186203, 0.034822411835193634, 0.10974903404712677, 0.04129283130168915, 0.01417593378573656, -0.11973050236701965, -0.1227288693189621, -0.01584354229271412, 0.14573003351688385, -0.012813960202038288, 0.026187755167484283, 0.023744706064462662, -0.09556996822357178, -0.10573329031467438, -0.0794920027256012, 0.10272568464279175, 0.024118702858686447, 0.09717538207769394, -0.03854406252503395, 0.009572437964379787, -0.13982273638248444, 0.04570027068257332, -0.025107482448220253, 0.1328195035457611, -0.09705094248056412, 0.07417982071638107, -0.1047491729259491, 0.11538449674844742, -0.136445552110672, 0.16329818964004517, -0.07576695829629898, -0.10286088287830353, -0.07557845860719681], [0.054078150540590286, -0.1389419585466385, 0.002297811210155487, -0.10154790431261063, 0.0006431958172470331, -0.10993015766143799, 0.15779465436935425, 0.07867050170898438, -0.15310923755168915, -0.07994614541530609, -0.0327041856944561, 0.12867242097854614, 0.08604218065738678, -0.04401007667183876, 0.030349766835570335, 0.11978565901517868, 0.010614653117954731, -0.055841658264398575, 0.18297329545021057, -0.11685353517532349, 0.0665493756532669, -0.06498304009437561, 0.06831121444702148, 0.0322701595723629, -0.025611015036702156, -0.06655436754226685, -0.1227673813700676, 0.07849397510290146, -0.05008261278271675, 0.06045418977737427, 0.0009951521642506123, 0.03993019461631775, 0.008407733403146267, -0.00042829298763535917, 0.049225810915231705, 0.10556101053953171, 0.008012162521481514, -0.13399402797222137, 0.008010124787688255, 0.10638219863176346], [-0.10441675037145615, -0.12507613003253937, -0.0005197983118705451, 0.013684620149433613, 0.01608940027654171, -0.09566523879766464, -0.05960843339562416, -0.11700461804866791, 0.03772081062197685, 0.15813890099525452, -0.08607106655836105, -0.05043958127498627, 0.06775619089603424, -0.17186889052391052, 0.2221015840768814, -0.046961840242147446, -0.03799945116043091, 0.06851819902658463, -0.12307753413915634, 0.06585314869880676, -0.12461645901203156, 0.11096785962581635, 0.172976553440094, 0.06185212358832359, -0.0354829765856266, 0.10489103198051453, 0.11301320791244507, 0.04710493981838226, 0.0013479351764544845, -0.10596238076686859, 0.07357501238584518, -0.05402161180973053, -0.061484891921281815, 0.18439753353595734, 0.023552080616354942, 0.010831561870872974, -0.025560403242707253, 0.11102381348609924, 0.06280868500471115, 0.12156044691801071], [0.0012614746810868382, 0.14295357465744019, -0.04331037029623985, -0.14013664424419403, -0.15348580479621887, -0.03652026876807213, 0.02722129411995411, -0.06528317928314209, 0.006734571419656277, -0.11750265955924988, -0.02310015819966793, 0.1464470773935318, -0.02321070060133934, 0.06606753915548325, -0.03594059869647026, -0.07161388546228409, 0.043292734771966934, -0.04056074842810631, 0.13415800034999847, 0.12493649870157242, -0.07762260735034943, 0.10323388874530792, 0.055098168551921844, -0.008118560537695885, 0.001113723497837782, -0.0423920638859272, 0.03194228187203407, -0.17336584627628326, -0.06504376977682114, 0.04783886298537254, 0.06956358253955841, -0.005256973206996918, 0.06036417931318283, 0.09342708438634872, -0.06996005028486252, 0.008373182266950607, 0.02605368196964264, -0.08065363764762878, 0.14974583685398102, -0.0631895586848259], [0.007184830028563738, 0.16409344971179962, -0.05311046913266182, -0.009107710793614388, 0.10852766782045364, 0.07291392982006073, 0.030918050557374954, -0.01691903918981552, -0.11130091547966003, 0.006522102747112513, -0.1618441641330719, 0.07249488681554794, 0.032652392983436584, -0.03099198080599308, -0.1983068883419037, 0.005320725031197071, 0.1624806970357895, -0.0286715030670166, 0.09791401028633118, 0.05887991562485695, 0.07204891741275787, -0.0043512680567801, 0.06194141134619713, 0.038661375641822815, 0.009491628035902977, -0.12628203630447388, -0.03270513564348221, 0.04916452616453171, -0.03437676653265953, 0.042673882097005844, 0.07811396569013596, 0.07939687371253967, -0.14862185716629028, -0.01908803917467594, -0.04535932093858719, -0.15440398454666138, -0.051610372960567474, 0.16498999297618866, 0.024000339210033417, 0.1554417461156845], [0.02168075181543827, 0.09886804968118668, 0.04974495992064476, 0.04185935854911804, 0.03580010309815407, 0.07349716126918793, -0.010903753340244293, -0.0249615665525198, 0.025728363543748856, 0.07756828516721725, -0.1252138316631317, 0.048313576728105545, 0.2023523449897766, 0.026360351592302322, 0.275193452835083, 0.06340095400810242, 0.0010432059643790126, 0.006541613023728132, 0.05958641320466995, -0.09193100780248642, 0.07466346770524979, -0.10690521448850632, 0.2538083493709564, 0.05666801333427429, -0.005785391200333834, -0.061533305794000626, -0.05255303531885147, 0.02317122556269169, 0.11100643873214722, 0.07046929001808167, 0.08477897197008133, -0.039835475385189056, -0.07002993673086166, -0.06531991809606552, 0.10402806848287582, 0.18878985941410065, 0.04975127801299095, -0.10221941769123077, 0.028840186074376106, -0.01282315980643034], [-0.047021180391311646, 0.08191628754138947, 0.019771043211221695, 0.04292689636349678, -0.12594188749790192, -0.03330482542514801, 0.09253571927547455, -0.21933911740779877, 0.025586960837244987, 0.08328250795602798, -0.14103007316589355, 0.07986530661582947, -0.010834600776433945, 0.04253461956977844, -0.1366330236196518, 0.15148164331912994, -0.10159385204315186, -0.014958204701542854, -0.023952746763825417, 0.0031504901126027107, -0.14373981952667236, -0.017259899526834488, -0.12157496064901352, 0.03593499958515167, 0.09977486729621887, -0.1033238098025322, -0.03850521147251129, -0.18912529945373535, -0.12161671370267868, 0.02917405776679516, -0.22598141431808472, 0.09637729078531265, -0.029699208214879036, -0.00038643943844363093, 0.003402994479984045, 0.04428243637084961, -0.1022503599524498, 0.021734926849603653, -0.01178964227437973, -0.005608075764030218], [0.035345327109098434, -0.07192160189151764, 0.05197390541434288, 0.07382010668516159, -0.019317403435707092, 0.15076574683189392, -0.038844384253025055, 0.15943874418735504, -0.009340200573205948, -0.23609758913516998, 0.050287652760744095, -0.13860398530960083, 0.013387463986873627, 0.15503491461277008, 0.0017188797937706113, 0.0034662573598325253, -0.10580369085073471, -0.01421593688428402, -0.08022227883338928, 0.0011243853950873017, 0.1064407080411911, -0.00819351151585579, -0.04390213266015053, -0.0754067674279213, -0.04040829464793205, -0.03794911503791809, -0.03768056258559227, -0.07461635023355484, 0.12620443105697632, -0.06318271160125732, -0.09635620564222336, -0.149835005402565, 0.04582257568836212, 0.03320726007223129, 0.1875201314687729, 0.0531192421913147, 0.08470827341079712, 0.09329340606927872, 0.10713492333889008, 0.13805833458900452], [-0.17645250260829926, 0.15552446246147156, -0.16201423108577728, 0.027602074667811394, -0.1219741702079773, 0.06661409139633179, 0.08096840977668762, 0.06083645299077034, -0.029121149331331253, -0.10161911696195602, 0.02937289886176586, 0.17914234101772308, 0.013831568881869316, -0.18097755312919617, -0.004759826697409153, 0.009855597279965878, 0.04290423542261124, -0.04646867886185646, -0.015270530246198177, 0.06938658654689789, 0.20026226341724396, -0.011830691248178482, 0.0066850208677351475, -0.08297804743051529, 0.05167249217629433, 0.0039044483564794064, 0.027894822880625725, 0.07718375325202942, -0.07818499207496643, -0.11807553470134735, -0.03927364572882652, 0.11591585725545883, 0.053123731166124344, -0.17033758759498596, -0.08014470338821411, -0.09861310571432114, 0.023884745314717293, 0.06319092959165573, 0.0020646925549954176, 0.029323812574148178], [-0.029709527269005775, 0.049588393419981, 0.0015590181574225426, -0.03332046791911125, 0.08672088384628296, 0.1310378909111023, -0.1769733726978302, 0.04573347419500351, 0.0352841317653656, 0.0787702277302742, -0.16400820016860962, -0.08545146882534027, 0.06939586997032166, 0.050626106560230255, -0.14275170862674713, -0.004562322981655598, 0.04430369660258293, -0.06400131434202194, 0.1908605545759201, 0.037560660392045975, -0.07966770231723785, 0.1338585913181305, -0.09952486306428909, 0.08710525184869766, 0.05937711149454117, 0.012602542527019978, 0.15993386507034302, -0.03538619354367256, -0.1128602921962738, -0.0034871683456003666, 0.1566551923751831, -0.02362770028412342, 0.022147560492157936, 0.04971081763505936, -0.025925911962985992, -0.014672334305942059, -0.059951599687337875, -0.03349313884973526, -0.04655863717198372, 0.04388405382633209], [0.16948796808719635, 0.03828119486570358, -0.007890723645687103, 0.18174117803573608, -0.10642903298139572, 0.01993226446211338, -0.07344704121351242, -0.022855712100863457, 0.014630199410021305, 0.05805063247680664, 0.07084739953279495, -0.08469732850790024, 0.04097124934196472, 0.0019012284465134144, -0.140515998005867, 0.1461411416530609, 0.07510487735271454, -0.06499387323856354, 0.06554840505123138, -0.03297961875796318, 0.05951999872922897, -0.0018942940514534712, -0.018739383667707443, -0.0010265576420351863, 0.03872750326991081, -0.12728385627269745, -0.07499223202466965, -0.03914006054401398, 0.13053643703460693, -0.11858445405960083, 0.09195712208747864, 0.12336807698011398, -0.0335301049053669, 0.16546811163425446, 0.03717656061053276, 0.0047228336334228516, 0.09218191355466843, 0.20043213665485382, -0.04453657567501068, 0.06740890443325043], [-0.10006915032863617, 0.020366501063108444, 0.16681437194347382, -0.0875481441617012, 0.023277511820197105, 0.19551752507686615, -0.01624765433371067, -0.0372905358672142, -0.02444421872496605, 0.014303326606750488, -0.09632749855518341, -0.05018853396177292, -0.007601712830364704, 0.044598378241062164, 0.12236316502094269, -0.21611221134662628, -0.02936505898833275, -0.028355790302157402, -0.04211633652448654, -0.003822077764198184, 0.07916366308927536, 0.028190841898322105, -0.10350802540779114, -0.01702640764415264, 0.15416531264781952, 0.039752792567014694, -0.0623183511197567, -0.12391883134841919, 0.0979083925485611, -0.14037677645683289, -0.08538239449262619, 0.07026056200265884, 0.007533987518399954, -0.12458549439907074, 0.09314748644828796, 0.016000479459762573, -0.02871549315750599, -0.13220471143722534, 0.14856645464897156, 0.11738274991512299], [0.10156252235174179, 0.1768116056919098, -0.00027131641400046647, -0.0008889640448614955, 0.10072147101163864, -0.10680148750543594, 0.14163127541542053, -0.10277349501848221, 0.024863557890057564, 0.014207283966243267, -0.03560129925608635, 0.10835502296686172, 0.028189554810523987, 0.08065174520015717, -0.07267027348279953, -0.08701173961162567, -0.022885961458086967, 0.09960517287254333, 0.2242656797170639, -0.010065813548862934, -0.05030830204486847, 0.016523290425539017, -0.05506003648042679, 0.001244006329216063, 0.04940289258956909, -0.10548834502696991, -0.016086459159851074, 0.17261812090873718, 0.0680001750588417, 0.01697509177029133, 0.04259113967418671, 0.06096740812063217, 0.0006472860113717616, -0.026924733072519302, -0.08014857023954391, -0.11448440700769424, -0.013365146704018116, 0.1904079169034958, 0.04941101372241974, -0.04539703577756882], [0.0066160536371171474, -0.03495888411998749, 0.016894446685910225, 0.1396382600069046, 0.033549439162015915, 0.0061631049029529095, -0.0315466970205307, 0.036261964589357376, 0.05978378653526306, -0.03672942891716957, 0.14579051733016968, -0.12814602255821228, 0.04152841866016388, -0.18600422143936157, -0.17753495275974274, -0.2696504294872284, 0.036526575684547424, 0.10862533748149872, -0.036534156650304794, 0.02914956584572792, -0.080509252846241, 0.041333407163619995, -0.09271983057260513, -0.17318786680698395, -0.08916148543357849, -0.14224722981452942, 0.061149317771196365, 0.028322981670498848, -0.11061468720436096, -0.04563092812895775, 0.04085464030504227, -0.06040027737617493, 0.11491521447896957, 0.08029196411371231, 0.10732144862413406, 0.2562461495399475, 0.043313778936862946, 0.006394225172698498, 0.11855772137641907, 0.06839865446090698], [0.025509845465421677, 0.006320851389318705, 0.06550930440425873, -0.04029975086450577, 0.014862260781228542, -0.047284286469221115, 0.027874309569597244, -0.2699640691280365, -0.04448677599430084, -0.06338183581829071, -0.0872798040509224, 0.003975685685873032, 0.06331941485404968, -0.0874996930360794, -0.20876681804656982, 0.16380678117275238, 0.07208465039730072, -0.04183736443519592, -0.01819610595703125, 0.037738122045993805, -0.07272898405790329, 0.1640404462814331, -0.18788807094097137, 0.027926720678806305, 0.04061761125922203, 0.09089232236146927, 0.032491717487573624, 0.03191973641514778, 0.05317620933055878, 0.2069104015827179, -0.003390600671991706, 0.14454379677772522, 0.06393880397081375, 0.14408430457115173, -0.04071199893951416, -0.062205929309129715, -0.04939984530210495, -0.004200853873044252, -0.033392466604709625, 0.045724548399448395], [0.2329591065645218, -0.011269072070717812, -0.12226364016532898, -0.06702470034360886, 0.013994786888360977, 0.10648946464061737, 0.08738738298416138, 0.02656746096909046, 0.027566270902752876, -0.01745816320180893, 0.07963909208774567, -0.06219663843512535, 0.06418199837207794, -0.11399964243173599, 0.03479832410812378, 0.010511036030948162, -0.21763519942760468, 0.0928182452917099, -0.10894174128770828, 0.037041231989860535, -0.19578438997268677, 0.0704648345708847, 0.008137838914990425, 0.00915814284235239, -0.06412330269813538, -0.09236851334571838, -0.05026691034436226, -0.06487137079238892, -0.013498017564415932, -0.04306233674287796, -0.004552478436380625, -0.033923327922821045, -0.010294994339346886, 0.005920905154198408, 0.10493926703929901, 0.014514901675283909, -0.051025841385126114, 0.015142512507736683, 0.051885057240724564, -0.12967365980148315], [0.0400959812104702, -0.01139683835208416, -0.1127350777387619, -0.1398979127407074, -0.13393253087997437, -0.01538831926882267, -0.07630886137485504, -0.14025849103927612, 0.20229633152484894, -0.14325788617134094, -0.13222748041152954, -0.01712697185575962, 0.08634526282548904, 0.06740647554397583, -0.008585765026509762, -0.11872715502977371, -0.0549013689160347, -0.0030702315270900726, -0.015593469142913818, 0.07613956183195114, -0.005129691679030657, -0.007196556311100721, -0.026308458298444748, 0.0828486904501915, 0.12391946464776993, -0.16822408139705658, 0.10862691700458527, -0.15329648554325104, 0.08431932330131531, 0.11590148508548737, 0.12777188420295715, -0.032229114323854446, -0.019401932135224342, 0.0018357086228206754, 0.024199772626161575, 0.03445357829332352, 0.09906531125307083, -0.10903368145227432, -0.0662980005145073, 0.038669049739837646], [-0.10577048361301422, 0.030938491225242615, -0.02674041874706745, 0.08175008744001389, -0.0898694321513176, -0.0635509192943573, -0.12001535296440125, 0.12337850034236908, -0.06292841583490372, 0.12935130298137665, -0.21078833937644958, 0.1025327816605568, -0.06406266987323761, 0.048610053956508636, -0.07351361215114594, -0.0020571197383105755, -0.08154027909040451, 0.0957477018237114, 0.035430874675512314, 0.200309619307518, 0.0814468264579773, 0.034943725913763046, 0.06451364606618881, 0.10624179244041443, -0.03293101117014885, -0.10345575958490372, -0.04169940575957298, 0.042021580040454865, 0.07862570136785507, 0.1017535999417305, -0.0492141991853714, 0.016840675845742226, 0.14520177245140076, 0.20105765759944916, -0.03394721448421478, 0.166656494140625, -0.008976344019174576, 0.05177285149693489, -0.040126293897628784, 0.013522366061806679], [0.03306357562541962, -0.012309589423239231, 0.0544886477291584, 0.09876152127981186, -0.052359290421009064, 0.010500661097466946, -0.04122075065970421, 0.0168012622743845, -0.028387131169438362, -0.10104669630527496, -0.0032807723619043827, -0.05761338770389557, 0.14452557265758514, 0.049265097826719284, -0.015947995707392693, 0.0369485542178154, -0.12375984340906143, 0.05496729537844658, 0.15464231371879578, -0.1366882473230362, -0.002179194940254092, 0.09935390949249268, -0.035893019288778305, -0.07926565408706665, -0.03320414945483208, 0.015123909339308739, 0.0379737988114357, 0.04724431037902832, -0.02603183127939701, -0.06842214614152908, -0.06506982445716858, -0.02985953539609909, 0.043690335005521774, -0.03293187543749809, -0.024511007592082024, -0.055498745292425156, -0.006845836527645588, 0.10340486466884613, -0.08854765444993973, -0.0777328610420227], [0.1478462666273117, -0.058375123888254166, -0.0318901352584362, 0.07618042081594467, -0.06417276710271835, -0.019993646070361137, -0.12517476081848145, -0.16025182604789734, -0.06820952147245407, 0.02869369089603424, -0.0841267928481102, -0.030308779329061508, 0.09096530824899673, 0.03258577361702919, 0.058931343257427216, 0.05008009076118469, -0.02612162008881569, -0.04819701239466667, 0.06273147463798523, 0.03021957352757454, 0.05781209468841553, -0.09956541657447815, -0.18200117349624634, 0.13346605002880096, -0.10035434365272522, 0.1349336802959442, 0.018851226195693016, 0.0684221088886261, -0.028649870306253433, 0.04951760545372963, -0.03413373604416847, 0.04471145197749138, 0.06122363731265068, -0.10070310533046722, 0.12800021469593048, 0.01214604638516903, 0.05586736276745796, 0.06503982841968536, 0.1478089839220047, 0.043692704290151596], [-0.017422059550881386, 0.08234503120183945, -0.08088590949773788, 0.10656291991472244, 0.06523340195417404, -0.007123264018446207, 0.005852401256561279, -0.00881560705602169, -0.008029229938983917, -0.01865878328680992, -0.03477346524596214, 0.03923599794507027, 0.05104941502213478, -0.033611226826906204, -0.11127626895904541, 0.048064880073070526, 0.028151068836450577, 0.02824298106133938, 0.01071853842586279, -0.10781236737966537, -0.11439565569162369, -0.10757236927747726, -0.05373213067650795, 0.08285962045192719, 0.017738239839673042, 0.21941928565502167, -0.06496349722146988, 0.05497073382139206, -0.012951815500855446, -0.02510693483054638, 0.06701129674911499, 0.044679272919893265, 0.011107205413281918, -0.014599667862057686, -0.0026275175623595715, -0.04291077330708504, 0.11714477837085724, 0.018336206674575806, -0.08786505460739136, 0.14352187514305115], [-0.04476017877459526, 0.04423883184790611, 0.09939281642436981, -0.02397998422384262, 0.04490203782916069, -0.012637107633054256, 0.04873977601528168, 0.04809139296412468, 0.06656169146299362, -0.09598860889673233, -0.28174519538879395, 0.060711417347192764, 0.0983346626162529, -0.06458175182342529, -0.060478705912828445, -0.18927636742591858, -0.02760292775928974, 0.1186157613992691, 0.050365399569272995, -0.1296221911907196, 0.11038242280483246, -0.029316112399101257, 0.087739959359169, -0.1345861554145813, 0.10039173811674118, 0.2643132209777832, 0.1513572633266449, -0.0737069845199585, 0.02966739796102047, 0.1025964692234993, 0.0523420013487339, -0.1762910932302475, 0.13762317597866058, -0.1586754471063614, -0.03076433204114437, -0.03348920866847038, 0.1373496651649475, 0.035886116325855255, 0.11307436972856522, -0.06361747533082962], [0.16548027098178864, 0.029209567233920097, 0.030560070648789406, 0.08861140161752701, -0.05488413944840431, -0.17416468262672424, 0.11543318629264832, -0.006439276970922947, 0.10804881900548935, 0.11366705596446991, -0.02423103153705597, -0.0007912337896414101, -0.13127604126930237, 0.007656327448785305, -0.0368773490190506, 0.08349703997373581, -0.044134724885225296, 0.08313493430614471, -0.009141970425844193, -0.01131447497755289, 0.09467412531375885, 0.035390838980674744, 0.03181694075465202, -0.20503798127174377, -0.06533731520175934, -0.09885911643505096, -0.03803649917244911, -0.070743627846241, 0.02162163518369198, 0.08016285300254822, 0.07623640447854996, -0.10220563411712646, -0.06714244931936264, -0.0830906555056572, 0.018833400681614876, -0.0710391253232956, 0.06891974061727524, -0.17835237085819244, -0.20627766847610474, 0.17230862379074097], [0.08568619191646576, 0.01429254561662674, 0.05793207883834839, -0.04299748316407204, 0.18357571959495544, 0.09658349305391312, 0.012144307605922222, -0.1392732858657837, -0.04230586811900139, -0.004679144825786352, -0.08439429104328156, 0.06604161858558655, -0.04915956035256386, 0.05084837228059769, 0.0681394413113594, -0.03455998748540878, -0.06528036296367645, -0.08499691635370255, 0.007197599392384291, 0.004679663106799126, 0.1292034536600113, -0.02663390524685383, 0.03099927492439747, -0.06672940403223038, -0.1347053200006485, 0.06852761656045914, -0.06800004094839096, 0.01193296816200018, 0.03389611095190048, -0.06372123956680298, -0.013647647574543953, 0.08155608922243118, 0.07741912454366684, -0.1205388680100441, -0.02810847759246826, -0.15172645449638367, 0.11048843711614609, 0.1201455146074295, -0.25480952858924866, -0.048947107046842575], [0.14060132205486298, -0.03897246718406677, -0.15481024980545044, 0.05209719389677048, -0.010346260853111744, 0.08555354923009872, -0.013246945105493069, -0.07159055769443512, -0.061114631593227386, -0.10067671537399292, 0.13753728568553925, -0.07253622263669968, -0.052193377166986465, 0.08764204382896423, 0.0022905459627509117, 0.11277342587709427, -0.15227404236793518, 0.09071888774633408, -0.03240656480193138, -0.045139968395233154, -0.13554348051548004, 0.10757236927747726, 0.1168174147605896, 0.026634197682142258, -0.16528582572937012, -0.014133820310235023, 0.18125447630882263, -0.06932136416435242, -0.061088789254426956, 0.06806892156600952, 0.012714219279587269, 0.10734572261571884, -0.008047446608543396, 0.006381543818861246, -0.09021686762571335, 0.19018325209617615, -0.09491585195064545, -0.035257454961538315, -0.08026168495416641, 0.06556901335716248], [0.17520847916603088, 0.018792053684592247, -0.021923890337347984, -0.05211777985095978, 0.0618988573551178, 0.004614394158124924, 0.046683404594659805, 0.08956707268953323, -0.04543863981962204, 0.05824869126081467, -0.040817901492118835, 0.04985092952847481, 0.023580318316817284, -0.05572851374745369, 0.05373512953519821, -0.15189914405345917, 0.17797641456127167, -0.057592540979385376, 0.07449716329574585, 0.10290714353322983, -0.005687174387276173, -0.023624520748853683, 0.005973088089376688, 0.056252993643283844, -0.004629008937627077, 0.014250649139285088, 0.03270656615495682, -0.1728438287973404, 0.04165015369653702, -0.04270651564002037, 0.0430462546646595, 0.012810183688998222, -0.04508471488952637, -0.11820647120475769, 0.03925285115838051, 0.09517858922481537, -0.10332833230495453, 0.1657397747039795, 0.006313174497336149, 0.004125669598579407], [0.03374950587749481, 0.03154008090496063, 0.00912924949079752, 0.07621710002422333, -0.12257668375968933, 0.15012486279010773, -0.005057238508015871, -0.0019259045366197824, -0.14842741191387177, -0.15612418949604034, -0.033682938665151596, -0.03282609581947327, -0.07400244474411011, -0.15789659321308136, -0.053949177265167236, -0.016491159796714783, -0.15875917673110962, 0.12263944745063782, 0.03886554762721062, -0.16038820147514343, -0.012239797972142696, -0.12680527567863464, 0.007460049819201231, 0.11368093639612198, 0.0802232027053833, -0.07838130742311478, -0.06676892191171646, 0.07434707880020142, 0.018827704712748528, 0.052654556930065155, 0.0009111975668929517, 0.052164770662784576, 0.035604868084192276, -0.15802234411239624, -0.09656412154436111, 0.09266337752342224, 0.0072274054400622845, -0.1619485467672348, -0.08851054310798645, -0.045716844499111176], [-0.10045793652534485, 0.013766289688646793, -0.13275092840194702, -0.04130776971578598, 0.03545099124312401, -0.19229094684123993, -0.012994267046451569, 0.07421162724494934, -0.05294538661837578, -0.18717695772647858, -0.024391619488596916, -0.014231878332793713, 0.1469908505678177, -0.01797134056687355, -0.14033184945583344, 0.023182924836874008, 0.10231801867485046, -0.15078416466712952, -0.03081509843468666, -0.12350951135158539, 0.060023337602615356, 0.01787068322300911, -0.020949386060237885, 0.06099194660782814, 0.00831279531121254, -0.016341181471943855, -0.03677542135119438, 0.05574047937989235, -0.058991432189941406, -0.04675872623920441, -0.1676507145166397, -0.04389646276831627, -0.09783914685249329, -0.0418640598654747, -0.02837570756673813, -0.02172461524605751, 0.03010648861527443, -0.07493092119693756, -0.03417838364839554, -0.038898859173059464], [0.02088395692408085, -0.06669596582651138, 0.13805964589118958, 0.06488858908414841, -0.09522783756256104, 0.09723727405071259, -0.023824337869882584, -0.09925802797079086, -0.11736982315778732, -0.026008160784840584, -0.08267912268638611, 0.02464376389980316, 0.12555131316184998, 0.08921819925308228, 0.020680712535977364, 0.0497920960187912, -0.1437007486820221, 0.09855625778436661, 0.006062347441911697, 0.1171940341591835, 0.10439629852771759, -0.07984823733568192, -0.009139440953731537, -0.05370361730456352, 0.06803703308105469, 0.023476727306842804, 0.015721214935183525, 0.02312358282506466, -0.02390502206981182, -0.06346312910318375, -0.042544566094875336, 0.03534851595759392, -0.1692858636379242, 0.014448142610490322, -0.11265578120946884, 0.026485012844204903, 0.045982714742422104, 0.1076374426484108, 0.10124530643224716, 0.08506885915994644], [-0.04160506650805473, 0.10407373309135437, 0.077884741127491, -0.129274383187294, -0.025481978431344032, 0.016678104177117348, -0.06439286470413208, -0.010383040644228458, 0.21494513750076294, 0.1176525205373764, -0.01010809000581503, 0.09742686152458191, 0.01374666579067707, -0.018523285165429115, 0.038997624069452286, -0.06782011687755585, -0.06811917573213577, -0.00813114270567894, -0.07524885982275009, -0.0038006973918527365, -0.03266066685318947, -0.06198159232735634, -0.007479426916688681, 0.027478571981191635, -0.08252458274364471, -0.1509895622730255, -0.11699467897415161, -0.1574225276708603, -0.08545050770044327, 0.014287550002336502, 0.0767250582575798, -0.15579351782798767, 0.05265530198812485, -0.05376168712973595, -0.2037331461906433, 0.1860632449388504, -0.16574375331401825, 0.024350730702280998, 0.07656218111515045, -0.04310726746916771], [0.027095548808574677, -0.01458070520311594, -0.05123507231473923, 0.06262499839067459, -0.24109448492527008, -0.06750952452421188, -0.019888853654265404, 0.016020169481635094, -0.0022582977544516325, -0.10375319421291351, 0.05817240849137306, -0.120147705078125, -0.03610659018158913, 0.08609040826559067, -0.013965176418423653, 0.07458952069282532, 0.016920121386647224, 0.013019523583352566, 0.07019764184951782, 0.09020422399044037, -0.12465972453355789, 0.11802291125059128, 0.00011111752974102274, 0.06725519895553589, -0.02148144133388996, -0.10605746507644653, -0.02419375441968441, 0.024563586339354515, 0.02834237739443779, -0.12917128205299377, 0.00112939125392586, -0.06436675041913986, -0.038878392428159714, -0.08775612711906433, 0.014789431355893612, 0.015557199716567993, 0.029491128399968147, -0.08370932191610336, -0.010485860519111156, 0.0173204205930233], [-0.0033213081769645214, 0.06754786521196365, 0.12162324786186218, -0.011636214330792427, 0.06254605948925018, -0.07668446004390717, -0.16663694381713867, 0.13774412870407104, -0.01182149164378643, -0.23169448971748352, -0.08799499273300171, 0.05513523519039154, -0.03140169754624367, 0.0976731926202774, 0.05205212160944939, 0.08287884294986725, -0.14642667770385742, 0.13709257543087006, 0.04277129843831062, -0.022974316030740738, 0.0078018056228756905, -0.10065029561519623, 0.0491502583026886, -0.03853031247854233, -0.18233904242515564, 0.10387744009494781, -0.11242108792066574, 0.0694928839802742, -0.041449666023254395, -0.05159599706530571, -0.00865682028234005, 0.10443312674760818, 0.057269904762506485, -0.05206458643078804, -0.05041572079062462, 0.06409510970115662, -0.06567338109016418, -0.031034527346491814, 0.04037117213010788, 0.03774291276931763], [0.059765834361314774, 0.1461392045021057, 0.04814983159303665, -0.10647056251764297, -0.11714568734169006, 0.030046040192246437, 0.04214363917708397, 0.028958359733223915, -0.24483075737953186, -0.0029499561060220003, 0.0454004742205143, -0.006911369971930981, 0.01739988476037979, -0.05299002677202225, -0.00854721199721098, -0.04303137958049774, 0.023266702890396118, -0.025155749171972275, 0.023825734853744507, 0.040560103952884674, 0.055580854415893555, 0.0716196820139885, 0.11940601468086243, -0.035609565675258636, 0.014289685525000095, -0.15527135133743286, -0.012808777391910553, 0.026070760563015938, -0.23194558918476105, -0.058284349739551544, 0.13755261898040771, -0.0249981340020895, 0.1353667676448822, 0.05685456097126007, 0.171885684132576, -0.08300933241844177, -0.08121837675571442, 0.08762788772583008, 0.22540535032749176, 0.0567253939807415], [0.11683528870344162, -0.070371612906456, 0.11368481069803238, 0.1094479039311409, -0.053574975579977036, 0.00968665350228548, 0.046773605048656464, 0.1375666707754135, -0.10115626454353333, -0.2332853525876999, 0.1164700984954834, -0.050473496317863464, 0.01879046857357025, 0.11444113403558731, -0.05455285310745239, 0.11695347726345062, -0.062057431787252426, -0.22632446885108948, 0.029518870636820793, -0.016554294154047966, 0.03988180309534073, -0.17673583328723907, -0.0005682079936377704, 0.05420919135212898, 0.030158458277583122, 0.11365405470132828, 0.0963018387556076, 0.051517535001039505, -0.07989351451396942, -0.0861218050122261, 0.08664281666278839, -0.1399303525686264, -0.021713465452194214, 0.0007730390643700957, -0.010071611031889915, -0.011510978452861309, -0.17829753458499908, -0.04855410009622574, 0.007694827392697334, 0.07015092670917511], [-0.08901478350162506, 0.056742921471595764, -0.10698990523815155, 0.12683002650737762, -0.05335152521729469, 0.10927559435367584, 0.006385624408721924, 0.16499146819114685, 0.021737536415457726, -0.02797691337764263, 0.07929723709821701, -0.15383076667785645, -0.024200696498155594, -0.08532954007387161, 0.025550859048962593, 0.09649583697319031, 0.051468219608068466, -0.23156219720840454, 0.11453329026699066, -0.07571763545274734, -0.04268768057227135, -0.10097727179527283, -0.1089286208152771, -0.14791926741600037, 0.04968089237809181, 0.021990951150655746, -0.11380024254322052, 0.016142437234520912, -0.024479199200868607, -0.012332539074122906, -0.06224801763892174, 0.02243243344128132, -0.09597762674093246, -0.11359456181526184, -0.12208396196365356, -0.053436148911714554, -0.09992484748363495, 0.06971433013677597, 0.13423362374305725, -0.04628538712859154], [-0.04100658744573593, -0.009394765831530094, 0.013085126876831055, -0.04632257670164108, -0.03211277350783348, -0.027329375967383385, 0.07659360766410828, 0.012857530266046524, -0.13651862740516663, 0.15616920590400696, 0.05965712293982506, 0.05096527561545372, 0.022415952757000923, -0.163542240858078, -0.08923456072807312, 0.058126840740442276, -0.04576890543103218, -0.11613880842924118, 0.02830992080271244, 0.004384578671306372, 0.026212649419903755, 0.0008668658556416631, 0.09948157519102097, -0.05015118792653084, 0.08637627959251404, 0.03080431930720806, -0.08046472817659378, 0.06593241542577744, 0.08777452260255814, -0.12855686247348785, -0.023514114320278168, 0.015348557382822037, -0.04993439093232155, 0.021863402798771858, -0.032823774963617325, -0.02212049812078476, -0.006400357000529766, 0.06629550457000732, -0.04259253665804863, -0.12861664593219757], [0.07662151753902435, -0.06748438626527786, 0.09129443019628525, 0.01876695454120636, 0.09938512742519379, 0.010058456100523472, -0.018511256203055382, 0.10044160485267639, -0.1541758030653, -0.114551842212677, -0.15967313945293427, 0.023660993203520775, -0.18856608867645264, -0.06739228963851929, -0.08985110372304916, -0.13476286828517914, 0.1406935304403305, 0.028297975659370422, -0.14521566033363342, -0.1063912883400917, 0.08664043247699738, 0.006663162261247635, -0.006269332952797413, -0.008881264366209507, 0.19676806032657623, -0.056502312421798706, -0.0839703232049942, 0.011169573292136192, -0.19353517889976501, -0.17169390618801117, -0.11186101287603378, 0.06296589225530624, -0.07091594487428665, 0.17320501804351807, 0.14753375947475433, -0.09492645412683487, 0.052306003868579865, 0.05423121899366379, 0.032207511365413666, -0.04278923571109772], [0.10710551589727402, 0.09162086248397827, 0.1281137466430664, 0.0001202516577905044, -0.09612111002206802, -0.0008568241610191762, -0.14759661257266998, -0.0514313243329525, -0.04073575884103775, -0.07027596235275269, 0.015171156264841557, 0.025796134024858475, 0.0208624005317688, 0.0730578675866127, 0.011055642738938332, -0.11604947596788406, -0.12516817450523376, -0.10464568436145782, 0.06489986181259155, 0.1370505690574646, 0.060888390988111496, 0.07797923684120178, -0.04526233300566673, -0.04868919774889946, 0.16571380198001862, 0.011099645867943764, -0.14599700272083282, 0.10423624515533447, 0.05029679462313652, -0.05691812187433243, -0.06168065965175629, 0.06400986015796661, 0.16978752613067627, -0.09767713397741318, 0.0670873150229454, -0.17044280469417572, -0.05447152256965637, 0.01763753965497017, -0.03916012495756149, -0.043322861194610596], [-0.027416257187724113, 0.06389148533344269, -0.02414597012102604, -0.11374712735414505, 0.13443535566329956, 0.07130935043096542, 0.0401981845498085, 0.04416941478848457, -0.1528061330318451, -0.009725297801196575, 0.020792771130800247, 0.04357686638832092, 0.09857390075922012, -0.09732862561941147, 0.15100710093975067, -0.046551983803510666, -0.050120268017053604, 0.0030258430633693933, 0.07782473415136337, 0.11996954679489136, -0.13702574372291565, 0.07244942337274551, -0.031344953924417496, -0.11139944940805435, 0.046890489757061005, -0.0006802764837630093, 0.12826204299926758, -0.08405751734972, 0.177072674036026, -0.082334965467453, -0.004252748563885689, -0.0027118914294987917, -0.01883053034543991, -0.03109051287174225, 0.041675932705402374, 0.001401108456775546, -0.052119553089141846, -0.04166319593787193, 0.0936504527926445, 0.0222470723092556], [0.03573744371533394, 0.16394023597240448, -0.08102835714817047, -0.04494062811136246, -0.03683067485690117, 0.04358832538127899, -0.08920594304800034, 0.013397038914263248, -0.09959543496370316, -0.0215867031365633, -0.06515884399414062, 0.12201960384845734, -0.02853497862815857, -0.09142115712165833, -0.010567800141870975, 0.09636500477790833, -0.11840569972991943, -0.09338804334402084, 0.028759179636836052, 0.005135688930749893, 0.08213797211647034, 0.11004243791103363, -0.0805802047252655, 0.01360150147229433, -0.04533248394727707, -0.051225125789642334, -0.044384267181158066, 0.0256771482527256, -0.02844933047890663, 0.0440344512462616, -0.004561249166727066, -0.06687147170305252, -0.014095199294388294, -0.017318975180387497, 0.10119958966970444, -0.009494765661656857, -0.0161579679697752, 0.006177936214953661, -0.09225855767726898, -0.05056608095765114], [0.007494525983929634, 0.0020351314451545477, -0.21295985579490662, -0.12687839567661285, 0.04798310995101929, -0.04732811078429222, -0.0036925228778272867, 0.0028072127606719732, -0.01605181396007538, -0.07518897950649261, -0.1193871945142746, -0.014727802947163582, 0.022420484572649002, -0.2088945508003235, -0.09622414410114288, 0.017876921221613884, -0.04905540123581886, 0.1055501252412796, 0.05460686236619949, 0.08821941912174225, -0.005440130829811096, -0.08708654344081879, -0.08600463718175888, -0.06581917405128479, 0.00754573056474328, -0.011690935119986534, -0.07638216018676758, 0.026800010353326797, 0.041721977293491364, -0.004243858158588409, 0.04541289061307907, 0.038760844618082047, -0.07765917479991913, 0.05804963409900665, -0.03936636820435524, -0.046829015016555786, 0.15174302458763123, -0.10727417469024658, 0.07276732474565506, 0.24781487882137299], [0.012817366048693657, -0.10667220503091812, -0.07864601910114288, -0.03293966129422188, -0.04171702265739441, -0.042434465140104294, -0.0063506318256258965, 0.15374229848384857, 0.024950366467237473, 0.1331016719341278, 0.05211606249213219, 0.026126913726329803, -0.0024531539529561996, -0.02972348779439926, -0.09917739033699036, 0.05423889681696892, -0.1019381731748581, 0.049234677106142044, 0.08850239217281342, -0.1502050906419754, 0.08335378766059875, 0.13577616214752197, -0.0056160385720431805, 0.09605610370635986, 0.04155935347080231, 0.08188624680042267, -0.10668684542179108, -0.061615992337465286, 0.028704453259706497, -0.022528354078531265, -0.04740837961435318, -0.04519623517990112, -0.11284063756465912, 0.013668064959347248, 0.08048490434885025, -0.04582726210355759, -0.008717525750398636, 0.08665275573730469, -0.07368886470794678, 0.023993641138076782], [-0.03619037941098213, 0.10533428937196732, -0.048184920102357864, 0.022831620648503304, 0.1852414608001709, 0.0021855353843420744, 0.07725617289543152, 0.06563727557659149, 0.047687362879514694, -0.020027941092848778, -0.03773822635412216, 0.12501879036426544, -0.12619280815124512, 0.11573774367570877, 0.08267731964588165, -0.11992285400629044, -0.07515730708837509, 0.11129795759916306, 0.1105123907327652, -0.06417203694581985, 0.005433287005871534, 0.13201521337032318, -0.18923211097717285, -0.10479333996772766, -0.009190025739371777, -0.03554748743772507, -0.12271343171596527, 0.07184148579835892, -0.1109577864408493, 0.09104666113853455, -0.04415681213140488, 0.14121463894844055, 0.030434446409344673, 0.0907837375998497, 0.06202178820967674, 0.0034425007179379463, 0.053653500974178314, 0.06480538100004196, -0.030329136177897453, 0.03636171668767929], [-0.09460600465536118, 0.07288941740989685, 0.15099605917930603, 0.11966848373413086, 0.04988694190979004, 0.02031794749200344, 0.06266734004020691, 0.11888682097196579, -0.019702119752764702, 0.11213599145412445, 0.15115076303482056, -0.014106332324445248, 0.09351468831300735, 0.019224010407924652, 0.18805347383022308, 0.09385997802019119, -0.12887127697467804, 0.08354101330041885, -0.04544350504875183, 0.017695309594273567, 0.1448466032743454, 0.03761511296033859, -0.03025618940591812, 0.1484791338443756, -0.00973700825124979, 0.05819762125611305, -0.10817104578018188, -0.035775162279605865, 0.05008946731686592, -0.061168916523456573, -0.004236619453877211, 0.035497356206178665, 0.028011079877614975, 0.1350458860397339, 0.024597980082035065, -0.056062743067741394, 0.04171799123287201, -0.02810896560549736, 0.03845705837011337, -0.05624016746878624], [-0.008919747546315193, -0.15247967839241028, 0.1092013269662857, -0.029573485255241394, -0.028675895184278488, -0.0963737890124321, 0.06676340848207474, -0.16321830451488495, 0.03524906933307648, -0.18156594038009644, 0.008584289811551571, 0.040764160454273224, 0.04880227521061897, 0.030263345688581467, -0.011678461916744709, 0.0019437781302258372, 0.08376048505306244, -0.012880969792604446, 0.15283693373203278, 0.03927210345864296, -0.12292374670505524, -0.045460011810064316, 0.1978532075881958, -0.022363727912306786, -0.04260667413473129, 0.00674437964335084, 0.06926319003105164, 0.06353092938661575, 0.04566856846213341, -0.18071798980236053, -0.04438586160540581, -0.02344866655766964, -0.12491468340158463, 0.008094258606433868, 0.09757165610790253, -0.0793827623128891, -0.0655878484249115, -0.07450183480978012, -0.05525719001889229, 0.03243454173207283], [-0.026947088539600372, -0.08696185797452927, -0.04226848483085632, -0.16997288167476654, 0.0058587645180523396, -0.08323006331920624, -0.02372814528644085, -0.1043243482708931, -0.06287231296300888, -0.03206343576312065, 0.028474416583776474, -0.027173688635230064, 0.13041920959949493, -0.0588151179254055, -0.11570651829242706, -0.009432877413928509, -0.21610353887081146, 0.13495783507823944, 0.1287112832069397, 0.024701274931430817, -0.05162849649786949, 0.026296522468328476, -0.01395292580127716, -0.06752000004053116, 0.04862818494439125, -0.00667597958818078, 0.09692857414484024, 0.04780610650777817, -0.0842583104968071, -0.03081333078444004, -0.09259679168462753, -0.05018094182014465, 0.08273235708475113, -0.11998112499713898, 0.05521399900317192, -0.054938409477472305, -0.056452251970767975, -0.07003776729106903, -0.1558709740638733, -0.027474770322442055], [-0.09416983276605606, -0.07210534811019897, -0.03174185752868652, -0.039039526134729385, 0.01851591281592846, 0.016907336190342903, 0.07039450854063034, 0.07100021094083786, 0.041365865617990494, 0.0003393519436940551, -0.05190317705273628, 0.015639962628483772, 0.05894169211387634, 0.028186669573187828, 0.06517598032951355, 0.1441301554441452, 0.05222231522202492, -0.002681878162547946, 0.023550905287265778, 0.003008319530636072, -0.0018813902279362082, 0.03015773929655552, -0.07077521830797195, -0.15582434833049774, -0.01898251660168171, -0.026131559163331985, 0.11067359894514084, -0.08058088272809982, 0.10481814295053482, 0.017324142158031464, 0.1622856706380844, 0.10567263513803482, 0.18779154121875763, -0.012396146543323994, 0.03719165176153183, -0.0065083797089755535, -0.09263256192207336, 0.14764437079429626, -0.028315994888544083, -0.025278383865952492], [-0.02714565396308899, 0.044197551906108856, 0.05016583949327469, 0.01938854530453682, -0.054052241146564484, 0.1214289516210556, 0.06407175958156586, -0.039737340062856674, -0.017363345250487328, -0.04356352239847183, 0.061242494732141495, 0.070867158472538, 0.003157753963023424, 0.05768439918756485, 0.14392031729221344, 0.04159858450293541, -0.05550030246376991, 0.10949045419692993, 0.16642607748508453, 0.12427394092082977, 0.03338790684938431, -0.09337168186903, -0.07872243225574493, 0.07895512133836746, 0.015349128283560276, 0.14647898077964783, -0.06891968846321106, -0.010269366204738617, -0.06931129842996597, -0.025021705776453018, -0.08938601613044739, 0.08006110042333603, 0.07333216816186905, 0.1203792467713356, -0.12586316466331482, 0.02975635603070259, 0.03470151871442795, -0.0863862931728363, -0.15638093650341034, -0.10026111453771591], [0.007894801907241344, -0.04563389718532562, -0.07863596826791763, 0.09163375198841095, 0.05567280575633049, -0.0002551702782511711, 0.0645034983754158, 0.010822530835866928, 0.11005420982837677, 0.03416680917143822, 0.02057814598083496, -0.06853923201560974, -0.041908033192157745, 0.10334455966949463, 0.038571976125240326, 0.03170337155461311, -0.059971075505018234, -0.09277072548866272, -0.07251501083374023, 0.0893731564283371, 0.0904865711927414, 0.023891493678092957, -0.025187265127897263, 0.10546199232339859, 0.05459658429026604, 0.04844134300947189, 0.1121523305773735, -0.006271229591220617, -0.10398464649915695, 0.06987059116363525, -0.11835777014493942, -0.09319213032722473, -0.1142941415309906, 0.16281089186668396, -0.020449407398700714, -0.2119034230709076, -0.12181717902421951, -0.03625649958848953, -0.05788883566856384, 0.02557196281850338], [0.07870062440633774, -0.05649006366729736, 0.014843727461993694, 0.08255521953105927, 0.0194003414362669, 0.01159829180687666, 0.10637666285037994, -0.05222884938120842, 0.17008328437805176, 0.044114209711551666, 0.061351437121629715, -0.03647942468523979, -0.022770844399929047, 0.018390322104096413, 0.15185828506946564, 0.0171721950173378, -0.18354834616184235, 0.04439033567905426, 0.14677445590496063, -0.021722976118326187, -0.06809661537408829, -0.12152695655822754, -0.03118540160357952, -0.05441790074110031, -0.038740117102861404, -0.11817318946123123, -0.05553014203906059, -0.025169281288981438, 0.01299577672034502, 0.026436273008584976, -0.13558387756347656, -0.1610892415046692, 0.11981996148824692, 0.08606667816638947, -0.04819884151220322, -0.11385566741228104, -0.02497539296746254, -0.03380497172474861, -0.16563543677330017, 0.0785183236002922], [-0.00729161174967885, -0.0698084756731987, 0.05430437996983528, 0.1252364069223404, -0.14320632815361023, 0.05556374043226242, -0.08986111730337143, 0.07050274312496185, -0.014921859838068485, -0.02602757140994072, 0.048666346818208694, 0.10203143209218979, 0.0023101926781237125, 0.08028148859739304, 0.04130381718277931, -0.047473546117544174, -0.006256599444895983, 0.06745079904794693, -0.026729751378297806, -0.015826528891921043, 0.1584804505109787, 0.14139804244041443, -0.07827766239643097, 0.06758379191160202, 0.2269112765789032, -0.10374224185943604, 0.04096965119242668, -0.15273799002170563, -0.010840258561074734, -0.04772620648145676, -0.12492656707763672, 0.025796115398406982, 0.1256883293390274, -0.0323590524494648, 0.036331016570329666, 0.09135206788778305, 0.0032910415902733803, -0.027739813551306725, 0.04600711166858673, 0.0138310631737113], [-0.04640108346939087, 0.15305660665035248, -0.030521485954523087, 0.02933022938668728, -0.08888357877731323, 0.047779470682144165, -0.040274787694215775, 0.043972477316856384, -0.05341291055083275, -0.09594132751226425, -0.10112770646810532, 0.1381983608007431, -0.0069765062071383, 0.028001727536320686, 0.05448879301548004, 0.015618202276527882, -0.006592026446014643, -0.05577992647886276, -0.0861542746424675, -0.10881712287664413, -0.11792565882205963, 0.010921938344836235, -0.11085748672485352, -0.06502100825309753, -0.13737522065639496, 0.0572914220392704, 0.10217801481485367, 0.10942959040403366, 0.0296341460198164, -0.2613929510116577, 0.17773953080177307, -0.04274160414934158, 0.05551104247570038, 0.04497620835900307, 0.0415370874106884, 0.08098052442073822, 0.08689559251070023, 0.16902588307857513, 0.051591794937849045, -0.04030235856771469], [-0.10034463554620743, 0.10745483636856079, -0.0266855638474226, -0.08260507136583328, 0.006407842505723238, -0.19576396048069, -0.07280593365430832, 0.03358573839068413, -0.0943329781293869, -0.08106420189142227, -0.1348240077495575, -0.03175846487283707, -0.060231614857912064, -0.13868722319602966, -0.005739155691117048, 0.05681218206882477, -0.09266825020313263, -0.14152728021144867, -0.06321395933628082, -0.0010000590700656176, -0.08844298869371414, 0.022682812064886093, 0.1525154560804367, 0.1288578063249588, 0.08036042749881744, 0.018309563398361206, -0.1486668884754181, -0.06611066311597824, 0.10928703099489212, -0.018208282068371773, -0.041586220264434814, -0.11963807046413422, -0.0013497606851160526, -0.04801582917571068, -0.041605401784181595, -0.0860636755824089, -0.06285637617111206, -0.13921338319778442, -0.09892208129167557, 0.06864821165800095], [0.061541397124528885, 0.02664712257683277, 0.05432509258389473, -0.18037906289100647, 0.07619353383779526, -0.054532457143068314, -0.0552339032292366, -0.05378837510943413, -0.009639481082558632, -0.23173247277736664, 0.038473762571811676, -0.10752911120653152, 0.10234642773866653, 0.1210530623793602, 0.012404348701238632, -0.06358537822961807, -0.05118035525083542, 0.03595709800720215, 0.032032497227191925, 0.049583800137043, -0.0293413233011961, -0.06804069876670837, -0.11063503473997116, 0.05014524608850479, 0.007369026076048613, 0.013215933926403522, 0.07661447674036026, 0.03633005544543266, -0.10271117091178894, 0.025345230475068092, 0.16812673211097717, 0.03441202640533447, -0.08648047596216202, 0.010677637532353401, -0.004190168343484402, -0.012755241245031357, -0.0186727624386549, -0.022000061348080635, 0.0696340799331665, -0.12777955830097198], [0.018321750685572624, -0.11978806555271149, 0.09879026561975479, 0.0203359667211771, -0.017117241397500038, -0.034532949328422546, -0.03848002105951309, -0.03090878576040268, 0.09679005295038223, 0.13671529293060303, 0.025688476860523224, 0.021199526265263557, -0.16819779574871063, -0.11063526570796967, 0.023068567737936974, -0.05624021217226982, 0.15463946759700775, -0.09066873043775558, 0.16536228358745575, -0.16931374371051788, -0.035804685205221176, -0.11458571255207062, -0.10239466279745102, -0.13353553414344788, 0.0741375982761383, 0.10482030361890793, -0.07489485293626785, 0.059775009751319885, -0.05139473080635071, 0.07126010954380035, 0.06472346931695938, 0.0041980077512562275, 0.041085679084062576, 0.00423244945704937, 0.028271811082959175, 0.128814697265625, -0.01074233278632164, 0.09047812968492508, -0.07861676812171936, 0.09563819319009781], [-0.0804731547832489, -0.005762782879173756, 0.10507965087890625, 0.032165028154850006, -0.07708261162042618, 0.10972561687231064, 0.031105274334549904, 0.20351022481918335, -0.0017697352450340986, 0.11466313153505325, -0.021320274099707603, 0.09632014483213425, 0.005818399600684643, 0.11801373213529587, 0.01093550305813551, -0.12341594696044922, 0.013354544527828693, 0.1518474966287613, 0.08444821834564209, -0.04602690786123276, 0.09774144738912582, 0.1110437735915184, 0.027810052037239075, 0.11720119416713715, 0.08550596237182617, 0.03238150104880333, -0.04549034684896469, 0.0966588631272316, 0.033623676747083664, 0.07342634350061417, -0.05983106419444084, -0.21774493157863617, -0.04006776958703995, -0.09149148315191269, -0.07642126083374023, 0.07249835878610611, 0.10438177734613419, -0.024934496730566025, -0.03970308229327202, 0.032491665333509445], [0.027922825887799263, -0.07624420523643494, -0.0930706262588501, -0.025194115936756134, -0.06194353848695755, -0.0024599593598395586, 0.04028281569480896, 0.035360053181648254, 0.03196386620402336, -0.11613517999649048, 0.08796098083257675, -0.0048899524845182896, 0.005344423931092024, 0.0015206910902634263, -0.03934985026717186, 0.1249639242887497, 0.016891127452254295, 0.02064669504761696, 0.03154454007744789, 0.06177176535129547, -0.03919866681098938, 0.055987995117902756, 0.10687452554702759, 0.10630586743354797, -0.03137974441051483, 0.09307313710451126, -0.011546283960342407, -0.01284436509013176, 0.017373330891132355, -0.04192941263318062, -0.026483681052923203, 0.008478045463562012, -0.08040246367454529, -0.1360887885093689, -0.09558864682912827, -0.1163509413599968, 0.13620977103710175, -0.23364408314228058, 0.020658040419220924, 0.06633733212947845], [0.07199475169181824, -0.042257633060216904, -0.032726868987083435, 0.010266272351145744, -0.08886073529720306, 0.12869134545326233, -0.07078595459461212, -0.06284048408269882, 0.06093772128224373, 0.0611981563270092, -0.022025635465979576, 0.02666412852704525, -0.024380695074796677, 0.029488882049918175, -0.014736893586814404, -0.07253021746873856, 0.14039745926856995, -0.08259720355272293, 0.10867013782262802, -0.018906310200691223, -0.02308337576687336, 0.05231162905693054, 0.17994864284992218, -0.03334968537092209, -0.08042962849140167, 0.142364040017128, 0.024029769003391266, 0.0066482555121183395, 0.1301291286945343, -0.06267154216766357, -0.03296855837106705, 0.027260994538664818, 0.009547206573188305, -0.0180100966244936, 0.019136644899845123, -0.03290180489420891, 0.13632190227508545, -0.008126894012093544, 0.20193934440612793, 0.10986429452896118], [-0.13134421408176422, 0.016515377908945084, 0.015854259952902794, 0.09230750799179077, 0.15217354893684387, 0.03140558674931526, 0.03570183739066124, -0.09307697415351868, -0.036827780306339264, -0.12493917346000671, -0.026816846802830696, -0.07349307835102081, -0.2628391981124878, -0.1033317819237709, -0.0642583966255188, -0.03771927207708359, 0.1239660456776619, 0.008751483634114265, 0.013317372649908066, -0.02589881606400013, 0.04904589802026749, 0.06539561599493027, -0.0020770335104316473, 0.14059089124202728, -0.04965011030435562, 0.0026101358234882355, -0.024625791236758232, 0.04887585714459419, 0.25118792057037354, 0.03143379092216492, -0.019132301211357117, 0.06292299181222916, -0.02720000594854355, 0.04008069261908531, 0.0232929028570652, -0.03135235980153084, -0.01836436800658703, 0.07996820658445358, 0.012869658879935741, 0.020123852416872978], [-0.07162877917289734, -0.02913684956729412, 0.07539748400449753, 0.07899173349142075, -0.08995749056339264, 0.08383230865001678, -0.24761109054088593, 0.03892777860164642, -0.10271015763282776, -0.046834200620651245, 0.06505478173494339, 0.17796216905117035, -0.13046742975711823, -0.1466098129749298, 0.05266500636935234, 0.016982195898890495, -0.12073438614606857, 0.0386924110352993, 0.041677847504615784, -0.08582968264818192, -0.034547656774520874, -0.019330468028783798, -0.07051996141672134, 0.1138189509510994, -0.024640994146466255, 0.03426990658044815, -0.034392260015010834, 0.07297344505786896, 0.05828244239091873, 0.06390845030546188, -0.01649515889585018, 0.005852663889527321, 0.009128320030868053, -0.19384877383708954, 0.0648135170340538, -0.08858948945999146, -0.011178088374435902, 0.022327471524477005, 0.07560400664806366, 0.01062816847115755], [-0.1730499565601349, 0.035465724766254425, 0.08061723411083221, -0.0920385867357254, 0.08311088383197784, -0.030344372615218163, 0.01373506709933281, -0.012765237130224705, 0.035481736063957214, -0.015284218825399876, 0.08410739153623581, 0.08595225214958191, 0.14901530742645264, 0.002926022745668888, -0.0364309586584568, 0.00015825533773750067, 0.159132182598114, 0.03366609662771225, -0.061639584600925446, -0.04687622934579849, -0.12740090489387512, 0.007691508624702692, 0.010208540596067905, -0.054280608892440796, 0.08428683131933212, 0.010485658422112465, -0.11086715757846832, 0.03721930831670761, -0.11628833413124084, -0.007935364730656147, -0.021129263564944267, -0.12630195915699005, -0.021056050434708595, 0.0034624096006155014, -0.08327018469572067, 0.04949300363659859, -0.19220805168151855, 0.011303745210170746, -0.05504414439201355, 0.02410067804157734], [-0.03716544061899185, -0.0033530471846461296, -0.07309571653604507, -0.09436080604791641, 0.09926354885101318, -0.04559910297393799, 0.0502513088285923, 0.06561926752328873, -0.01902104914188385, -0.10064732283353806, 0.06430010497570038, -0.04965200647711754, 0.003584227990359068, 0.0055192760191857815, 0.020400097593665123, -0.028444964438676834, -0.012612232938408852, -0.033239442855119705, 0.08991952985525131, 0.07755272090435028, 0.00303286942653358, -0.07095133513212204, -0.061261266469955444, -0.017789553850889206, -0.0035299169830977917, -0.07965514063835144, 0.008694585412740707, -0.0369422510266304, 0.0926615297794342, 0.12858352065086365, 0.02470451220870018, -0.16638140380382538, -0.09652528166770935, 0.07010367512702942, 0.14566385746002197, 0.006803798023611307, 0.0989212840795517, 0.06023028865456581, 0.0007311722147278488, -0.06501182913780212], [0.04008600488305092, 0.07341448217630386, -0.14353002607822418, -0.03407732769846916, 0.03670770302414894, 0.2515976130962372, 0.03377769887447357, -0.02932209149003029, 0.26938721537590027, -0.09548841416835785, 0.0042676921002566814, -0.12717194855213165, -0.06932640075683594, -0.05205152556300163, -0.01452826987951994, -0.04166465997695923, -0.021472016349434853, 0.04588131979107857, 0.06978112459182739, -0.011870939284563065, 0.05887220427393913, 0.1737688034772873, -0.06653205305337906, 0.0572066493332386, -0.07870247960090637, -0.040122225880622864, 0.08482115715742111, 0.22403761744499207, -0.017050016671419144, -0.06018907204270363, -0.00698789581656456, 0.05099848285317421, 0.08970862627029419, -0.06032472103834152, 0.062077123671770096, 0.004132042173296213, 0.09301545470952988, -0.022857666015625, -0.08169703930616379, 0.14038275182247162], [-0.1377217024564743, -0.17937994003295898, 0.012994381599128246, 0.20065902173519135, 0.1089252457022667, 0.010545444674789906, 0.044057056307792664, 0.0541328527033329, 0.08046606928110123, -0.09968555718660355, -0.04607506841421127, -0.15613405406475067, -0.07124265283346176, -0.003958262503147125, 0.017016012221574783, -0.06980674713850021, 0.024499816820025444, -0.013478883542120457, 0.021375225856900215, -0.06451058387756348, -0.036074794828891754, -0.05254336819052696, 0.03425942733883858, -0.20168636739253998, 0.009832016192376614, -0.09624720364809036, 0.06632902473211288, 0.09434312582015991, -0.09547676146030426, 0.1021205484867096, -0.0017853508470579982, 0.024787718430161476, 0.0670144185423851, -0.04302191361784935, 0.04632686823606491, 0.08369336277246475, -0.001269850181415677, 0.03743920475244522, -0.129028782248497, -0.07057131826877594], [0.12143543362617493, -0.08125419914722443, -0.031291041523218155, 0.12212155014276505, 0.02907639369368553, 0.17144548892974854, -0.08142736554145813, -0.043120916932821274, -0.1742452085018158, -0.028932180255651474, -0.03205135092139244, 0.08425992727279663, -0.038982607424259186, 0.08918080478906631, 0.14145752787590027, -0.09562360495328903, 0.04754989221692085, 0.009644299745559692, 0.059699028730392456, 0.07600826025009155, -0.028336407616734505, 0.01482934970408678, -0.0981643944978714, -0.027425438165664673, -0.1682492196559906, 0.1118013858795166, -0.07572832703590393, -0.017450224608182907, -0.06576133519411087, 0.009929162450134754, 0.27792397141456604, -0.08021877706050873, 0.006855785381048918, 0.027326662093400955, 0.017818916589021683, -0.039341896772384644, -0.052213914692401886, -0.04514187201857567, 0.0515560656785965, 0.08942849189043045], [0.171835795044899, 0.017985133454203606, 0.19480547308921814, -0.010727521032094955, -0.025813143700361252, 0.06906898319721222, 0.03531835228204727, -0.0992172434926033, -0.07211972028017044, -0.07886765897274017, -0.020721105858683586, -0.015754837542772293, -0.12782922387123108, -0.061866696923971176, -0.06704580038785934, -0.0645451471209526, -0.0010035086888819933, -0.053313467651605606, 0.013703931123018265, -0.02406441792845726, -0.04267276078462601, -0.1232815757393837, -0.06417303532361984, 0.036379922181367874, 0.10931225121021271, -0.11626062542200089, 0.033342715352773666, 0.1230391263961792, 0.16322441399097443, 0.06579027324914932, 0.04375169798731804, -0.047891177237033844, -0.2122771441936493, 0.017957421019673347, -0.11152411997318268, 0.06374520063400269, -0.09882999211549759, 0.03606736660003662, -0.12383008748292923, 0.08013097196817398], [-0.09281902760267258, 0.03736496716737747, 0.18317995965480804, -0.047690074890851974, 0.01886046677827835, -0.10532236099243164, -0.24004226922988892, 0.16448348760604858, 0.0616321824491024, 0.08378467708826065, -0.07187368720769882, -0.05189785733819008, -0.06171939894556999, -0.08655524998903275, -0.10815110802650452, -0.0075193350203335285, 0.001253505819477141, -0.14875002205371857, 0.126153826713562, 0.10772594064474106, -0.12224149703979492, -0.03535053879022598, 0.014137709513306618, 0.025889363139867783, 0.1565827876329422, 0.029763247817754745, -0.022295547649264336, 0.003545482410117984, -0.11199475079774857, -0.012949121184647083, -0.04684339091181755, 0.02236999198794365, 0.039754342287778854, 0.08060012757778168, 0.03676066920161247, 0.0008994318195618689, 0.11931131780147552, 0.08000856637954712, 0.03942956030368805, -0.12954092025756836], [0.02593853510916233, 0.029556764289736748, -0.07200471311807632, 0.0202495027333498, 0.02426682785153389, -0.023625532165169716, -0.0810534656047821, 0.12078148871660233, 0.12374752014875412, 0.04586898162961006, 0.13487394154071808, 0.2122012823820114, 0.041013121604919434, -0.03249628469347954, -0.04145941883325577, -0.04160020872950554, 0.0465925969183445, -0.17820248007774353, 0.041887346655130386, 0.05922722816467285, -0.026584086939692497, 0.09849343448877335, -0.08619479089975357, 0.07936553657054901, -0.012625707313418388, -0.08898323774337769, 0.09630170464515686, -0.023265881463885307, -0.029748283326625824, 0.02212763950228691, 0.06394607573747635, -0.04517100378870964, 0.0519365593791008, 0.09652248024940491, -0.2396271824836731, -0.06374137848615646, -0.10696932673454285, -0.00216160761192441, -0.04013951122760773, -0.02546050027012825], [-0.19676049053668976, 0.021569782868027687, 0.06324908137321472, 0.014558576047420502, 0.014882753603160381, 0.020186785608530045, -0.0050326380878686905, 0.10962202399969101, 0.15847252309322357, 0.012548881582915783, 0.00850667990744114, 0.031379472464323044, -0.19868572056293488, -0.1090027317404747, -0.033328618854284286, -0.02295946516096592, -0.0943073034286499, -0.07900531589984894, 0.06844880431890488, -0.025994669646024704, -0.0011712029809132218, 0.012662388384342194, 0.14550670981407166, -0.06425275653600693, 0.059587009251117706, -0.038062356412410736, -0.04454880207777023, 0.005732706282287836, 0.01900268904864788, 0.11880400776863098, 0.07488176226615906, 0.14209888875484467, -0.09921824932098389, -0.10560651123523712, 0.1079239770770073, 0.004958229139447212, -0.03533940762281418, 0.10051510483026505, 0.04865607991814613, 0.01143666636198759], [-0.161377415060997, 0.033142294734716415, -0.12539134919643402, 0.0781107246875763, 0.03218527510762215, 0.08566836267709732, 0.0016763763269409537, -0.1673317551612854, -0.06744381040334702, -0.018889907747507095, 0.0062246182933449745, -0.3357846438884735, 0.06122077628970146, -0.1731388121843338, 0.008769763633608818, 0.012937726452946663, 0.021931421011686325, 0.00784853845834732, 0.04969610273838043, -0.002524335402995348, -0.16463854908943176, 0.003587455488741398, -0.13978073000907898, -0.07918406277894974, -0.0016679407563060522, 0.029880454763770103, -0.19516320526599884, 0.03853456676006317, 0.20398525893688202, 0.028402799740433693, 0.012876251712441444, -0.005735981743782759, 0.0397970974445343, 0.002621666993945837, -0.029578499495983124, 0.04546535760164261, 0.006633682642132044, 0.06900294125080109, -0.013047793880105019, 0.019807836040854454], [0.057773079723119736, -0.09263896942138672, -0.02844473533332348, 0.08185135573148727, 0.1320732682943344, 0.09167314320802689, -0.055098757147789, 0.03199203312397003, -0.15199850499629974, 0.11293381452560425, -0.1678251475095749, -0.058519188314676285, -0.02452036179602146, 0.0558663047850132, 0.059075262397527695, 0.047810640186071396, 0.05436460301280022, 0.05840759351849556, 0.07561282813549042, 0.00681645330041647, 0.002660553902387619, -0.015378346666693687, 0.14097090065479279, 0.04811679199337959, 0.008178619667887688, -0.2093031406402588, -0.017862282693386078, -0.05262045934796333, 0.004607727751135826, -0.023845404386520386, -0.016832834109663963, -0.11820520460605621, -0.10092821717262268, -0.07861128449440002, -0.10311786830425262, 0.019933534786105156, -0.1204681321978569, -0.09419695287942886, -0.07672014087438583, -0.007135238964110613], [-0.02715240977704525, -0.21899878978729248, 0.05858178809285164, -0.02653365023434162, -0.17235960066318512, -0.067500539124012, 0.13170498609542847, 0.0017917373916134238, -0.07115460187196732, 0.07598468661308289, -0.07420516759157181, -0.07057776302099228, -0.03975524380803108, -0.1339355856180191, 0.020618723705410957, -0.05808664485812187, -0.10156993567943573, 0.07569961994886398, 0.07883435487747192, 0.20227833092212677, 0.008131506852805614, 0.10161876678466797, 0.03762303292751312, 0.03163893148303032, 0.05118463933467865, 0.003415471874177456, -0.21404902637004852, -0.0824798122048378, -0.14124824106693268, -0.06185638904571533, -0.015447709709405899, 0.05445394292473793, -0.054698117077350616, -0.1355734020471573, 0.040600188076496124, 0.03681863844394684, -0.113004170358181, 0.14822673797607422, -0.010762933641672134, 0.11414866894483566], [-0.08012637495994568, 0.012380451895296574, 0.014064829796552658, -0.0077809859067201614, 0.011252122931182384, -0.054113853722810745, 0.09855976700782776, -0.022789623588323593, -0.03762376680970192, -0.009989475831389427, 0.18269050121307373, -0.012895145453512669, 0.11799683421850204, 0.04063142091035843, -0.11297126859426498, 0.010634824633598328, -0.04520876333117485, 0.04289723560214043, 0.020337732508778572, 0.11217007040977478, -0.010006601922214031, -0.10108567774295807, 0.021990159526467323, -0.013156641274690628, 0.19753216207027435, -0.010803762823343277, -0.0482853464782238, 0.15289117395877838, -0.1766766756772995, 0.17564377188682556, 0.05578882247209549, 0.024856146425008774, -0.08080267906188965, 0.03349696099758148, 0.033962033689022064, -0.12013531476259232, 0.1462019681930542, -0.028566822409629822, 0.00984859373420477, -0.07310912758111954], [-0.022784214466810226, 0.022264927625656128, 0.0427379310131073, 0.08977528661489487, 0.14976350963115692, -0.11443164199590683, 0.012270946986973286, -0.026403922587633133, 0.005870396271348, -0.024223335087299347, -0.025980351492762566, -0.061089031398296356, 0.03661615774035454, -0.16319073736667633, -0.06465186923742294, 0.01229418721050024, -0.05854333937168121, 0.0032372407149523497, 0.08935406804084778, 0.18835915625095367, 0.10438765585422516, -0.1051475778222084, 0.08704838901758194, 0.0008494782960042357, -0.04494854807853699, 0.02808012068271637, -0.019273076206445694, -0.11389140039682388, -0.055707626044750214, 0.017711320891976357, 0.14141197502613068, -0.11201032996177673, -0.06310143321752548, -0.0617300383746624, 0.1255442053079605, 0.04114595800638199, 0.038458894938230515, 0.09871337562799454, -0.13513797521591187, 0.06308982521295547], [-0.0175640806555748, -0.05050026997923851, -0.1128971204161644, -0.05277393013238907, -0.01608467474579811, -0.07974492013454437, -0.03937084227800369, 0.11330704391002655, -0.04191591963171959, 0.020530296489596367, 0.03790689632296562, -0.010945148766040802, -0.020252197980880737, 0.025754010304808617, -0.021030744537711143, -0.08440999686717987, 0.07573851197957993, 0.03941537067294121, 0.0746464729309082, 0.0646153911948204, -0.08442223072052002, 0.12719222903251648, 0.13368919491767883, -0.046296995133161545, 0.04652918130159378, -0.012424271553754807, 0.14410755038261414, -0.035834211856126785, 0.05477012321352959, -0.024518579244613647, 0.0852518230676651, 0.04245304688811302, -0.05328887328505516, 0.08255109190940857, -0.03458636254072189, 0.03927173092961311, 0.06866826117038727, 0.027079526335000992, 0.16515831649303436, -0.07152847200632095], [0.0242789126932621, 0.19500067830085754, -0.01403815858066082, -0.004190036095678806, -0.28672581911087036, -0.0784326046705246, 0.010708699002861977, -0.1641131341457367, -0.07708452641963959, 0.13918747007846832, 0.021427223458886147, 0.14601071178913116, 0.05258234217762947, 0.01569824479520321, -0.07103072851896286, 0.029873188585042953, -0.025593724101781845, -0.11752144247293472, -0.09761208295822144, 0.05623706430196762, -0.0368625745177269, 0.003767087822780013, 0.010410061106085777, -0.047720666974782944, -0.0038285301998257637, -0.03929375484585762, -0.0412200503051281, 0.10719037055969238, 0.11025910079479218, -0.033439572900533676, -0.07095175236463547, -0.07951005548238754, 0.08964750170707703, 0.06328386068344116, 0.10709407925605774, 0.007038584444671869, -0.03782564774155617, -0.07132993638515472, -0.13831476867198944, 0.12879310548305511], [0.056275416165590286, -0.05931181460618973, 0.025182081386446953, -0.07541512697935104, -0.05269116163253784, -0.09782501310110092, -0.0037716750521212816, 0.021934377029538155, 0.04574538767337799, 0.017742587253451347, 0.10359801352024078, 0.09698306024074554, 0.054914187639951706, -0.07959190011024475, 0.07564888149499893, -0.10602785646915436, -0.01898171752691269, -0.015212724916636944, 0.2321115881204605, -0.02856881357729435, -0.022184796631336212, -0.0763201043009758, -0.0253954716026783, 0.07083635032176971, 0.07603218406438828, 0.03137849643826485, 0.1665492057800293, -0.06507477909326553, -0.03546406328678131, -0.038577601313591, -0.1051797866821289, -0.06768061220645905, 0.12331795692443848, -0.007662620861083269, 0.050187692046165466, 0.0786137580871582, -0.032951779663562775, 0.150071382522583, 0.054780080914497375, 0.013339371420443058], [-0.15157267451286316, -0.02599811740219593, -0.04317571222782135, 0.01751224510371685, 0.07410025596618652, -0.10849271714687347, 0.06574904173612595, 0.15639130771160126, -0.0008297438616864383, -0.17488282918930054, -0.009625764563679695, 0.10589230060577393, 0.035244330763816833, -0.07781544327735901, 0.18929168581962585, -0.01671708934009075, -0.1296403706073761, -0.05311568081378937, -0.15554964542388916, 0.011237435042858124, -0.17133696377277374, 0.015047036111354828, -0.035430509597063065, 0.12408949434757233, -0.1148863434791565, -0.0536758229136467, -0.015397774986922741, 0.013604304753243923, 0.12147834151983261, 0.07557737827301025, -0.09478548914194107, 0.012509787455201149, 0.16873027384281158, 0.015548077411949635, 0.14827652275562286, 0.08597342669963837, -0.06872867047786713, 0.06405139714479446, 0.014987658709287643, 0.13578474521636963], [0.04087447375059128, 0.03854851797223091, -0.11474049836397171, 0.08690013736486435, 0.0399552583694458, -0.06954070180654526, 0.07986835390329361, -0.11620286107063293, 0.08143331110477448, 0.1292576789855957, 0.01570008508861065, 0.0025820850860327482, -0.006794700399041176, -0.15243706107139587, 0.10779734700918198, 0.03429444506764412, -0.03357541188597679, 0.024369915947318077, -0.005412436556071043, 0.08545034378767014, 0.028492802754044533, 0.07090835273265839, 0.0393855981528759, 0.188450887799263, -0.02402235008776188, 0.13804501295089722, 0.08046699315309525, 0.05168173089623451, -0.07297251373529434, 0.03221030533313751, -0.05012694373726845, -0.08212287724018097, -0.24369505047798157, 0.04173828288912773, -0.05522339046001434, 0.2180284708738327, -0.23829907178878784, -0.1305575668811798, 0.046602923423051834, -0.07233137637376785], [0.018541179597377777, 0.14431042969226837, 0.04678020626306534, -0.01829858310520649, 0.09623748064041138, 0.009696083143353462, -0.05183809995651245, -0.11064980924129486, 0.003751072334125638, 0.13077129423618317, 0.20156680047512054, -0.14114342629909515, -0.0202358216047287, 0.09266288578510284, -0.11640080064535141, 0.12499099224805832, 0.08317745476961136, -0.021910451352596283, -0.02684783563017845, -0.04577032849192619, -0.002275916514918208, -0.028866823762655258, 0.04989566653966904, 0.04286631941795349, 0.04182921350002289, 0.08131387829780579, 0.014179288409650326, -0.046991679817438126, -0.11166636645793915, -0.1352793127298355, 0.1603507399559021, 0.08606331795454025, 0.12084483355283737, 0.005315748974680901, -0.04812457785010338, 0.009187081828713417, 0.051278676837682724, -0.14943046867847443, 0.012124917469918728, 0.08339951932430267], [0.0322408601641655, 0.008229736238718033, 0.0899578258395195, -0.14866949617862701, 0.014233559370040894, 0.04259210824966431, 0.03806314989924431, -0.09391850978136063, -0.08869177103042603, -0.016706544905900955, -0.049533139914274216, 0.07129482924938202, -0.011386304162442684, -0.09395163506269455, 0.03949796035885811, 0.012686981819570065, -0.08430967479944229, 0.12524698674678802, -0.10688032954931259, 0.08231555670499802, -0.024562250822782516, -0.08972801268100739, 0.020199084654450417, -0.10833500325679779, -0.062090735882520676, 0.010783957317471504, 0.026939798146486282, -0.021693576127290726, 0.09169628471136093, -0.06565296649932861, -0.06535125523805618, 0.06545251607894897, 0.05587128922343254, 0.035493649542331696, -0.01903967186808586, 0.0978824645280838, 0.014469328336417675, -0.023211434483528137, -0.022244038060307503, -0.11694987118244171], [-0.06164411082863808, -0.03662193566560745, 0.11668006330728531, 0.03271755203604698, 0.07591353356838226, 0.1356770396232605, -0.03699450194835663, -0.14071735739707947, 0.07638603448867798, 0.047333668917417526, 0.12208767980337143, 0.0017392869340255857, 0.14754433929920197, -0.010003959760069847, -0.05678847059607506, 0.04981517791748047, -0.22079092264175415, -0.1251881718635559, -0.11420372128486633, -0.008445249870419502, 0.04163815826177597, -0.01340028177946806, 0.05153004080057144, -0.038879767060279846, 0.07825694233179092, -0.014436636120080948, -0.008621989749372005, 0.02431604452431202, 0.03462662547826767, -0.10259288549423218, 0.17247514426708221, 0.06984215974807739, -0.13258829712867737, -0.0006249863654375076, 0.08271628618240356, -0.0739845484495163, -0.018155239522457123, 0.016693204641342163, 0.04808104783296585, -0.060539621859788895], [0.08367159217596054, -0.17948724329471588, 0.07529234886169434, 0.003363827709108591, 0.09349394589662552, 0.1164940595626831, -0.06887715309858322, -0.13168182969093323, 0.027863942086696625, 0.08293299376964569, 0.007712051272392273, 0.123039610683918, -0.011823171749711037, 0.02839260920882225, 0.08828849345445633, -0.013041123747825623, 0.09284821897745132, -0.0861145481467247, -0.01946660876274109, -0.08138779550790787, 0.10475064814090729, -0.07631156593561172, -0.007769397459924221, -0.0008464693673886359, -0.2520790100097656, 0.17838208377361298, -0.2128453552722931, -0.024722058326005936, -0.08892673999071121, 0.011939235031604767, -0.04010718688368797, -0.07211918383836746, -0.056883979588747025, 0.0849258229136467, 0.06327684223651886, -0.06111016124486923, 0.010872968472540379, -0.013752501457929611, 0.061280615627765656, -0.08221103250980377], [-0.0015934216789901257, 0.04563220962882042, 0.09390134364366531, 0.00952291302382946, -0.08781884610652924, 0.0510222427546978, 0.1395748108625412, 0.06675075739622116, 0.1548328995704651, -0.082543283700943, -0.12019668519496918, -0.058818042278289795, -0.07669617980718613, -0.0013049447443336248, -0.07952933013439178, 0.04183492064476013, -0.09138549119234085, 0.033175818622112274, 0.08480796217918396, 0.15783482789993286, 0.18569660186767578, 0.025513209402561188, 0.0756552591919899, -0.09968224912881851, -0.06749308854341507, 0.006309441290795803, -0.008550196886062622, 0.048934321850538254, -0.07304833829402924, -0.12216226756572723, 0.059978730976581573, 0.05717071518301964, -0.12475432455539703, -0.07044464349746704, 0.13689224421977997, -0.1093747615814209, 0.007786759175360203, 0.03226102516055107, 0.014890626072883606, 0.05456248298287392], [-0.01620347425341606, -0.11857441812753677, 0.04093490168452263, -0.002554668579250574, -0.0036594432312995195, -0.05768655985593796, -0.05268143489956856, -0.09744086116552353, 0.03120378963649273, 0.05481937900185585, -0.027806099504232407, 0.15596874058246613, 0.002175166504457593, -0.11059596389532089, -0.15962395071983337, 0.05260070413351059, -0.13878341019153595, 0.195846289396286, 0.1361297070980072, 0.011478306725621223, -0.02388797514140606, -0.06082320585846901, 0.05979813262820244, -0.018026182428002357, -0.08474971354007721, -0.02604139968752861, -0.0985131487250328, -0.10002627968788147, 0.03330955654382706, 0.010065644979476929, -0.015643320977687836, -0.025989912450313568, 0.02669738046824932, -0.026699714362621307, -0.04842066019773483, 0.026946717873215675, -0.13123391568660736, -0.04596839100122452, -0.009277191013097763, -0.14863795042037964], [0.1548694521188736, 0.029407024383544922, 0.03219090774655342, 0.0776045024394989, -0.0365728959441185, -0.1815590113401413, -0.09040254354476929, 0.040984705090522766, -0.16573277115821838, 0.1042029857635498, 0.0358542837202549, -0.010927042923867702, -0.042943429201841354, 0.03790092468261719, 0.013560873456299305, -0.023231446743011475, -0.03567231073975563, 0.11599722504615784, -0.08224043250083923, -0.028943294659256935, -0.02851252630352974, 0.09895089268684387, -0.09870164841413498, -0.03312375023961067, -0.056845635175704956, 0.015140102244913578, 0.0760272741317749, -0.1407444030046463, 0.04240080341696739, 0.013633999042212963, 0.05706511437892914, -0.2580265998840332, -0.04301372542977333, -0.22509010136127472, -0.11629222333431244, 0.0089897895231843, 0.04713059961795807, 0.10107554495334625, 0.021877242252230644, -0.14442142844200134], [-0.0454290509223938, -0.022457532584667206, -0.0053701698780059814, -0.026810677722096443, -0.07139184325933456, -0.06578966975212097, 0.08721280097961426, 0.024476155638694763, -0.04298399016261101, 0.008470230735838413, 0.022048626095056534, 0.022146839648485184, -0.029314270243048668, -0.0017310158582404256, 0.01839342713356018, 0.03774602338671684, -0.0197917427867651, -0.03883085772395134, -0.09013207256793976, -0.03279037028551102, 0.005867823958396912, -0.001048099948093295, 0.038715340197086334, -0.10768889635801315, 0.03606827184557915, 0.10915809869766235, -0.10387929528951645, 0.13617154955863953, -0.055937401950359344, -0.022281760349869728, 0.06661199033260345, -0.06435845792293549, 0.022259971126914024, -0.09281150996685028, -0.14160297811031342, -0.08284153044223785, 0.1108621135354042, 0.09956187754869461, -0.08244545757770538, -0.02005007676780224], [-0.000609084963798523, -0.07700209319591522, 0.14921267330646515, 0.12083351612091064, 0.1614639163017273, 0.010982577688992023, 0.044204890727996826, 0.023956436663866043, 0.08565936237573624, 0.03116503916680813, -0.0794365257024765, 0.039295535534620285, 0.20472444593906403, 0.07624737173318863, -0.12075654417276382, 0.13750800490379333, 0.06881362199783325, 0.08245215564966202, -0.1128229945898056, 0.037193186581134796, 0.01910214126110077, 0.03312794491648674, 0.00745638832449913, -0.1455344259738922, 0.05322502925992012, 0.044385477900505066, -0.10036638379096985, -0.11712876707315445, 0.13740938901901245, 0.0029699988663196564, -0.13424764573574066, -0.054327160120010376, 0.031139621511101723, 0.0917341336607933, -0.043258242309093475, 0.03564535453915596, -0.03996278718113899, 0.023224396631121635, 0.07051850855350494, 0.06669706851243973], [0.10184500366449356, 0.10604409873485565, 0.0556623600423336, -0.044183749705553055, -0.05152628943324089, 0.0039236340671777725, -0.09053029865026474, -0.09249049425125122, -0.07432083785533905, -0.05491763353347778, 0.009268169291317463, -0.10959015041589737, 0.11601725965738297, -0.1553127020597458, -0.02611163817346096, 0.0455092154443264, 0.09285008162260056, 0.13266997039318085, -0.2793746292591095, 0.04723144695162773, 0.1134248599410057, -0.07847035676240921, -0.002722847741097212, -0.12919111549854279, -0.11156588047742844, 0.08262577652931213, 0.062399499118328094, -0.060422834008932114, -0.07809771597385406, -0.11472601443529129, 0.008070067502558231, -0.08699074387550354, 0.07861600071191788, -0.08915504068136215, -0.007155939470976591, -0.01369762234389782, -0.00889432244002819, -0.07478120177984238, 0.14613375067710876, -1.609895480214618e-05], [0.11636941134929657, 0.12438113987445831, -0.002551479497924447, -0.03903008624911308, 0.03434527665376663, -0.09120646119117737, 0.1289903223514557, 0.1108018159866333, 0.03698387369513512, -0.03348895534873009, -0.0009292023023590446, -0.0033401609398424625, 0.03604654595255852, -0.05553234741091728, 0.068757064640522, -0.06580714136362076, -0.037164632230997086, 0.022569771856069565, -0.0916207805275917, 0.0008008822915144265, -0.01631251536309719, -0.07136298716068268, -0.03532387316226959, 0.013846047222614288, 0.0699833557009697, -0.10867545753717422, -0.1005217507481575, -0.09281633794307709, 0.030512679368257523, -0.03897538036108017, -0.056301798671483994, 0.11485415697097778, -0.025627754628658295, -0.06291601061820984, -0.002914460375905037, 0.13522613048553467, -0.022491978481411934, 0.08013176172971725, -0.13626240193843842, 0.012438587844371796], [-0.06916985660791397, -0.0640697106719017, -0.021593082696199417, 0.006761175114661455, 0.049260132014751434, -0.03893118351697922, -0.1422252207994461, -0.049873486161231995, -0.11885202676057816, 0.06857937574386597, 0.023239288479089737, -0.05416039004921913, -0.08797895163297653, 0.19302622973918915, -0.022551361471414566, -0.037338558584451675, 0.08600503206253052, 0.08498341590166092, -0.06124959513545036, -0.06490923464298248, -0.016462920233607292, -0.1705837994813919, 0.04826268181204796, -0.024786876514554024, 0.08629127591848373, 0.02736368216574192, 0.11297346651554108, 0.024669058620929718, 0.05855252966284752, 0.008230702951550484, 0.01845342479646206, 0.041971974074840546, 0.20730826258659363, -0.05236481502652168, -0.08171427994966507, -0.023323478177189827, -0.03340747207403183, -0.00956919975578785, -0.003739061299711466, 0.12467939406633377], [0.06247403472661972, -0.12206157296895981, -0.04299971088767052, -0.021011080592870712, 0.1268930584192276, -0.04669477418065071, 0.14750269055366516, -0.1290191411972046, -0.1608772873878479, -0.20641136169433594, 0.0703098252415657, -0.06562323868274689, -0.09860754013061523, -0.04221527278423309, 0.24695423245429993, -0.023215044289827347, 0.08044927567243576, 0.1421133428812027, 0.06138217821717262, -0.014231997542083263, -0.020009107887744904, -0.014236790128052235, 0.058431368321180344, 0.15921205282211304, 0.08330392092466354, -0.017175139859318733, -0.15308737754821777, -0.011864332482218742, -0.03816584125161171, 0.02598891593515873, -0.029867172241210938, 0.005377883091568947, 0.07650656253099442, 0.19796517491340637, 0.08205460757017136, 0.020262161269783974, -0.10454770177602768, -0.053470075130462646, 0.0965324118733406, -0.09615727514028549], [-0.07406917959451675, -0.07289522141218185, 0.04511795565485954, 0.013185324147343636, -0.09326875954866409, 0.03135457634925842, -0.011618177406489849, -0.05105040594935417, -0.06016657501459122, -0.0714397206902504, -0.12621037662029266, 0.008957927115261555, -0.18580174446105957, 0.003770950250327587, -0.10479845106601715, -0.058748479932546616, 0.10056033730506897, 0.08584630489349365, 0.08513544499874115, -0.08001571148633957, -0.008774708025157452, 0.06799712777137756, -0.1449240893125534, 0.08022687584161758, -0.011476370505988598, -0.05037163570523262, 0.015523643232882023, 0.08055432885885239, 0.03086475282907486, -0.04054171219468117, 0.07413865625858307, 0.005381024908274412, -0.1954241394996643, 0.0634109228849411, 0.11381757259368896, 0.08218025416135788, 0.023346787318587303, -0.07374361157417297, -0.08201789110898972, -0.08249273151159286], [0.08136110007762909, 0.07271967828273773, 0.01798425428569317, -0.01619080826640129, 0.06962879747152328, 0.05606602132320404, -0.20766569674015045, 0.00017057541117537767, -0.0021699683275073767, -0.03945464268326759, -0.04752710461616516, 0.026146410033106804, -0.09816654771566391, -0.15378950536251068, -0.023320000618696213, -0.16677075624465942, -0.01101447269320488, 0.004824471194297075, 0.07926620543003082, 0.07573961466550827, -0.023542875424027443, -0.03526574373245239, 0.03880000859498978, 0.08640113472938538, 0.15410856902599335, 0.06870770454406738, 0.035271577537059784, -0.0024999903980642557, -0.05849387124180794, 0.07295646518468857, -0.11187875270843506, -0.07628928869962692, -0.00658574840053916, 0.016433456912636757, -0.0708279013633728, -0.12152561545372009, 0.22134152054786682, -0.08523304760456085, 0.08824518322944641, 0.04708999767899513], [0.01456423569470644, -0.1348324716091156, -0.031067516654729843, 0.24132031202316284, 0.13886141777038574, -0.09009301662445068, -0.03595244884490967, -0.0024854980874806643, -0.09320387244224548, 0.006468562874943018, 0.028986934572458267, 0.0028913237620145082, 0.010865801945328712, -0.09138849377632141, -0.0054060970433056355, -0.10349029302597046, -0.09924193471670151, -0.09230150282382965, -0.10096076875925064, -0.11376844346523285, -0.014385986141860485, 0.03568607196211815, 0.033673230558633804, 0.010521897114813328, -0.04511970281600952, 0.0632299855351448, 0.06565883755683899, -0.1597035974264145, -0.10675965994596481, -0.055103693157434464, 0.08991037309169769, -0.07533241808414459, 0.006499720737338066, 0.17010869085788727, -0.0013959016650915146, -0.1532696634531021, 0.01084061898291111, 0.007839133962988853, 0.046765875071287155, 0.1278623789548874], [-0.04193487390875816, 0.030377166345715523, -0.11383126676082611, -0.020754165947437286, 0.05124660208821297, 0.14752909541130066, -0.040818873792886734, 0.03901299461722374, -0.051433347165584564, -0.11809968948364258, -0.009737581014633179, 0.050779588520526886, -0.18950417637825012, 0.0423794724047184, 0.05435296148061752, -0.1314374953508377, -0.09705327451229095, -0.10767842084169388, 0.11286989599466324, 0.04641663283109665, -0.09880205243825912, 0.05906577780842781, 0.07832426577806473, 0.017563752830028534, -0.05990561097860336, -0.021281028166413307, 0.056439053267240524, -0.027470696717500687, 0.047699641436338425, 0.041376423090696335, 0.15164782106876373, 0.028229819610714912, -0.03504180535674095, 0.02407613955438137, -0.07836389541625977, -0.0023524893913418055, -0.02287815697491169, 0.12023050338029861, -0.04833494499325752, 0.04965464770793915], [0.21416832506656647, 0.07833432406187057, 0.02173011749982834, -0.18600501120090485, 0.21410393714904785, 0.02832331322133541, -0.036838047206401825, -0.024757007136940956, -0.00447211554273963, 0.04050914943218231, -0.012037213891744614, -0.012194594368338585, -0.007579412776976824, 0.06332848966121674, -0.05707675963640213, 0.05113600194454193, -0.0739973932504654, -0.018742356449365616, 0.007174081634730101, 0.0472053661942482, -0.0004490483261179179, -0.004787581507116556, 0.14905306696891785, 0.07688521593809128, -0.06997378915548325, 0.1970457285642624, 0.02908572368323803, 0.16810739040374756, -0.047177162021398544, 0.1978745460510254, -0.045871302485466, -0.10841330140829086, 0.11973446607589722, 0.04916338250041008, -0.001338386326096952, 0.08389990031719208, 0.06880885362625122, 0.1170404851436615, -0.009886542335152626, 0.09382013231515884], [-0.041766975075006485, 0.11050955206155777, -0.13875193893909454, -0.2096005231142044, 0.22230647504329681, 0.15588867664337158, -0.08777913451194763, -0.07212647795677185, -0.04942585900425911, 0.04449335113167763, 0.027752980589866638, -0.08166185021400452, -0.12969449162483215, -0.010526347905397415, 0.057188186794519424, -0.017365308478474617, 0.04183429479598999, 0.17481893301010132, 0.005153493024408817, 0.05676315724849701, 0.03349845111370087, 0.060237739235162735, 0.031737081706523895, -0.02672760747373104, -0.03759840130805969, 0.00948946550488472, -0.016917936503887177, -0.19827891886234283, -0.10206440091133118, -0.11381922662258148, -0.1243845745921135, 0.032806675881147385, -0.10555069893598557, -0.07212254405021667, 0.12012295424938202, 0.017144421115517616, -0.10872300714254379, 0.1323644518852234, -0.09671008586883545, 0.004308471456170082], [-0.05968611687421799, 0.05360500141978264, -0.2188097983598709, -0.03989928215742111, -0.013060773722827435, 0.0025281673297286034, -0.07742704451084137, -0.10220517218112946, -0.1359473317861557, 0.0329463854432106, -0.08004458248615265, 0.03259839117527008, -0.01265624724328518, 0.03481904789805412, -0.040382448583841324, -0.07253020256757736, -0.02713705040514469, -0.11191441118717194, -0.1027432307600975, -0.14344322681427002, 0.09065348654985428, -0.14289157092571259, 0.08707912266254425, 0.0031297195237129927, -0.05118953809142113, -0.0063386885449290276, 0.058055050671100616, 0.01109024602919817, -0.09429263323545456, -0.19082219898700714, -0.04295862466096878, -0.023796871304512024, 0.01925811730325222, -0.07178380340337753, -0.0586010180413723, 0.02426338568329811, 0.03840859606862068, 0.09707173705101013, 0.08293204009532928, -0.03734235465526581], [0.0019922927021980286, -0.12221936881542206, 0.21572668850421906, 0.1616128534078598, 0.0066996291279792786, 0.08060130476951599, -0.1588464379310608, 0.03050404042005539, -0.044714368879795074, 0.10034021735191345, -0.024915315210819244, 0.07124292850494385, -0.013278217054903507, -0.10399880260229111, 0.0006346921436488628, 0.03661597892642021, 0.00019733661611098796, -0.004272484686225653, -0.0138204051181674, 0.05281390994787216, -0.1418866515159607, 0.1730199158191681, 0.03703440725803375, -0.006290636956691742, -0.07265669107437134, 0.0394025556743145, 0.12075256556272507, 0.05248521268367767, -0.06475071609020233, 0.051158566027879715, -0.12076375633478165, -0.002650708658620715, 0.0573141910135746, -0.04715093597769737, -0.06807296723127365, -0.009828559122979641, -0.06994295120239258, -0.028023842722177505, 0.07597718387842178, 0.03316046670079231], [-0.11737444996833801, -0.0923740491271019, 0.028259513899683952, -0.087722547352314, -0.12412411719560623, 0.1012447327375412, -0.2694248855113983, 0.03344641625881195, -0.12472938001155853, -0.13608309626579285, -0.20888735353946686, -0.06151709333062172, 0.13459531962871552, 0.00826891977339983, 0.12724854052066803, 0.10212428867816925, 0.035475678741931915, 0.0876745879650116, -0.07350590080022812, 0.052597012370824814, 0.0538916140794754, 0.023513328284025192, 0.08655673265457153, 0.08433728665113449, 0.11106714606285095, -0.08384481072425842, -0.010721058584749699, -0.018969383090734482, -0.11217697709798813, -0.031231040135025978, 0.05393829196691513, -0.10523765534162521, 0.021919280290603638, 0.07981989532709122, -0.094112329185009, -0.122369185090065, 0.013571702875196934, 0.031774621456861496, -0.2029106616973877, 0.11799165606498718], [0.053627919405698776, -0.042709942907094955, -0.03096151538193226, -0.040454864501953125, 0.05619727075099945, 0.06705474853515625, -0.10116080194711685, 0.022809449583292007, 0.047960683703422546, 0.07214637100696564, 0.06607361137866974, 0.04251978546380997, 0.036015987396240234, 0.2034812867641449, -0.07102612406015396, 0.04302462935447693, 0.0369650237262249, -0.10991483181715012, 0.05563301593065262, 0.012290775775909424, -0.015026604756712914, -0.11983373016119003, 0.07002998888492584, 0.07097344100475311, 0.1552792489528656, -0.04406069219112396, -0.008084331639111042, 0.022078383713960648, -0.09633694589138031, 0.03209642320871353, 0.03404638543725014, -0.014304990880191326, -0.04301789030432701, -0.03752654790878296, 0.15660835802555084, 0.13852013647556305, -0.07208023220300674, 0.016360564157366753, -0.02654082328081131, -0.09085162729024887], [-0.12803328037261963, -0.0025780131109058857, -0.0007634094799868762, -0.029118144884705544, -0.017130950465798378, -0.011256294324994087, -0.02873867191374302, -0.03967314213514328, 0.0033981327433139086, -0.03367866575717926, -0.026659470051527023, -0.01426536776125431, -0.08279604464769363, -0.047059014439582825, -0.11385177820920944, 0.07563520222902298, -0.17134839296340942, 0.0798797532916069, 0.08257978409528732, -0.018279075622558594, -0.052212104201316833, 0.07052440196275711, -0.0162586010992527, 0.025535723194479942, -0.006921292282640934, -0.17448148131370544, -0.19344760477542877, -0.026427196338772774, -0.007085252553224564, -0.0014887346187606454, 0.007426506374031305, -0.0981062576174736, 0.018512878566980362, -0.07687906175851822, 0.09762056916952133, 0.055260851979255676, 0.2023838460445404, -0.04230697453022003, 0.25827136635780334, -0.18645963072776794], [0.1812235563993454, -0.060246434062719345, 0.06197401136159897, -0.03034641034901142, 0.030846545472741127, 0.07325183600187302, 0.05533303692936897, -0.06380613893270493, 0.07593127340078354, 0.051580626517534256, -0.015035843476653099, 0.026318976655602455, -0.036472029983997345, -0.09128967672586441, 0.04267276078462601, 0.07489325851202011, -0.09883314371109009, -0.10962403565645218, -0.007373962085694075, -0.0998283103108406, -0.08879182487726212, 0.15596707165241241, 0.03321293741464615, 0.03367109224200249, 0.027329212054610252, 0.011459609493613243, -0.08892885595560074, -0.009413735941052437, -0.07440250366926193, 0.06737373769283295, -0.16730351746082306, 0.0908256247639656, -0.059251245111227036, 0.03950241208076477, 0.12810319662094116, -0.159706249833107, 0.04141632094979286, -0.013350262306630611, 0.024250980466604233, 0.018242305144667625], [0.16176575422286987, -0.0023193457163870335, -0.025362636893987656, -0.00111315434332937, -0.08854649215936661, 0.057728592306375504, 0.03990184888243675, -0.035737909376621246, 0.004310145974159241, -0.12488283216953278, 0.005043815355747938, -0.12552110850811005, 0.02183152548968792, 0.051004163920879364, 0.00995505042374134, -0.02617008239030838, 0.024884963408112526, -0.028402741998434067, 0.015699706971645355, 0.07374095916748047, 0.11060408502817154, -0.052414730191230774, 0.0035220065619796515, -0.0033631708938628435, -0.1589912623167038, -0.09405147284269333, 0.03652793914079666, -0.04915456846356392, 0.1117321252822876, 0.13022182881832123, -0.10306281596422195, -0.14463111758232117, 0.04544445872306824, -0.009207081981003284, -0.22809043526649475, 