{
	"W1": [
		[
			-0.181489076488522,
			-0.293452678411595,
			-0.214657402286107,
			0.234303994652629,
			0.312731545557126,
			0.189919101676563,
			-0.0580717590914487,
			0.0115776740131708,
			-0.242000592750954,
			-0.277696375157953,
			0.0171376208702826,
			0.0153999473029048,
			-0.161258114280151,
			-0.204960481273579,
			0.0522653894567998,
			-0.211368910296219,
			0.213899992956473,
			0.277744963694407
		],
		[
			0.25186224949066,
			0.060677737896331,
			-0.109798572452338,
			-0.0844671001735689,
			-0.0285665761151108,
			-0.171493581841278,
			0.0451371384612675,
			0.206515619704984,
			-0.0557848614177904,
			0.0279611246096241,
			-0.192378180255506,
			0.196002586381645,
			-0.133359005580912,
			-0.201955492524727,
			-0.319477818764917,
			-0.260231458391316,
			-0.0389932528906424,
			-0.315668709805357
		],
		[
			0.268976492751326,
			-0.115585906625822,
			0.0620143085611631,
			-0.0750429364800925,
			-0.194479555155552,
			0.0752677407949252,
			0.273177584200227,
			0.267952905332949,
			-0.0569006778906935,
			-0.192758576879294,
			-0.340830541838148,
			-0.00928132095157485,
			-0.0779815040235094,
			-0.0451384046799545,
			0.300839094634617,
			-0.0245323810270752,
			-0.302208845374478,
			-0.223006425324263
		],
		[
			-0.297837837899852,
			0.0361287862105238,
			0.271667363504744,
			0.169290404977112,
			0.0660327108951022,
			-0.104550363825112,
			-0.225500585619605,
			-0.200340983786827,
			0.000976598274950079,
			0.00959798169835965,
			-0.00252781793684704,
			-0.0837023390239855,
			-0.0632586826595239,
			-0.279708808578253,
			0.198254761787904,
			-0.20294263947032,
			0.113873401524473,
			-0.0553836407900966
		],
		[
			-0.180826838885278,
			-0.202713072051531,
			0.199648809961438,
			0.0694934711660174,
			0.00802360756355751,
			-0.11337408982282,
			-0.215514585183749,
			-0.0502188775517575,
			0.0214315007002328,
			0.113219197592256,
			0.246895486539919,
			0.238819140456674,
			-0.127678154515365,
			0.0625650339707505,
			-0.11713923025043,
			-0.171443096727709,
			0.287206086107474,
			-0.0452255513557177
		],
		[
			0.126764041611737,
			-0.124248909857411,
			0.186804528524025,
			0.239992088046246,
			-0.297875684117379,
			-0.0710436043406113,
			-0.191733474174363,
			-0.208339647616508,
			-0.175867711896826,
			-0.0563257219581854,
			0.093745620087394,
			-0.242553245397391,
			-0.00544481831766459,
			0.217325521728969,
			-0.283816985381071,
			-0.1973885763189,
			-0.0246033974828419,
			-0.388014078635729
		],
		[
			-0.925932085016096,
			0.145409575010371,
			0.255078812831661,
			0.422639360659815,
			0.942947815673177,
			0.0349406374619795,
			1.17094464343623,
			2.47087052903151,
			0.883732344430604,
			-2.57150389614603,
			-0.0848215182864155,
			1.15755398618324,
			5.32535213652858,
			0.133313894475803,
			1.12919001212296,
			3.59463246198705,
			2.9185815433736,
			-0.604516352553648
		],
		[
			-0.0965252660330842,
			-0.176138455271051,
			0.195300114028636,
			-0.18889430162684,
			0.234319815799288,
			0.219593030202846,
			0.269894995339551,
			0.162569819391817,
			-0.216384100924245,
			0.0305880631422071,
			0.267690743406689,
			0.330255103801116,
			-0.0020438986335281,
			0.0772634664798824,
			0.113698474880663,
			0.0637038784633096,
			-0.328738077001013,
			-0.138467063019302
		],
		[
			-0.180890290869345,
			0.175459591792557,
			-0.168831130093657,
			0.0195655406386657,
			0.275814786610598,
			-0.153630653808991,
			0.309545549779856,
			0.34085333041421,
			0.0913494437566684,
			-0.627756435630596,
			0.110921771825898,
			0.237403239741358,
			0.38386777424897,
			0.398703786217091,
			0.417534677603602,
			0.534884421414639,
			0.803897076354028,
			-0.181153535276511
		],
		[
			-0.693204652666873,
			0.336455770279943,
			0.00572557949010341,
			-0.0358958648006952,
			0.0870193674063032,
			0.0544410889701585,
			0.750981205162447,
			1.22417836663963,
			0.425775059917855,
			-1.48762197303592,
			0.00369300089601847,
			0.427197260883786,
			1.6855057624057,
			0.315695458081064,
			0.347328654364416,
			1.37535534656219,
			1.19681636223696,
			0.0427311628222392
		],
		[
			0.085316451142762,
			-0.219959765006006,
			0.0202019618474072,
			-0.298134652488236,
			0.0496634274137443,
			0.0508233374398957,
			0.0312296300139331,
			0.704140658105391,
			0.337664557178709,
			-0.495455266611517,
			-0.035218244718221,
			-0.0701287134895613,
			0.697473294885483,
			-0.160521229145028,
			0.413181150602551,
			0.868133633620707,
			0.533629850280623,
			-0.0148613987451301
		],
		[
			0.00742917481252396,
			0.217363359152213,
			-0.252843634209984,
			-0.244890224750913,
			-0.0464431759287417,
			0.0746297147956006,
			0.381514738672589,
			-0.0392225517828979,
			-0.0395495583501627,
			-0.243649198418992,
			0.180793870712073,
			0.198290235882582,
			0.247417891274464,
			-0.150619752937453,
			0.0945582221262106,
			0.619706906700587,
			0.418107545203684,
			-0.13763194061401
		],
		[
			-0.201841750003594,
			0.049429095259847,
			0.343846568581333,
			0.23455963196892,
			0.377302010148704,
			0.135417099023648,
			0.300256694525269,
			0.625281012208199,
			0.267275303043842,
			-1.39028117032142,
			0.316503981887809,
			0.243944915483689,
			1.84022657062832,
			0.254330270992836,
			0.58563269520929,
			1.75714049600293,
			1.14472295191361,
			-0.239329446464851
		],
		[
			0.31397941703403,
			-0.0283231732490789,
			0.284541631263231,
			-0.27160515682774,
			0.230950991085001,
			-0.0633387411366184,
			-0.320458741695668,
			0.100779604282841,
			0.308306440856353,
			0.494690610014554,
			0.297770163829074,
			-0.0920070252055047,
			-0.315208245051446,
			0.216942154582597,
			-0.355490374403663,
			-0.179004865634223,
			-0.0875764801805122,
			0.504647670380678
		],
		[
			-0.00255349650129734,
			-0.298294955610173,
			0.0941046790249541,
			0.240434113188693,
			0.20682033237963,
			0.25096319482334,
			0.168439415598769,
			-0.244127223631431,
			-0.223900039645261,
			-0.328575244513779,
			-0.248310060864124,
			-0.0213045468429423,
			0.173948163377049,
			-0.118985954224411,
			0.20176242433094,
			-0.0472985214396302,
			0.0311233745184868,
			-0.317958188983243
		],
		[
			-0.244749057847196,
			-0.0510628616373672,
			0.187197376442021,
			0.256577863943335,
			-0.113932035491617,
			-0.387621821022078,
			-0.182757036683015,
			0.20100101807646,
			-0.0109087884064192,
			-0.312809363281466,
			-0.116122032326772,
			0.0652598781056847,
			-0.186681470228022,
			0.0828629451207952,
			-0.0745478866225835,
			-0.338206527450245,
			0.247691706955835,
			-0.116151196885588
		],
		[
			-0.120614757884864,
			-0.127316575066337,
			-0.177913728033617,
			0.0459856276771579,
			-0.136155350853379,
			-0.0708261402943195,
			-0.0855704740876417,
			0.62989710578431,
			0.00757796725840088,
			-0.24818338065053,
			0.152887361301948,
			-0.179290958602214,
			0.74849761918544,
			0.302502622025696,
			0.229810712983365,
			0.73784012863888,
			0.353904713379253,
			-0.296581910070027
		],
		[
			-0.129544608342882,
			-0.0582786006924231,
			-0.269808182688037,
			0.0444948295337867,
			-0.0318147410372855,
			0.0177219474292243,
			-0.185909004789992,
			-0.066750724081753,
			-0.290741584127733,
			-0.0997214391408203,
			-0.283658037609145,
			-0.0745309006608728,
			-0.229574854760794,
			-0.0949251624896897,
			0.0440175113085246,
			-0.133685638426632,
			-0.238576753075109,
			0.220471875950546
		],
		[
			0.162341952810619,
			-0.110888631979624,
			0.109086106124012,
			-0.192074813583738,
			0.027212100423614,
			0.205049972190418,
			0.206061703331428,
			0.0655530251570317,
			0.273887718859533,
			0.312425288919892,
			0.245305720373024,
			0.0604125463419825,
			0.456788998320847,
			-0.193024295054401,
			0.0657868536201629,
			-0.122986428721171,
			-0.0625005759000911,
			0.0244563711490989
		],
		[
			0.0727017615026873,
			-0.28199045052585,
			0.0347447241906748,
			-0.0327819954897089,
			-0.244941777660332,
			-0.0190477446031781,
			0.181404590796074,
			-0.0938318189172262,
			0.24998654764739,
			-0.136822494580279,
			0.255427243955759,
			0.291219683641287,
			-0.244833460085736,
			0.0296660487840097,
			-0.205412041536432,
			0.00706316643332691,
			-0.0393419805903237,
			-0.320637993967021
		],
		[
			0.0337987997115047,
			0.119005540684522,
			-0.0918476677626902,
			0.258127502433059,
			0.323583146584034,
			-0.00608926343396951,
			-0.118696254156839,
			0.245668598693079,
			0.028385936055158,
			0.401799490755646,
			0.338955167634976,
			-0.439462343339908,
			0.0877768863601369,
			0.129390013189519,
			0.120859574702654,
			-0.377714767471288,
			0.079577168979203,
			0.229569420539361
		],
		[
			-0.197555467309157,
			-0.230709707821513,
			-0.243082770272669,
			0.279553289699873,
			0.171433482079442,
			-0.306735935123827,
			0.256656899692014,
			0.305632003657423,
			0.0110274640958295,
			0.156606583271284,
			0.0815064489119364,
			0.022227256535246,
			0.670734811502693,
			-0.216958868870375,
			-0.102593876033426,
			0.288457171498519,
			0.140390564460644,
			-0.0617893344597737
		],
		[
			-0.082811986487614,
			0.044147429448892,
			-0.220456785586515,
			0.155236163261406,
			-0.0505687333602213,
			0.0169760724043019,
			-0.219412151823472,
			0.306717575002848,
			-0.285553570403654,
			-0.0275363803279848,
			-0.197343857688504,
			-0.109175666123827,
			-0.28828501851484,
			-0.172380826595139,
			-0.234407763882871,
			-0.323900101438569,
			0.144754217760222,
			-0.27117432794364
		],
		[
			-0.235956229679234,
			-0.0223987594990969,
			-0.255175022935663,
			0.128174181611271,
			0.603519332873586,
			0.292787028537028,
			0.347641809950798,
			1.05432464502088,
			0.518897462733774,
			-1.23476647878372,
			-0.03294495228141,
			0.0683557853086752,
			2.08710934666552,
			-0.0945603375417533,
			0.123987945562094,
			1.51576587281939,
			0.872950054255223,
			-0.200731547140287
		]
	],
	"W_actor": [
		[
			-0.250299044345063,
			-0.000454175848698273,
			0.121151461260372,
			-0.173868720391545,
			0.281295156713631,
			-0.0700811945202238,
			0.38893904833663,
			-0.237265746010734,
			0.161972237730732,
			0.521506072683672,
			-0.0789349969024218,
			0.0211159879451053,
			0.254032010103883,
			0.0559656480227644,
			-0.0627297176974059,
			-0.197979089246386,
			0.0150165727775138,
			-0.239827545154184,
			0.12307555860044,
			0.27516094607523,
			0.00348828141241055,
			0.151625378608801,
			0.112557198476371,
			0.403193050149271
		],
		[
			0.0802344163983797,
			0.0410385501884882,
			-0.15465830336925,
			-0.0237102412549173,
			-0.0469143266409879,
			0.0668367057066225,
			0.477972779183388,
			-0.0315896035198878,
			0.0153047288723551,
			0.253481067107371,
			0.110278860522067,
			-0.0657719793606803,
			0.452268251001609,
			-0.244305158863201,
			-0.0471852036667321,
			-0.157450957917983,
			0.132834129548416,
			-0.0417334051625134,
			0.0267945758686363,
			0.0656671170760751,
			-0.45444578660474,
			-0.0548729353046552,
			-0.248233368153317,
			0.28229711812233
		],
		[
			0.0176473417577238,
			-0.083342424117833,
			-0.0181418988299554,
			-0.200492177897619,
			-0.186558904317105,
			-0.00932882529577524,
			0.609009461625869,
			0.13981540385079,
			-0.265545665400084,
			0.496519137249228,
			0.0818801332894365,
			0.255535078943806,
			0.164196306911106,
			-0.435781166998687,
			-0.128471963059434,
			-0.201982427371479,
			0.155275946719433,
			-0.109924847411178,
			-0.563499772395456,
			0.203914210432316,
			-0.163560849870216,
			0.207823126618105,
			0.262179413191569,
			0.288212509211805
		],
		[
			0.155532700309586,
			-0.199543232699383,
			-0.178865225848324,
			-0.160775392133936,
			-0.104748780287753,
			0.276889024262069,
			0.65081790355738,
			-0.187557495617783,
			0.232776255351152,
			0.163786131087392,
			0.271572677458522,
			0.144728902957682,
			0.0947308521386968,
			-0.113144240911234,
			0.150954825728799,
			-0.0244826753622583,
			0.101896519114689,
			-0.202614272231924,
			-0.22582182283568,
			-0.185337100836659,
			0.0662063428444041,
			-0.187673142547371,
			0.155567765008445,
			0.262201616090541
		]
	],
	"W_critic": [
		[
			0.0613827597982619,
			-0.0152276394326154,
			-0.159600336698758,
			-0.101812701136756,
			0.214657313801828,
			0.105032899306631,
			17.1004942443786,
			0.207837970123773,
			2.52790401944363,
			6.81963565196607,
			3.04339009100241,
			1.38789987755502,
			6.46647706318517,
			-0.544871986838076,
			0.0109877167069776,
			-0.0841869158726335,
			2.76477502915339,
			0.04829569798954,
			0.77662251643795,
			0.291547655081765,
			-0.0783801651024141,
			1.72952612035434,
			-0.0623284524956323,
			6.59162145588175
		]
	],
	"b1": [
		0.0125113006375361,
		0.000128499327019708,
		-0.0570473508019428,
		-0.104593338475317,
		-0.0704816579749941,
		-0.0830295095791882,
		0.755964091297824,
		-0.0402779827120973,
		0.167491827164464,
		0.452931922457509,
		0.118331448084422,
		0.109012581607926,
		0.234483127560352,
		0.253971470917346,
		-0.00192768228098223,
		-0.207426292971143,
		0.11242230081998,
		-0.000314407152869077,
		0.13596905451884,
		0.0238441483141459,
		0.187966462318053,
		0.0460132878578019,
		0.000289959431288084,
		0.2494539269208
	],
	"b_actor": [
		0.521269988315558,
		0.407174840771785,
		0.194115807193185,
		0.200755459097119
	],
	"b_critic": [
		2.44865175526737
	]
}