{"biases":[[0.00315752704935452,0.0288562158086428,-0.0610698526709879,-0.00747509294827136,-0.0457969182006771,-0.053193264929737,-0.00104175873228736,0.0136631625268548,-0.00903208326666267,0.0150855682477348,0.0713282891617548,-0.0508771293650607,-0.0156797869466513,0.0139027983540079,-0.0320725092266712,0.0628350745890454,-0.0267814569314323,0.00686021191503595,-0.0116743562040297,0.00182724270901669,-0.0165537435409957,0.00141811516272128,-0.0356448255049144,0.000597183951999204],[0.0288434580435442,-0.105799958267401,0.0004359023196521,-0.00438509478939131,-0.0249800487417508,-0.000702292468417831,-0.0299107652509804,0.0767255650129278,0.00781251815990522,-0.00162222550363758,-0.0292169678366334,0.0806585900580928,0.0750159736980099,-0.0668168287753284,-0.0303148009444568,-0.0105141213924659],[0.348167982456598,-0.291486918873655,0.0893476639515377,0.0458287040946512]],"sigma":0.492800522365368,"weights":[[[0.105580078727758,0.310341620706099,-0.345431348983377,0.016967841354388,0.046277134310339,0.0684195310766886,-0.303825254311217,-0.175177053224624,0.0236502219358628,-0.131553349246129,0.0718973895016086,-0.266758198448651,-0.269025479073247,-0.180864088491468,0.00480125505040714],[-0.0408020265047292,-0.160344380769408,-0.232440898716994,0.193502231273786,0.128474323690126,0.311688389804323,0.359290406473862,-0.106383257764044,0.217573474560816,0.378026118554244,0.289831803073296,-0.0867003696982909,0.26932695220951,0.189603399863851,0.317462477551827],[0.269096357681503,-0.327647177170605,-0.137165942772272,-0.309518825958381,0.241869570797041,0.310677327492516,-0.268280041888299,0.307338375586653,0.25185420695032,-0.100729246777727,-0.32357853135011,0.116974646152312,0.0270938243697956,0.2439029143691,0.0115453205078295],[0.10497949693399,-0.333218283428753,-0.0960823821524311,0.148987753985362,0.285347443810137,-0.241421231918202,0.153480247669235,0.19716719808091,-0.290610909434108,0.231504043566531,0.260469469125013,-0.0409321493978193,0.0943494751394234,-0.0767833557846123,0.180461393943959],[-0.0541240568035228,0.266975100636071,0.182207241097898,0.239605919543097,0.271165680161642,0.113273942668504,-0.365391361337284,-0.0195226199452505,0.00287660316859453,0.0737461459246523,-0.0865140065700465,0.217365699710195,0.307052448172219,-0.202875405780647,0.124980052503568],[0.234862968181663,-0.0385312436465481,0.0791759089882002,0.0413218587103693,0.181566347087877,0.360423992516743,-0.228163527702684,0.144245337472191,-0.188984706327654,0.20918721398728,0.170292669382181,-0.112738501561154,-0.228645655453835,0.0113520530246736,0.0574991366995091],[-0.124986786469908,-0.190975387058218,-0.2919189538969,-0.268824447260864,-0.0755315838138247,-0.323086190159624,-0.14587944717248,0.364497538899913,-0.147824162094215,-0.184093224928767,0.202502751532767,0.242310184462216,-0.319590135251964,-0.34244910850479,-0.0943923124306315],[0.202621538818164,0.272017514976233,-0.0731566388047393,0.33958467980416,-0.00622461581418801,0.154939279814204,-0.355754476351169,-0.0207448383401874,-0.175336560449934,-0.149602423670497,0.284168414026155,-0.26722703023513,0.374605661545075,0.312513109203868,-0.315649474221585],[0.104773369368768,-0.109996160773371,-0.309259482413443,-0.220009364555346,-0.0293713707892548,0.145411234899928,0.331971318347604,-0.199735592165143,-0.174724351084423,-0.243725262980275,-0.154782466496102,0.0166741448478663,0.00255317787457843,0.198712070679354,-0.14169894790906],[0.0843263971646328,0.0720962370022777,0.291879529708873,-0.0490331590852194,-0.29183856463719,-0.0745281469292746,0.182227955428023,0.0765488921631189,-0.19120585167041,-0.182909630990898,0.0749943655878004,-0.323541365680461,0.198281251800439,-0.115467299620467,-0.0944171393643216],[0.158407473152039,0.386665888840735,0.136032753860588,0.17413706902124,0.18741319608871,-0.0318383406447743,-0.213020876309898,-0.344465219840911,-0.0903670620271582,-0.00825710835699919,0.187707133727491,-0.151368543089338,-0.195364929076468,0.118448684864909,-0.0899574703858027],[0.149055011230509,0.33005130251462,-0.0194513224988715,-0.260577626112578,-0.15930861107375,-0.0992774203894357,-0.357897764188927,0.154725251927471,-0.204335182929746,0.153842198993809,-0.0414114997497923,-0.148061017082235,0.332030498311593,-0.269734539373031,-0.152873969680212],[0.0870531757482021,0.0144517527567212,0.0038497286985288,-0.21548639943915,-0.310751242767077,-0.141920645278361,-0.202865166692528,0.186483674258346,-0.326763681714518,0.0170881521333682,0.241688521491859,-0.140848622125678,0.103175728251313,0.376679084604964,-0.169484226078328],[0.169705548235512,-0.0429173855740015,-0.209975412566066,0.1904928121983,-0.15972920079985,-0.284180068358084,0.29372205674598,0.283989302490961,-0.0375030781467225,0.273288268355863,0.35214359490332,0.0506057574686414,0.0238982641320865,0.312045314716661,-0.220046567935905],[0.170139927060797,-0.311951251836224,0.349924421393353,0.0493569127415262,0.126973544568258,-0.325712217620909,0.0374651307913212,0.283434508409196,0.00729482939643902,0.135225955269065,-0.171834896710063,0.311116049338386,0.40484457973036,0.160384174340598,0.304882910270976],[0.131594996341208,0.298687417072842,-0.0690721613974418,-0.211178302280107,0.325943604956404,-0.182025091365708,-0.293142561939486,0.249921489726679,0.260581032036765,0.1612112204448,0.287579682997013,-0.25440281374231,0.0840590019677091,0.0319708515761939,0.214164373247728],[-0.082452668815974,-0.0142179624812693,0.176743112341,0.0216985740252711,-0.0225237943505304,0.143475343650104,-0.0708967167233641,0.0366731349946573,0.161641890182951,0.260059388794005,-0.358103071717462,0.288823424086665,0.348656148282877,0.146268273964238,0.235489703985292],[0.000642801756857136,-0.220812761774882,0.316840497827435,-0.0309271223321986,0.274034460516649,0.0246116662500539,-0.111858388372535,0.273936613513011,0.190051257089522,0.246894720933507,-0.0486955802294555,0.0301619734918868,0.16684772461328,0.243255086495633,0.223050822031987],[0.263829622230039,-0.22297322051307,0.193351739428533,-0.293200665484849,0.203602260920714,-0.24723340183095,0.0494700479354903,-0.0134425579099129,-0.185625199917045,-0.222064986391523,-0.225561426371161,-0.129095143267345,0.32577792733258,-0.295963307368449,0.020206959219758],[0.0659761040277813,0.236417559231532,0.302006419637705,-0.0127443129303078,0.131484097515075,-0.188510018180924,0.143946390246236,0.2107129813335,0.0786404486533374,0.2776256963879,-0.109949094865879,-0.0663850883832933,0.296480054249651,-0.216765674991438,-0.249658147765636],[0.190478267218593,0.0200297313652275,-0.01619880039499,-0.181036422304303,0.0675227007927873,0.226700375505241,0.341578313644609,0.0707503129938792,-0.224673751533975,0.307713350143516,0.034564276497925,-0.218931519745477,0.092859287497228,-0.178544334301281,-0.310114144500468],[0.109529656351153,-0.0941273477235298,-0.103790487521789,0.0222766429048558,-0.180351221005282,0.280838147841836,0.172221090331723,-0.00397079011801725,0.171282627769113,-0.113575878305256,-0.0981192031400626,-0.288613679937598,0.203286237640392,-0.310105606761822,0.0784739811291499],[0.16575933746152,0.187642741374487,-0.00886627395467189,0.10855489648633,0.0700642974186617,0.147061942856576,0.0979202216343138,-0.0198299365567503,0.118082571305504,0.167167637326245,-0.36403330777351,0.0293954890209813,0.0774405363465357,0.00363135107300767,0.15911988574237],[0.209722163665788,-0.356476119584185,-0.142525104746524,0.0127033891212002,-0.23057302379616,0.221911308605288,-0.228080205374208,0.0667773565374666,0.18152163900832,0.0638075098568301,0.244779510572722,-0.25425714579939,-0.367775527698609,-0.106410835595819,-0.208854312420201]],[[-0.221206363300794,0.0904446795292211,-0.183891459180619,0.226564567521741,-0.140700423724669,0.135212525566019,0.0285517920861859,-0.220412753755124,-0.274784396882091,0.123860790300625,-0.0276196953593134,-0.119276220098182,0.188069584311369,-0.237061507703309,0.300540667450013,-0.195146866865516,-0.106997196921577,-0.210583722964303,0.103109648452548,0.236357164140959,0.0818685327319261,-0.259617784901242,0.215857110441222,-0.184737100030224],[0.113801916371953,-0.284732027449614,0.225538582197636,0.219566670273696,0.0905994060835928,0.231120069786623,-0.181450768710881,0.0553077241687297,0.0240473136274474,-0.175933045232269,-0.120335824548135,0.23977435791382,-0.312511654265993,0.0897468411735591,0.244128828303584,-0.186736396011631,0.149460894088229,-0.262566331381119,0.0850029338606421,-0.171486750012173,0.177761919717718,0.00180581887257737,0.085962312511574,-0.112540704111563],[-0.0326150881683503,0.0348458341106459,-0.00731889062288023,0.0628996345892576,-0.109539413388407,-0.22857616322311,-0.126843858563048,-0.0393758534055715,-0.194937641370617,0.18529767998955,0.0571447928606417,-0.0326929716567967,-0.0900605219587874,-0.0445773601295123,-0.258085969825066,0.26156265908521,-0.093043562066147,-0.251824689893814,-0.0395736659164078,-0.0525307633596929,0.213771234697771,0.125253616159535,-0.111173510665197,-0.270954922142267],[-0.0522316568163686,-0.0753323800397569,-0.00387202577486752,0.214291431713609,-0.271401399474353,0.0863826588803624,-0.27388503923489,-0.0151692827197342,0.215780956232675,0.111803738803155,-0.281990036489917,-0.23502687558943,-0.128055430929593,-0.205350340336517,0.100070506316479,-0.222516925572269,0.157396929071104,-0.25133676705482,0.192108048643357,-0.139234944558143,0.283433405269913,-0.116777300897297,-0.239621606287852,0.152593190208614],[0.1387240966481,-0.257937085051776,-0.195295839146036,0.261818184646628,-0.276708306155996,0.20293478948069,0.284633987809716,0.160963466192126,0.284875135891993,-0.0215761095331021,-0.250766845044364,-0.166927363117333,0.16717121202799,0.15407066842972,-0.0628260997983414,-0.242362646822076,0.07001451300892,0.176036778994279,-0.280371207446564,-0.0439344201294908,0.247010760042137,0.117862295202165,0.0867660589152206,-0.237469927896013],[0.0767236551650806,-0.0997177566771438,0.146501447047294,0.0352707775010793,0.251322553661451,0.195942307609324,-0.267852862943316,-0.0951720100154562,-0.153520336090184,0.191031395823321,-0.215110572255499,0.116156483474509,-0.259511846988258,-0.27855191213747,0.0169545260545293,-0.230990241773339,-0.23354571469651,-0.256849923151509,0.00328320254892295,-0.194080354263898,0.0958097495615087,-0.280219455119057,0.0814903586223765,-0.189697127779055],[0.126667318906001,-0.257019155138937,-0.0553429350391599,-0.136673009774589,-0.0928815941664154,-0.274735926613114,-0.189495079555777,0.0768117659147755,-0.137373429646798,-0.281239557889876,0.0399039129146686,0.0618798879899771,-0.275596433644653,0.0615289966619872,-0.0377908378627532,0.00421462230473062,0.255268169933464,-0.0437125764869089,-0.0499829808228219,0.00492701482769801,0.119413645233873,-0.0556964418249851,0.267521962115031,-0.145546790367201],[-0.0733123995738708,0.169926474361287,-0.259159744265758,0.212121510158076,-0.154587559867154,0.0637120534087364,-0.13215293505451,0.146246008460439,-0.1957266320622,-0.121098136265184,0.162817753697317,-0.0358430826981041,0.297749201545718,0.0523491877304862,0.165043448858818,0.176262503434161,0.143861840818664,-0.175062359945381,0.239175777049044,-0.0612918956733756,-0.0414897397387772,0.21203441235964,-0.163037967168711,-0.271982403459769],[0.172006399954252,0.124038415917253,0.222385539869218,-0.240248612252329,-0.252331152457484,-0.0682360225276835,-0.130253272848814,0.202764886459965,-0.255620496530292,-0.276336484452426,-0.104289950612219,0.214188846042936,-0.1599656511111,0.0322341235688528,-0.207888436197863,-0.280419663805552,0.241802628674765,-0.176885904391332,-0.268933444808742,0.0810094151920179,0.0970828377629207,-0.159895922815388,0.0243396647734023,-0.226904530734838],[0.217541834232467,0.0454285756374825,-0.206398648253648,-0.239048751856608,-0.0259074945617674,-0.135664615250307,-0.100463713909277,-0.0308650977207848,0.0119849627679093,-0.0287170624667624,0.025131557203969,-0.114445565991422,-0.236794130905579,-0.285958955032795,-0.155095662807552,-0.163222992701054,-0.0866061046311967,0.0340413429692727,-0.217850521604272,0.0561052816047849,0.18009242283801,0.0478353152650506,0.00781482689243503,-0.0750224619123583],[-0.00745083300295449,0.148664947738966,-0.139065046024732,-0.0771712103633361,-0.00605849180044168,0.190474260877584,-0.278432636992864,-0.331306096942005,-0.0977202798543122,0.193556455094731,-0.300384758156533,0.0537369695841285,0.115596525168331,-0.250730326676831,0.0842291603567534,-0.241623933816375,-0.0674474272658968,0.197423059951458,-0.178094122546621,0.0287967025997377,-0.0648735877436031,-0.200328835946978,0.0156633887190104,-0.0148346015880007],[0.159466092747703,0.174107682450438,-0.161585398309881,-0.0517650895980536,0.0534259739239184,-0.166885626829924,-0.0900668920812371,0.119080244006515,0.00963986455951366,-0.253546406254799,0.183830648489179,-0.10081997625621,-0.296872870056089,0.205817953970418,-0.294823851543284,0.281729532958341,0.215038887745192,0.190096998433078,-0.0717021489445095,0.0214968694905068,0.294020965974713,-0.274492224216846,0.0362148266063449,0.185504111115939],[0.058937400728313,-0.135461807983732,-0.00146886977994774,0.0280913668757752,-0.240588050814385,0.0702493814423746,-0.0756251833981612,0.00526082470683031,0.164657277882592,-0.132109343250038,0.328369881488478,0.0471338515787223,0.0330103052133126,0.31541227895682,0.237321392472546,0.118080736252147,-0.237168401334671,0.213059440453319,0.191959455464067,0.000295656689519129,0.042306769024085,-0.211144879870063,0.16660603899022,0.313036472154953],[0.211804373225807,-0.0466598402213593,-0.232703501054108,-0.124810293304688,0.226055519031758,0.130392627838989,-0.259735135847446,0.280564088901237,-0.0462773467699315,-0.15249332007633,-0.19802519156283,0.155595526471679,0.199843536513973,-0.0387984718298193,0.186509802530172,-0.0894480640367015,0.172737995145626,0.201044386637895,0.149247810163911,-0.0802436125435204,-0.141781359412901,0.112819550138237,0.235589086233476,0.102146689037683],[-0.191319513489372,-0.14520078294666,0.230740634171175,-0.274184747615858,-0.134188304903802,0.175526693485809,-0.0208245629365682,0.0154066997000444,0.056486515819452,0.167847973233189,0.0487861332827798,0.136270491948193,0.121276914695893,0.113086066499217,-0.0314264148812225,-0.272972632262989,0.228170706432959,-0.0709483114691111,0.247876579349878,0.0206232101552029,0.19285024132197,0.188804317481884,-0.135135319424832,-0.242012433384646],[-0.146946702448692,0.225132771769081,-0.176395645938717,-0.0545013652251505,0.105525844663462,0.274840900289433,-0.266758884464158,-0.0933614614558344,0.129809707666589,-0.190775047801044,-0.239606677993154,0.0409655253316139,0.0897821482017299,0.0430247255503874,-0.236320663137438,-0.084040053405047,-0.254367587114306,-0.162635806258891,-0.157061365843819,0.258311523636582,-0.142244687473538,0.171768455369613,-0.236525394662197,-0.172516192709759]],[[0.162066706526969,-0.261156786742419,0.319653614796232,-0.122076308603831,0.0733732022680356,-0.0183467036722324,-0.140801421565001,0.394319491528537,-0.238209053910385,-0.345782250772846,-0.30197297324725,0.175503660283084,0.311002124030725,0.186445623687154,0.244884685784243,-0.00971781674722905],[0.0726885113041037,0.070158459284579,-0.163211163695346,-0.0828313546167867,0.142490889681304,0.316026560786856,0.119860555872653,-0.00107165670286386,-0.144459615805799,0.119970992880678,-0.146223212164288,-0.280974988788112,-0.193512188476684,0.235624607201181,0.109298174875304,0.266253121491823],[-0.299209264168334,0.0478547845916612,-0.328110051934782,-0.300331220465334,-0.0820721585161213,-0.0030665428839349,0.238107308951361,0.175053629673636,-0.113854786045971,0.0926077309613618,-0.0263089548237976,0.219424369947995,-0.359773105709113,0.383358398538589,-0.171326418740294,-0.323605453429171],[0.30595361341826,0.00535312917463405,-0.00406019985950048,-0.138484889057557,-0.256118225476041,0.320606575868131,0.303912625760758,-0.163170397617707,0.210248163994595,-0.178245877579812,-0.224445429822,0.0915030899673248,-0.166335370153318,-0.331839281128582,-0.0644337803620958,0.0352258015494176]]]}