{"W1":[[nan,nan,nan,nan,-0.14931244067058,0.132410113590649,0.32292796127147,-0.178740676023186,-0.103047785444187,-0.391289351759131,0.159521339062578],[nan,nan,nan,nan,0.0164757672423052,-0.0930771752340341,0.185731184192585,-0.320840695364687,-0.163466224108968,-0.42135928386704,0.186724940384386],[nan,nan,nan,nan,-0.195723693379699,-0.375186131596708,-0.251463388865421,-0.221659970896803,0.127691557771176,0.297398917475524,0.0550608356673451],[nan,nan,nan,nan,-0.225077302484746,-0.253747979498766,-0.276951292491176,-0.200160149838687,0.406524847535753,0.159654485842253,0.0434171585050921],[nan,nan,nan,nan,-0.303453577695736,-0.303428834483995,0.14102850541552,0.359110449446926,-0.130872220974299,-0.314163771231368,-0.0364063480188977],[nan,nan,nan,nan,0.424801889841298,-0.232495627353804,-0.0170497490056411,0.341920409817741,-0.140390868740276,-0.129893211285539,-0.00530372345752898],[nan,nan,nan,nan,0.0785808564525315,-0.290934012017607,0.381253753791998,-0.403678939180343,0.288905181184858,-0.264352087286203,0.385705350107942],[nan,nan,nan,nan,-0.240184850842918,-0.28748280934778,0.360189419165706,0.152675178720926,0.16210391281687,-0.259526093879754,0.244198166650337],[nan,nan,nan,nan,0.243257307420928,0.251911420701967,0.300472667527205,0.376740965881613,0.18119755689472,-0.136384099790204,0.351212864431136],[nan,nan,nan,nan,-0.129993450518131,-0.238347861482606,-0.395312607512028,-0.118293290713324,-0.227525575542366,-0.256445672562013,-0.110301482704876],[nan,nan,nan,nan,-0.2399471684921,-0.0777517192048736,0.39702190828934,-0.094349439573535,0.203129918781367,0.121885841952294,0.358101566054943],[nan,nan,nan,nan,-0.382059585828525,-0.000736302872527424,0.019631422723764,-0.351923628516447,0.223061792599728,0.357676055673999,-0.0923699095628449],[nan,nan,nan,nan,0.2421750422336,0.243937178552563,0.290401507746796,-0.252812218756059,0.254313810453856,-0.280087117408029,-0.0231844179973175],[nan,nan,nan,nan,0.150483674246782,0.311710123633746,-0.314857278427505,0.161607578619717,-0.398515664983588,0.2930443878986,-0.382231719881369],[nan,nan,nan,nan,-0.276539089842602,-0.345982120349792,-0.254864034684317,0.326797327404248,0.148943951449286,0.191071105705753,-0.303938177665844],[nan,nan,nan,nan,-0.0921174778935303,-0.292618602632115,-0.392591464266148,0.27447347011555,-0.328263141474024,-0.139631439055775,0.178255628136582]],"W_actor":[[0.143918610330586,0.0584437364441218,-0.135298288043179,-0.185602109562881,-0.0827327895234963,-0.0229416743733011,-0.299897853447523,-0.324030667507844,-0.306355387821987,-0.0664550637965473,-0.345452885714359,-0.0847315431946813,0.248568706821839,0.0713929796895762,0.213498874077035,0.30759641689509],[0.313369247994757,0.00406111730160364,-0.156764967899282,0.233886601546292,0.274369035836537,0.349495760286748,-0.107141057111132,-0.128051808000129,-0.122795158849362,-0.0216410942206975,-0.185738338053436,-0.311638414283853,0.213670108514522,-0.00473008542975384,0.151233981707065,0.22934085123712],[0.322478804063758,0.118278773965702,-0.312175236034824,-0.285184923837254,-0.044140451771373,0.0800759444691782,-0.334702251604874,0.353710450617501,-0.0343909016002062,0.330221841178569,-0.241872367397077,-0.247537388132417,0.11347583695463,0.340518259383865,0.209701394894286,-0.0530785236966968],[-0.304026332878814,0.0363042804998473,-0.0473563111193537,0.174832703599213,0.0767009462246754,0.298247931516692,-0.28299241697446,0.000501156470603496,0.307615140937418,0.240129106985319,0.298627958382647,0.25460502034561,0.191020856001823,-0.23069005729791,0.227771206740438,0.229413781043174]],"W_critic":[[0.138417547485124,-0.189616145128615,-0.339499089636676,0.318864967740524,-0.100121521308613,-0.242374022094537,-0.148006974927237,0.329328995647447,0.170483813620927,0.138433227994744,-0.209920854266452,0.0664132859112742,0.153309193919094,0.14103665173833,-0.227430206831704,0.0997220279513137]],"b1":[0.0000285478054536089,0.0,0.0,0.0,0.000378847027575837,0.0,-0.000150413551563642,-0.00113752494372599,-0.000756269669251021,0.0,0.0000808432047692954,-0.000490665951531817,0.0000698760108706188,0.0,0.0,0.0],"b_actor":[0.000955275995871465,0.000710668425951238,0.00032493314660547,-0.000352605930720314],"b_critic":[0.00957963164206356]}