{"biases":[[-0.00198630575290228,-0.00262626862729406,0.00218654230194687,0.139871525101035,-0.0221622731078408,-0.0163357521063051,-0.0538756013217829,0.00724300690383936,0.00252531980758637,-0.0424297478070668,-0.0100224756415665,-0.0330471477230799,-0.0585689687079761,0.011081786721748,0.0476810073941502,-0.00243580672033472,-0.0489631818522936,-0.0138445368042758,-0.0471483848534722,-0.00449817265073968,-0.118590383325625,0.157145295989464,0.00877716533099442,-0.0339748944617756],[-0.0762297096108752,-0.0731447573516613,0.142396253002253,-0.00594823754804931,0.0864601034662072,-0.021402954135308,-0.00940535631887512,-0.0983691433349707,0.0012941894849456,-0.00577656682241668,-0.00821610380676155,-0.00960331830388052,-0.0685863771774735,-0.0232869010405251,-0.0310372106748673,-0.0444365277372444],[-0.290429725989739,-0.262478256956567,0.258676189625466,-0.241053124015357,-0.0395616401389032]],"weights":[[[-0.312381720743216,-0.249819395692713,0.143775710880485,-0.115664498736754,-0.0606531518707918,-0.248846913893059,0.0220650981490619,-0.207241222399913,-0.283115870763934,-0.116259550251965,0.0143952371345174,-0.336664984168166,-0.0366845761775996,-0.0148834972103174],[-0.135308062464135,-0.0265661903452956,0.106534783304589,0.213318686569552,0.0789068216687585,0.352790174107299,-0.206988087682598,0.0712352744098527,0.249542837739146,-0.310202701698445,-0.0306559325767653,0.249915800147662,-0.0521403124719094,0.300476570088962],[-0.294133485597226,-0.117358649706224,-0.0862396386842051,0.263330095262214,0.159605878095557,0.326975593416851,-0.133210651252535,0.0886900650395639,-0.325568668525128,-0.179882367035007,-0.0565166613514629,0.105417161211352,0.342775998499296,-0.310247342139848],[-0.140280349904991,-0.163758408635833,-0.0943322435531962,-0.0766967299511913,-0.232037083730703,-0.295550610945901,-0.0267722344329098,-0.397038962062792,0.230008135068496,0.223882472878512,0.263366857256011,-0.545683896302473,0.290336481285528,0.243892442252761],[0.188045941223668,0.271724209456471,0.0681336757091974,0.290503162380714,0.201982579179665,0.249343919146708,-0.332517648253637,0.147752038228814,0.199558362497596,0.0200740997567155,0.383353844833157,-0.214511404677886,-0.0700091113650031,-0.0141618457589202],[0.228397592238033,-0.151887288991851,0.108458615152572,0.00818481547144045,0.0977714176599566,0.340477767436757,-0.0821229522371707,0.280248579050007,-0.0779340566785541,-0.169299279296123,-0.213599043409407,-0.190077048334393,-0.258319096078371,0.057600600332902],[-0.097666942137309,0.279149030082844,-0.19434200854554,0.261684400372463,0.145974906007779,-0.310217578397694,0.159068086214076,-0.32508807309127,-0.278868575811003,-0.0817771100862692,0.226868395078376,0.480306081225629,0.180557758918335,0.248302700330408],[-0.373915969161264,0.189994971568069,-0.282350340531887,-0.0347271876032085,-0.0889454650901547,-0.133180760747638,-0.249531265407696,-0.257351062466881,0.0198977297011834,0.172404617003757,-0.315602319069242,-0.0430368278245509,-0.115377876923412,-0.129823589079018],[-0.306246963869957,0.29499188767727,0.125113728521029,0.372289298039621,0.150556643231727,-0.2339072438653,-0.0643614341809608,0.133690628679471,-0.100570789298759,-0.0438374665697348,-0.0940988653248254,-0.317622366811143,0.116679268948847,0.0377417236853686],[-0.240858991350672,0.154624346190455,-0.0377476171726457,-0.151578845819031,0.303629310589132,-0.094655176861966,-0.227404039123714,0.0414228311702555,0.372544045796368,0.376061660729588,0.241217999605643,-0.0137512480727811,0.168206800990675,-0.00120524468880532],[-0.0038526269153062,0.00684912078883445,0.0256745934762313,0.276437450400425,0.344649807146467,0.366979983212425,-0.353219380104555,-0.294361430952928,-0.250479677088883,0.177327861170914,-0.0540334253002602,-0.30820263659781,-0.00810113231857597,0.142390756688556],[-0.267699262482781,0.178637337111729,0.121147173561367,0.0437890311930148,-0.219076185467201,-0.196812943123369,-0.257804285771043,-0.0354568447456667,0.157693992632538,-0.0332155865417319,0.303197212015039,-0.159047396508668,-0.024560369296053,0.169298884401466],[-0.262301207406936,0.257426301178638,-0.0929019208918154,0.303192261077687,0.110153800496538,-0.240851067452255,-0.35844661299032,-0.0153999526984772,0.258770807880649,-0.312005172725042,0.469571112401524,0.894092999101799,0.315420917355772,0.260389972822679],[-0.190661323437616,0.117411616746618,-0.0938227155265893,-0.0797907538256333,0.211777950853376,0.278868709666568,0.342599612073331,-0.00425340878516243,0.362623552469814,-0.372456015904351,0.129284500173921,-0.00821554877791418,-0.221657628822966,-0.245340957474838],[0.39976607352421,-0.106152304532752,-0.325140405908185,0.344961201610894,-0.0176540005177523,-0.26224953402076,0.261997298163756,-0.00278287617897074,0.357501362461078,0.256040791253352,-0.324874656416996,-0.35766110417175,0.120367582111502,-0.25178913442977],[-0.313098086898116,-0.273051981968475,0.0276990714037068,0.235035376729467,-0.116633915063356,-0.108206511615129,-0.193580203123927,0.360087674538778,0.311500418382427,0.308918879789685,0.0887387926454567,0.0395303509274442,-0.126652177918544,-0.373793013837007],[0.151170359245258,-0.251089302564048,0.339885760165803,0.193301769498622,0.225562434714096,0.341731566980325,0.29535571868155,0.217624957123406,-0.354365940408937,0.0189425016453216,0.000647384384167607,0.178363264503029,0.227757974379355,0.157806307407356],[-0.307093302966803,-0.351098241479586,-0.112445416095793,0.10833123636544,0.16015795343147,0.122922699380095,0.299759095002949,0.0907571108521893,0.211476235704063,0.0185216484389635,-0.316841778113981,-0.114442582947144,0.304675240515104,-0.129434533686637],[0.0414199714102696,-0.267435502481125,0.332970609819344,0.00933422337841694,-0.069214643386003,0.265690344967069,-0.202335637129407,-0.209003293286906,0.176372549246531,0.179737776098361,-0.334971005798854,0.196811615033726,-0.225956455296695,0.285582356915059],[0.0493836568290216,0.0340703471092687,0.0474423273680194,-0.160858575963884,0.213478548443332,0.220841736683331,0.144004199499829,-0.145748361934963,-0.160779748189072,-0.261121692092925,-0.172872745296188,0.0190455584592532,-0.155472178838828,-0.235087669088711],[0.269984677301262,0.231166911008026,0.0763299091464034,0.304398841741674,-0.00346886869126391,-0.32809034505012,-0.00798985202652366,0.0568494449224482,0.101054246665897,-0.23694270228011,0.201884687632192,0.360329213342959,0.0774141787070948,0.115090784191304],[-0.0664824926972253,-0.0574937263403051,-0.232908399781451,0.168092761214869,-0.245112340529488,-0.337113610256371,0.167588734255464,-0.0559737226001386,0.266813971523969,-0.0434740935407093,-0.254859236872516,-0.550242103473732,0.109868529894389,0.35243479217111],[-0.087814229936454,-0.104211758489025,-0.310105762701065,0.164394751086704,0.141004451298747,-0.0410768171604721,-0.313559841573339,-0.342556864254784,-0.0270742986713277,0.10770240545596,-0.291802286505361,0.0161736426109718,0.118845436104884,0.00302792642055388],[0.288148908846485,0.0162380328611074,-0.281880346134874,-0.109419783164295,0.319167206916573,-0.390616261887101,-0.179664157127027,-0.35046255241001,0.165417732130093,0.331393873643114,0.198249355802182,0.606224520939544,-0.0240378897314007,0.0906556241931971]],[[-0.221289193996428,0.212434562214194,-0.224215196575191,-0.176979234952293,0.0561238650122391,-0.10259763399563,0.0495201198420572,-0.0519204122668913,0.219201673008499,0.156826069355654,0.190534496721769,0.256688947017821,-0.301608173845036,-0.115829062863586,0.175346855330626,-0.266308418202688,-0.123242547015568,0.150660219823767,-0.191875932476468,0.00989985553455689,-0.016459805484994,0.123270251551886,0.276267371000776,-0.14835132929991],[0.19299367988221,0.147878237337699,-0.101631248120777,-0.323908041050336,-0.0524601341657187,-0.161569532608848,0.289092107465455,-0.0487267733448504,-0.143001546264624,-0.0105759241934115,-0.178365026020524,-0.204816090032071,0.518614680372436,-0.281785172855311,-0.0924962284878875,-0.0776801510578285,0.155926040770965,-0.183206898463028,0.236702793910814,-0.285934689701073,0.0536576391240492,-0.300930992738746,-0.0265904941647201,0.514067528574165],[0.000124457951148061,0.30689248058025,-0.221920340508407,-0.24410304910052,-0.123978179606869,-0.19764413630284,-0.0120277332580789,0.023712497360062,0.170812871070248,0.179488840479525,0.26781884653005,0.0209342872175475,0.386044508726954,0.15367446834282,-0.265986232620188,-0.251987901267799,0.270275172765494,-0.269582575952939,0.26571935600151,0.134193343390173,0.209972766792809,-0.385198213359682,0.0326406592828803,0.0121830656031231],[-0.168485725793301,0.141605058128496,-0.0806123963878189,-0.243262865363476,-0.193942195244996,0.282023035560474,0.192027899305698,-0.209079241294622,0.194518580006744,-0.0235062428010252,0.0876442761197696,0.126277872570543,-0.0953384226478114,0.0573319542634349,-0.24624340302126,0.0958248287570666,-0.16364093018265,-0.192119765089313,0.148680664907148,-0.163595076007718,-0.232315091941392,0.0433910226851165,-0.0754122589392161,-0.0287597292180136],[-0.127803804088087,-0.0283790679073136,0.14732610020843,-0.37306402852046,0.0861988342833026,0.110348411390684,0.455616851481178,-0.107628264055269,0.243363693043089,-0.120939235169616,0.199763561236138,-0.244719855146016,0.569146771854547,-0.136613643354912,-0.189657290684504,-0.138757071997304,-0.039369350269896,0.013578998827445,0.0588713383501595,-0.119599465055543,0.385793939441341,-0.416683390300921,0.173265175994119,0.423111094318744],[0.0956825719342744,0.233496255945201,-0.129279433065717,-0.258539112219739,0.104433060507127,-0.0705366779403534,-0.171768609438579,-0.0160134104167758,-0.209282158210544,0.206577622618714,-0.290457385483715,0.284682788268295,-0.0708179252078735,0.244915947413314,0.166203645876951,0.148924747392891,0.0895847979792074,0.25071434556513,-0.123051924707227,-0.226635815877337,-0.22905493829892,-0.111451100187069,0.256566078398522,0.179960287450668],[-0.0431159776610656,-0.172008360284281,0.0786260437151061,0.209735374690153,-0.0572395186190902,-0.0786652841220973,-0.160999432603264,-0.163849344613368,-0.19012874800111,-0.14408339880456,-0.104801017704291,-0.088779752975917,0.188270113263619,0.181132556864457,0.14154889718253,-0.0450284099667939,-0.0344177853985771,0.207091016500233,-0.138620962373439,-0.0353389633326786,-0.155668147452786,-0.0558632524236186,-0.0869442819649467,-0.139204344642456],[-0.0518778843240325,-0.157483212800382,0.265934975257884,0.132372204204173,-0.022922157760718,0.119632376116637,0.226420331544914,0.127577381931747,-0.00862423970193829,0.183182346563665,0.232140315471177,0.23586626094527,-0.0645425420091305,-0.0099874187102336,0.304937628221064,0.25776485293262,-0.258376456145391,-0.161889877731016,0.252921572089618,-0.108389137433462,0.194793793203099,-0.0981956779853682,-0.0835402016233808,-0.224185399899597],[-0.248527392462772,0.174111814006351,0.0424274508827892,0.208604677728947,0.324128645504809,-0.0410571676932672,-0.231327956369914,-0.259751127126241,-0.210189576637782,-0.119199284664604,-0.0514683153054979,-0.161578710786438,0.0718920686039795,-0.228733045967992,-0.12689807411504,0.0352501682846179,-0.0896966487708828,-0.011997449115351,0.310603449060853,0.255746060234967,-0.0947258785557002,-0.148603060606063,0.058189416843994,-0.215722193993423],[0.166397108352384,0.0292037504168277,0.139197856965853,0.0832174014729398,0.19098682316893,-0.0238856646706762,-0.121358956453334,0.0749099575095734,-0.217011936565859,-0.0110043239480959,-0.251379435620544,-0.248925619493434,-0.131600133361275,0.0301099387226758,-0.207525962428405,-0.0479558581626655,-0.107247216174547,0.173229418425997,-0.0405769599152286,-0.21246075368517,0.0577521835115258,-0.261820613333579,0.272587948092048,0.105069688883643],[0.0803054386151241,-0.125542182585419,0.243542027916088,0.0550837417993721,0.132953845668572,-0.0470851544086692,-0.132525710444616,-0.255443816588862,0.254585209314689,-0.180687567736571,0.212275894521966,0.202169469275939,0.122266945368782,0.131681641133849,-0.0185973607493931,-0.120324189984511,-0.210325642442777,0.0603037949789618,0.273929418685413,0.0326984600390276,0.15280627445174,-0.210713791575571,-0.0338706474010916,-0.172100864365681],[0.0389472130485705,0.0521300837698956,-0.196863741489676,-0.190179799081166,-0.147509245157105,0.102311947528154,0.0168906305675613,0.242185451933803,-0.0591575998954062,-0.12879196851038,-0.0722807071617872,0.182169934954504,0.0739350593186872,-0.176378237133655,-0.22972638689698,-0.0591980274345751,0.0318414816138988,-0.109717290373571,0.0901731192166597,-0.22968873657284,-0.126225565536558,-0.273011716017711,-0.215407998790773,-0.0786067445541163],[-0.125454126686055,0.117920991663159,-0.228300538440731,-0.26201927996822,0.153225487634149,0.108330783694556,-0.281731826758233,0.225430916533015,-0.220051161164019,-0.139115826505642,-0.120065777936996,-0.0240345889275633,0.221721003323328,0.119858582150094,-0.248003649956641,0.0241745969641975,0.00159215290105676,-0.196152388354218,-0.114623835153738,0.13001053300175,-0.059324805555751,-0.242137999025127,-0.0380140897504746,0.23207917275054],[-0.194775836835996,-0.276994652058574,-0.0712649834841429,0.23486809619087,-0.0259456397557875,0.242540421834917,-0.258467467628676,0.00203088821132737,-0.0300554162689496,-0.060403876024648,-0.246848662847518,-0.0443318577287531,0.0721441185923558,-0.163047992996779,0.167396255458811,0.142655702905558,-0.119068299680548,-0.273496767554411,0.207388527889492,0.0435576469874089,0.141754000975345,-0.230262455375806,-0.26467896216578,-0.194412217621581],[0.236457117898509,-0.0582867052780391,0.150146156517744,-0.0581901156925634,0.0381427408048254,0.022643847430753,-0.00795357725298706,-0.202913984540516,0.0181481128251048,-0.255862459286753,0.248740982961017,-0.275157172801393,0.294868661622813,0.176703226028827,0.116709761747231,0.165328457453717,0.035567354895371,0.0900034285759747,-0.232486359433386,-0.0000477920140911697,0.187212365040169,0.140674472703011,0.129838615964131,0.203517545402145],[0.147851845597331,-0.127335931452163,-0.186105016309771,-0.148554325646174,-0.0177671210280422,0.186823481929216,-0.183736438731017,-0.0970121141391929,-0.241455769309963,0.238968472649325,-0.261792213617025,-0.284378179715804,0.0963924498565451,-0.0978314241529952,-0.217111997534544,-0.28534267471165,0.124970558646616,0.138463874722729,0.0605615722817775,0.0899181859108561,-0.0839072770441478,-0.184077495521624,-0.191669479860178,-0.142052688207587]],[[-0.212518067273547,-0.289964411726145,-0.501105041676043,-0.000775000421493781,-0.377894274499607,0.052566837434343,-0.290613066811727,0.276262706233598,-0.296531558263307,0.31202158516145,-0.30786874658044,0.00398353487021748,-0.289553397213284,-0.290446669802998,-0.17092576296942,0.304726205252608],[0.177919513710425,-0.549761671562941,0.153084468992457,-0.0918010508520209,-0.536013006193293,-0.227983256980203,0.0298865874154451,0.207419936410013,-0.301993595348833,0.220823353066466,-0.288317443457179,0.116536319628974,-0.258021117044065,-0.209954219978387,-0.105881393112469,-0.133573574523239],[-0.276683562252129,0.640014176996499,0.433153251884283,0.113049038860693,0.131414609188298,0.00594364237826246,0.159871790426886,-0.0652417736835807,0.268655348476191,-0.147897446830002,0.188078966664769,0.246468842945116,-0.261963492216659,0.320644320420692,0.337430156495686,0.100200049225337],[0.332607336977313,-0.243284752326161,-0.456228386007383,0.133540652699862,-0.578234420793475,0.317245311831539,0.247229135987355,0.00470485359596559,-0.125707047933731,0.0287904608933393,-0.0802570161792108,-0.0673674517776498,0.269179008196735,0.246191543370063,-0.203095142185797,0.166728942617733],[-0.0168928911192408,0.516280743492237,0.245581194591955,0.3037596293491,0.605025501184368,0.215129089294281,-0.254163855603874,0.0754700272550704,0.01580103803113,0.148817855606348,0.223507406651674,-0.211422450277876,0.160845951686073,-0.141289286645363,-0.068709836056601,-0.1267777316517]]]}